-0.002861558
-0.004310883
0.04143046
0.014286387
0.058305476
0.0046919356
0.010600794
-0.01220553
0.038836855
-0.0040066093
0.017281663
-0.012470494
0.0052279783
-0.029020565
-0.057443105
-0.030916996
-0.018359257
-0.0078325495
-0.030899853
-0.03433726
0.007343333
0.015851295
0.011792644
0.01860465
0.010406218
-0.009879784
-0.023600573
0.0032594043
-0.004875617
-0.034344286
-0.012020669
0.0050459853
-0.013020478
0.019646049
0.04664994
0.022370383
-0.0065964363
0.048315473
-0.011535061
0.008997275
0.019430717
0.013547572
0.04281741
-0.02367401
0.05734373
0.040898487
-0.027612003
0.016430663
0.04923475
0.0017993443
0.04007575
-0.036542155
0.005661223
-0.021602115
0.026810506
-0.014543805
0.00547316
0.009838319
-0.027454361
0.00032309414
-0.025483621
-0.045280773
0.012038754
-0.009634686
-0.001213103
-0.02355326
0.05294024
-0.015637148
0.025633246
0.03412126
0.020448612
-0.019301638
-0.038825292
-0.020206388
0.03459906
0.023112627
-0.021082947
0.0063576936
-0.008589338
-0.01996895
0.006607989
-0.0017559796
-0.031022117
0.0033192432
-0.020106828
0.06200253
0.002177856
0.039064195
-0.013943358
-0.0053627472
0.044895586
0.06371069
-0.0035115886
-0.009127302
-0.028019022
-0.022404714
0.017143115
0.0169993
-0.03782884
-0.021825602
0.027408281
0.010751751
0.016102904
0.014440553
0.007257682
-0.0032976784
0.0374428
-0.007564
-0.014190212
-0.023979802
0.034990396
0.0034066613
0.03605953
0.03291385
-0.001350854
0.034609813
-0.007638523
-0.033567876
-0.02842432
-0.005866177
-0.0022021476
0.013233865
0.038959358
-0.005596612
0.021663405
-0.007804779
-0.030346835
0.014865602
0.017114865
-0.013589002
-0.048782963
0.01699066
0.03497141
0.023899447
0.007150924
-0.024284208
-0.02462694
-0.007808036
0.045565717
-0.0040791985
0.012706137
-0.010577832
0.02050123
-0.009996212
0.007669256
-0.030584458
0.018000633
0.021324165
0.020051835
-0.041474696
-0.019645425
-0.015630448
0.00038142464
0.0030841902
-0.018383281
-0.034094114
-0.004891877
0.021463703
0.0070836195
0.0008540958
-0.038626008
0.03438589
-0.039515026
0.007870778
0.007355952
0.015724527
-0.011364451
-0.047057174
-0.015043659
0.021467658
-0.033145767
0.008248584
0.0115855895
-0.0011773948
-0.038018998
-0.028561115
-0.0029016258
-0.01421521
0.05095059
-0.017582616
0.00040790281
0.008439738
-0.0017821764
0.028590648
0.027829695
0.022854945
-0.031544417
-0.0048140073
0.013990324
-0.011655199
0.01711166
0.003925218
0.0038989617
-0.03004668
-0.013613374
0.003965841
0.015989758
-0.03188232
-0.04128615
0.03893996
-0.000924572
-0.031607818
-0.03599676
-0.0019287504
0.04469846
-0.039751504
-0.001880688
0.005846428
0.014416261
0.04388753
-0.0025815973
-0.037158065
-0.035139367
0.0201556
-0.02617169
0.0071825325
-0.015141585
0.0004725013
-0.033601403
-0.0028872304
-0.033853162
-0.034140658
0.01053709
-0.004297664
0.0011004835
0.010193104
0.0029765004
0.015624945
-0.06379178
-0.0057021077
0.0028550243
0.051794086
-0.013493436
-0.020585729
0.0065316497
0.017415395
0.0329808
0.016930511
-0.03324534
0.04971321
0.018958896
0.02660217
0.020782875
-0.026518535
0.0009726668
0.0056143175
-0.010595984
0.013410634
-0.005396186
0.02638986
-0.0005851536
0.024536163
0.0073718023
0.037792563
-0.050463542
0.0021829284
0.01110375
0.011382425
-0.03150343
-0.021582386
0.016499868
-0.013814616
0.056820977
-0.03019968
-0.010977824
0.037142795
0.01344767
-0.0013649367
-0.019825041
0.02023458
0.00819789
0.008414645
0.010241576
-0.031764045
0.027786871
0.0039443495
0.035462216
0.043591425
-0.05805061
-0.0059090317
-0.019171068
0.019543605
-0.0231518
0.010949257
0.017941976
0.02654085
0.052176394
-0.004746181
0.011840491
0.008681942
-0.0027101694
-0.02253152
0.0069455276
0.00998256
-0.039761595
-0.006264359
0.015445224
-0.0067645945
0.0045878114
0.019074326
-0.02771667
0.003671838
0.019668372
-0.003963688
-0.005397734
0.025069917
0.065261856
-0.029865233
0.04127553
0.044373155
-0.029023075
-0.029197745
-0.012778542
0.0020071361
0.026728483
-0.027816782
-0.034582406
-0.00470907
-0.009820015
-0.017549783
0.047088344
0.0011931515
0.010486484
-0.029419307
0.020138865
-0.022025097
-0.017955076
0.014747174
0.015559874
-0.0005550389
0.020823635
0.0259825
0.047514208
-0.004845425
-0.0035381077
-0.023618046
0.02413294
-0.045659605
0.015314742
0.0010226766
0.033622064
-0.028449798
0.023766968
-0.02316162
-0.023698388
-0.009850358
-0.014324822
-0.0043682386
-0.016486064
-0.039038982
0.012272146
-0.010842655
0.017178593
0.024318242
-0.020804964
0.0036631748
0.014810743
-0.018272987
-0.017851919
0.022812393
-0.007579377
-0.013794137
-0.019255402
-0.004283305
-0.027167592
-0.012773695
0.025918778
0.028228845
0.030747095
-0.022739332
-0.042523973
-0.019520503
0.03961395
0.007763071
0.03172082
-0.0086578345
0.043641172
0.020144464
0.018713582
0.050504353
0.017111517
0.027697174
-0.0051649287
-0.008816442
0.011318012
0.003916134
0.029758701
-0.022060378
0.0100353435
-0.033761173
-0.03546319
0.021301484
0.00306397
0.006034284
-0.023521112
-0.0031490268
0.027834184
0.013445571
0.020740427
0.0169593
-0.026483623
-0.011074186
-0.008226945
0.004921477
0.001504573
0.002478378
0.04052927
0.017052595
0.021502223
0.045588683
-0.0029181025
0.012634277
-0.033266325
-0.00526919
-0.015171113
-0.038432717
-0.059567895
-0.0366812
-0.011501693
0.026446013
0.014031913
-0.024715455
-0.0067474027
-0.022502847
0.03390148
0.024734735
-0.0075313095
-0.02885343
0.033571437
-0.018372891
0.039971784
0.027500257
0.02811269
0.021608388
-0.031305075
0.06385042
-0.036237214
-0.044417094
0.016054437
-0.022750905
0.014257549
0.0009708843
0.02400342
0.05935198
0.011449287
-0.012742116
0.03851739
0.018567845
-0.007395148
0.018553816
0.012348131
0.008943887
0.026645977
0.019320264
-0.0061698076
0.03328287
-0.032702725
0.005513025
0.003319262
-0.002600847
0.018794069
0.0042321268
-0.0599393
0.010531524
0.008964648
0.053675126
-0.016515018
-0.025528856
0.020734746
0.032586385
-0.009412685
0.0059427544
-0.03796997
0.039592862
-0.008636271
0.0064594224
-0.0038867733
-0.040468242
0.035068195
-0.01166234
0.0032848835
-0.022820435
0.024022944
0.029204438
0.03386864
0.080473214
-0.014193974
-0.010442478
0.024572112
0.014870582
0.027299523
0.0450394
0.015110721
-0.031247824
-0.018165711
0.00037811123
0.0068236254
-0.03323075
0.034366254
-0.027023088
