-0.16416062
-0.094296925
-0.23347762
-0.2244911
-0.28706565
0.12924394
-0.17944372
-0.04289476
0.020890523
-0.058129385
0.21636203
0.15420948
0.21030663
0.21686156
-0.016585195
0.12634751
0.00078404474
0.14306018
-0.027027419
0.1274912
0.021827158
-0.061052248
-0.077736855
0.07416151
0.19214141
0.060398396
-0.042809233
-0.018322084
0.09123704
-0.21423934
0.07928212
-0.03342377
0.18002634
-0.031559907
-0.07512419
0.076780096
0.14609952
0.051554766
0.28036132
-0.24775499
-0.06714755
-0.2578185
0.054938864
0.16908105
-0.079754636
0.029384052
-0.12090636
-0.19856523
0.21164277
0.16360545
0.14948757
0.23983654
0.18650007
0.22819367
0.26505542
-0.0057346853
-0.11518949
-0.03222356
0.040695712
0.02542149
-0.010978369
0.07723656
0.03799328
-0.21806389
-0.10820901
-0.105545186
0.025826532
-0.16746084
-0.16519487
-0.0519255
-0.10754944
-0.14633891
-0.19505042
0.18130562
0.11903373
-0.30454403
-0.36702836
-0.14164197
-0.050942145
-0.26281258
-0.18717451
-0.18525854
-0.3908377
-0.2878443
-0.25333813
0.20176557
0.052906442
-0.1391077
-0.10776716
0.111630134
0.055260405
0.10190994
-0.041830525
0.030654613
0.20663795
-0.10722079
0.032049593
0.22365625
0.2575972
0.13721804
0.08675685
0.1334917
-0.07729086
-0.14141868
0.13983203
0.2711286
0.13096622
-0.21763274
-0.33540323
-0.25570586
0.08077502
0.004099683
-0.10806466
-0.08298304
0.16830507
0.25707802
0.10319689
-0.018246837
0.117272444
-0.01113637
-0.15459801
0.15478835
0.25562593
-0.12189648
-0.05862729
0.0095034335
-0.25244313
-0.271522
0.06817182
-0.12559682
0.18583737
0.07029036
0.023477564
-0.18579671
-0.05634376
0.21231405
0.21710455
-0.008440963
0.018417576
0.1839294
-0.19386728
0.19535851
-0.007646097
-0.020783622
0.10588027
-0.22540396
-0.025059644
0.22383279
0.09408952
-0.09892874
-0.0910804
0.13365622
0.07887274
0.14766099
-0.1280408
0.06399566
0.067744516
0.10279379
0.26183096
0.12528865
0.1361696
0.08492947
0.11481568
0.013689427
-0.20832986
-0.24942094
-0.19814411
-0.13276716
0.13389142
0.0849882
-0.18647404
-0.2250533
0.1842443
0.18113036
0.1221363
0.2456274
-0.10194105
-0.25536865
-0.26787946
-0.1286834
-0.10814154
0.22084048
-0.03037649
-0.024590774
-0.24676543
-0.01692815
0.030247513
-0.04078976
0.19079275
-0.13114493
0.08858878
-0.11345167
0.024126254
0.040174466
0.16501293
0.21409835
0.14761432
0.03875478
0.010452046
0.23154502
-0.055123284
0.17202264
-0.041894548
0.21477899
0.26898906
0.19818518
0.20519246
0.15221359
-0.06837183
0.017639061
0.082024775
-0.038712054
0.031820055
0.087103724
-0.2215969
-0.2461158
-0.20581299
-0.037603755
-0.08509025
0.010371395
-0.116186865
-0.19678074
-0.007240525
0.11100882
-0.12581274
0.28312388
0.17185937
0.30150527
-0.0852516
-0.1251182
0.15963292
-0.047014188
-0.0007562588
0.23758629
0.2123219
-0.17540145
0.21910639
0.08823067
0.2478197
0.029392345
-0.31420794
-0.28998098
-0.17285214
-0.25504458
0.06954068
-0.0644209
-0.15861508
-0.18876228
-0.12630492
-0.15909988
0.09009314
-0.050012678
0.20491977
0.23873842
-0.064224586
0.036212552
0.15579517
-0.020894872
-0.2535072
-0.021237006
0.043319054
-0.21417555
-0.32343578
-0.17526747
0.007217911
-0.20597537
-0.13621846
-0.16963345
-0.06739654
0.06097532
-0.023233594
0.22767872
0.1783375
0.29189387
0.22758602
-0.014820768
-0.11014684
0.10467708
-0.016673971
0.12938681
-0.03138964
0.21743491
0.08069261
-0.022174498
-0.18702188
0.13529445
0.029825639
0.1071884
0.11584764
-0.06885117
-0.19242008
-0.111529976
0.0049427683
0.18771672
-0.0030220796
-0.1332314
-0.07175029
0.022085253
0.21069793
0.18885024
-0.04834905
0.035180457
0.2021676
0.09656588
-0.028402114
0.08620796
0.10793624
-0.024005448
0.08903391
-0.0146441385
-0.10157605
0.008759728
0.20998836
0.05435525
-0.2200815
0.10112934
0.07592766
0.12357279
0.00440427
0.067581594
0.037707333
0.18473135
0.10623876
-0.09038266
0.10740439
-0.020265589
0.13401665
-0.10220107
-0.1275214
0.17146891
-0.03752431
0.041413296
0.029003821
0.008680303
0.010295176
-0.21171315
0.24358097
0.25814804
-0.10388288
0.055644587
0.21313044
0.095572785
0.10833113
0.1656662
0.10379317
-0.046022583
-0.2306334
-0.19327311
-0.18768565
-0.020054528
-0.12633975
0.19216497
0.12908874
-0.04807599
-0.117785096
0.11188434
0.035290435
0.092245884
-0.035398114
-0.05747275
0.073647164
0.09367521
-0.0069738515
-0.013318968
-0.24116574
0.11630939
0.03945187
-0.20070505
-0.093465805
-0.06498169
0.2661638
0.2420436
0.19762579
-0.27526054
-0.27424082
0.033867203
0.11524419
0.13486204
-0.09406588
0.16846515
-0.16702417
0.13771832
0.027809229
-0.009713765
0.14236346
0.20132834
0.18305361
0.18693177
-0.0094639985
-0.23675425
0.102915734
0.24639644
0.08946883
-0.29889125
-0.22720587
0.118901215
0.006978529
-0.11598849
-0.328879
-0.15523675
-0.05379875
-0.25817508
0.039558377
0.10518567
0.10537333
0.12726365
-0.076696314
0.13604395
0.07632343
-0.069918066
0.019071208
0.23096879
0.03713622
-0.03717985
-0.024705635
-0.12480807
-0.11122714
-0.026453478
0.10614807
-0.060120072
-0.085177846
0.09662033
0.12086103
-0.04427048
-0.09479324
0.061016105
-0.074744195
0.20392355
-0.00850033
-0.01990012
0.28776845
-0.00493084
0.092048064
0.30302984
0.04292798
0.044016898
0.31646347
0.09882654
0.22966431
0.24178198
-0.061414354
-0.26968342
-0.12042746
-0.17815903
-0.18478326
-0.21865793
-0.21308039
-0.39257982
-0.35527107
-0.07982813
-0.070993386
0.0055753663
0.029822169
0.26085708
0.07214051
-0.20795679
-0.1979579
-0.18826212
0.055921037
0.12901168
-0.0680078
-0.081576005
0.017118264
0.11249065
0.09276182
-0.22153808
-0.06362047
0.0019054218
0.02904427
0.2516822
-0.28884223
-0.008136823
-0.09905583
0.18312103
0.23046969
0.14369176
0.08168943
-0.12509482
-0.12283918
-0.16375247
0.0032951396
-0.13116972
0.005976021
-0.0014460958
-0.15289088
-0.08318878
-0.16461438
-0.15186882
-0.16041094
0.13011162
-0.1477255
0.12449367
0.2324374
-0.09061463
-0.12402359
0.16731486
0.19189203
0.15044129
0.22689003
0.20342974
