-0.15642805
-0.08220793
-0.21014097
-0.19585977
-0.25742418
0.13329372
-0.16413976
-0.017600171
0.043759774
-0.047935877
0.211286
0.14212394
0.20685501
0.21049094
-0.028764261
0.12665528
-0.008937743
0.13579428
-0.03574591
0.12826172
0.029372208
-0.05705074
-0.07248616
0.08244996
0.20171846
0.06659376
-0.044297706
-0.01897762
0.09055312
-0.22705893
0.07960218
-0.039789606
0.17109042
-0.029566059
-0.07912372
0.07840767
0.14260487
0.052531466
0.28682247
-0.24722044
-0.06458926
-0.25703913
0.06000712
0.17348933
-0.077019535
0.019370424
-0.11936014
-0.19763169
0.21303847
0.16039859
0.1525723
0.23086461
0.16891189
0.21265024
0.25901756
-0.0034175662
-0.11678599
-0.041825946
0.033378646
0.024464693
-0.010994066
0.08105541
0.043411363
-0.20445016
-0.101090014
-0.109054536
0.03138973
-0.15861735
-0.15580702
-0.047805604
-0.108436614
-0.13934274
-0.19969516
0.1797065
0.12309693
-0.31138903
-0.3432931
-0.1479505
-0.09351263
-0.29137844
-0.18858144
-0.1678474
-0.37426704
-0.269381
-0.24266915
0.19230767
0.05251876
-0.11800408
-0.072719656
0.12048809
0.048681255
0.08652307
-0.050278135
0.024250833
0.20329465
-0.106657974
0.014790112
0.2115788
0.2526033
0.14180785
0.09138511
0.13488689
-0.07533215
-0.14849825
0.146108
0.26855817
0.1306365
-0.22502495
-0.33756334
-0.2334186
0.06867824
-0.018348344
-0.117991455
-0.08108286
0.17578664
0.23169577
0.07974143
-0.02363764
0.10808264
-0.0142739415
-0.16544496
0.14687838
0.2571882
-0.12113337
-0.057754517
0.010890488
-0.24920025
-0.27903095
0.056380942
-0.12635848
0.18889785
0.070239544
0.022943202
-0.17611712
-0.054448158
0.21487676
0.21713017
-0.0025655627
0.030561335
0.18362097
-0.18053405
0.19799581
-0.0056611924
-0.01511277
0.10463885
-0.21137439
-0.021325724
0.22315413
0.09013776
-0.104805104
-0.10110929
0.13275675
0.08376357
0.1503115
-0.13209261
0.06632312
0.06939184
0.097073905
0.25309417
0.12759651
0.14659597
0.092376135
0.121165805
0.02398948
-0.19375008
-0.23519327
-0.18866713
-0.12386114
0.13646854
0.084839314
-0.18804537
-0.23862505
0.17890683
0.17961738
0.1295267
0.2558721
-0.097495
-0.2598849
-0.29437882
-0.14603429
-0.094813325
0.25235865
0.009764758
-0.023615677
-0.27729988
-0.029386993
0.046628065
-0.008347023
0.21245503
-0.13275586
0.060811408
-0.11583927
0.030311042
0.043155096
0.1703682
0.17429385
0.12472968
0.022669792
0.012930421
0.23329917
-0.062455233
0.17541884
-0.04455033
0.20932391
0.2639495
0.18948428
0.20589839
0.15035146
-0.06705343
0.022849582
0.088661194
-0.01973435
0.051259566
0.10468873
-0.20873831
-0.24004675
-0.19023348
-0.026739992
-0.070138566
0.018254623
-0.13237874
-0.21523353
-0.023008503
0.10421337
-0.12151531
0.27106172
0.15719102
0.29639944
-0.090827614
-0.12868671
0.14981553
-0.06105061
-0.009117379
0.22685191
0.20940515
-0.17351048
0.22389081
0.09609521
0.25375426
0.030686477
-0.29925075
-0.2766503
-0.15813488
-0.24429254
0.07299425
-0.06550293
-0.15869406
-0.17663434
-0.10224978
-0.1615095
0.107060455
-0.03443893
0.2326817
0.2714456
-0.03470696
0.042309593
0.15603188
0.0009689685
-0.22112693
0.0042621354
0.048992403
-0.20468518
-0.30993682
-0.17359479
-0.01002349
-0.18318602
-0.12642379
-0.16371399
-0.085831776
0.033401683
-0.040772717
0.2149452
0.16022895
0.26660785
0.22391813
-0.009211357
-0.11106359
0.102521956
-0.023058329
0.12580457
-0.021288583
0.21807499
0.07970379
-0.026527008
-0.1832909
0.15796675
0.036741175
0.109168276
0.11438055
-0.07035741
-0.16121873
-0.10469471
0.008769005
0.18414353
-0.0039496934
-0.13240688
-0.066622354
0.022725135
0.20565124
0.18669924
-0.03952148
0.035359234
0.20379089
0.09847016
-0.018661017
0.10503728
0.11003369
-0.022503784
0.09286937
0.0105144875
-0.07899875
0.012007376
0.20950802
0.063015744
-0.1829246
0.1173546
0.074226834
0.1260105
0.016935041
0.09155326
0.04960133
0.18902597
0.11473965
-0.07747382
0.10932049
-0.03993653
0.11527163
-0.10164341
-0.10073591
0.1819113
-0.035026923
0.03394091
0.033962913
0.021552881
0.015744274
-0.18669091
0.24649498
0.250088
-0.1080931
0.062335074
0.21872135
0.09492466
0.09998629
0.1517642
0.099171646
-0.038233764
-0.22872078
-0.19585973
-0.1958806
-0.019709744
-0.10464737
0.1947889
0.10380879
-0.076400936
-0.1432352
0.11580373
0.026126768
0.07540491
-0.051305465
-0.09213856
0.0856313
0.082212664
-0.034924008
-0.04823245
-0.28244683
0.1268589
0.027920809
-0.22102654
-0.0996374
-0.071155585
0.26674387
0.26077488
0.23962133
-0.21380323
-0.22555737
0.047459994
0.119730175
0.12671469
-0.10304327
0.1780833
-0.15467474
0.12847091
0.008335723
-0.018189374
0.16150907
0.2071521
0.16625024
0.16477743
-0.006184535
-0.21663684
0.09914571
0.23430422
0.08800676
-0.2922902
-0.21284059
0.112810366
0.00081710704
-0.11001325
-0.32919213
-0.14228371
-0.04987109
-0.2688453
0.038675163
0.107449114
0.10239542
0.12629707
-0.089510456
0.12807344
0.0726767
-0.06480949
0.017815733
0.22456153
0.02982765
-0.035363603
-0.011814544
-0.114016384
-0.11429811
-0.028915942
0.10434536
-0.04725775
-0.089283876
0.07878518
0.118784815
-0.050731163
-0.101044744
0.06986689
-0.07813726
0.191922
-0.014424759
-0.0128780585
0.27637345
-0.03007455
0.07116144
0.28725335
0.038858924
0.005082355
0.2836147
0.09421823
0.22948678
0.2400247
-0.108868524
-0.28254747
-0.111161016
-0.16702001
-0.195855
-0.24117747
-0.19048028
-0.399828
-0.35010114
-0.085619584
-0.064880215
0.0022492483
0.022655724
0.2524421
0.06601073
-0.22149846
-0.19423339
-0.18675406
0.047099743
0.1166138
-0.056336574
-0.06349767
0.03245922
0.103935115
0.08027629
-0.19947258
-0.04137072
0.01313364
0.020438394
0.23609385
-0.27819896
0.007101634
-0.09555878
0.17411727
0.22553606
0.15615839
0.10396984
-0.1351367
-0.16119075
-0.16896106
0.015625479
-0.09146206
0.016080668
0.005763733
-0.1329197
-0.10504729
-0.15300743
-0.13588427
-0.12357512
0.15728104
-0.18443859
0.09970934
0.22839107
-0.08665781
-0.12273667
0.15610562
0.18397687
0.15030424
0.22208714
0.18740077
