-0.03657118
-0.039575946
0.020818882
-0.0077682114
-0.07641582
0.004245192
0.0867483
0.13763072
0.081815094
0.0046947557
-0.03751147
-0.04351159
0.018901119
0.0043982994
0.07437954
-0.03897952
-0.07891605
-0.1256464
-0.15766655
0.010893303
0.012661324
0.014507083
-0.10700152
-0.15149051
-0.09979063
0.006424975
0.08743629
0.03724356
-0.041454688
-0.04647291
-0.013803652
0.01700453
0.105102636
0.005449773
0.002791393
-0.048106167
-0.0022972117
0.06711827
0.10605559
-0.018624993
0.026836388
-0.08162605
-0.0021009087
0.006441396
0.037294168
0.032956645
-0.091985956
0.013542142
0.0051675313
0.04081563
0.06862288
-0.0650607
-0.039643403
-0.027798101
-0.070249505
-0.03268318
-0.033089917
-0.015508168
-0.16881025
-0.06303668
0.09388914
0.11931013
0.0016032401
-0.15736808
-0.03464795
0.09309622
0.058637228
0.015207282
-0.095081046
-0.017591069
0.016594829
-0.02482456
-0.06599595
0.020422174
-0.023427628
-0.029923242
-0.004964747
0.0047464473
-0.025242716
-0.1338351
0.011552786
-0.021777697
0.07062115
0.0930477
-0.038367838
-0.048211265
-0.17480668
-0.121294245
0.013453696
-0.005114584
-0.040826984
-0.09334449
-0.101119846
-0.109109074
-0.07350508
0.002516804
0.023058645
-0.06151312
-0.1318445
-0.060921907
-0.030013416
0.005655802
0.02370556
-0.082546756
-0.15532629
0.07419243
-0.016488755
0.03581243
0.028571844
-0.033038393
0.0042734947
0.05191118
-0.035124328
0.045519225
0.10529087
0.07076257
0.048928138
-0.09695822
-0.01742187
0.073387474
0.03902493
-0.06430108
-0.16116886
-0.04226801
0.059037708
0.005999123
-0.001214357
0.0014759914
-0.021714365
-0.016885819
0.029094137
0.0048674922
0.07680267
0.10306803
-0.052782785
-0.035789493
-0.0847419
0.020901121
0.04324553
0.032853376
-0.055103417
0.04035375
-0.07746691
-0.049410224
0.027394842
0.06602471
0.04351144
-0.021358522
-0.06531096
-0.010403341
0.10003738
0.05174331
-0.041321613
-0.06267411
-0.0322903
0.05297453
-0.01530597
0.03107146
0.041292485
-0.10638114
-0.068668626
0.053882048
0.07455901
0.062249
-0.057986297
0.034863036
-0.04251448
0.06489364
0.047009706
-0.030919569
-0.042495802
-0.05561738
-0.02291807
0.081795864
-0.0385629
0.008019796
0.00080800365
0.042974226
0.014293103
-0.059078246
0.021914843
0.11389116
0.08301651
0.015762182
-0.037877176
-0.028961198
-0.018081892
0.083212934
0.045583237
0.08037225
-0.0865497
-0.057675578
-0.031498443
-0.004635882
0.08998842
-0.05113756
-0.07562677
-0.11108966
-0.08557859
0.04519669
0.03891843
0.009463919
-0.027493866
0.009192832
0.0010243154
-0.028806746
-0.050752096
0.020156858
0.004558328
-0.079476185
-0.011138035
0.044203207
0.031921905
0.06112115
-0.108995534
0.030141158
-0.00764287
-0.002690292
-0.014560031
-0.09516096
-0.01446333
-0.020175217
0.07618685
0.03479778
0.00052249845
0.09110418
0.009731735
-0.14009671
0.041356403
0.060331166
0.024911737
0.0006908833
-0.019557154
-0.07759968
-0.060592744
-0.035284195
0.011028805
0.019494846
-0.096930444
-0.12605047
0.033422764
-0.08876482
-0.14903508
-0.15316677
-0.052427243
-0.024442261
-0.015522147
-0.08556646
0.0004957145
0.054576885
0.091896236
0.029895158
0.020494549
-0.018241687
-0.04234371
0.10863558
-0.06726963
-0.05581907
-0.11171373
-0.09022659
-0.022393724
0.06159707
0.046367668
-0.1983868
-0.15210336
0.012168242
0.106656924
0.041556194
-0.07682289
-0.108691946
0.06458033
-0.02573267
-0.006808023
-0.0081284605
-0.051300958
0.08175203
0.08922059
-0.025205152
-0.002903554
-0.0005596197
-0.026509413
0.037002224
0.06950034
0.04570137
-0.028400976
-0.062400904
-0.04578779
0.053542286
0.064833
-0.059964497
-0.015148567
-0.057478037
0.03165779
0.0128258355
-0.0017465611
-0.04646158
-0.07854216
-0.01058825
0.078448884
-0.0018908691
-0.00814568
0.016761335
0.0032641608
-0.034749396
0.029523475
0.009897168
0.051910263
-0.0003644823
0.04216501
-0.015946826
-0.010221648
-0.021209722
-0.02174843
0.038276706
0.042969115
-0.023894534
-0.07743344
0.03654055
0.060589384
0.03493539
0.0094543565
-0.033180784
-0.02037981
0.012372714
-0.009386571
-0.005393872
-0.043915033
-0.04925835
-0.08764453
-0.060883693
-0.023907416
0.09799745
0.102436066
-0.007354174
-0.05473116
0.06302748
0.04832938
0.025330456
0.030565718
0.0133247515
0.018799877
0.016643316
-0.04162872
0.031166915
0.05754515
0.025049364
-0.0031731867
0.07373283
-0.0055832597
0.0027107433
-0.009877892
0.057407215
0.15853648
0.122401014
0.003211917
-0.035578527
-0.046075147
0.018369654
0.108688496
0.110444605
-0.12748438
-0.052674603
-0.008957825
0.10727241
0.10084939
0.03853302
-0.07050812
-0.039815046
0.09879848
0.101334356
0.05083524
0.0065102587
0.024466164
0.061219987
-0.0012302872
-0.079274654
-0.026223475
0.014943155
-0.13210721
-0.03150575
-0.039458435
-0.037992593
-0.07547709
-0.0699384
0.01512378
0.09335424
0.00753915
-0.08643423
0.022928737
0.0825617
0.040488005
-0.045892578
-0.052480727
0.070356205
0.046284355
0.04986865
0.035178967
0.09337632
0.06282571
0.024079686
0.015114349
0.034537405
-0.021801194
-0.035007764
-0.03734833
-0.018816946
-0.0034222098
-0.08360548
-0.0042326073
-0.02591116
0.04201221
-0.028365757
-0.03715397
0.014356365
-0.028827183
-0.02044291
-0.0007975117
-0.0023070844
0.007776505
-0.07586328
-0.03095182
0.036066994
0.05559164
0.043065563
-0.07415397
0.040822923
-0.0064208605
-0.07699317
0.028179886
-0.02561389
0.0008767857
0.07067932
-0.009169698
-0.15008122
-0.10339142
0.01960505
0.10191482
-0.088024326
-0.15823224
-0.048935495
0.03788673
-0.13868174
-0.11238613
-0.11923257
-0.030136159
-0.023342015
0.011942618
0.042803448
0.04352131
0.023138946
0.05619579
0.014981511
-0.024557052
0.012912564
0.020924475
0.07548593
0.010597249
0.06663216
0.003483144
-0.0984703
-0.02323603
-0.017384337
0.052906122
0.09799576
-0.07732434
-0.111789264
-0.03260941
0.048652127
0.13694282
-0.043784518
-0.056079347
-0.0883444
0.055262636
0.06367828
-0.051668942
0.015024383
0.027565423
0.02798541
0.029175
-0.08962664
0.027688324
0.07372115
0.05213649
0.059522603
-0.09081791
0.0037215727
-0.06118303
0.0015707698
-0.028774036
-0.05031383
-0.0146628
-0.0056032897
0.044057444
0.033810694
0.03792412
-0.025144925
-0.006152275
-0.06779661
0.00043308496
0.0534832
-0.019174416
-0.07730305
-0.031719662
0.020049976
-0.034066997
-0.0015962477
-0.09424589
0.03129345
-0.08629127
-0.07415748
-0.05210636
0.018615875
0.047882672
-0.08721867
-0.050697725
0.004300187
0.047369253
-0.033576507
-0.053300437
-0.068957984
0.023682306
0.025198026
-0.08435258
-0.101504795
-0.066864476
-0.0052828765
-0.061598428
-0.029727392
0.007158993
-0.009597675
0.036657352
-0.035262857
-0.06946927
0.0030280228
-0.018546617
0.020698596
-0.026942467
-0.053710107
0.045537125
0.0031783246
0.052891556
-0.014712085
-0.07754131
0.06974254
0.041109517
0.04475378
-0.026546301
-0.046042297
0.09020624
0.07613786
-0.029493809
0.013392123
0.08141488
0.008551098
-0.09902428
-0.013774153
-0.017968787
-0.05393602
-0.0785171
-0.09595259
0.010275987
-0.060118537
-0.15737617
-0.10733237
-0.055782557
0.03949966
-0.027805842
-0.11452364
-0.08021488
-0.10000053
0.086252004
-0.009832237
-0.05807195
-0.019662363
-0.05843788
-0.011395005
-0.02792595
-0.06693704
0.028400227
0.03206949
0.014545883
-0.032153256
0.04527228
0.07431892
0.009343175
0.011747537
0.03930186
0.10108847
-0.038519982
-0.0910594
0.053861488
0.10271813
0.030740242
-0.19877289
-0.09077729
0.12962182
0.07282661
-0.08070666
-0.12648007
-0.100940526
-0.06451056
-0.054935955
-0.05165089
-0.08486724
-0.0024478403
0.0047159027
0.03627199
-0.057164147
-0.10969329
0.050646577
0.010738311
0.03601506
-0.038843017
-0.076827
0.048930842
-0.0071875895
0.016545543
-0.12226293
-0.107033744
0.060741395
0.018479342
-0.021669276
-0.15461472
0.0043220264
0.0874644
-0.004017821
-0.072528705
-0.077026464
0.03989553
0.053026475
-0.012821329
-0.12514856
-0.012846999
0.03110396
-0.042311877
-0.07837231
-0.0061159823
0.07389781
0.0025954957
-0.084640585
-0.07562911
0.041288715
0.0012124248
-0.042062275
-0.023484252
0.018406102
0.0069397353
-0.054598458
-0.07487166
0.02788505
-0.0007974374
-0.09006335
0.02054882
0.07014489
0.032471307
0.0009195191
-0.12680317
-0.080532916
0.0606374
0.006391199
0.03771712
-0.08542462
-0.069624126
-0.010358556
-0.03613123
-0.004980387
-0.06674115
0.009676337
0.07924482
0.017419767
-0.05707673
-0.025645059
-0.010551107
0.065880366
-0.0047066137
-0.023722522
-0.06902163
-0.058366086
-0.00021628742
0.07526076
-0.015855303
-0.00038427938
0.025057148
-0.031605795
0.031981103
0.04593208
0.07667794
0.06328471
-0.10956428
0.016709564
-0.008426878
0.009380755
-0.043356944
-0.03138526
0.093367
0.046880692
0.01603722
-0.11315244
-0.0518012
0.05214117
-0.011818067
-0.027958877
-0.035203774
0.026702797
0.023828952
0.043311667
-0.05988328
-0.10849313
-0.0019624867
-0.08036528
0.03154141
-0.092103444
-0.051497083
0.013384568
-0.07515058
0.042849414
-0.05040546
-0.04482836
0.014556704
-0.0036288665
-0.011388357
-0.046402592
0.046236064
-0.0066308184
-0.03168522
-0.028173054
-0.036530204
-0.06256791
0.010108766
-0.10703486
0.025304124
0.031053549
-0.1487994
-0.21000169
-0.18236397
0.14536743
0.07595647
-0.25969055
-0.26175418
-0.16750054
0.116475485
0.026226709
-0.11737634
-0.09361055
0.030262599
-0.044243246
-0.11896978
-0.0819303
0.0029864379
0.027827939
-0.09704238
-0.10283602
-0.010588606
0.03713963
-0.0726347
-0.0356017
-0.03828552
0.06624634
0.09084352
-0.10999995
-0.07187594
0.023280483
0.04339484
-0.033014316
-0.07597877
-0.013152808
0.032064594
0.05465084
-0.073247045
-0.06688717
0.083165266
0.06397202
-0.040607873
0.0011070963
0.0017008146
-0.031865656
-0.1311125
-0.048887543
0.012866644
0.049552012
-0.011074153
-0.059855584
-0.036681492
0.06490885
-0.025756367
-0.049084812
-0.08272673
-0.014990034
0.06214058
-0.031958792
-0.06278906
-0.011087382
0.009029542
0.026881803
0.058557317
-0.04280234
-0.013072759
0.015221411
0.026250802
0.010674689
0.051807392
-0.016871972
-0.075534046
0.021230344
0.03626237
0.03560177
-0.030799745
-0.07134334
0.022427985
0.070707515
-0.004920958
-0.07620033
-0.031420138
0.07821309
0.01969958
-0.023110343
-0.07680522
-0.024998033
0.0038623924
0.050660163
-0.014812509
-0.028686445
0.06398479
0.030369045
0.027306587
0.049381062
-0.055430457
-0.06765034
-0.05943144
0.03830887
0.0070252586
-0.09390068
-0.069648676
-0.032172494
0.07331469
0.024480902
-0.06355398
-0.01752312
0.032295004
0.057647564
-0.051271453
-0.014924795
-0.004224091
0.025571963
0.032690093
-0.033422045
0.043064862
0.07920184
0.029943515
0.01685408
0.07089649
0.2094423
-0.08776569
-0.08232279
0.090662576
0.13121863
0.17069335
-0.12550387
-0.041387636
0.103328235
0.04747963
0.07636443
-0.20746838
-0.010871398
0.10916985
0.0012521725
-0.07423047
-0.07382502
0.059401304
0.120457575
-0.022593139
-0.032785803
-0.025406983
0.08213681
0.030043768
0.053320237
0.08299643
-0.032691516
-0.10266252
0.1078687
0.04238519
0.0074856495
-0.08714364
-0.09466148
0.12482736
0.011070436
-0.030130215
-0.12668927
0.04598187
0.092561446
0.03196729
-0.0030449233
-0.036680292
0.02324755
0.08744762
0.037602052
6.012473e-05
0.06667655
0.04116351
0.050394002
0.09399177
-0.011399899
-0.107005425
0.014152362
0.01861574
0.011027856
-0.10001285
-0.06433485
0.09360697
0.02343033
0.04388325
-0.056611802
-0.0071808086
0.087803565
0.020177128
-0.0009507174
-0.047584243
0.04956959
0.06780556
-0.024907878
-0.07166793
0.019621806
0.024827734
0.07479723
-0.047058806
-0.019181618
-0.0030322322
0.05962846
-0.1093429
-0.11101615
0.067429885
-0.008867672
-0.13733396
-0.23058818
-0.12324221
0.13711022
0.006277323
-0.13695596
-0.14723156
-0.035353392
0.085524395
0.067394
-0.06620183
-0.07785979
0.004883229
0.034556843
-0.052529387
-0.022687117
0.022881517
0.034520682
-0.046629466
-0.049082767
0.09046334
0.15154642
0.09960261
-0.068829216
-0.11798205
0.064445674
0.12343673
-0.0065111667
-0.09485368
-0.0977865
0.051340416
0.059803076
-0.053347677
-0.098178215
0.035487175
0.025746321
0.1512607
-0.022244086
0.008504248
0.050297674
0.05668522
0.14913227
-0.11156924
0.03163876
-0.09524053
-0.099346824
-0.018645206
0.07407053
0.029521743
-0.006197505
-0.0410869
-0.0014536795
0.058739945
0.03573225
0.03581426
-0.0045107175
-0.030290827
0.018615875
0.034301817
0.04758485
0.025928227
-0.04766977
0.054694615
0.018368559
0.05501557
0.0017298944
0.014307352
0.006846217
0.014964753
0.0142018935
0.027594805
0.005405765
-0.0018851567
0.0051253787
-0.014516873
0.0012972764
0.03394261
-0.016642377
0.004026129
-0.041754704
-0.04831538
0.024326295
0.023820123
-0.096661165
-0.048338853
-0.03218071
0.08058414
-0.014584576
-0.08889303
-0.05734612
0.04005465
0.032074485
0.021624567
-0.03930675
0.0060673417
-0.031513378
-0.014982017
-0.028121812
-0.04216812
0.056713525
-0.0033687984
0.06729138
0.024056248
-0.088968046
0.06938172
0.021115273
-0.00037381967
0.03122954
-0.008012727
0.095758885
0.058499422
0.014071519
-0.020774188
-0.046863094
0.06635372
0.046776377
0.07343608
0.006871564
0.0022601646
-0.005811803
-0.10116375
-0.035519928
-0.07065582
0.08859658
-0.055862803
-0.107531115
-0.042636707
-0.03313152
0.023071816
-0.016792355
-0.09626074
-0.012666725
-0.03664617
-0.017405026
-0.048251897
-0.0889001
-0.031381186
-0.056660384
-0.096682206
-0.086713366
-0.08730385
0.007572421
0.023665063
-0.111746326
-0.006383811
0.019307278
0.0055507063
-0.090243466
-0.0301723
0.048090734
-0.03512777
-0.019118713
0.02074996
0.0042758486
-0.01640265
-0.16862325
-0.1119889
-0.05072716
-0.015839122
-0.16472827
-0.16739446
-0.018024253
-0.024245877
-0.05893628
-0.19348277
-0.16328388
-0.07088226
0.032752067
5.654343e-05
0.03285525
0.09417529
0.0037129924
0.044271726
-0.054931756
-0.029866207
0.08036586
0.039608646
0.04946695
-0.002759555
-0.077085
0.09180636
0.06147576
-0.0069224536
-0.03997963
-0.090812095
0.1363399
0.089565545
0.01687744
-0.03308981
0.026322106
0.053151477
0.07570251
0.09288266
-0.05430218
-0.0010954455
0.10597701
0.02062259
-0.073713616
-0.062067185
0.026732558
0.056108516
-0.028696658
-0.010051481
-0.052491736
0.01872593
-0.030322675
-0.047409352
0.04751735
-0.011927431
-0.03533581
-0.00036206993
0.026460798
0.019040126
-0.03271621
-0.003320634
0.027576987
0.12579058
0.055816695
-0.034103986
-0.0021394046
0.0290134
-0.046417557
-0.047888204
-0.004810858
0.067898825
-0.018281028
-0.007247459
-0.015306895
0.0075035538
0.06763281
0.048738282
-0.058974423
-0.050700553
-0.019238366
0.066192284
0.04788384
-0.008056563
-0.045738675
-0.08398205
0.022685915
0.06363282
0.011730542
-0.037922516
-0.021645987
-0.0077587254
0.09380839
0.008119329
-0.030242514
0.007295513
-0.0019972413
0.017782386
-0.0028962104
0.035231307
-0.011373936
-0.084238745
-0.051296286
0.04540061
0.05015632
-0.08415894
-0.11594304
0.049640957
0.08500549
-0.032778494
-0.082540266
-0.0054378943
0.015024531
0.0466391
0.033506073
-0.035347953
0.011631295
-0.06571237
-0.041116673
0.006602996
-0.037129287
0.07077096
-0.021740844
0.047545273
0.023631925
-0.05236482
0.02466064
0.06793041
-0.03947503
-0.005679549
-0.037668422
-0.03484705
0.019799322
-0.004824518
-0.0077774134
-0.06748899
-0.034949765
-0.045139674
0.005430495
0.034122095
0.062681705
-0.050641865
-0.18395783
-0.12548913
-0.035093836
-0.009337028
-0.029658664
-0.08567044
-0.03142519
0.1082447
-0.061405085
-0.120748974
-0.26537707
-0.05860321
0.04683477
-0.1247026
-0.11313893
-0.061456893
-0.1299053
-0.063432485
-0.07230342
-0.031804524
-0.04480961
-0.028403273
-0.010293309
-0.046575356
0.047140826
0.013975135
0.01672364
-0.008660755
0.030508881
0.00013023842
-0.06974422
0.013428047
-0.020642431
0.036009673
-0.049313325
0.015106897
0.05780118
-0.0020954183
-0.01263395
-0.015177915
-0.009408464
0.016898364
0.022584496
-0.022612318
-0.051333353
-0.018049233
-0.047654867
0.026370838
0.02223897
0.034276485
0.0010991124
0.011042055
0.032283496
0.0032849056
0.017099377
0.023418501
-0.013545511
0.014335078
-0.0057958616
0.022843752
0.044675615
-0.021653552
0.0009460508
0.0013118471
0.04444918
0.04365134
-0.02677369
-0.06861876
-0.031561
0.06797672
0.038481712
0.04342191
-0.01903544
-0.003938336
-0.04910391
-0.013628401
-0.03292987
0.02532167
-0.04943702
-0.029562341
0.05026818
0.035732828
-0.006516999
0.0023669128
-0.021808153
0.025704017
-0.030734673
-0.07132578
-0.071273156
-0.0096326135
0.005648421
-0.015573489
-0.012216418
-0.08332058
0.0363665
0.06332904
0.03441055
0.050812144
-0.0058448804
-0.034014348
-0.079243585
0.012156187
-0.028468765
-0.048409726
-0.017827956
-0.008670719
-0.017234804
-0.009166546
-0.011249751
0.032641806
-0.0045395717
-0.019851573
0.007163202
-0.02531923
0.01645459
0.04923324
-0.02179019
-0.06697985
0.027711838
-0.030615428
-0.002735332
-0.0039229533
0.05947759
0.04276411
0.061589986
0.05499844
-0.023087097
0.010510233
-0.058646172
0.0014238182
0.037825245
-0.042735092
0.007036398
-0.023772167
-0.009825904
0.10361263
0.06504353
0.06745637
-0.011081212
0.019105555
0.13873325
0.0058546113
0.10598517
-0.0077903816
0.010460004
0.040380653
-0.0070173475
0.05107307
-0.01490168
-0.028321108
0.026156656
0.053529833
0.021173194
-0.067920916
-0.077321716
0.111644
0.012222979
0.020194443
-0.035062317
-0.028615072
0.08414381
0.0059474143
-0.02101023
0.007517084
-0.05714804
-0.01906282
-0.034670465
0.0610436
-0.059048396
-0.04039765
-0.022466881
-0.02486203
0.06695978
-0.028388925
0.02369756
0.0087596765
0.047449354
-0.005224913
-0.004383104
-0.031352647
0.009721166
0.005147166
-0.037351202
-0.058029346
-0.021763008
0.035360333
0.00027411152
-0.029560592
-0.07264771
-0.035134807
-0.0024822948
0.015563977
0.0017137367
-0.0011782415
-0.030012188
0.014979257
0.05569308
-0.0021997879
0.02869068
-0.031138944
-0.08573994
-0.058579165
-0.02556257
0.033236712
-0.10518037
-0.13267317
0.03511582
0.06092214
-0.06572912
-0.16011167
-0.16617817
-0.03591797
-0.017280746
-0.06896537
-0.12341834
-0.1381193
-0.08315635
-0.040346
-0.09514666
0.0061242264
0.026320374
0.013904476
0.020094628
-0.06519144
0.0076363264
0.006088359
0.016685192
-0.07206148
-0.028002245
0.07420132
0.0061243502
-0.041999493
-0.024451692
-0.002914775
0.100360274
0.02851613
-0.05529403
0.014485356
-0.023151172
0.09341482
0.033214953
-0.03792579
-0.08276294
0.03090996
0.055858605
0.056753293
-0.053121276
-0.06816995
-0.03290718
0.026797391
0.043502238
-0.020125505
-0.006890286
-0.00880238
-0.016779164
-0.02064635
-0.014227854
0.062238857
-0.0062337993
-0.026000064
0.006496037
0.025786594
0.005967935
-0.049755774
-0.011196703
0.08341499
0.04657955
0.043963928
-0.011892943
-0.03492525
0.042177852
-0.00528633
-0.000984424
0.014980236
0.011275634
-0.051458485
-0.018098563
-0.010082977
0.10133446
0.061201666
-0.03068457
-0.019477028
-0.09293667
0.027390927
0.020717092
0.113766626
0.11184711
0.09751115
-0.016547682
-0.093076125
-0.036087852
0.11193274
0.10153434
-0.07198986
0.039267603
0.008092723
-0.008412269
-0.03909267
0.015783736
-0.001850062
-0.061678223
0.017728372
0.047506988
0.081046
0.056384876
0.006958874
-0.015836194
-0.010379023
0.0056179785
-0.001411213
0.0788442
0.051883705
-0.03980599
-0.06998026
0.017426454
0.03628583
0.017719636
0.052843228
-0.043304395
-0.05174992
-0.04069208
-0.05236719
-0.05343574
-0.020679092
-0.079942375
-0.07815645
-0.016540674
0.008823395
-0.0046817777
-0.06746814
-0.0909696
-0.036228918
-0.043890636
0.09843436
-0.06362693
-0.10756413
-0.10164151
-0.10258559
0.09918257
0.08626822
0.11315975
0.0789083
0.034895528
0.013604284
-0.039548934
-0.019142224
0.06770697
0.014588072
-0.028751347
0.040718287
-0.063390546
-0.037551157
-0.044465616
-0.005608323
0.045209683
0.016437935
-0.085591234
-0.09913667
-0.10495089
-0.07537922
-0.038199622
0.07291162
0.06355796
-0.045180537
-0.07038609
-0.1068012
-0.09003698
-0.08159757
0.03400205
0.003441898
0.07321488
0.018059056
-0.06132326
-0.013698431
0.045805927
-0.030807482
-0.08224605
0.07820954
0.017563546
0.025883334
0.032993577
0.068830386
-0.032427534
0.0613119
0.043789368
0.074855395
0.117940515
0.10323106
0.0353586
-0.016604684
-0.03984966
-0.051346745
0.021685282
0.042943794
0.046529386
-0.07545936
-0.105552554
-0.08495152
0.03422598
0.028275078
-0.04877926
-0.042072788
0.0011132373
0.023770822
0.0850273
0.013224343
-0.1023852
-0.093666375
0.04984339
0.07544281
0.13786145
0.09352515
0.09182743
0.005954016
-0.04028056
0.014782885
0.03448032
0.07490538
0.0043191905
-0.041567545
0.006572144
-0.07286414
-0.09224495
-0.037740875
-0.05807045
-0.046911534
-0.011791648
0.010822042
0.032999422
0.04283473
-0.041191433
-0.06702274
0.0038616888
0.07453669
0.039073642
-0.027411552
-0.0035166661
-0.024469394
-0.011399902
0.051323436
0.06431811
0.032454345
0.016070465
0.0044349623
-0.020140074
0.014086805
-0.0055205296
0.007969
0.050406847
0.028595997
0.0005892513
-0.10085727
-0.036485948
0.07768494
0.05296056
-0.019636378
0.019637385
-0.002731013
0.03438268
0.014554126
0.009050194
0.042812113
0.06479544
-0.0399034
-0.08827081
-0.067320675
0.022572214
0.037308566
0.010024868
-0.010810696
-0.005534205
-0.07904224
-0.048868224
-0.0065126144
0.02197144
-0.011331925
0.033388373
0.024788694
-0.03218686
-0.006679286
-0.045311067
0.016492365
-0.021843504
0.04552394
0.044572055
-0.025102586
0.0001802172
-0.052287355
-0.019396972
0.03410645
0.036490645
0.08107726
0.040277783
-0.00075944903
0.0017987296
-0.032058712
-0.042846046
0.02709088
-0.046058323
-0.105947554
0.019337013
-0.0534605
-0.023206377
0.077882506
-0.1059893
-0.15630876
-0.018376408
0.081425495
0.06778134
0.08856857
0.1312973
-0.049099535
-0.07912382
-0.057452876
0.06853788
0.17321943
0.10530838
0.0742365
-0.10252502
-0.11277087
0.0008125969
-0.00808928
-0.013116522
0.07000112
0.013982439
-0.059655398
-0.016969178
-0.05874383
-0.03207051
0.0069311303
0.045541987
0.09637377
0.10740733
-0.025994206
-0.1028447
-0.11075397
-0.06726392
0.023971613
0.053362217
0.016197419
0.008983347
0.042829387
-0.09317678
-0.003910756
-0.0006639089
0.00030395234
0.03587318
-0.027958062
0.0017674738
-0.01724791
-0.051591743
-0.017731827
0.0066431575
0.048624538
0.04618278
0.057119846
-0.05206837
-0.024648516
0.05261871
0.050408185
0.03663055
0.06176879
-0.018433126
-0.030356828
-0.042739123
0.029752629
0.035143062
-0.039852053
0.042475652
0.008450174
-0.03912251
-0.062095024
-0.05595668
-0.02276669
-0.011959787
-0.06424113
-0.06231233
-0.04958461
-0.015120451
0.03361797
0.057309195
0.0097991135
0.014658034
0.032870013
0.0010024689
-0.015049334
0.018757563
-0.008330003
-0.028075559
0.051049985
-0.03637478
0.027290475
-0.00031737617
0.02263311
-0.030101635
-0.005624328
-0.047158837
-0.055812664
-0.019181818
-0.0019407368
-0.0045595476
0.006657725
0.032318387
0.03818179
0.018942747
-0.05715055
-0.07379445
0.023207348
-0.013321661
0.002875179
0.06338083
0.038860936
0.033794627
-0.03692745
0.03659664
0.037560306
0.010949075
-0.0063538714
-0.008914489
-0.027052086
-0.051002398
-0.018715456
-0.014813669
0.09597918
0.085513555
-0.016106997
-0.03784586
-0.07081
0.014878403
0.023713438
0.054904904
0.16547677
0.08505423
-0.06251364
-0.13250919
-0.20032977
-0.009701339
0.0032098794
0.03127591
-0.08738457
-0.14041092
-0.08831288
-0.07586038
0.0025786427
-0.03022404
-0.07946229
-0.043547515
0.03399979
-0.057633772
-0.08753468
0.011604373
-0.018883856
-0.037972145
-0.06841887
-0.09424023
-0.025943581
-0.073928975
-0.0074980785
0.001313094
-0.022814712
-0.058848485
-0.030928163
-0.051212866
0.051546622
0.039332964
0.02121748
-0.059212834
-0.026060324
0.015105881
-0.05447226
-0.066177346
0.021320121
0.026801955
-0.05725604
-0.04157642
0.041835096
0.045693506
-0.016748095
-0.06119843
-0.024486143
0.053435873
0.007996162
-0.0108806165
0.020640926
0.048727322
0.036420878
0.05451563
0.048940495
-0.020595727
-0.061271515
0.042686526
0.039474696
0.024627306
0.0043356586
-0.039042633
-0.031646926
-0.053974338
-0.03973139
-0.03196752
-0.052644186
-0.029323243
0.049323466
-0.03204207
-0.033911545
-0.090161085
-0.13279493
-0.112444974
0.003056829
0.105608456
0.020179702
0.061724603
-0.039639063
-0.03354373
-0.0687102
0.027891865
0.10202263
0.0706903
0.070510216
-0.08261973
-0.09510512
-0.050655596
-0.0036524348
0.0005852942
-0.08172897
-0.06751618
-0.034818534
-0.10687355
-0.029411662
-0.035863515
0.041478947
-0.027528066
-0.09824245
-0.13359183
-0.015626466
-0.01807729
-0.01968293
-0.0647237
-0.08242298
-0.033571973
-0.015856497
0.011406889
-0.093098626
-0.18197729
-0.0077919816
0.025735877
0.0094940495
-0.018468391
-0.09516844
0.037223246
0.06306397
-0.05001963
-0.027570622
-0.05064238
0.078234315
0.052471343
0.032397185
0.08784548
-0.009796293
0.022602728
-0.013203249
-0.022289468
0.060781457
0.044104286
-0.06876457
-0.020818423
-0.017555121
0.009784556
-0.041853014
-0.058336843
-0.024745781
-0.022866553
0.004347799
-0.03946107
0.062032208
-0.016012127
0.020721273
0.0066611655
0.044816718
-0.002945628
-0.06034997
-0.021114614
0.012156228
-0.0025482345
-0.095618136
-0.11703071
-0.07858877
-0.030846389
0.03506047
-0.057334416
-0.11586775
-0.11025358
-0.002292308
0.09857396
-0.018245373
-0.037043255
-0.02956767
0.01613639
-0.0018901331
0.0011445864
-0.002718506
0.03836239
-0.00070195604
0.00024745904
-0.022496687
0.0018416612
0.049134575
0.0079576
0.06694167
-0.030718602
-0.031865787
0.037296806
0.08289058
0.07009679
-0.032604344
-0.04691291
0.014928898
0.068494864
0.07211421
-0.020229088
-0.045057204
-0.016097683
-0.021898326
0.06985523
0.06152038
0.06878023
0.058391124
-0.021384632
-0.05135231
0.048564192
0.070742264
0.07490369
0.052429307
0.068445444
0.02593072
0.044396453
-0.014438138
-0.016816476
0.041482966
0.021258796
-0.07400511
0.009776061
-0.012061052
0.028258681
-0.032564703
-0.058028355
0.015423226
0.017927732
0.10611867
-0.028001528
-0.032420225
0.03569802
0.0048832903
0.06414998
-0.04010178
-0.0145158265
-0.026546968
-0.06532227
-0.08764383
-0.0054710046
-0.054569084
-0.08598851
-0.18717372
-0.15847078
-0.043502573
-0.070081405
-0.22057955
-0.15144049
-0.03693386
-0.022867005
0.017787423
-0.091975704
-0.19201015
-0.1350517
0.035854433
0.007864046
0.031090321
0.08005407
0.104368284
-0.01421718
-0.0043427804
0.0021158666
-0.004963313
0.07119143
0.02217101
0.05575481
0.06387443
0.09345294
0.09415262
0.044408616
0.049081024
0.057610974
0.088498116
0.0927994
-0.0035525546
-0.009781336
-0.03212653
-0.05499475
0.051673856
0.027181031
0.04331062
0.022536663
0.058735885
-0.006845601
-0.04753949
-0.046578333
0.09345345
0.030904943
-0.02179572
-0.054395072
-0.05946179
-0.038543873
0.004515591
0.071675174
-0.048386104
-0.08865113
-0.08451078
0.046755344
0.12558651
-0.055821244
-0.0016717854
-0.09420275
0.028205853
0.13192528
0.014835565
0.017459596
0.041489676
0.074322134
0.039864242
-0.04022011
0.050273024
0.038960308
0.014583145
0.055433173
0.014880145
-0.03728491
0.013879728
0.04332673
0.00067735626
-0.07499948
-0.039828118
-0.034148768
0.035256494
0.07358364
-0.01862871
-0.039656535
-0.042110182
0.03814286
0.032737076
0.046934597
-0.008348683
0.06769779
0.053635977
0.08769653
-0.05908225
-0.0032363585
0.007642569
-0.037342735
-0.007775763
-0.0005006088
-0.06926386
-0.056662887
-0.078286454
0.031342786
-0.03147057
-0.054631528
-0.058110055
-0.026749574
0.03650085
0.03456311
0.047451794
0.015074127
-0.048784886
0.034925777
0.0012166125
0.048144493
-0.010994971
-0.011228795
-0.033949554
-0.038876835
-0.009516616
0.055111535
0.04321384
0.049046714
0.06722579
0.0129151065
0.05927435
0.08590461
-0.0153103005
0.033031058
0.02787669
-0.0015948132
0.008447565
0.0794741
0.015617528
-0.020948377
-0.0101611605
0.025565172
0.05926518
0.07849165
0.008664407
-0.08408556
-0.09308223
-0.05518778
0.008077735
0.021410098
-0.120657735
-0.07308381
-0.09393218
-0.060109086
-0.026030151
-0.07087014
-0.113036804
-0.08651855
0.058780886
0.011566344
0.06348119
0.09577863
0.06201617
0.05786587
-0.00863953
-0.027972082
0.053877298
0.10108572
0.06905029
0.031188713
0.07417296
0.09993785
0.039863456
0.0177592
0.029658323
0.03662997
0.040448844
0.012666957
0.002670594
-0.020162992
0.0171617
-0.0036198942
0.08371328
-0.048426304
-0.08614156
-0.0922566
-0.020175235
0.07777725
-0.033413883
-0.018055234
-0.02702248
0.023604972
0.029521886
0.034078926
0.018398663
-0.0019397431
0.06261279
-0.017924659
-0.04620686
0.03999299
0.05535897
-0.013992743
-0.018449925
-0.056566656
-0.05881838
0.071827844
0.0467532
0.05846213
-0.07814577
-0.045649752
0.029007507
0.09509092
0.114338666
-0.035231136
-0.069416
-0.08439575
-0.014081035
0.019651517
0.012833002
0.0043528154
-0.010855312
0.0053281495
0.07431399
-0.0012293211
-0.050801788
-0.013496282
0.057664435
-0.016661346
0.023110693
-0.036292396
0.018927513
0.007950553
-0.0046458705
-0.011005613
-0.04106171
-0.053031962
0.01909964
-0.0023890235
-0.07946147
-0.10422782
-0.03650913
0.003818755
0.042628482
0.046572838
0.046933137
0.004739974
-0.043185327
0.022833232
0.04319003
-0.022311937
0.0004484428
0.015651058
0.05009631
-0.027382437
0.016029637
0.021125875
0.01700967
-0.0034584892
-0.03392405
-0.037313744
-0.018854672
0.07448837
0.06887364
-0.045611836
-0.110215954
-0.0018574911
-0.01637552
0.07533887
-0.03588125
-0.048484117
0.0579375
-0.006146652
-0.06687317
0.029417107
-0.0017473756
0.020391783
-0.028295109
0.026605593
0.11396623
0.12469041
-0.013407317
-0.023659166
0.034948323
0.040360432
0.05804501
-0.09297532
-0.12246282
-0.11849867
-0.1103794
0.0005777115
-0.14492099
-0.20805676
-0.013659677
0.002503504
0.034090016
0.010124668
0.03017426
0.0770441
0.07111204
0.048655204
0.05704359
0.07791133
0.077311955
0.03703308
0.029105991
-0.037657738
-0.042650186
0.0012863828
0.008695578
-0.007732519
-0.034590643
-0.020999478
0.0050846706
-0.01686034
-0.042918477
-0.055429712
-0.08808112
-0.04741841
0.059988476
-0.009342191
0.011524681
0.042420253
-0.019372588
0.019041948
0.022577183
-0.013241805
0.033142414
0.024260184
0.038913105
0.022063509
0.0046874434
0.022732599
0.05138503
-0.04573943
-0.018599462
-0.04724936
-0.0026344247
0.058064315
-0.05992103
-0.041668605
0.0014211322
-0.036039066
0.07049924
-0.027006939
-0.055694975
-0.052237444
-0.025304439
-0.08026186
-0.018418789
0.023610644
-0.15432338
-0.17315322
-0.090492286
-0.0023119906
-0.062216226
-0.107968256
-0.08243172
-0.074876
0.0048650564
0.018273763
0.056118608
0.10997563
0.010136967
0.038640175
-0.004200523
0.03685689
0.11565581
0.056128696
-0.03459695
-0.03636052
0.047110356
0.08008121
0.012428953
-0.007279537
0.016198114
0.010712319
0.058392204
-0.07706803
-0.10478595
0.0075366134
0.052896637
0.046129927
-0.105466634
-0.08038548
-0.06942783
0.10777429
0.11409288
0.052829787
-0.05014611
-0.12098563
-0.042074755
0.08702487
-0.020095434
-0.023831153
-0.013928934
0.046314936
0.008589162
0.02051759
-0.049976856
-0.027316105
-0.00038239016
0.0024960046
0.013941456
0.017001634
-0.015568062
0.0075448356
0.054198377
0.033467364
0.015416754
-0.059311103
-0.08634976
-0.01032791
0.057864767
0.017042248
-0.029395152
-0.03856216
-0.011912215
-0.027568562
-0.009215092
-0.015619271
-0.0014786551
0.025850488
0.0015084826
-0.018110715
-0.052477084
0.014113904
0.0829896
0.018478697
0.093195446
0.052855127
-0.0060724686
-0.07972003
-0.089710094
0.031782124
0.1307515
0.07681001
0.039024424
-0.061737727
0.011118822
0.06085722
0.0846659
-0.008991557
-0.06444305
0.024247706
0.0932966
0.03151095
-0.021203455
-0.040183313
-0.049682733
-0.07934898
-0.05531054
0.064126536
-0.0025006481
-0.025857672
-0.029428352
0.019425048
-0.0071706027
0.034329686
0.044002265
0.078849845
0.038353924
0.0052024205
-0.031832855
-0.016117252
0.02659407
0.0091164075
-0.060900904
-0.04741437
0.066697806
0.08100636
0.013321096
-0.045685638
-6.209549e-05
0.005770294
-0.0058938493
0.04497467
0.06420357
0.054716073
-0.1314148
-0.029185114
0.014419529
0.1102817
0.0016697951
0.0040641627
-0.0032182103
-0.03441738
-0.04223601
-0.10886954
0.058591183
0.004873431
0.01620186
-0.034812532
0.02822502
-0.07215668
-0.00042658258
0.048231367
-0.012757203
-0.046249896
0.036765933
0.07795297
0.00037303322
-0.042723432
-0.018320588
0.06011756
0.03611521
-0.0028957708
-0.052065805
-0.07129539
-0.010094429
0.012370961
0.16872777
0.104734965
-0.06375584
-0.10844117
-0.070012726
-0.01549595
-0.028064309
-0.0075392504
0.015838882
-0.061388046
0.082451105
0.044171125
0.0005738172
0.023284283
0.033405576
-0.032197416
0.007781608
0.0192084
0.0008668007
-0.0032609054
0.01161083
-0.02798172
-0.016893212
0.007107819
0.07556204
0.056107823
-0.04628751
-0.08522189
0.0037626424
-0.028060777
-0.013204977
-0.0005242586
-0.06807221
-0.06252196
-0.022600042
0.050631106
0.032308325
-0.031210255
0.07474404
0.00933206
-0.07028204
0.0050054006
0.056205556
0.022391547
-0.024943242
0.00013150982
-0.088665254
-0.04172283
-0.013785081
0.076012135
0.099478334
0.010189405
0.0019461977
0.05574153
0.04558833
0.043067757
0.0865632
-0.0151156895
-0.015549728
0.080375075
0.021719493
0.042638384
-0.012547969
-0.034791555
-0.021047028
-0.05855187
0.025207834
0.045926645
-0.06791339
-0.025608858
-0.025284259
0.04017194
0.04954566
0.030970113
0.060247883
-0.061599176
-0.019416243
0.029074594
0.01104676
0.05700898
-0.030349476
-0.020345472
0.03329607
-0.041456133
-0.0021631857
0.014394471
0.036887404
0.052483268
-0.02854296
-0.010022599
-0.012511696
-0.050781235
-0.08219375
0.057560876
0.010824822
-0.06674781
-0.007124484
-0.016773611
0.07385602
0.054225385
0.009094536
0.04942269
-0.027508909
-0.03686886
0.06536682
0.032282177
-0.022030113
-0.075701445
-0.040818747
0.053699628
0.050370816
-0.0011733806
-0.018062973
-0.07626016
-0.09187834
-0.002017685
0.052494407
0.02149034
-0.04109601
-0.016405594
0.07775838
0.07171989
0.020635039
0.06620465
0.0047321357
-0.022305736
-0.056831345
-0.07211732
0.016986392
0.0037467948
-0.023513446
-0.01271169
0.022052461
0.1469359
0.084067166
-0.002048722
-0.11256907
-0.071558006
-0.046588395
-0.014649797
0.053814217
0.0859619
0.028794985
0.029916873
-0.043948323
0.080169946
0.06729623
0.07225695
0.08899963
0.049999733
0.050654225
0.006728879
-0.08081283
0.0125608165
0.03445858
-0.026444105
0.032044318
-0.074505
-0.013880075
0.03295164
0.07203445
0.0909523
0.0047638468
0.06551358
0.046994686
-0.0031237144
-0.03339633
0.027234292
-0.040849194
0.037996758
0.09575212
0.08330878
-0.021092616
0.024310375
0.06366717
-0.039698787
-0.025192823
1.8127255e-05
0.04896701
0.02422785
-0.061575487
0.00224483
-0.026373675
-0.06245545
0.0437039
0.05409983
-0.005365019
-0.035211723
-0.042670555
-0.06399226
-0.06866125
0.014385087
0.029402506
-0.0053363093
0.01797095
-0.004818185
0.026205264
0.01902504
0.059416752
0.027029641
0.010850072
-0.0229806
-0.05119022
-0.014518048
-0.035971716
0.047271278
-0.007315745
-0.034696728
-0.021470802
-0.004602919
0.013574208
-0.032720502
-0.005238234
-0.044828538
-0.051215857
0.022547074
-0.03498412
-0.019633766
0.03746002
0.013130849
-0.016989172
-0.05782922
-0.026926903
-0.035410512
-0.01840957
-0.004679069
-0.014015745
-0.04983445
-0.051662393
0.029290518
-0.03959182
-0.05238248
0.037641514
0.028971434
0.04674644
-0.0031413343
0.04712623
0.057428125
-0.091888964
-0.0019179295
0.043483462
0.019893507
0.012512312
-0.015669754
0.035075076
-0.033454113
-0.024698192
-0.011182489
0.03837193
0.04179399
-0.012287052
-0.01678571
-0.05811216
-0.007145767
-0.009594502
-0.0405685
-0.063362464
0.023822855
-0.09606989
-0.08285426
-0.039603375
0.04796856
0.046448138
-0.08265424
-0.03327122
-0.017332124
-0.12542105
-0.04940115
-0.06848678
0.027802737
0.10108014
-0.0025205808
-0.061814573
-0.045114722
-0.00913459
0.09746142
0.016322428
-0.039336365
-0.008887952
-0.03771201
0.019139886
-0.0038294462
-0.003409172
0.0020824121
0.011840107
-0.0017869528
0.026575718
0.032791108
-0.057082143
-0.052126434
0.06127253
0.047732715
0.01664548
0.01468598
-0.00062945683
-0.018077971
-0.03117468
-0.037807804
0.05134143
-0.051354446
-0.058288872
-0.010088461
-0.06413244
-0.03869206
-0.041160453
-0.0035923254
-0.03671974
0.016269032
-0.028740264
-0.015049708
0.018478794
0.027618663
-0.04198046
-0.035749245
-0.040350255
-0.039114468
-0.015270013
0.038998872
0.0065004164
0.015196781
-0.007376882
-0.04521622
-0.014566827
0.059263907
0.052262444
-0.049140085
-0.027320372
0.0417257
0.04927538
-0.032417
0.007854025
0.02707981
-0.02558997
0.059400905
0.062184326
-0.029060028
-0.03291757
0.019436015
-0.087347545
-0.06716011
0.11941759
0.055334043
0.016389806
-0.039096273
-0.014696126
0.07335003
0.02377748
-0.019253552
0.05335186
0.014450761
0.031489696
-0.052943762
-0.033212565
-0.020190153
-0.012727424
-0.085763685
-0.05081971
-0.03791874
-0.111694
0.006893985
0.051953066
-0.032317083
-0.037565492
0.0066808704
-0.0443476
-0.025560524
-0.0655807
-0.046019346
-0.026191417
-0.09081514
-0.14327121
0.0020273346
0.028332738
-0.01709913
-0.075125806
-0.12036676
-0.024151653
0.001027905
-0.039715346
-0.06378803
0.026132403
0.0400913
-0.003805266
-0.048847344
0.0043361397
0.027894257
0.013825267
0.01400631
0.012372246
-0.020176832
0.015934475
-0.058643606
-0.0019283604
0.07762424
-0.005089603
0.047442522
-0.0025050645
0.013904013
-0.06712049
-0.015358344
0.05994935
-0.02134085
0.0077466923
0.03807624
-0.027602507
0.022519588
-0.004517482
-0.030144649
-0.016968487
-0.095340796
-0.118415125
-0.10141525
-0.08000353
-0.037111722
-0.023771225
-0.010401596
-0.029660089
0.009499915
-0.0028995848
0.032284815
0.0554553
0.037070185
0.04554559
0.055349935
0.034067173
0.025283389
-0.008072855
0.046634465
0.08132997
-0.005146248
-0.0741624
-0.030077647
-0.02033913
-0.03313303
-0.0069114272
-0.06224496
0.012096747
-0.020621639
-0.021549975
-0.019875186
-0.033525612
-0.01045953
-0.025960356
-0.029926432
-0.013071996
-0.028276565
-0.06663608
0.051504146
0.003603147
-0.015004488
0.03691448
0.05929736
0.03225199
-0.05275646
0.011480763
0.04070333
0.017353378
0.036661927
-0.0022277127
-0.054140367
-0.06767091
-0.047933735
-0.09719975
0.032767568
0.015818838
-0.043549564
-0.1357509
-0.15001439
0.019775897
-0.010876801
-0.070515804
-0.10623895
0.06541418
-0.0100353565
-0.015929194
0.041926436
0.08361972
0.09895517
-0.03633763
0.044359546
0.03785605
0.01463272
0.02148852
-0.025848053
0.022332411
-0.073220454
-0.011559103
-0.01714225
-0.008495203
-0.009316911
0.0753447
0.07009696
0.08583604
1.9025407e-05
0.11715943
0.10658155
0.013164045
0.02633696
0.12658325
0.109312505
-0.0057306015
-0.047752682
-0.0038186652
0.008429955
-0.1445315
-0.13171712
-0.11515377
-0.04953578
-0.09571172
-0.014775552
-0.060873494
-0.0722235
-0.0010093387
-0.035765793
-0.020502921
-0.09379644
-0.056584343
0.03602783
-0.05906046
-0.054084923
-0.055553842
-0.00550538
-0.03868519
-0.09487809
-0.07255447
-0.053951055
-0.038905296
0.020099202
-0.01732997
-0.0034815527
0.065060325
0.023883652
-0.06703465
-0.04773596
-0.062324435
-0.0531149
-0.07628932
-0.00022760878
-0.011066234
-0.057609312
0.016226415
0.011574948
0.0082449755
0.01621589
0.05079109
0.092332885
-0.019709978
-0.017542094
-0.006082294
0.055655062
0.0044761947
0.019811537
0.0011371265
-0.0053154207
-0.0042405888
-0.019178461
-0.078567326
-0.065996155
-0.068635136
-0.056226324
-0.037116263
-0.05050017
-0.06286195
-0.050917756
-0.041291162
-0.023385994
-0.010634303
-0.071016654
0.03738936
-0.019491076
-0.06125444
-0.0782852
0.019604797
-0.00921947
0.02371557
-0.0069039557
0.040491294
-0.015119436
0.001810592
0.040125355
0.037815288
-0.018373633
0.008409944
-0.035506416
-0.014946003
-0.071635656
-0.10109301
-0.010842461
0.027162135
0.030661702
0.039608665
-0.014948456
0.077690326
0.04438172
0.097331055
0.01910531
-0.009557876
0.0035427113
0.010677907
0.06299964
-0.019402869
-0.04374866
-0.014051801
-0.04609344
-0.09276984
-0.061531793
-0.06924007
-0.010963787
-0.04367629
0.015143086
0.009825466
-0.02531086
-0.010561406
-0.020723216
-0.080477975
-0.06071924
-0.04709341
-0.067813866
-0.019904654
-0.074578986
-0.050824817
-0.09396038
0.07393489
-0.06219272
0.028144957
0.069014855
0.086843744
0.035079427
0.013858196
0.06512801
0.06284496
0.06507383
0.022450093
0.10589198
0.077032134
0.03509726
-0.034568135
-0.07082959
0.11167063
0.10151384
0.029659139
-0.05158219
-0.081054084
-0.0031429552
-0.020762358
-0.009744844
-0.025690189
0.036040884
-0.10502248
-0.0025569864
0.006189149
0.08167581
0.12884116
0.027196895
-0.009107558
0.04198164
0.015746212
0.102353685
0.006083232
-0.044005286
-0.093391374
-0.03627184
-0.023955397
-0.04007736
-0.021850975
0.032016978
0.0441191
0.04440851
0.008532899
0.06591963
0.06617541
0.0073606493
-0.053650327
0.073211685
0.0002111688
-0.00026641643
0.014399771
0.07039662
-0.013423585
-0.008024072
-0.022910152
-0.011382122
0.0026998327
-0.055711064
-0.052202642
-0.00082627544
-0.04537866
0.010056652
-0.0713921
-0.03265311
0.01882875
0.015210113
-0.0051911063
0.010865796
0.017046157
-0.0145192025
-0.03760222
0.032492027
-0.017608192
0.022637092
-0.020339748
0.017082136
0.030962968
0.042159513
0.043007042
-0.019717501
-0.021980917
-0.09701856
-0.043712597
-0.055476356
-0.029869018
-0.026202694
-0.040458195
-0.07706065
-0.06441336
-0.037236214
-0.01852142
0.038182937
-0.0043082
0.031146318
0.05720216
0.00048180373
0.03688693
0.049156625
0.06261917
0.054181956
0.014695115
0.049914483
0.014292134
0.07556951
0.05843771
0.0021817414
-0.08622177
-0.049018722
0.019047314
-0.046780936
-0.04659809
-0.043266583
-0.05500211
-0.03364789
-0.049306534
-0.03012008
-0.019364646
-0.073790856
-0.042743314
0.04091015
0.07549032
0.07173695
-0.045328245
0.072635435
0.07427845
0.008887855
-0.019283524
-0.005487369
0.03280319
-0.022610903
0.025336914
-0.07293661
-0.072444454
0.021094248
-0.05709631
7.816355e-05
0.052467473
-0.11424448
-0.108093575
-0.04367466
-0.0034030012
0.07487891
-0.16182289
-0.08700958
-0.060381744
-0.025692293
0.00080678536
-0.14507428
-0.096101314
-0.0014640937
0.026010545
-0.05852355
-0.09272704
0.042902578
0.051634222
0.047009658
0.013470658
0.019251304
-0.0601796
-0.08157525
-0.08188964
-0.016533505
-0.059032403
-0.09484604
-0.11122569
-0.08772759
0.010181587
-0.05334812
-0.11858108
0.00872434
0.06706547
0.06502934
0.021380719
0.04516547
0.056451757
0.07802392
0.030357651
0.020515943
0.028433185
0.054595076
0.06856926
0.0026502195
0.006774797
-0.005421495
-0.07027141
-0.0005044453
-0.060140964
-0.011034356
-0.0016478449
-0.028313393
0.02750916
-0.07557797
-0.08300091
-0.03864898
-0.0015011197
0.031112026
-0.03502158
-0.0023937898
0.0058681583
0.055091485
0.05662778
0.035179745
0.03647456
0.0060284315
0.048906557
-0.051764958
-0.052427147
0.053955022
0.11225392
0.039856598
0.029122371
-0.032714777
0.06509789
0.079369344
-0.06642001
-0.054537915
-0.0549336
-0.07612239
-0.043171227
-0.013094889
0.055362128
0.08003243
-0.08825575
-0.07697295
0.016249996
0.078918524
0.042004522
-0.063005425
0.0016207815
0.0067517627
0.013191133
-0.008284274
-0.056682754
-0.03216985
0.023604525
0.0040175137
-0.06437485
-0.017818306
-0.10814258
0.035490535
-0.0036660125
-0.08082955
0.057216726
0.020206885
0.04520427
-0.03874039
-0.13174847
0.040368438
0.010409146
-0.0536571
-0.08896699
-0.112131126
0.05727929
-0.0008371713
-0.10634881
-0.050906785
-0.055623677
-0.007563422
-0.061463784
-0.02536719
-0.06099494
-0.015502638
0.02167396
0.037777442
-0.0023882377
-0.0020892795
0.1085795
0.05643997
0.044166867
0.025263276
0.07615158
0.027227312
0.04644167
0.074588865
-0.023677932
-0.050430737
-0.037536673
-0.027139751
-0.0424745
0.00094655337
-0.028688867
-0.023911241
-0.084359735
0.025458906
0.04185819
0.013122667
-0.039162204
-0.16468193
-0.109313965
-0.020976309
-0.13815367
-0.1764644
0.04828862
0.03444417
-0.049797717
-0.038656235
-0.033773936
0.14952111
0.12924422
0.13430189
0.0884798
0.06433819
0.08281075
0.084479414
0.07544678
0.08007303
0.019158209
-0.058634493
0.03304497
0.003737225
-0.015277033
-0.05617808
-0.08295981
-0.0256726
0.01876447
-0.03852308
-0.07760811
-0.034386493
-0.06360374
-0.017104406
-0.03118046
-0.07300713
0.014661124
0.026832122
-0.0018530362
0.023928517
-0.0487398
0.074240685
0.028472876
0.067142
0.052308116
0.04822267
0.022278186
-0.018011112
-0.018820614
-0.0033362142
0.10098588
-0.057830412
-0.031600256
0.05612788
0.034804292
0.0412735
-0.012031812
0.03840716
0.0400277
-0.008095053
-0.011502976
0.01307099
-0.08928967
-0.12819396
-0.16000235
-0.12907717
0.09191952
0.009915433
0.03539499
0.038175754
-0.0055673965
-0.04252286
-0.048369117
0.050533157
-0.046712488
-0.1416686
-0.053369824
-0.09100916
-0.031749822
-0.056524992
-0.093987696
0.101303734
0.15017602
0.1275171
0.049248982
0.036511377
0.17999028
0.17529298
0.10602731
0.096936956
0.1114044
0.08135009
0.0020521262
0.037588295
0.03514173
0.044600084
-0.07374157
0.007457418
0.12565641
0.03356935
-0.01709481
-0.15477198
-0.04154187
0.04833965
0.041104704
-0.063516274
-0.08533315
-0.08096567
-0.08180087
-0.08184971
-0.06939377
-0.08209658
0.021768985
-0.05551368
-0.0857394
-0.009089689
0.0046799793
-0.058318038
-0.008455548
-0.035226803
0.00940383
-0.042092096
-0.061765738
-0.009139531
0.008592415
-0.08807196
-0.102606796
-0.057592537
0.0013615242
-0.053443324
-0.112537436
-0.052807875
-0.068624556
-0.10250992
-0.07650476
-0.069902286
0.0870406
0.12653181
0.081323214
0.0015881741
0.023640681
0.025225561
0.0084516965
0.1168979
0.05147277
0.04076541
0.024700707
-0.01807564
0.021500716
-0.007796067
0.047744203
-0.055968657
-0.005890202
0.049724117
-0.03699418
-0.03582983
-0.056904677
-0.09193716
-0.07773516
-0.11814622
-0.08239721
0.042137258
-0.0043650353
-0.047341544
-0.007732276
-0.078981146
0.0076621054
0.019233728
0.011398466
0.04877943
-0.033107042
-0.026716284
0.004014044
-0.03775128
-0.051282406
-0.038834646
-0.13959216
-0.10891862
-0.056335602
-0.11096564
-0.12509467
0.039203957
0.007964692
0.011820378
-0.012882409
-0.03279686
0.078405485
0.107903674
0.035995964
0.022951877
0.02664571
-0.00047522094
0.0038272096
0.10187172
0.050222248
0.06873183
0.012796317
-0.017778685
0.01593653
-0.002771913
0.046727303
-0.0016393025
0.022528032
0.063275464
0.06226151
0.005409535
-0.009734536
-0.046679385
0.011032344
-0.014760358
-0.052853312
-0.09857611
-0.006433931
-0.123188905
-0.07692501
-0.03722839
0.04745695
0.061717406
0.021508966
0.030234585
0.016771609
0.06657501
0.10032296
-0.0036372652
0.049063854
0.043659333
0.047252815
0.07546792
0.13077153
0.08288123
0.052327015
-0.0691406
0.0027072788
0.13384132
0.1395902
-0.029384334
0.01085192
-0.038930587
-0.0200153
-0.03912814
-0.1113446
0.0044155843
0.041244905
-0.01956225
-0.023113962
-0.0036732033
0.025692476
-0.026621811
0.0033129803
0.0028244148
0.004398047
-0.020641904
-0.083385386
0.03783296
-0.012187782
-0.024669657
0.015909731
0.06989304
0.08344579
-0.0016291087
-0.03901961
-0.021117749
-0.074938715
-0.043793544
-0.11338864
-0.13387597
0.09859211
-0.006083517
-0.04559581
-0.0947843
-0.12987268
-0.029503446
0.00095245853
0.018598339
-0.030177897
-0.049386356
-0.08046881
-0.022672307
-0.009932809
-0.042313788
-0.06347391
-0.05061843
-0.02588232
-0.09598391
-0.060548186
-0.0740749
-7.030449e-05
0.05008638
0.031143276
0.024826432
-0.008391134
-0.00045471586
0.01126397
0.023168564
0.016929813
0.00056029327
-0.011827335
0.040036734
0.059649996
0.045715433
-0.032465182
-0.07805226
-0.023988884
-0.016724227
-0.07816057
-0.105360836
0.023862312
-0.047276855
-0.06520207
-0.055269808
-0.04144029
0.03150301
0.010574082
0.037048124
-0.040674828
-0.031381316
0.025656076
0.06620056
0.047532383
0.00941542
0.027237844
-0.027163565
0.045347776
0.018189134
0.019191632
0.0049830168
-0.024805915
-0.02090541
0.0038336478
-0.019811392
-0.066539094
-0.053094566
-0.087782495
-0.072354
-0.10087727
-0.047692496
-0.010172466
0.014198184
-0.021332089
-0.016707214
-0.033782158
0.025293235
0.056330144
0.05496396
-0.032895256
0.025123775
-0.07776468
0.044055603
0.05854107
0.0011897628
-0.14596005
-0.040288508
-0.023377668
-0.043465465
-0.16573729
-0.10762181
0.014814709
0.05283354
-0.001791862
0.004300452
0.010626656
-0.05917781
0.007976583
0.07552403
0.090747304
0.08611014
0.020621292
0.024539405
0.07101495
0.084109426
0.044597194
-0.059656505
0.025149846
0.03413894
0.09877004
0.028232645
-0.0014396599
0.002828267
-0.020341357
-0.003997892
-0.05972495
-0.10526571
-0.068180926
-0.09776134
-0.1300754
-0.10530342
-0.057471707
-0.05315661
-0.11080152
-0.09267943
-0.07420255
0.028874118
-0.0024679992
0.029074878
-0.04399812
-0.010695359
0.021922214
0.026879685
0.0068073706
0.0034650979
-0.0417088
0.0017867137
-0.015702154
-0.04643146
-0.013156309
-0.09163182
-0.012838981
-0.022470856
-0.061658397
-0.05198479
-0.038875807
-0.028677136
-0.027146239
-0.010592899
-0.020972019
-0.06015043
0.024215892
-0.006335638
0.04377112
-0.029086804
0.02790841
0.07163796
0.022245865
0.01010802
0.09459828
0.0970929
0.06631634
0.10769653
0.12079802
0.095728554
0.024333525
-0.062479373
0.00044964062
0.031825133
0.028775409
0.0010242979
-0.00303085
-0.012411024
-0.04475251
-0.09202718
-0.0964799
0.023104912
0.03994597
-0.040895175
-0.032413594
-0.00010578219
0.031558953
0.0625755
0.036795456
-0.07650747
-0.01962792
-0.11575385
-0.116637066
-0.053932525
-0.10135142
-0.12080683
-0.06302443
-0.07671748
-0.08469573
-0.09372682
-0.058741815
0.023106705
0.010855852
0.06256874
-0.0029066254
-0.0026158174
0.0036371287
0.04609245
0.010124179
-0.041937556
-0.075449474
-0.07631003
0.01489157
0.029008245
-0.009183307
-0.04412151
-0.07168351
-0.050183035
-0.07805973
-0.033966817
0.0026690357
0.02857083
0.047083654
0.0070288004
0.031353265
0.0072899857
0.010286252
0.04748373
0.08731851
0.018554442
0.014104121
0.05317267
0.09086417
0.010339439
-0.037631378
-0.05879339
-0.040974766
0.019675022
0.021818807
0.018520342
-0.025230644
-0.009547793
0.01428694
-0.020362562
-0.0016633641
0.0061334944
-0.04084804
0.0111419605
-0.01176932
-0.019276956
-0.02821175
-0.033518746
-0.04287865
0.016416682
-0.009230387
0.026685942
-0.042496968
-0.036423683
0.008957755
-0.034932286
0.028144158
0.024602983
-0.049208347
0.023957508
-0.02962441
0.030161764
0.0024359315
0.013743009
0.0022421149
0.02971807
-0.001236518
-0.04081926
0.038502734
0.00076997775
-0.020341646
0.004626903
-0.038140938
0.0022247948
0.0001516618
-0.013192961
0.032434456
-0.018633517
-0.008404753
0.009953768
0.018874787
-0.024725651
0.03220238
-0.0006080586
-0.044917643
0.013624216
-0.033165716
-0.007534817
0.014122571
-0.015685992
-0.002839106
-0.0011643587
0.035286754
-0.03144108
-0.0021187393
-0.035176113
0.014755534
-0.03003203
-0.009694036
0.037117768
0.029331617
0.03594499
-0.018009683
0.0006496633
-0.04183946
0.022284972
0.050093293
-0.021360643
-0.0006244217
-0.0071190963
-0.050981615
-0.03457287
-0.041739818
0.0189829
-0.03377034
0.010769038
-0.021992648
-0.029758632
-0.020148288
-0.0034709938
0.038818985
-0.039639294
0.022484051
0.03773326
-0.027071154
-0.036340404
0.008437982
-0.034532353
-0.007493377
0.0030687388
-0.010387889
0.03984414
0.038396407
-0.023534613
0.03466201
9.375409e-06
-0.023080561
-0.034372084
0.034408674
-0.0060179858
-0.024166109
-0.001865239
-0.015666045
-0.03848248
-0.02545383
0.04294015
0.01201424
0.026212612
-0.031460885
0.019857591
-0.042987365
0.008513679
0.02896025
-0.0076950663
-0.024484215
-0.0064012557
0.013988649
-0.014035922
-0.030001584
0.02394016
0.034928285
0.033899248
0.0063103307
-0.0037785466
-0.011046688
-0.0049427827
-0.048059005
-0.02424445
0.023131164
0.0025653893
0.017706841
0.030740079
-0.042200685
-0.04347894
0.007952536
-0.00077094784
0.02831511
-0.043449212
0.02517915
0.03761592
-0.014394078
0.010697733
-0.04490108
-0.0057758563
-0.029232332
0.014749799
0.018019252
-0.043153804
0.008425535
0.00038712923
-0.04762487
-0.04489353
-0.0093574
-0.0012158633
0.00049876777
-0.029776387
-0.03364307
0.03632648
-0.03412828
-0.025895927
-0.045154694
-0.019488353
-0.02826611
0.029363915
-0.030118598
-0.045107573
-0.006735942
-0.0412978
0.03396729
-0.016140707
-0.035392445
-0.0022024906
-0.010089148
0.03777913
-0.043551806
0.023378052
-0.008998964
-0.038980924
-0.04475504
0.0040996866
0.009040575
0.028091408
-0.040662773
-0.029366277
0.006053211
0.014320134
-0.017138744
-0.016148143
0.02067509
0.024443945
-0.046871986
0.007403486
0.0066706236
0.026688134
-0.00076259364
-0.009794843
0.022623468
-0.021460697
-0.029510764
-0.018028282
0.015543743
0.013493586
-0.027466157
0.026337849
0.008914577
-0.013816681
0.027655303
-0.020117141
-0.0036030037
0.015035291
-0.013503659
0.034972984
0.0287256
-0.045144457
-0.033428196
0.015265478
0.0014916242
0.018509312
0.00424228
-0.03959938
-0.014591423
-0.006893971
-0.027139213
-0.008912378
-0.018141057
0.008739342
-0.049900547
-0.049264167
0.027484031
-0.023952221
0.012478829
0.015753232
-0.02950422
0.033131253
-0.029563269
-0.0024804585
0.017769491
-0.014271099
0.023146585
-0.015062224
0.010917842
0.0031504766
0.001139179
-0.0032352651
0.0033216076
0.035787
-0.0025662528
-0.050715003
0.005076707
0.0046864823
-0.035221506
0.037039608
0.010732799
0.015731687
0.013793714
-0.022645086
0.0070575606
-0.023169152
0.01568277
-0.0030874694
-0.035391822
0.0031294408
-0.022047633
-0.043387853
-2.5273088e-05
0.016118843
-0.045972005
-0.016384766
0.03144518
0.0015795582
-0.002890384
0.016473914
-0.04227056
-0.03804333
0.01688966
-0.01689713
0.034575135
-0.014569333
-0.008720459
-0.030640254
-0.002510309
-0.012309527
-0.044310357
0.009064575
0.033834606
0.033568427
0.015196103
-0.05003699
0.012773384
-0.017127473
0.00066913356
0.031911463
-0.007918843
-0.008002276
-0.03786916
-0.040477633
-0.02541112
-0.018678468
-0.021783128
0.018073846
-0.014643397
-0.042472742
0.008346221
-0.01722135
-0.00036778089
0.026211353
-0.025020115
0.022557823
-0.018382246
0.037483633
0.003383528
-0.025178853
-0.0103031
-0.016183829
-0.020498099
-0.048473343
0.022594752
-0.023800595
-0.010588627
0.022246294
0.031263325
-0.0445566
0.033040646
0.026579864
-0.043027014
-0.015034416
0.023118638
-0.03272991
-0.010386116
-0.015754411
0.019760305
-0.0410268
0.0038078397
-0.044457667
-0.007535244
0.03808113
0.011611777
-0.0072913878
-0.001383535
-0.025263347
0.03398145
0.022311097
-0.00655782
0.0024261312
0.029740836
-0.0450334
0.020576796
0.003560764
-0.03618953
-0.0194594
-0.020329496
-0.02113321
-0.006356357
0.021238742
-0.0044184607
-0.021772569
0.03090106
-0.038317174
0.0034174435
-0.050669294
0.031070117
0.015480783
-0.0041459617
0.016371863
0.008392682
-0.0032813887
0.04515398
-0.041586474
0.0033355798
-0.012134167
-0.031207329
-0.024149012
-0.048202198
0.006451886
0.009951159
0.01246678
0.01376914
0.0035790747
0.025191728
0.03595066
0.0014869841
-0.017577672
0.029368827
0.017593507
-0.016430225
-0.036906656
0.010271844
-0.03657341
0.03164738
-0.020714141
0.018308518
0.012855947
-0.024340803
-0.023463504
-0.018145913
0.011187281
0.01299344
-0.042755928
-0.026371539
0.035173643
0.013290749
-0.009507618
-0.033981193
-0.016228667
-0.010656998
0.012803234
-0.0019368856
-0.025337141
-0.02694223
-0.010117698
0.022538375
0.013234762
0.006562251
0.0010979209
-0.042655524
-0.027583912
-0.027230658
-0.044820987
0.0059684915
0.005532487
-0.049847532
0.0045875153
-0.023044681
-0.036813702
-0.03134453
-0.020779328
0.037650418
-0.04586178
-0.005636306
-0.0418548
-0.018287295
0.0123170065
0.02836497
0.019803414
-0.023469754
0.004421254
0.018001348
-0.027373279
0.03404301
0.036895934
-0.033579685
-0.008018879
-0.0094490675
0.030054057
-0.0072823586
0.04367571
-0.0057846676
-0.03279537
-0.022332344
0.036844544
-0.012353122
0.008099994
-0.03564649
0.030228421
0.016751526
0.017705454
0.024120374
-0.0386719
-0.019448075
0.008928267
-0.034077927
-0.029601764
0.015597633
-0.028149469
0.03814792
-0.0110283755
0.022584308
-3.083986e-05
-0.033134773
0.006353879
-0.032584045
-0.047163233
0.0030896654
-0.025668308
-0.027573535
-0.028274106
-0.0355302
-0.008180241
0.016065925
0.0071069417
0.0069124256
0.03906178
-0.0026177294
-0.04236201
0.034564056
-0.034885608
0.01190399
0.022362221
0.03044385
0.021719297
-0.0392492
-0.028177964
0.0012102178
0.00461933
-0.035558928
-0.048952803
-0.08232229
-0.041727282
-0.09583841
-0.026977506
-0.0692758
-0.009434448
-0.046719864
-0.03197836
0.016112847
-0.0155066885
0.030744875
0.00032652586
0.009664935
0.019741531
0.059896793
0.048743457
0.05061631
0.07364952
0.10652715
0.060470436
-0.009962762
0.037102453
0.03009903
-0.008282334
-0.015186493
-0.05613943
0.030759975
-0.01103607
-0.0068665557
-0.03862749
-0.050357245
0.008501215
0.055180494
0.002283018
-0.009815541
-0.039611887
-0.010019664
0.022615595
-0.017259832
0.039797544
-0.032828197
0.042790454
0.05999571
0.01852346
0.015476564
-0.0032325848
-0.12856832
-0.10856485
-0.060524046
-0.06494157
-0.10329998
-0.13112931
-0.04996707
-0.035632465
-0.07036666
-0.06432596
-0.16826895
-0.13559252
-0.11693527
-0.08007042
-0.03618589
-0.12603489
-0.106120884
-0.05508474
-0.047662582
-0.047061183
-0.02092419
0.035264738
0.0045472393
0.023858892
0.029245669
0.056454998
-0.005203141
-0.027600061
0.036661297
0.02540655
0.016422091
-0.023048716
-0.077287644
0.03330511
0.053973686
-0.09136497
-0.13123341
-0.10299854
0.030731993
0.05239663
-0.18818903
-0.040561657
-0.0033433074
0.041187488
-0.051310953
-0.12938109
-0.018816583
0.07716446
0.005856911
-0.112762064
-0.07225827
-0.06623165
-0.026469398
0.078061834
-0.023475433
-0.05163144
0.003097613
0.04450757
-0.005385968
0.035025172
-0.027038565
0.06299634
0.08921504
-0.03696267
-0.0313962
0.046438474
0.01868722
0.050623454
-0.020916501
-0.031481866
0.024398306
0.02118307
0.04161311
0.011853091
-0.04777326
0.026406247
-4.4097338e-05
-0.043254077
-0.012533218
-0.017128758
7.279835e-05
-0.050001908
-0.0503938
-0.04909588
0.043311995
0.014330354
0.034783524
-0.042453438
-0.024284035
0.047087394
0.0073174518
0.06325044
0.0009900797
0.046682395
0.050188776
-0.015120136
0.043800373
0.0970387
-0.012998333
0.025181195
-0.009308171
-0.06265622
0.0033824511
0.007148106
-0.047918856
0.027550206
0.022109298
-0.04043947
-0.02931703
-0.001335846
0.025504613
0.01430036
-0.07036297
-0.055114686
-0.031203289
0.059063874
0.032528844
-0.009869694
-0.013424045
0.04196225
0.042127226
0.0008878243
0.013093507
-0.023696736
0.0038546927
-0.016651118
-0.006176779
-0.018537419
-0.060969412
0.029805394
0.011290819
0.014924192
-0.00097034813
0.041227393
0.06779631
-0.028202077
0.057789054
0.03570273
0.0007424997
0.05423674
0.032320913
0.017123368
0.057919238
0.06105223
0.029015193
-0.01917753
0.06408309
0.0054927506
-0.015027611
-0.058927447
-0.03315509
-0.045100134
-0.034530193
-0.068001516
-0.058438163
-0.0273721
-0.07349367
-0.07862404
-0.063991494
-0.04886365
-0.038857028
-0.002277666
-0.072606914
-0.05374633
-0.050701182
0.011723524
-0.015971815
-0.07178905
-0.04587393
-0.040714975
-0.014647572
-0.023508409
0.017846474
0.031238664
0.08241477
-0.13092758
-0.206469
-0.10479527
-0.050943445
-0.02432969
-0.20991816
-0.17912148
-0.031612203
-0.07993099
-0.1098019
-0.22890697
-0.12671874
-0.0829079
-0.09871259
-0.0206347
-0.10350268
-0.109707445
-0.10147104
-0.05762127
-0.013509109
0.019218348
0.06366155
0.044313278
0.037729077
0.04788771
-0.014077873
-0.0550761
-0.012004718
0.017101664
0.012139067
-0.0434864
-0.054239064
-0.07904963
0.0014419308
0.043043196
-0.01687533
-0.07171993
0.000269705
0.04384948
0.006113465
-0.036205113
-0.0051813563
0.08097755
0.08238712
-0.02134036
-0.0563619
0.02499134
-0.029006194
-0.04896453
-0.034226246
-0.0030771922
-0.020232119
-0.05787575
-0.01994263
-0.060773056
0.049721964
-0.03223156
-0.047864072
-0.07003417
-0.025126686
0.024665829
-0.027299015
-0.017862272
-0.049944285
-0.025090192
0.055790365
0.037611432
0.035813052
0.04330351
0.05214633
0.0020292068
0.017118327
0.06523408
0.04534224
-0.020576674
-0.033404738
0.021635078
0.00828312
-0.04774252
-0.074383765
0.035420742
0.060268953
-0.054725807
0.010460446
-0.055652633
0.05825389
0.073237814
-0.041260432
-0.0068348898
0.036434915
0.03789193
0.05437227
0.06258452
0.02996594
0.047721934
0.049923908
0.07307473
0.041401763
0.03310164
0.055894118
-0.040142488
0.021665942
-0.0012946897
-0.028252607
-0.00324341
0.011227216
0.020671898
-0.01719708
0.006444604
0.015213773
-0.027233649
0.0017000067
-0.022438917
-0.013049766
-0.00823109
-0.03175756
-0.032577846
0.019751634
-0.028332563
0.032052558
-0.013672209
0.031932518
0.04870553
0.03260777
0.056190353
0.07337671
0.045287162
-0.0023053694
0.07799132
0.014588503
0.0063935583
0.08029791
0.012884902
0.02805999
-0.005256082
0.030445842
0.040180836
0.009368853
0.004250773
0.0611475
0.044580117
0.05050688
0.06700116
0.05539339
0.07114214
-0.0613833
-0.08789418
0.002670649
-0.0066645434
-0.028888235
-0.029963646
0.036674064
0.06731937
-0.0033874116
-0.008793613
0.0016240426
0.075049736
0.0084945895
0.0049799895
0.007500379
0.045855463
0.05885022
-0.032239437
-0.0068903514
0.0015215959
-0.00981351
0.015334239
-0.043236695
-0.014941548
0.07050482
-0.03020157
0.020235967
0.042948306
0.022182176
0.054045826
0.008847539
0.015298356
0.02068295
-0.0091423765
0.0068361564
0.034878187
0.057390437
-0.035435323
-0.051180866
0.035971347
0.05114277
-0.035222568
-0.013749358
0.040265374
0.042669456
0.06357872
0.009600935
-0.017079053
0.044273436
0.05999781
-0.0030922336
0.017999845
-0.0002894308
0.0275799
-0.0052982564
-0.118643604
-0.102719985
-0.064478114
-0.051992264
-0.040553752
-0.15294106
-0.094421126
-0.06992443
-0.119816326
-0.065595336
-0.20794365
-0.12194937
-0.087537006
-0.15039554
-0.0001528254
-0.08165292
-0.017262124
-0.045356035
-0.016855394
-0.004134177
0.012442425
0.09183336
0.085523784
0.058634542
0.0989631
0.014638794
0.051638145
0.009060533
-0.02288613
0.03695644
0.062010106
0.033218928
-0.007401728
0.020511236
0.013899223
0.100942455
-0.024657624
-0.051867172
0.018881982
0.08076588
0.12574613
-0.034882147
-0.030315913
0.047527045
0.025238022
0.08006331
-0.031532116
-0.07066164
0.026081838
-0.014633233
-0.05137743
-0.06145619
-0.051047623
-0.013629651
0.02614899
-0.020621993
-0.0030557574
0.0419406
-0.026228398
-0.021548951
-0.038716935
-0.03398315
0.03103985
-0.012947807
0.049680367
-0.014309851
0.07334826
0.08253429
-0.0061863936
0.062378213
-0.020737357
-0.008396568
-0.032716
-0.0385281
-0.059985433
-0.031369537
-0.01822506
0.007190484
0.049725704
0.03980747
0.00521327
0.018315414
-0.02670199
-0.061951227
-0.06452873
-0.0013217034
-0.0465898
0.003859166
0.067433596
0.069645576
0.04236658
0.08485353
0.0041437345
0.025103709
-0.042246826
0.0857127
0.056801897
0.04106961
0.042647447
-0.011922941
0.04305379
0.024605287
-0.039604407
0.014765275
0.029158292
-0.0035979687
0.0026553473
0.037069082
0.08315047
0.0010215704
0.0064901426
0.0827065
-0.001304243
0.068107896
-0.012571659
-0.050991885
0.028259877
-0.0095313275
0.03025801
0.008768331
0.032797918
0.0248305
0.032062255
-0.045256566
-0.059152618
-0.017019622
0.004892418
-0.13667211
-0.040667053
0.010506746
-0.009677402
-0.0008065372
0.037647855
0.049625725
0.003975023
-0.042593278
-0.0033596572
0.017589798
0.04139182
-0.05818072
0.035743345
0.069559544
0.013420229
0.034770478
0.08928906
-0.018518118
-0.040980138
-0.026382755
-0.025538143
0.04239326
-0.03740715
-0.012611373
-0.026034016
-0.013316062
0.008155086
-0.0061078253
-0.102153614
-0.120086804
-0.06268276
-0.0388898
-0.09420505
-0.06311824
-0.06375547
-0.08715145
0.032852918
-0.052116707
-0.04306812
0.04054827
-0.0007523219
-0.040380802
-0.019016756
0.016391756
0.086268745
0.13251314
0.056872364
-0.010834394
0.14244907
0.032098547
-0.024124788
-0.05612196
0.07377571
0.009862707
0.026292963
0.098646805
0.09207804
-0.071584255
-0.008045319
0.10274204
0.033286624
0.019447202
-0.035047863
-0.019561477
0.0031160887
-0.015350571
-0.014167538
-0.0038219318
-0.041796423
0.0074319225
0.00832569
-0.016366052
-0.0134821655
0.07579204
0.06551031
-0.025045102
-0.026140206
0.055828415
0.032402076
-0.056187574
-0.029273916
0.021812327
-0.006550949
-0.013922548
0.026509797
0.03526463
0.05992648
0.029356273
-0.04348795
0.053679693
0.0067539313
-0.020776097
0.008989804
-0.013896153
0.06467616
0.02118728
-0.06671452
0.0065350113
-0.0041118786
0.011087401
0.048886057
0.06657109
0.027568176
-0.050357684
-0.0042227153
0.02699807
-0.022254266
0.034923892
0.059853144
0.026013087
0.009559806
0.0019399836
-0.024016012
0.04002635
-0.008248388
0.005823085
-0.009393217
-0.06222502
0.018822592
-0.005279577
-0.060888264
-0.007631888
-0.019673541
0.011659874
-0.00406893
-0.058182
-0.041640736
0.025374217
0.003887863
-0.008054571
0.014622776
0.05629112
0.020855093
-0.038425528
-0.0044973698
0.034366652
0.030713072
-0.009898225
0.0030032569
0.02874257
0.012330671
-0.020633576
0.05808263
0.055846985
0.0877164
0.012229991
-0.043552216
0.03901784
-0.021456178
-0.073523074
0.005762307
0.11078868
-0.05147992
-0.022086734
0.023426974
0.03255876
0.002583446
0.08129201
0.058351323
-0.015893586
0.04032971
-0.021790823
-0.031467523
0.019458633
0.007841429
0.010371351
-0.020132268
-0.092300616
-0.092428684
-0.08354464
-0.034887906
-0.025548648
-0.103822775
-0.095627606
-0.14281672
-0.17417368
0.008702222
-0.03226005
-0.049824473
-0.015766116
0.043087173
0.05231862
0.11060421
0.10721791
0.0701171
0.051136002
0.058926385
0.026792627
0.07318586
0.0026887963
0.09403024
0.06364071
-0.04251922
-0.019783035
-0.08457607
-0.06123468
-0.123234324
0.020699676
0.0098979
0.059005857
0.021473376
0.044086773
-0.020593561
-0.026838625
0.018850919
0.060626093
0.09365067
-0.10314262
-0.08355051
0.06260673
0.07013592
-0.019131135
0.009428354
-0.017818943
0.02664065
0.055486344
-0.01660233
-0.09152361
0.0038563027
-0.003295766
-0.05340432
-0.06018295
0.020911632
0.026222736
-0.011948149
0.03457084
0.017371636
-0.012854654
-0.0015751222
0.0043062605
0.073133804
0.052720822
0.037947025
0.05325013
0.007039987
0.056816537
0.055186857
-0.008231348
0.022429511
-0.044359583
0.030824035
0.018345257
-0.046197016
0.015294614
0.024122939
-0.033637308
-0.0591614
-0.021289902
0.045918938
-0.020315219
0.038238678
0.040934116
-0.004123988
-0.0150655545
0.01405597
0.016743721
-0.01116265
-0.048552655
-0.015877789
-0.033231966
0.027122917
-0.03863235
-0.063390054
-0.003417007
-0.077337444
-0.034322727
-0.039082848
0.010478647
-0.05657996
0.0149119375
-0.015621744
-0.03450707
-0.0676095
-0.01076805
0.052847844
0.06868293
0.05296918
0.045691114
-0.0067486414
0.05045342
0.05887766
0.028167633
0.042382233
-0.005188756
0.0075714546
0.047521073
0.07124032
-0.022317993
-0.041577082
-0.05653312
-0.07403394
0.01562389
-0.04096816
-0.037679087
-0.055738572
-0.055608787
-0.04765476
0.07233136
-0.034613326
-0.07023734
-0.0899313
0.045202233
0.032334737
-0.015687224
-0.016136875
0.04441972
0.018160935
-0.030408325
0.03300121
0.0200651
-0.048821036
-0.061224792
-0.059931044
0.0030995186
-0.035865474
-0.031065451
-0.011823427
-0.018770028
-0.022776876
0.021879982
-0.03692491
0.037293896
0.0027672036
-0.08014027
0.008259207
0.09390414
0.10581482
-0.037796218
0.0020407203
0.055500466
-0.024357446
0.027731014
-0.013728483
0.0012387964
0.031030929
-0.017721748
-0.03615739
-0.090991616
-0.060973387
-0.01955473
-0.081068434
-0.0441249
-0.043794893
-0.0047134575
-0.03863656
-0.06357233
-0.0026210519
0.052821446
0.012320357
0.0021219496
0.06496989
0.01712824
0.041283607
-0.0060386616
0.055400617
0.046719622
0.0066627907
0.004708979
0.026854075
0.04108913
0.019377604
-0.02988312
-0.05197951
-0.04212829
-0.030478323
0.019382615
-0.037972104
-0.046832148
-0.012539259
-0.0366193
0.02572627
-0.05400589
-0.084759586
-0.12001888
-0.06841544
-0.008447499
0.10811916
-0.05409901
-0.008794466
0.037896276
0.049056284
-0.01666244
0.114754476
0.024508562
0.06825289
0.061261557
0.030076146
0.03060846
0.052658003
-0.0031837088
0.007368497
0.057961415
-0.038948853
-0.027966918
-0.06623369
-0.105861284
-0.10488451
0.053128257
-0.036933012
-0.053061113
-0.058629043
-0.1444263
0.04797018
-0.017116576
-0.0074622002
-0.047553953
-0.06616163
0.027798284
-0.034111645
-0.060896333
-0.043620262
-0.1332114
0.041475452
-0.012766834
-0.030348327
0.01678597
-0.09556453
0.0030533418
0.03298254
0.00943075
-0.02996969
-0.09680354
-0.006000268
0.046949882
0.004214385
0.021110531
-0.049759664
0.0070567066
0.0030885015
-0.043425027
0.012766425
0.046350077
-0.013310594
-0.040335614
0.0068084546
0.033205613
0.009040138
-0.027834864
-0.016588364
-0.01790347
-0.0029830856
0.0419713
-0.017007893
-0.04416016
-0.018856172
-0.0018369402
-0.042294353
-0.054099467
-0.059016537
-0.04567893
0.06280966
0.0230959
0.0013327114
-0.091986254
-0.013874531
-0.04522672
-0.06671237
0.063237876
0.024342837
0.08185645
0.07327717
0.070778936
-0.05260538
-0.03174732
0.1306592
0.08120015
-0.11075996
-0.20632018
0.021370025
0.08309626
-0.05321597
-0.086933695
0.02237059
-0.051301274
-0.04351558
0.016090892
0.0155428415
0.011210812
-0.012525487
0.039394002
0.059644174
-0.043831233
0.017184773
0.042365175
0.034390762
-0.03029787
-0.024233626
0.044956505
0.0045012846
0.024694836
0.020829206
0.035806686
-0.018688854
-0.083710134
0.0051330994
-0.09942755
-0.04549171
-0.10013454
-0.109836064
-0.1162042
-0.039760392
0.033450827
-0.12083103
-0.152749
-0.0031627316
-0.022957925
0.010902578
-0.13008048
-0.13487889
-0.12810847
-0.062647425
-0.0005407976
0.0509078
0.084107794
0.1284593
0.14701861
0.040915392
0.038717333
0.062001683
0.17021081
0.10713141
0.02015528
-0.006954979
0.08642142
-0.027223857
-0.045575175
-0.06651758
-0.008856369
-0.057018273
-0.110165656
-0.02725191
-0.014100131
-0.048676167
-0.10855043
-0.0006439591
-0.015908172
-0.036573004
-0.175515
-0.06656251
-0.07998972
-0.05374092
-0.12059772
-0.13593136
-0.003772958
0.13283998
0.051906142
0.0204303
-0.034369048
0.08475421
0.035725437
3.2304502e-05
0.043323953
0.006794427
0.081920624
0.041681357
0.055120703
0.009503419
0.027922349
0.06695672
0.15218732
0.09203395
-0.04498777
-0.0831852
-0.0326033
-0.019024843
-0.10197586
-0.015690172
-0.06396769
-0.010998183
-0.08973558
-0.024936512
-0.07513167
0.032030396
-0.004738517
-0.0120619135
-0.057094835
0.053199794
0.01959098
0.021449376
-0.075036086
-0.009331511
-0.042138036
0.03725636
-0.017739149
0.0983363
0.05115777
-0.05513962
-0.026821626
-0.034620855
0.13262141
0.016275773
-0.02225887
-0.14838928
-0.09742528
0.05778985
0.009245186
-0.10843253
0.030786233
-0.006211271
-0.095908776
-0.013659178
0.01679779
-0.018713543
0.0025306833
-0.0025086955
0.036895163
-0.0060127107
0.026287496
0.042302012
0.06358303
-0.008399005
-0.0288219
0.0024435557
-0.003804518
0.03466404
0.09906346
0.031339288
-0.016923893
-0.06633876
-0.025292858
-0.06260876
-0.099485345
0.041352257
0.034581322
0.033396438
-0.03194022
-0.04163362
0.014713795
-0.025811281
0.016446965
0.05866958
0.00911075
0.00534586
0.020663925
0.06308092
0.017815694
-0.096771255
-0.1292284
-0.04161866
-0.058927607
-0.14756736
-0.17150061
-0.10336463
0.041552156
-0.04120554
-0.124030724
-0.086566046
-0.051655356
-0.03732068
-0.06276266
-0.02846954
0.04857026
-0.0632862
-0.041152306
-0.014286418
0.014547493
-0.00027984785
0.0072832187
0.015937757
-0.0002448123
-0.030672384
0.0085563315
0.048535973
-0.01386132
0.09598855
0.11534998
0.11349453
-0.010769097
0.013592936
0.0075595225
0.01938104
-0.10826818
-0.22396393
-0.22517735
-0.15080321
-0.047960293
-0.022188399
-0.10806371
-0.15172374
-0.13023579
-0.00091755495
0.032542206
-0.04585818
-0.005246273
0.09268206
0.0067101927
-0.052334957
-0.016572472
0.1612099
0.17323631
0.11656943
0.11205191
-0.016713163
0.019100903
-0.0028574658
0.0017401266
-0.023580594
-0.02264347
-0.0423475
-0.051751245
-0.028406791
0.0013210276
-0.043448184
-0.05779743
0.06048746
0.10677658
0.081005335
-0.13989931
-0.09676639
0.03486351
-0.005608017
-0.07185311
-0.08227882
-0.071141705
0.09268386
0.08079743
0.089550294
-0.1443429
-0.02985979
0.046777822
0.093540855
-0.0035981105
0.028088478
0.032783203
-0.068282634
0.006518243
0.065604135
-0.004052592
0.018708624
0.0064037107
0.015329942
0.005640214
0.034224357
0.05528601
0.028521491
-0.036417283
0.019682601
0.011616597
-0.011980711
-0.044160478
0.006658079
-0.01834262
0.0022442278
-0.017664738
-0.0506508
-0.06351287
-0.11015684
0.025965108
0.013581431
-0.0011118223
-0.020005824
-0.03175196
-0.005141871
0.024768978
0.021177163
0.021778293
0.035083976
0.017501848
0.0050804503
-0.020201556
0.022688175
0.020135742
0.025055803
0.030319696
-0.049263287
-0.033918936
0.000840258
0.016576022
-0.023609227
-0.0072393324
0.01205657
-0.052347887
-0.077829465
-0.06982277
0.020144282
0.059171256
0.046161707
-0.055738438
0.043365255
0.034071565
-0.0077264355
-0.008149922
0.019065605
0.0033037066
0.053857733
0.10594513
0.10247517
0.0062525044
-0.0049776165
0.019513415
0.005925738
-0.059050784
-0.06860801
-0.10186307
-0.04701224
-0.046160374
-0.033802345
0.009313102
-0.01660773
-0.012548463
-0.11145759
-0.103925474
0.085833475
0.024843143
-0.018950894
-0.025457295
0.04944462
-0.0014276538
-0.03339061
-0.08600453
-0.050399512
-0.023662595
-0.041423075
-0.008034188
-0.16536619
-0.044941094
-0.014021371
-0.06968694
-0.056132924
-0.07793462
-0.06654289
0.009880209
0.0024658202
0.079485625
0.04905732
-0.03169644
0.0075684325
-0.059995227
0.0022926852
-0.011999807
-0.0738766
0.044845957
-0.07215298
0.006636195
-0.032254186
0.03701659
0.084072016
-0.062461868
-0.02657033
-0.04799468
0.02178724
0.004505311
-0.017088763
-0.049065143
-0.0942501
-0.037567087
-0.0025624696
0.01116401
0.018883882
-0.025661632
0.030037249
0.081918016
0.015381041
0.03805318
0.01760139
0.025709443
0.031470086
-0.0093700215
0.032397926
-0.02005898
0.04263434
0.020291667
0.034174778
-0.02627855
0.07420032
0.120062694
0.056243293
-0.060799073
-0.10185071
-0.023536453
0.013994282
-0.1295773
-0.19775559
-0.14141604
-0.035555612
-0.031261686
0.0090089245
-0.11131881
-0.15802023
-0.08790071
-0.04800781
-0.048922144
-0.07947691
-0.026629135
0.036111336
0.076832436
0.06432915
0.05022152
0.10425798
0.12656651
0.15949477
0.124530494
-0.15025687
0.05599831
0.005537344
-0.08818309
-0.15366383
0.026277693
0.05858078
-0.0053210934
-0.005903828
-0.045571458
0.05142288
0.025973165
-0.0041576913
-0.010945301
0.0012314806
0.048431873
-0.029851919
-0.0056497916
-0.03743581
-0.047473185
0.0100876335
-0.028199673
0.0355967
-0.12151009
-0.11837236
0.05855397
-0.043540616
0.057539877
-0.03943625
-0.070234194
-0.03847957
0.006216075
0.002514995
-0.013997804
0.028993951
-0.0150305135
0.08303298
0.08892372
0.08343525
0.040416855
0.020281114
0.012096253
0.08487946
0.044659298
-0.032575123
-0.098495886
-0.09126407
-0.08672418
-0.11001006
-0.03117459
-0.071569085
-0.11002745
-0.023006262
0.028951053
0.050800763
-0.08635019
-0.0036192809
0.008403703
0.008683992
-0.040192537
0.062013615
0.044113707
0.052731488
-0.04377523
-0.060473353
0.040098052
-0.0007584208
-0.15049262
-0.124024615
-0.05905806
-0.006040774
-0.023317447
-0.08102633
-0.044010617
-0.10644199
0.000121899124
-0.051195834
-0.12530312
-0.11180756
-0.03369122
-0.041496594
-0.08275895
0.044080175
-0.017310986
-0.025015928
-0.022200238
-0.049682323
0.038568504
0.057047345
0.025010375
-0.031949636
0.004541071
0.0021956186
0.009250633
0.009336883
-0.062300444
-0.07486204
-0.049519386
0.071833834
0.03276379
-0.10015854
-0.06309413
0.0018475903
0.034945436
-0.007782669
-0.11180333
-0.113386996
-0.17036982
-0.1828943
-0.10109522
-0.070723996
0.011897782
-0.07867104
-0.0688088
-0.018226286
0.15416974
0.12631842
-0.085451715
-0.011167426
0.022127299
0.19833964
-0.031782553
-0.14223449
-0.02598733
-0.017483197
-0.0024654183
-0.12976308
-0.06646336
-0.047050055
-0.026495816
0.010840795
-0.016191736
-0.0012494418
0.00036745376
0.023649678
-0.006365831
-0.041565474
-0.06063
-0.05971748
-0.061746553
-0.056378644
0.0071611204
-0.08657228
-0.10248388
-0.018951068
0.026901828
0.07091646
-0.11055455
-0.19318333
-0.045958202
0.038663812
-0.06235325
-0.20203316
-0.088132985
0.03629033
-0.026951862
-0.01913762
-0.13813919
-0.0051008565
0.080326505
0.023033192
-0.043441862
-0.13514395
0.010570172
0.014355822
-0.023698218
-0.102423824
-0.11623108
0.017481893
0.03663197
-0.035638835
-0.0613476
-0.16625254
0.077827916
0.063553765
-0.03085116
-0.14013685
0.036096424
0.019228816
0.021852136
0.020936532
-0.0011405146
-0.054984793
0.0074334387
-0.037893746
-0.0027806696
-0.00039455894
0.05546391
0.042423517
-0.06962467
-0.05769125
-0.04110989
0.030026421
-0.107096285
-0.08401585
-0.044561896
0.053180657
-0.06913412
-0.11303721
-0.03870362
0.04896444
-0.027899135
-0.0628982
-0.047271762
-0.015118743
-0.08915089
-0.05648429
0.04316608
0.0343312
-0.0997735
-0.07020703
-0.027982129
0.09213382
0.06563064
-0.04564414
-0.005791949
-0.009584946
0.07535869
0.022501975
-0.09257253
0.037742056
-0.00985867
-0.037211798
0.029389454
-0.058395185
-0.06918391
0.016990468
0.035586208
0.009971209
-0.06845038
-0.0037584614
-0.010379602
1.7066894e-05
0.017345933
-0.0031627747
-0.0070004947
0.014526513
-0.01581675
-0.012281914
0.03278544
0.003273113
-0.043281488
-0.16327941
-0.011468675
0.037527632
0.032148004
-0.019744284
-0.1246807
0.020520104
0.066062234
0.00901057
-0.07026431
-0.045078434
0.036523778
0.07913234
-0.11161069
-0.1032279
-0.009656195
-0.029224528
-0.10394862
-0.051046226
0.018754505
0.050319158
0.062290825
-0.044698436
0.099926874
0.057165127
0.027451824
0.0015723975
-0.026032493
0.056595024
-0.047263436
-0.025165347
0.028010234
-0.038540296
-0.02660318
-0.05125036
0.040575184
-0.013885991
-0.011466174
-0.10901323
-0.13352193
-0.1980352
-0.2479261
-0.17388439
0.0070373956
-0.044077042
-0.06499334
-0.05363104
-0.043114528
0.07811018
-0.042553596
-0.08484862
-0.093609214
0.0017465571
0.036354393
-0.18778081
-0.23259877
-0.042590015
-0.029427957
-0.08058031
-0.14118429
-0.029646786
0.08237836
0.031141713
-0.0026839518
0.005832186
0.029343138
-0.06169328
-0.067138895
-0.07750839
-0.023668746
0.033871572
-0.16425799
-0.19461106
-0.021788264
0.10879223
0.08786765
-0.089614935
-0.06629949
0.14901896
0.03962624
-0.108416095
-0.08994774
-0.05272525
0.07560941
-0.09433977
-0.10440924
-0.01863907
-0.010100652
0.0027529546
-0.042639844
0.042728998
0.036279798
-0.049969587
-0.02045789
0.0048675225
0.06412899
0.085445896
-0.0968565
-0.0075960658
0.0033331662
0.04651946
0.008767671
-0.061418355
-0.013602266
-0.0057861335
-0.028031776
0.0584267
0.004481691
-0.00724832
-0.011024709
0.051215056
-0.016171336
-0.056865532
0.0088543715
0.0081819985
0.0127880545
0.05463299
0.05609499
1.5815021e-07
-0.032723837
-0.0065865605
0.04150497
0.06833252
-0.0273837
-0.00997758
0.026956536
0.07182012
0.029394453
-0.065829575
0.026080538
0.0705727
0.071986325
-0.0470404
-0.038951855
-0.020628322
0.05776774
0.04195941
-0.05284393
-0.06379553
0.03460267
-0.010985855
0.006234461
-0.017015554
0.06808482
0.07071483
0.056663185
-0.016870854
0.021835024
0.025412086
-0.0036461854
-0.011280022
0.044079993
-0.040987693
-0.076372504
-0.02546048
0.005565454
0.024831744
-0.08117765
0.009159188
-0.0011771678
0.04747456
-0.041898664
-0.015760168
0.04755992
-0.014331558
-0.042014487
0.036875952
0.116576344
0.052897483
-0.08422401
0.008245794
0.12413378
0.1261533
-0.1287078
-0.22552446
0.05287377
0.07256524
0.07861184
-0.21922873
-0.15987635
0.032634165
0.051922612
0.06319517
-0.13438848
0.09750846
0.149724
0.028326608
0.020544197
-0.03815159
-0.11882909
-0.10641714
-0.021589467
0.03002535
-0.01961958
-0.02062088
-0.08998302
0.038191594
0.056148924
0.010623666
-0.09601597
0.01180346
0.0685637
0.06377615
-0.06631537
-0.084710784
0.054223165
0.04612248
0.0047425213
-0.043223638
0.057598423
0.057356995
0.028336853
0.039770648
0.00984168
-0.026748557
-0.044159066
0.062364373
0.03367401
-0.03110857
-0.019881926
0.013054477
0.04563796
-0.030513035
-0.004518571
0.012966862
0.012370531
0.007890477
-0.0436768
-0.08332002
-0.029232183
0.06881647
0.03683474
-0.067131646
-0.010439457
0.073620066
0.052356873
-0.02248199
-0.031391118
-0.10299191
-0.10956455
-0.13411069
-0.20380126
-0.08666678
0.026224177
-0.010239957
-0.052775174
-0.081073254
0.0439417
0.16589637
-0.042267423
-0.14979273
-0.05953732
0.06587782
0.059681363
-0.14939031
-0.14288749
-0.019134916
-0.014090482
-0.023786852
-0.06486244
0.040770546
0.0695406
0.014034992
-0.056814548
0.014269831
0.06576681
0.0895296
-0.09103443
-0.050833415
0.022258531
0.1072203
0.09566479
-0.07998286
-0.08890336
0.008816313
0.10749775
0.12839212
-0.078471504
-0.011493135
0.052770223
0.12503728
0.075491
-0.06545245
-0.026749637
-0.02450408
0.070276454
-0.0142745795
-0.040050674
0.043142676
0.043449406
0.046428867
0.06646301
-0.04046648
0.074613154
-0.020183574
-0.05395515
-0.014299124
-0.0866047
-0.043471254
-0.040730465
-0.0327814
-0.011211457
-0.0058340565
0.059288625
0.04131796
0.008521682
-0.0341788
0.009202418
0.06063108
0.0028546012
-0.03632693
-0.009111062
-0.028336091
0.020225557
-0.008088296
-0.07993
-0.09550241
-0.061604634
0.046719994
0.00911122
0.04659639
-0.06097489
-0.091416016
-0.005124143
0.035748772
0.040383603
0.039865434
0.019782819
-0.078563355
-0.09940992
-0.0155138895
0.08668221
0.05300171
-0.038275164
-0.06197915
-0.053307302
0.05888756
0.06588939
0.051451303
0.0314487
-0.03728071
0.008354538
-0.00014961863
0.031851985
0.12055495
-0.017357295
0.013042357
-0.057634875
-0.04016922
0.09085041
0.041743103
0.04833666
0.013419693
-0.007972395
0.020091632
0.045503985
0.067331515
-0.020118391
-0.035094835
-0.013772515
-0.038383983
0.09918534
0.063873366
-0.0250779
-0.07847843
-0.019099684
0.0047172834
0.010239445
0.04752096
0.010189848
-0.03360903
-0.022642564
0.05039259
0.06186717
-0.030564932
-0.11473004
-0.06999137
-0.059566658
0.064789325
0.011323296
0.024524376
-0.004921808
-0.08687528
-0.020355428
-0.0002947786
0.01795472
-0.041271895
0.012468714
-0.05433213
-0.0030684539
-0.016058698
-0.05054331
-0.02284106
-0.029209908
-0.06364388
0.017978035
0.03395548
-0.103789896
-0.082946256
-0.11788503
-0.008412215
0.01719092
-0.07707765
-0.015028519
-0.18175411
-0.17286481
-0.037715156
-0.02532689
0.071209334
-0.062387086
-0.1397243
-0.16427879
0.026002701
0.00960709
0.09308686
0.006746649
-0.0021344696
0.0133049805
-0.056840315
0.06571137
0.09771265
-0.00015742968
-0.032842584
-0.028556444
-0.010506551
0.106895186
0.10264666
-0.011094028
0.062632695
-0.0059117475
0.047515504
0.07994926
0.10588866
0.06010789
-0.08560814
-0.06469931
-0.03657593
0.024275374
-0.04641513
0.04531023
-0.0079943575
-0.026810026
0.011447365
0.014676459
0.080578685
0.1135682
0.014390433
-0.040551092
0.01292493
0.050210577
0.12567665
0.09392387
-0.031898666
-0.0582214
-0.078820065
0.018921625
0.053312507
0.054226413
0.026731301
-0.023337632
-0.023616895
0.0513675
0.14079246
0.035952587
0.010980092
-0.060905218
0.01806032
0.0097196605
0.04204983
0.013584107
-0.007463142
-0.07110494
-0.025435584
0.021782221
0.0693694
0.04263452
0.038166843
0.002576185
-0.008301172
0.00022305828
0.035150364
0.026849542
-0.0072737886
-0.05282148
-0.006788029
0.031540375
0.0052658347
0.043784663
-0.007920551
-0.022832595
0.02358137
-0.06857521
-0.080065995
-0.014678079
0.06961129
0.034212906
-0.007472583
-0.021081267
-0.029423703
0.032607727
0.10516049
0.008207279
-0.03510536
-0.053695135
-0.1147077
0.106720656
0.07631302
0.07268772
-0.042890497
-0.059877377
-0.00019672295
0.080062285
0.06731066
0.0278247
0.017022317
-0.028400946
-0.01430983
-0.026124982
-0.016904578
0.07942093
-0.051152926
0.010526558
-0.043064237
0.040252738
0.022781238
0.013000422
-0.014003565
-0.035840686
-0.0241422
-0.0331931
0.024918566
-0.013814912
-0.06527552
-0.050559517
-0.018378796
-0.008606
0.044946738
0.039908897
-0.004079228
-0.0059229904
0.023250705
0.05865768
-0.03402205
0.06283083
-0.050277784
-0.13526344
0.013109671
0.021980707
0.03700239
0.06688958
-0.05354322
-0.123717844
-0.03508305
-0.061189353
0.026752533
0.08000539
-0.046295885
-0.05135521
-0.036264904
-0.06935522
0.10468505
0.05718304
0.04172953
-0.027472904
-0.020238044
-0.008064476
0.03520565
0.0056197764
-0.023463678
0.005638508
-0.0123290215
-0.0009848416
-0.0093163885
0.07591753
-0.034883086
-0.043147977
0.013226653
-0.0027742435
-0.012622976
0.038595032
-0.019012274
-0.03873937
0.025799587
0.018730808
0.0033488024
-0.00089675054
0.0011906769
0.035528656
0.026190985
0.0014810819
-0.02121262
-0.03142073
0.015394014
0.050833035
0.026983906
0.009715823
0.0032152631
-0.043567147
-0.018450672
-0.008929599
0.030867197
0.0032481612
-0.02324221
-0.057334617
-0.01009616
0.08199472
0.016733821
0.014252034
-0.04010531
-0.06296079
-0.01750496
0.06032421
0.02638816
0.029046929
-0.029366203
0.009130416
-0.03196443
-0.05061228
-0.032765307
-0.034913447
0.0119961845
-0.048095863
-0.06676052
0.0146292215
-0.03782798
0.036563948
0.030586235
-0.054428253
-0.04284742
0.024670947
-0.01312685
-0.017304875
-0.005551377
-0.075475074
-0.060755312
0.0086996
-0.029068865
0.03832226
0.017194424
-0.01649938
-0.06477913
-0.010196171
-0.014567089
0.038345415
0.012663244
-0.061421208
-0.055304244
-0.0027472435
-0.006908751
0.017803868
-0.01444606
-0.042476945
-0.007987306
-0.016384631
-0.0067050527
0.041826393
0.0060689594
-0.030899791
-0.013972914
-0.058357697
-0.0052688317
0.03740558
0.06536298
-0.000553639
0.074299775
0.0636027
-0.057457186
-0.035547234
-0.07930651
0.023583636
0.09195579
0.005559165
0.02125787
-0.051762935
-0.11363203
-0.009231391
0.111218244
0.009098559
-0.017740121
-0.094540246
0.0005169212
0.02112004
0.032037884
-0.022623446
-0.020796876
-0.049419064
-0.04535408
-0.062086992
-0.037312474
0.009423994
0.023057284
-0.02359893
-0.035148874
-0.034211103
-0.073339015
0.0028701967
0.01630845
0.017599816
-0.009888492
-0.099331096
-0.011704176
0.03539141
0.007886166
-0.040681425
-0.06303467
0.013603214
-0.03958609
0.03539479
0.045623075
-0.027880238
0.027697347
-0.013792834
-0.030968303
0.0040581273
0.038777374
-0.018014945
-9.3078736e-05
0.022740467
-0.0003250231
0.005230057
0.0031998453
0.011460552
0.0120486235
0.011853608
-0.028230205
-0.01536895
-0.0077237063
-0.01861892
-0.021410761
0.008753331
-0.0010853875
0.0032193395
-0.02067707
-0.039005127
-0.0011803164
-0.04413367
-0.014570529
-0.00010858671
-0.024873782
-0.1031348
-0.02089734
-0.01273512
-0.06889111
0.10757933
-0.095469296
-0.16558036
-0.054171715
-0.049887184
0.05606173
0.017081605
-0.09176096
-0.13727485
-0.08672127
-0.022916447
-0.043369528
-0.005282702
-0.023021646
-0.058054883
-0.026194965
-0.018699309
0.021234969
0.070459746
0.034639593
-0.06432959
-0.08393791
-0.05758435
-0.04026263
-0.013408506
-0.009010769
-0.03382066
-0.081820875
-0.008783742
-0.022375114
-0.03941432
0.027336022
-0.009772258
-0.09803717
-0.045780443
-0.05613232
-0.01661395
0.04717684
-0.05348806
-0.077146426
-0.03594488
-0.04041079
0.019041864
0.009275283
-0.06179188
0.0072022425
0.031936523
-0.006012895
-0.046207886
-0.013236663
-0.06954102
0.05880658
-0.012710375
-0.04387892
-0.052623767
-0.034123998
0.0154508585
0.05897633
-0.01784626
-0.03458896
0.010673592
-0.06796759
-0.031713143
0.0109622665
0.06421757
0.0048014973
-0.018719558
-0.06525077
-0.04371026
-0.0013922598
0.03904399
-0.025214287
0.022937562
0.00120987
0.031433832
0.029657323
-0.04158242
-0.019771146
-0.014823327
0.028635863
0.025627058
-0.013163254
-0.0429061
0.0120649375
-0.030360665
-0.044508748
0.0326798
0.03897244
0.044479985
0.038853828
-0.028109929
-0.035911124
0.00034289807
-0.013088033
-0.036971238
0.002643156
0.029559147
-0.03199072
-0.013431041
0.0324929
-0.039768938
0.017366162
-0.04630592
-0.023409266
-0.0405527
-0.039337162
-0.030474555
0.027769906
0.03547407
-0.017940598
-0.018287046
-0.008022234
-0.032391906
-0.005343101
1.21865e-05
-0.019498203
-0.028652202
0.017115837
-0.04426108
-0.0014757124
-0.04426082
0.033979576
-0.0012791284
0.030077087
0.007738043
0.0037789308
-0.042180527
-0.043027773
-0.016926931
0.007895462
0.00017667189
0.00033417717
-0.034258325
-0.00090459734
0.012547389
-0.00062176585
-0.04349289
0.018320303
0.003599137
0.034798224
0.023140084
0.0056792907
0.0176096
0.014043402
-0.012335472
0.03315765
-0.041615944
0.039510164
-0.003725741
0.028251749
0.0073966263
-0.022327473
-0.044598322
-0.023212291
-0.013719718
0.008440067
-0.028615566
-0.045759924
-0.024063755
-0.029355511
-0.01892042
0.0035798317
-0.017045096
0.035943937
-0.026640384
-0.046527047
-0.012804038
-0.012983485
-0.03350409
0.026444681
-0.0012556799
0.005237433
-0.013670694
-0.023213848
0.0003574697
-0.008543741
-0.028668229
-0.017850844
0.035703454
-0.0250701
-0.0041789226
-0.03814785
0.01895674
-0.008051779
-0.026452832
0.00043111295
-0.0076763667
-0.03067721
0.0046879873
-0.03828343
0.03417399
-0.024729893
-0.0015141405
-0.016283425
-0.02904702
-0.0049535385
-0.019374838
-0.026842024
0.03652293
-0.043869812
-0.031781383
-0.04782684
-0.0045049656
0.007597934
-0.03811366
0.021756353
0.0030408292
0.028940432
-0.04726117
0.008646176
0.025487775
-0.011830675
0.0100987
-0.01741984
0.017035307
-0.011047821
-0.012773662
-0.046629846
0.030354878
-0.0019515675
0.026347168
-0.010866689
-0.00088424626
0.016746722
-0.0040114424
-0.025507456
-0.045629267
0.0027921754
0.027809704
0.038000826
-0.047075126
-0.048140436
-0.010621679
0.00762451
-0.048660938
-0.03590582
-0.021991692
-0.036666043
-0.046570096
-0.022177065
-0.04543959
-0.031798042
-0.044655498
-0.016349023
-0.007470896
0.033449043
0.023898622
-0.0041766115
-0.029296199
-0.011084929
0.033187937
0.011237577
0.019102627
0.03643695
-0.017174164
-0.034434907
0.0070415237
0.008339528
0.016822042
0.013965505
-0.029493652
-0.030715628
-0.04000403
-0.010202576
0.018085213
-0.021445148
-0.037832577
-0.0076297605
-0.04915542
-0.030457022
-0.038125165
-0.032640673
0.0062723067
0.0072468533
0.03452095
-0.018373098
-0.04057938
0.024509551
-0.013499004
-0.041390654
-0.0362968
-0.0016381157
-0.018447079
-0.043811224
-0.020380449
-0.024414241
0.013853881
-0.00032917535
-0.03634437
-0.034128703
-0.0029486506
-0.0067345374
0.016236916
0.021160945
0.014383111
-0.0153084025
-0.009704106
-0.025128284
0.030862473
0.00914132
0.022431906
0.039824028
-0.042854838
0.0005006221
-0.0021863389
-0.0031193867
-0.02110829
0.014188588
-0.023571594
0.04388087
-0.0013280287
0.010248341
0.03551608
0.0082366355
0.026061881
-0.012685414
0.026823986
0.002650395
0.03697489
-0.03794308
-0.0053630983
0.022885874
0.0136416415
0.021074526
0.0031767841
0.029941581
0.029892214
-0.040124148
0.004158735
-0.025775218
0.016797926
-0.032159995
-0.043374564
-0.010765812
-0.013734555
-0.031067306
0.0052698944
-0.0013609896
0.028504143
-0.033752866
-0.019150108
0.0041494425
-0.00456934
0.027911054
0.010902626
-0.005040978
-0.040013645
-0.03019802
0.02165802
-0.039467108
-0.035843767
-0.032980297
0.022524059
-0.025754638
0.00831966
-0.014625745
0.0019488652
-0.041719943
-0.017753648
-0.04730315
-0.035149567
0.030047297
-0.026870467
0.02552039
0.030792285
-0.010248783
-0.040405452
-0.010485104
-0.029131595
-0.035974592
0.019701786
-0.038208894
-0.022972863
0.00089756487
-0.011544147
0.032054015
-0.016626712
0.02226194
0.03180833
-0.046276074
-0.02539485
-0.04066635
0.036196105
-0.02435121
-0.016655255
0.01825627
0.021837585
-0.034056436
-0.010201582
-0.018572934
-0.012468335
-0.047285378
0.012290248
-0.03520324
-0.0019537811
-0.039055537
-0.042921983
0.02079959
0.02976415
-0.031489458
-0.035675187
-0.04064827
0.035365354
0.015916744
-0.040622097
0.009247918
-0.043211974
0.02341064
-0.017723324
0.008089166
-0.033183023
-6.7910994e-05
0.03805787
-0.03196441
-0.029936422
-0.020288417
-0.027296944
-0.0109098395
-0.0009041566
-0.045929037
-0.016885756
0.032072846
-0.02645281
0.009788264
0.018758472
0.010320593
0.03815827
0.035822373
0.0014021546
-0.040308733
-0.008251607
-0.03835641
-0.03306375
-0.0047978573
0.010805972
-0.041150652
-0.00887933
0.013584878
0.00037148967
0.012515541
-0.026669757
-0.037822615
-0.03301633
0.030636404
-0.015346082
-0.018012464
-0.0029322219
0.013733953
-0.037525274
0.031678993
-0.012494656
-0.03333644
-0.019765064
0.02394133
-0.013894082
-0.017640257
-0.042981878
-0.039782703
0.0021928726
0.007803489
-0.01970312
0.026859209
-0.0018884825
-0.038240574
0.021440094
-0.029306183
-0.04448526
-0.022100221
-0.017193228
-0.046977177
0.027388448
0.014951806
0.017670665
-0.030806249
-0.019765764
-0.022214917
-0.022601312
-0.039705217
-0.006039061
-0.008118766
0.033716243
-0.04806838
0.03090213
-0.008267481
0.037076022
0.02249821
0.019392295
-0.031450827
0.031448502
0.011636121
-0.0048883287
0.028638918
-0.04885023
0.008773747
0.020961402
-0.047405116
-0.025216242
-0.009815818
0.013099814
-0.0001319435
-0.03968375
0.03846322
0.0125370035
-0.017459717
-0.016838923
0.020651253
-0.03106379
-0.040591985
0.021669539
-0.013099385
0.011790637
-0.02472678
-0.0025829508
0.023860322
0.034132585
0.029776443
-0.019744711
-0.011913082
-0.007638152
-0.03393376
-0.034734342
0.007890574
0.010358813
0.023818698
-0.027416049
-0.028809479
-0.020913089
-0.03335117
-0.0028258539
0.011267867
-0.025686173
-0.010124069
-0.0031788312
-0.0021953993
0.022505786
0.021534603
0.04428261
-0.017723031
0.043615136
-0.037120704
0.001442723
-0.041065767
-0.02166087
-0.030809414
0.026720334
0.010079867
-0.034189366
0.038346834
0.024388669
0.002651627
0.035855707
-0.039111514
-0.031440858
-0.043572832
0.03671885
-0.026963182
-0.02252019
-0.045365904
0.0035339014
0.028252628
0.014748821
-0.033018146
-0.01945548
0.03362589
0.032344412
-0.011900553
-0.005727853
0.033379387
0.0037700408
-0.044794064
0.007457487
-0.029149221
0.021638509
0.027508423
0.075823
-0.0012803152
-0.013903271
0.012271524
0.041681707
0.07369431
0.066928506
0.007751941
0.034149118
-0.0033570044
-0.034818403
0.12494062
0.051376726
0.055412643
0.02002453
-0.01571814
0.07926186
0.062465884
0.06463183
0.048680086
-0.0038930816
-0.02163642
-0.014931743
0.033910986
-0.041151233
0.055238843
-0.070211045
-0.018941123
0.029814709
-0.035860986
0.014253622
-0.021691471
-0.013473256
-0.049368158
0.004806079
0.0002989115
0.01180114
0.039407644
-0.023582524
-0.058295842
-0.03528349
0.010622698
0.08390416
0.009826451
0.0049337875
-0.0391656
0.05537376
0.028857615
0.034628298
0.0095464345
0.063389145
-0.057325993
-0.006876216
-0.00034138345
0.0762112
0.047379427
-0.02750592
0.024538763
0.14226753
0.14702529
0.107148685
-0.04161261
-0.024477279
-0.050375156
-0.09245568
-0.074522786
0.009651364
-0.020316172
-0.0137940645
0.03509647
-0.005489298
0.06867234
-0.03281049
-0.026466182
0.012901599
0.009945756
0.011505234
-0.03297949
-0.024647215
-0.07391917
-0.10595918
0.0642196
-0.021309147
0.0077645625
-0.07924908
-0.04529377
0.080564536
0.061696365
0.11439708
0.09271024
0.11697825
0.05078002
-0.023831159
0.009616667
-0.020749211
0.0149438195
-0.06647748
0.01134568
0.10468546
0.08196994
-0.07870323
-0.048625674
0.0049901954
0.022288557
-0.024034897
-0.029534351
-0.10079086
-0.08781516
-0.045307864
-0.027799388
-0.0523296
0.027086478
-0.006231331
-0.009664026
-0.09807011
-0.057130758
-0.0047504115
-0.02650197
0.022587644
0.022027481
-0.0026288403
-0.02022507
-0.01312241
0.040982332
0.08063765
0.04776886
-0.006504977
-0.047891125
-0.013171688
-0.015787188
0.013722959
0.0043696538
-0.033142604
-0.002479038
-0.032369643
-0.050149042
0.06473832
0.0931484
0.08419908
0.023549542
0.00407918
0.075144656
0.06332656
0.07580638
0.058899626
-0.05265644
-0.013246486
-0.024348335
-0.0011114319
-0.011629298
0.043016694
-0.0802754
-0.027931806
-0.040353283
0.02445609
0.0343577
-0.0658302
-0.035570826
0.0358245
-0.014750718
-0.0099237105
0.043658588
0.010954103
-0.059488326
-0.028816812
-0.074214324
-0.043565508
0.012046056
0.052342705
0.03208662
0.026375165
-0.019101525
-0.0062615606
-0.01414879
0.042279042
0.033641636
0.006473802
-0.050178725
-0.009275149
-0.09134971
-0.016178232
0.05277127
0.029010233
-0.025568428
-0.03544465
-0.032219138
0.030275872
0.024374884
0.032316368
-0.012795648
0.004103336
0.015686434
0.08188149
0.0017141735
0.015961207
-0.066679895
-0.038498882
0.017580194
-0.0008704171
0.051151723
0.010657546
-0.028070826
0.002036233
0.053056918
0.083368346
0.101155326
-0.026242577
0.038044807
0.019876778
0.09542557
-0.0125807775
-0.057582635
-0.06176672
-0.08728051
-0.049021512
-0.10434015
-0.07097596
-0.018931262
-0.008202005
0.05439739
0.051042207
-0.011330659
0.021163547
-0.016033927
0.046463184
0.064190365
0.03869542
0.09721044
0.13645254
0.10522064
0.080268696
0.008155646
0.12016123
0.18652469
0.1272161
0.06775234
0.04709956
0.00017627087
-0.07837828
-0.03311047
-0.10214759
0.045378067
-0.001976228
-0.05220639
-0.018774558
0.0070235105
0.062569685
0.07755669
0.07109557
0.08111576
0.07127374
0.01682854
-0.02513759
-0.041784354
-0.046642125
0.08016641
-0.008191212
0.03272858
0.074428804
0.11238705
0.10961148
0.019913448
0.0036771724
-0.017319636
-0.02071017
-0.06439616
0.023097213
-0.05871589
-0.07329484
-0.049118847
-0.04262595
-0.03287433
-0.022272252
0.029648762
0.026479462
-0.022664156
-0.0674554
-0.047339056
-0.034580022
0.0041952785
-0.015474122
0.0016456571
-0.075170115
-0.024007797
0.030464655
-0.023533862
0.057074998
0.032516412
-0.04186881
-0.029532723
-0.03647067
0.0059488765
0.05703019
0.06586626
0.023770753
0.009372785
-0.034682486
-0.01315916
0.048278686
0.034806445
0.03443899
0.0040602274
-0.038659304
-0.015892915
-0.05152603
-0.045880523
-0.0050629545
0.008972002
-0.06365043
-0.057683323
0.005102903
-0.008362407
0.020995546
-0.026947258
-0.01770473
0.010811946
0.061944265
0.005023946
0.026712513
-0.031317588
0.025398426
0.028523915
-0.026078066
0.042642146
0.02978697
0.045893695
-0.053201195
-0.0056036366
0.019809546
0.041276217
0.059513897
-0.031033525
-0.07504717
0.0005521564
-0.03382182
-0.07652154
-0.03803671
-0.034201793
-0.0709493
-0.04188757
0.018152582
0.0311463
0.017449189
0.052525863
-0.031701185
0.0041071093
-0.09350804
0.018357215
0.057249133
-0.091471456
-0.005027063
0.011468145
-0.047378153
-0.09324482
-0.17774396
-0.05579112
-0.0030940329
0.04740418
0.013894053
-0.089251935
-0.038375735
-0.040157124
0.072289936
0.055526163
0.00410683
-0.045082055
-0.0139139835
0.04372119
0.05656559
0.07793764
-0.037861776
-0.016435832
-0.04043431
-0.0070460676
-0.04077241
0.036353845
-0.040152445
-0.008281366
0.013736608
0.0068227774
-0.015639296
-0.0813928
-0.066535994
-0.01825748
-0.041853238
-0.09774957
-0.06448444
-0.03133367
-0.055095643
-0.045826506
-0.01093454
0.0342049
0.018712461
-0.012757292
0.054041263
-0.007905789
-0.012506709
0.002483359
-0.009710211
-0.025265649
0.00044238087
0.018052211
0.028668512
0.0033587927
-0.009530818
0.023391433
-0.0152113205
-0.003188155
-0.045095317
0.020446474
-0.013181456
0.006364273
-0.022710545
-0.060670953
-0.062444247
-0.025916724
-0.010709811
0.00221648
0.046085063
-0.0073611266
-0.002899312
-0.0058753495
0.006325807
-0.053282525
-0.009505643
0.08725839
0.038203526
0.027170185
0.07329482
0.06760859
0.07116858
-0.009266274
0.06317989
0.070230216
0.09427505
-0.05371164
-0.023599194
-0.10328662
-0.08443951
-0.058408596
-0.097888894
0.003922603
-0.04026873
-0.002609272
0.01801605
-0.016650207
-0.027086347
0.03762804
0.004977076
0.037936766
-0.0040585347
-0.069098674
-0.028947264
-0.07432875
-0.09998922
-0.08176253
-0.11256788
-0.053469077
-0.09792077
0.0054764017
-0.03271273
-0.005990701
-0.018920437
0.02402238
-0.036826495
-0.02058113
0.012459997
0.026897874
0.028911937
-0.063850015
-0.10433335
-0.04356634
-0.0008854004
-0.0029004416
0.044821262
0.073245585
-0.02368271
-0.024880534
-0.028441116
-0.03535818
-0.018531792
-0.02286275
-0.013018208
0.01094177
0.015832625
0.03361209
-0.011429135
0.022277841
0.0009402017
0.02671599
-0.020067379
0.029449517
0.004248506
0.040013943
-0.055451732
-0.027669538
-0.08951753
-0.098062284
-0.13962834
-0.10650303
-0.03738153
0.0060299495
0.06468606
-0.05019458
-0.062297203
-0.15110266
0.010998337
0.05463515
0.06698058
0.10390578
0.097705886
0.04288491
0.064869635
0.06334856
0.09909203
0.045829378
-0.0738157
-0.063272
0.0043021603
-0.015986307
-0.013116299
-0.05364138
-0.079058364
-0.052157223
-0.047947545
0.020750254
-0.062972456
0.02101082
0.0021190394
-0.06400891
-0.03956392
-0.00072501355
0.016232304
0.028056663
0.0014365205
-0.020629043
0.0040602875
0.017229432
0.036175795
0.024221824
0.0018579097
0.027800865
-0.050746188
-0.015709484
-0.0036110946
0.033768564
-0.002789509
-0.113546394
-0.034883987
-0.07006926
-0.05163027
-0.024360979
-0.0074595525
0.015857488
0.025957737
-0.029152533
0.054932028
-0.021109335
-0.111043274
-0.13716464
-0.087418765
0.10930025
0.0722824
0.09778691
0.10610014
0.0013863579
-0.014733915
0.07076797
0.032094803
0.040324032
0.031915992
0.06220256
0.011395178
-0.14589237
-0.18193388
-0.1870384
0.006763402
0.059192684
-0.05255308
-0.09768909
-0.048263825
0.024303116
0.009439015
0.0408908
0.06832471
0.054699574
-0.04571444
0.03251214
-0.038286056
0.0177053
0.05373606
-0.1566444
-0.03016764
-0.041226223
0.006986966
-0.07089425
0.036807
-0.0056677335
-0.05549047
0.028705884
-0.015056459
-0.07463303
-0.05584209
0.014923655
-0.006394871
-0.05344131
0.027129054
-0.0029581732
-0.013914475
-0.04648845
-0.07375442
0.069635615
-0.01996274
-0.013349987
0.019070515
-0.013303421
-0.026241275
-0.015712325
-0.0004055239
-0.07243304
-0.050716043
0.046091605
-0.032462604
-0.050364956
-0.061420932
0.0058802697
0.011248622
-0.028178895
-0.064098336
-0.15311067
-0.12780255
-0.007267713
0.07523996
0.07994781
0.06960006
0.08146139
0.048911527
0.045267608
0.07883363
0.058137003
0.09227884
-0.08533167
-0.014110307
0.03768987
-0.025005875
-0.028708024
-0.029670348
-0.034653615
-0.053974215
-0.014580141
0.0016623375
0.0025547256
0.02017672
0.006705584
-0.071586154
