-0.011624629
0.019869672
-0.01876496
-0.06542469
-0.113242805
-0.0069216955
0.1372994
0.18880033
0.12585266
-0.0034440963
-0.06718386
-0.024121748
0.06581765
0.07142081
0.101807855
0.007103387
-0.085077025
-0.14873627
-0.14490283
0.045487374
-0.00067543064
0.01871703
-0.084106565
-0.16018483
-0.12478107
-0.036025424
0.07806836
0.028564407
-0.04751672
-0.05602908
-0.056708142
0.043039855
0.14056952
-0.01307701
-0.04037929
-0.07607924
-0.012337021
0.1030407
0.14773205
-0.04150684
0.008531377
-0.09793568
0.0005972523
0.04117397
0.037050106
0.029888235
-0.05547717
0.0024280678
0.004246445
0.038404945
0.026941221
-0.08045833
-0.023978604
-7.530536e-06
-0.055102218
0.02506707
0.0076963254
-0.0018296448
-0.16620177
-0.044405207
0.10962171
0.14400133
0.00038292585
-0.17581694
-0.07297893
0.05087318
0.056361813
0.06858948
-0.09885904
-0.075561404
0.045326192
0.03463135
-0.014065639
0.014075013
-0.04046088
0.013428471
0.028748527
0.022300383
-0.0302038
-0.14063989
0.037542153
0.0063086986
0.12935965
0.12764435
-0.035589825
-0.0040316107
-0.19265641
-0.15227257
0.013528301
0.04282158
0.0044295625
-0.10404941
-0.15757237
-0.13942355
-0.10265887
0.0153262485
0.012875886
-0.025535665
-0.13186666
-0.12982474
-0.06957704
-0.11923889
0.0039061152
-0.05903151
-0.22192028
-0.00845473
-0.028393405
0.05677347
0.062396463
-0.07789384
-0.072171055
-0.022168815
-0.077388555
0.11918334
0.13411996
0.044042643
0.025824891
-0.076173455
0.019170478
0.076811634
-0.0024757434
-0.06266728
-0.11294169
-0.05977345
0.048233557
-0.000108759574
0.0010472487
-0.0101370895
-0.052071936
-0.031393122
0.01792448
0.028799534
0.14173505
0.14830697
-0.08168342
-0.0742812
-0.08087622
0.02879336
0.10503472
0.07467774
-0.022917792
0.059324313
-0.09815221
-0.03040635
0.06420549
0.039401803
0.03786224
0.0075231697
-0.07224003
-0.039181832
0.039010957
0.029941097
-0.049138024
-0.07201726
-0.033191983
0.035122074
0.013378625
0.041538157
-0.0031085003
-0.12946995
-0.077384256
0.06820468
0.09690044
0.06389009
-0.079766445
0.029491618
-0.055343717
0.06960437
0.071378864
-0.04085137
-0.011371457
-0.026903031
-0.019945066
0.09468328
-0.03197624
0.024801949
-0.010207569
0.00333635
0.023337493
-0.07945559
0.00942248
0.1304249
0.1059962
0.0504145
-0.06836244
-0.053046495
-0.005311006
0.12205711
0.10148517
0.064016365
-0.07713497
-0.09378585
-0.029415933
0.02375843
0.101785004
-0.0756179
-0.08555021
-0.06421673
-0.069435164
0.056992654
-0.03305655
-0.024802743
-0.011065076
0.04285261
0.022813123
-0.016188156
-0.034384497
-0.02136121
-0.029947946
-0.08117606
-0.03438421
0.03759635
0.015956843
0.049801763
-0.14452419
0.0016905635
-0.025668483
-0.016934568
-0.005515886
-0.12379876
0.010993568
0.02018996
0.08931211
0.05186854
-0.0259629
0.082984276
0.020318527
-0.027599826
0.17151602
0.12587824
0.06215652
0.053531103
-0.011828596
-0.064567246
-0.0509382
-0.07603801
0.005757536
0.05745238
-0.0865916
-0.18244456
-0.011634441
-0.10776285
-0.12213739
-0.10259312
-0.060339753
-0.019194322
-0.008378383
-0.07401055
-0.026873393
-0.0026893262
0.07621985
0.04477831
0.07344506
0.014147765
-0.044855468
0.09961107
-0.027379414
-0.059019703
-0.14881481
-0.09784596
0.043258473
0.08506554
0.024883015
-0.22142209
-0.16456506
0.0026308966
0.1053821
0.06337564
-0.053251326
-0.19585903
0.075544335
0.005845179
0.09317826
0.018568665
-0.07136634
0.035092566
0.07226174
-0.029667385
-0.038580425
-0.009216949
-0.034656826
0.06783595
0.107773155
0.026140625
-0.05797561
-0.061202627
-0.02447758
0.07166013
0.09334731
-0.070279144
0.0037712345
-0.06494634
0.03248578
0.029467734
0.0020808424
-0.026394371
-0.046174135
-0.0033549264
0.08034601
0.008744953
-0.06650329
-0.005798439
-0.012037759
-0.06957141
-0.011094627
-0.033399034
0.036998622
0.007119041
0.0297638
-0.051687922
-0.042163607
-0.029379034
0.006245398
0.041144613
0.029643802
-0.039650425
-0.059608646
0.054624464
0.06453043
0.033000544
0.006744443
-0.015767952
-0.020449143
0.0190072
0.006500826
-0.031066746
-0.048904866
-0.061212134
-0.117593676
-0.06457565
-0.031550404
0.10636157
0.122943506
-0.03380926
-0.0975063
0.029939733
0.040205445
0.054247588
0.051119495
-0.03190015
0.022684427
0.03953316
-0.020748766
0.037631914
0.053524036
0.023826543
0.008508758
0.076005064
-0.010909348
0.009544375
-0.13914096
-0.06968925
0.17794293
0.15517014
-0.07817552
-0.1908702
-0.17315058
-0.004215554
0.13525786
0.07357545
-0.17626725
-0.08346144
0.013453969
0.14358355
0.09896983
-0.04607832
-0.09734052
0.0045202984
0.10789337
0.0801023
0.046081062
0.04206759
0.051863696
0.06762236
0.008431122
-0.1345069
-0.08840798
-0.005996547
-0.14575456
-0.08750464
-0.07318252
-0.0866359
-0.084834486
-0.04861024
-0.011717209
0.049463082
-0.023191312
-0.08023502
0.03690048
0.039902613
0.025490837
0.005949094
-0.010422572
0.0793887
0.04096291
0.07201293
0.066551864
0.1136415
0.06566192
0.0127407005
-0.03699632
0.04304601
0.0006192302
-0.07608304
-0.0611999
-0.035571832
-0.018301412
-0.094735935
-0.004716795
-0.055553757
0.017056754
-0.013626713
-0.028702786
0.038137723
-0.029506242
-0.019492395
0.045499586
-0.003187819
-0.002206762
-0.05219536
0.0018012938
0.05479504
0.050862234
0.039471485
-0.08234694
0.03258528
0.035525925
0.029960424
0.09776072
0.024065776
0.0046517076
0.08354357
-0.04692531
-0.20358728
-0.13070138
-0.023513064
0.08980857
-0.09021647
-0.18593287
-0.14271474
-0.0031053429
-0.112639606
-0.07041889
-0.0969597
-0.060368054
-0.022077292
0.04648288
0.06024834
-0.0017763512
-0.036266252
0.026959784
-0.012527241
-0.11357531
-0.053962443
0.020827148
0.076608285
0.04355937
0.059884157
-0.041370813
-0.092524335
-0.017817967
0.005017637
0.07046576
0.0825369
-0.062175453
-0.08029095
-0.028695174
0.07931378
0.1484331
-0.029435126
-0.019767325
-0.11683102
0.043174352
0.0725531
0.0055408687
0.025529176
0.023236046
0.054647975
0.05071042
-0.11484689
0.006119148
0.08052917
0.0964503
0.08122051
-0.13423318
0.03134238
-0.032233816
0.0041270484
-0.02899831
-0.059186637
-0.010910757
-0.014360284
0.028880939
0.040891577
0.017484168
-0.034673277
-0.01660456
-0.034855105
0.01816739
0.035263594
-0.015886683
-0.073422804
-0.02611425
0.017241329
-0.02072527
0.013826409
-0.08022445
0.037835855
-0.08219213
-0.06470199
-0.055965457
0.0051366827
0.043063205
-0.08230378
-0.04436556
0.009985574
0.041775037
-0.038780395
-0.05330285
-0.072728656
0.02542833
0.04119373
-0.08785514
-0.111202754
-0.078293934
-0.02368491
-0.06350533
-0.03808365
-0.004847286
-0.0157926
0.029867297
-0.033856146
-0.06931376
-0.004351515
-0.017177962
0.022315105
-0.0313556
-0.047163554
0.047508944
0.002231774
0.03746182
-0.026184363
-0.07961979
0.06712551
0.037490726
0.043739468
-0.03377818
-0.04589423
0.09223633
0.074435756
-0.02225565
0.008993497
0.094881184
-0.0019157607
-0.083848745
-0.056291092
-0.043689646
-0.07025915
-0.09177107
-0.09835738
0.00020345372
-0.08117106
-0.16991216
-0.12501939
-0.08875873
0.020329123
-0.024741825
-0.116565876
-0.10703577
-0.11624547
0.0692083
-0.016410468
-0.06831383
-0.028465088
-0.061127763
-0.0060519753
-0.023293816
-0.06146583
0.03436563
0.020374786
0.022995709
-0.030979063
0.04343816
0.062466554
0.0055445223
-0.003965494
0.024477512
0.08132069
-0.045791246
-0.08118028
0.061148915
0.1027846
0.029905433
-0.20949778
-0.10679835
0.12744696
0.08086087
-0.08689317
-0.13084833
-0.11046679
-0.014644714
-0.09881161
-0.099183105
-0.07806908
-0.013750317
0.0027407892
0.017337307
-0.0647333
-0.08889897
0.061168145
0.007930742
0.027936446
-0.04814462
-0.04773814
0.06497305
0.008284494
0.018240945
-0.13064623
-0.09091631
0.06769392
0.043976616
-0.0045848386
-0.18781856
-0.003083775
0.091031216
-0.008153138
-0.078264005
-0.049470883
0.051272273
0.036783885
-0.0012260317
-0.10631859
-0.008254241
0.026046298
-0.04322882
-0.0722505
-0.0039287996
0.06867077
0.009344089
-0.05988194
-0.070132926
0.027701005
-0.003231005
-0.03792348
-0.019497039
0.0331942
0.008279594
-0.054856177
-0.07519282
0.028115056
-0.034672566
-0.091111116
0.01640093
0.07566774
0.023445338
-0.02236431
-0.1252132
-0.079240486
0.05706347
-0.006275848
0.039205473
-0.08187877
-0.065550946
-0.007262025
-0.043784108
-0.022915544
-0.08228801
0.0051089968
0.07339078
0.0020134537
-0.060780566
-0.03997876
-0.019482529
0.062316164
-0.009983733
-0.022733247
-0.071757056
-0.065648526
-0.015619932
0.07384759
-0.013078559
-0.0110277
0.030270599
-0.015703224
0.029669829
0.045326684
0.06870852
0.06288133
-0.089691035
0.02153102
0.0028448806
0.0061907317
-0.043793563
-0.01197083
0.09198918
0.046081204
0.030728918
-0.11056829
-0.068245925
0.044648282
-0.025080545
-0.04364739
-0.05191016
0.03294617
0.017055923
0.010159993
-0.07441053
-0.1132389
-0.0144229885
-0.08944279
0.039875925
-0.076265834
-0.049031846
0.0058536734
-0.081916235
0.021365434
-0.054056697
-0.0513151
0.010241901
-0.012535733
-0.003415584
-0.06469685
0.04338532
-0.0076680337
-0.03471796
-0.042814642
-0.029944984
-0.058646318
-0.0026046874
-0.08670828
0.002380844
-0.016497154
-0.1856368
-0.21455292
-0.20597047
0.16806406
0.09017919
-0.26532188
-0.26749295
-0.16561681
0.10617175
0.026325647
-0.11761701
-0.091940425
0.013536657
-0.048690353
-0.12087547
-0.07502742
-0.0006896699
0.030386442
-0.07988444
-0.09108932
0.005143009
0.04931188
-0.06752693
-0.057351984
-0.043684483
0.07669359
0.08859595
-0.10522382
-0.075088166
0.026477005
0.048673563
-0.02611878
-0.07830383
-0.03502862
0.023847269
0.06866989
-0.0830663
-0.09261858
0.053717088
0.062304042
-0.055255838
-0.028899604
-0.0072047017
-0.04947131
-0.12601683
-0.04468711
0.014574587
0.04003626
-0.02224998
-0.05144701
-0.03251484
0.065204106
-0.032418873
-0.044908028
-0.08155765
-0.011725695
0.06460832
-0.037509874
-0.062250808
-0.026436958
0.005663961
0.024654863
0.041308604
-0.044713147
-0.017719373
0.0057394207
0.017841024
0.007875821
0.03409598
-0.025499098
-0.06910259
0.026698409
0.04138559
0.026799027
-0.035587586
-0.06484799
0.029482948
0.07481992
-0.0030080238
-0.07950956
-0.035274297
0.08562406
0.020713868
-0.012349288
-0.07870399
-0.023620347
0.0068814983
0.053159557
-0.0102980705
-0.037327074
0.060271237
0.031035166
0.030793225
0.009334774
-0.08105101
-0.07299173
-0.06681873
0.038453147
0.010728831
-0.091488555
-0.059921596
-0.03370117
0.06539352
0.017577779
-0.06718015
-0.018854417
0.031711183
0.055419747
-0.06422907
-0.01841175
-0.008462503
0.018879464
0.03665833
-0.03268783
0.04356071
0.07426382
0.032873902
0.020130228
0.07291675
0.18257831
-0.10028054
0.0036508997
0.124464095
0.12623511
0.12137095
-0.12651816
0.021998603
0.12471474
0.057314232
0.034147933
-0.22330776
0.011169381
0.10247691
0.03091462
-0.047976363
-0.08009922
0.061943844
0.119451486
0.0068119117
0.007291944
-0.02981478
0.08335175
0.03213702
0.030804407
0.05137023
-0.029129593
-0.076383606
0.11667367
0.034553386
-0.013843849
-0.094747245
-0.054575346
0.13156301
0.018842472
-0.03402014
-0.12828732
0.049493715
0.09637791
0.050284877
0.017410895
-0.05711939
0.030969506
0.09505565
0.044870917
-0.013106211
0.06577762
0.050608017
0.05667326
0.06570176
-0.020410767
-0.10056506
0.02509946
0.0137759885
-0.007961516
-0.07606478
-0.062197894
0.10024731
0.0127251195
0.050941925
-0.042540934
-0.0025180336
0.09358702
0.019571928
-0.0017092099
-0.059427228
0.052088752
0.06760805
-0.024713684
-0.060964838
0.02260453
0.026923165
0.06526444
-0.045706473
-0.041054077
-0.021522934
0.03820767
-0.12251114
-0.08018227
0.04510427
-0.03450788
-0.17174132
-0.26428503
-0.115635194
0.15603204
0.033828244
-0.15143307
-0.143233
-0.026617777
0.07250231
0.063640475
-0.07197531
-0.07853437
0.020018475
0.034493886
-0.025769252
-0.0005417473
0.0323875
0.047030926
-0.056121577
-0.028126048
0.12078184
0.1642601
0.10816289
-0.084506094
-0.09775563
0.09286886
0.12693845
0.002021349
-0.11135228
-0.07994046
0.074043654
0.059839685
-0.06080927
-0.121566035
0.041240126
0.04916247
0.15892927
-0.058921285
-0.030421909
0.045517452
0.055173103
0.14151365
-0.13964614
0.033717588
-0.09242821
-0.0988239
-0.024631
0.072733745
0.031165589
-0.025370557
-0.0442828
0.00193834
0.046862155
0.02829909
0.02627419
-0.010703314
-0.033593744
0.010734589
0.04934968
0.05041791
0.019180598
-0.05669499
0.04400184
0.012511419
0.056674406
-0.0041975495
-0.0034572964
-0.0016577159
0.027519647
0.046187624
0.062416513
0.023920778
0.024188552
-0.0049794624
-0.019980624
-0.0034785194
0.025743185
0.006815197
0.004570404
-0.05098213
-0.06660093
-0.035457086
0.0014547481
-0.08473208
-0.0705003
-0.04664053
0.0608666
-0.025835367
-0.12967521
-0.07094115
0.04909854
0.028301228
0.01990229
-0.032227322
0.005981459
-0.016955275
-0.0063566305
-0.010862106
-0.03772096
0.04159926
-0.009764635
0.07401
0.035636578
-0.09222934
0.042596284
0.019353049
-0.004586732
0.039376374
-0.004851236
0.08412588
0.0530858
-0.003726916
-0.017153706
-0.027395695
0.07031451
0.05550971
0.06774676
0.017051341
-0.0055118925
-0.005791759
-0.10507257
-0.050660163
-0.08634286
0.13361266
-0.03096454
-0.086141236
-0.035638366
-0.035554912
0.004171697
-0.050797388
-0.096252695
-0.027067788
-0.041009016
-0.04792915
-0.085431375
-0.104125306
-0.03455423
-0.01636761
-0.09481766
-0.08858902
-0.085040845
0.03137481
0.047164593
-0.10924934
-0.011579388
0.04326983
0.023640286
-0.079578705
-0.032222457
0.041844267
-0.037027303
-0.08321892
-0.03386231
0.024189835
-0.03240993
-0.18985851
-0.1359448
-0.07809208
-0.03148079
-0.1703108
-0.13920237
0.010321495
-0.026835777
-0.111843444
-0.19543731
-0.13361205
-0.058071926
0.03940446
0.023486197
0.047640167
0.071244046
0.0043043667
0.057813253
-0.03639971
0.018162804
0.074813575
0.025649117
0.06369222
0.024429832
-0.07483345
0.056752454
0.045611978
-0.010789177
-0.09207557
-0.025959237
0.12708382
0.07968587
-0.00969723
-0.05565039
0.07597279
0.03799529
0.07118817
0.08564224
-0.03747718
0.009167582
0.12272491
0.03410937
-0.04927614
-0.049836114
0.030493496
0.04251823
-0.033265684
-0.0021257247
-0.036039244
0.006516482
-0.04838677
-0.072476394
0.021346182
0.008231473
-0.0333812
-0.00555872
0.00023679595
-0.009464914
-0.037292104
0.0056616315
0.026075687
0.11190229
0.056714255
-0.027793221
0.005257962
0.04266516
-0.041941788
-0.040836614
0.015764281
0.06621431
-0.016521882
-0.0031847109
-0.0063257413
0.010465402
0.052838534
0.05293613
-0.058668047
-0.05237347
-0.0084538665
0.05574076
0.047124155
-0.021399941
-0.047424544
-0.06564021
0.017010555
0.067582764
0.021360075
-0.03463645
-0.027353864
-0.0012847155
0.09343131
0.021967828
-0.0025874472
-0.011421866
-0.008051028
0.0074166064
-0.030563217
0.03922672
0.0058977613
-0.088979825
-0.09533936
0.026346486
0.049622018
-0.12034865
-0.11856653
0.038911764
0.073046155
-0.040182672
-0.12367392
0.001007319
0.0041187555
0.03198829
0.03415785
-0.037729874
0.0051572816
-0.05693708
-0.042495005
0.006644284
-0.0067701084
0.078641824
-0.0126345325
0.052530088
0.03331186
-0.0640634
0.01132325
0.07158063
-0.037023414
-0.010032373
-0.035576187
-0.04709442
0.011769388
-0.013599313
0.010825013
-0.048603363
-0.040872186
-0.042920213
0.022069434
0.03430395
0.022369506
-0.0470977
-0.15440923
-0.11904961
-0.026926978
0.016092574
-0.011814584
-0.07626738
-0.04555527
0.11340998
-0.097197354
-0.18872724
-0.26255572
-0.022025626
0.07683444
-0.15326275
-0.14037162
-0.08571694
-0.13103925
-0.043916065
-0.03246088
-0.007259601
-0.04357785
-0.027362432
0.0016509913
-0.048561387
0.051592268
0.027637348
0.020535957
-0.0032315806
0.03697091
0.014191733
-0.05924046
0.005755585
-0.013512528
0.047359463
-0.062349092
0.022037841
0.07843501
-0.005648915
-0.023638615
0.0043169903
0.009770556
0.020994052
0.005159737
-0.02575206
-0.065195955
-0.026411915
-0.038904943
0.035962474
0.022465052
0.035489336
0.0140564535
0.020386718
0.04294072
0.016752621
0.01325075
0.023096582
-0.011529905
0.020612223
-0.002169368
0.008919808
0.045621745
-0.017977258
-0.0036496914
0.020909494
0.04267828
0.03992685
-0.036705382
-0.08155529
-0.018114721
0.059297625
0.039587203
0.045469698
-0.014841344
-0.0027264152
-0.040392328
-0.012093972
-0.017534956
0.038079984
-0.053177387
-0.022090891
0.05512139
0.046742998
-0.0014937444
0.012648803
-0.016778287
0.026438408
-0.027930178
-0.0675278
-0.04288886
-0.001812564
0.0046077003
-0.014879092
-0.012048255
-0.058025274
0.03537725
0.058028247
0.03985587
0.047649197
0.005946944
-0.013239069
-0.059488498
0.017815677
-0.021279017
-0.055375557
-0.023220127
-0.0048465175
-0.0036687083
-0.0066882023
-0.017786339
0.034579236
-0.00308876
-0.02547095
0.011211103
-0.0037614154
0.019142216
0.047155283
-0.015742896
-0.064873025
0.040995445
-0.023112427
-0.00038857444
-0.0055857454
0.046359956
0.018448003
0.053742904
0.027991433
-0.013531381
0.01841337
-0.08581865
0.00985792
0.014372711
-0.07001797
-0.020289745
-0.026111934
0.042767115
0.05687943
0.04051924
0.066999756
-0.018542232
0.0734874
0.09693828
-0.016969997
0.11178889
0.031023059
0.032080367
0.021800928
0.011281525
0.05219579
0.0026430993
-0.0195255
0.019271135
0.06487459
0.0318507
-0.07049308
-0.06510529
0.10841932
0.01778836
0.0183496
-0.058879767
0.03443642
0.08461254
0.004613888
-0.030411907
0.02892755
-0.0137229385
-0.032243904
-0.031179272
0.06984489
-0.03927344
-0.012092145
-0.03427748
-0.017131887
0.061252974
-0.030024765
0.03139582
0.015197739
0.057475116
-0.0054051355
0.00799141
-0.019755432
0.008010756
0.004602408
-0.038395118
-0.037875753
-0.026813323
0.041699685
0.00036648428
-0.041429482
-0.03640428
-0.03797502
-0.0018507657
0.016815536
-0.0037980543
0.02660229
-0.048180886
0.018612437
0.06812969
-0.008023326
0.017061414
-0.0034871101
-0.04177067
-0.044861734
-0.011834885
0.04017646
-0.09779726
-0.11764104
0.044350024
0.06836758
-0.10706831
-0.18522659
-0.1253631
-0.00534689
0.029040704
-0.069320425
-0.13109195
-0.15542164
-0.073435165
-0.0012537583
-0.055155654
0.029925894
0.045811556
0.016629206
0.018421633
-0.043974523
0.008161526
0.005042635
0.005340186
-0.0734563
-0.010982932
0.070287324
0.0017932971
-0.022279235
-0.015650636
0.002994241
0.07681951
0.031729415
-0.02472846
0.0055097556
-0.026447397
0.07367927
0.048577704
-0.028593179
-0.08548629
0.017732464
0.044105683
0.082794204
-0.06584701
-0.08683869
-0.037368666
0.024298951
0.044337183
-0.018405326
-0.0027152845
-0.020150753
-0.028882084
-0.03798081
-0.026766296
0.06845879
0.0144173335
-0.036373865
-0.015173707
0.026856273
0.012387598
-0.055102307
-0.02291913
0.083209336
0.05417776
0.04029956
-0.039857917
-0.038811326
0.036318682
-0.0111345025
-0.0024903514
-0.018826608
0.018618157
-0.0046054907
0.025553793
0.035012968
0.08470098
0.029056817
-0.032363478
-0.023930928
-0.08711932
0.027155671
-0.0045998716
0.0815986
0.083917364
0.08627857
0.010282558
-0.07353088
-0.058481738
0.10055238
0.13264045
-0.05544945
0.05858021
0.017930407
-0.0041177953
-0.0200339
-0.0051933955
0.0077521824
-0.031371027
0.0062381616
0.046382677
0.056320727
0.027587881
0.011851736
-0.020641081
0.0031447848
0.0018232978
-0.02596068
0.05860586
0.050671905
-0.029637378
-0.068784796
0.016174268
0.016788308
0.020180695
0.078965954
-0.040294718
-0.026650993
-0.03494067
-0.0695682
-0.039613325
0.0062541817
-0.04139472
-0.06148385
-0.026411695
0.0031651168
0.014516836
-0.021089291
-0.04857
-0.033041846
-0.045903224
0.08207721
-0.05674583
-0.11045344
-0.10206343
-0.10536601
0.06399527
0.057117283
0.09317263
0.057534773
0.03510729
0.008263746
-0.051785223
-0.023281807
0.074728295
0.022409713
-0.05370376
0.041171256
-0.009725919
0.0012319172
-0.050605055
-0.014316675
0.034993988
-0.008290929
-0.11059303
-0.16001527
-0.08360969
-0.05860281
-0.057157047
0.031751845
0.060018927
-0.04671065
-0.07739237
-0.14963727
-0.12773904
-0.044280984
0.004671694
-0.0032203675
0.055505026
0.0013451823
-0.062397715
-0.028591704
0.034202516
-0.009015766
-0.06749336
0.05830283
-0.005374677
0.019716421
0.0028242802
0.06354565
-0.043240763
0.060802292
0.039710347
0.05939201
0.12832673
0.1080424
0.048462547
-0.037525788
-0.025098868
-0.059331015
0.03572179
0.0151411705
0.037845664
-0.054418147
-0.065151714
-0.11408358
-0.017636826
0.014311836
-0.0045301067
0.0034184793
0.020768963
0.0003100052
0.06736623
0.0014772757
-0.07262224
-0.06975842
0.053605493
0.057480942
0.09381331
0.06546317
0.089580566
0.036751177
-0.015416554
-0.0003671456
0.013222714
0.10903659
0.006277573
-0.031621724
0.026229437
-0.06714815
-0.07922409
-0.046719268
-0.045936916
-0.022993788
-0.023742875
0.0075596347
0.016521089
0.03286175
-0.028231014
-0.042737897
0.026359156
0.058787704
0.025245994
-0.03951876
-0.0024889584
-0.017111858
-0.024303434
0.04072731
0.051061433
0.027033063
0.04071896
0.003313988
-0.0067034103
0.010441095
-0.01927975
0.029691707
0.022077385
0.01514911
0.044295043
-0.0473362
-0.04156146
0.048559465
0.028395632
-0.019157939
-0.0035927414
-0.01665089
0.031080175
-0.016007949
-0.010378057
0.0149481
0.052330825
-0.043211333
-0.08622311
-0.07209474
0.025229117
0.04906517
-0.001224174
-0.001004746
0.010469968
-0.06218714
-0.052950077
-0.00216556
0.034081776
-0.008077013
0.018515263
0.007308277
-0.02467749
-0.009677062
-0.020233065
0.032006823
5.3060176e-06
0.027083162
0.040141933
-0.03594298
0.0016508466
-0.05835241
-0.03816986
0.020075265
0.026030222
0.06479035
0.052282263
-0.0038956495
0.01783324
-0.026113922
-0.04822819
0.036795568
-0.027445624
-0.06176562
0.025512258
-0.059404932
-0.047709692
0.0546748
-0.061721835
-0.06625548
-0.007871376
0.084457204
0.057906095
0.044144806
0.10475327
-0.055417918
-0.11735724
-0.07938365
0.021072313
0.15535343
0.12009334
0.07956414
-0.07514454
-0.088211104
-0.010290672
0.007572066
0.047786005
0.0567276
0.015047919
-0.012691349
-0.00837129
-0.049372338
-0.043674227
0.017793013
0.016660973
0.05452816
0.09578151
-0.041364543
-0.078677714
-0.07498461
-0.056386016
0.045013655
0.035694834
-0.02074541
-0.037429634
0.009827679
-0.067593075
-0.01727991
-0.0019926438
-0.005921649
0.04514434
-0.025382165
-0.017703943
-0.00277715
-0.021781474
-0.017769229
0.0017140096
0.02265551
0.020436533
0.048117593
-0.04222704
-0.0057705576
0.043765888
0.030792024
0.023286235
0.062941045
-0.016157564
-0.029503936
-0.039860714
0.007624811
0.030071951
-0.0048725004
0.03955548
0.029890215
-0.026789796
-0.06891579
-0.028302528
-0.027831042
-0.008219671
-0.060120083
-0.054837227
-0.044666346
-0.034438513
0.019825302
0.048205752
0.011667435
0.010556217
0.008871585
-0.010810499
-0.022998143
0.021716397
-0.0084211165
-0.03881142
0.03925909
-0.041719418
0.019173825
-0.0017248552
0.023061993
-0.03141245
-0.0032265924
-0.05647209
-0.061412144
-0.018994968
0.01659963
-0.00627342
0.005028892
0.03935676
0.016875494
0.005535242
-0.0478968
-0.06305105
0.024673812
-0.033638757
-0.0064662253
0.053931653
0.04074724
0.023466844
-0.037191264
0.030627407
0.030166188
0.013061668
0.004133969
0.00091916934
-0.01674717
-0.05023675
-0.027036149
-0.00045328462
0.038791936
0.054146517
-0.0090396665
-0.02220294
-0.0893575
0.019510826
0.03823649
0.020968512
0.12782696
0.045135785
-0.043992892
-0.08855984
-0.11577828
-0.01475786
-0.020422213
0.0028624246
-0.045298927
-0.058383003
-0.08020441
-0.13573064
0.0016284896
-0.026813919
-0.027506048
-0.05309375
-0.016875133
-0.05860025
-0.07248519
0.003112048
-0.001747889
-0.030889949
-0.052018516
-0.060167294
-0.014404141
-0.05520752
-0.014647272
-0.014817779
-0.026545433
-0.052745406
-0.02415744
-0.0526938
0.027442282
0.021231716
0.029574448
-0.06814217
-0.068210796
0.01403546
-0.06371289
-0.04335161
0.023996385
0.005154582
-0.056505647
-0.033189498
0.028082257
0.03612249
-0.019589284
-0.05781075
-0.034798965
0.04955032
0.026665652
0.0023393228
0.013871484
0.042841274
0.023106027
0.038582586
0.03414938
-0.02825249
-0.06893627
0.04253992
0.021095172
0.029229853
0.005875637
-0.033249203
-0.032817636
-0.060984246
-0.02740832
0.004574211
0.0061772466
-0.021537643
0.037672
-0.029393276
-0.0163357
-0.02259372
-0.10218502
-0.08566296
0.025639255
0.08433111
-0.025772514
0.026809251
-0.075229056
-0.053284097
-0.0846097
0.010616519
0.096440665
0.08983879
0.06297357
-0.067507036
-0.08211008
-0.064715944
0.005983725
0.03477589
-0.082020134
-0.07310172
-0.0076717082
-0.08992772
-0.026746055
-0.06657927
0.026599858
0.022458449
-0.07753985
-0.1703652
-0.05628356
-0.022902887
0.012333786
-0.03566112
-0.13278186
-0.05097017
-0.02911758
0.0051223827
-0.061984047
-0.14869426
-0.026167195
0.03022991
-0.0046907263
-0.013587982
-0.06779133
0.0013619892
0.058769833
-0.034037255
0.0025389579
-0.04271886
0.048859756
0.03524165
0.023337224
0.06697865
-0.03312197
0.02328298
-0.016526418
-0.04388617
0.061300613
0.050631028
-0.06274528
-0.007550256
-0.0078317905
-0.0034263956
-0.032894645
-0.068228275
-0.033696692
-0.008199624
0.0071924245
-0.041951712
0.05205444
-0.03444278
0.024824655
0.009401274
0.034337487
0.025708316
-0.079307765
-0.033215456
-0.008059119
-0.0011527024
-0.06905437
-0.1312146
-0.08413546
-0.04913939
0.012130324
-0.037296083
-0.13119127
-0.13283755
-0.0040083267
0.12095586
-0.00022526068
-0.036063235
-0.051922943
-0.0022427463
0.023661442
-0.016998913
0.0038969344
0.03597165
-0.0066164955
-0.021876484
-0.027526315
-0.004668365
0.04328957
-0.017748883
0.06213636
-0.02963924
-0.06081438
0.051219843
0.094409
0.06943218
-0.05847696
-0.07824947
0.019257493
0.09828587
0.082355335
-0.043851677
-0.05516528
-0.019310445
-0.012740593
0.07778302
0.037410967
0.05354799
0.053211186
-0.050108712
-0.06356588
0.048863344
0.079131864
0.048399255
0.013345971
0.058961887
0.048269067
0.032928128
-0.04945709
-0.0373346
0.016453108
0.034559198
-0.096878126
-0.010639052
-0.014048365
0.026771164
-0.044351693
-0.06464849
0.035188343
0.014949558
0.10302969
-0.03965507
-0.078755006
0.012054555
0.011416609
0.05077224
-0.04165905
-0.029080527
-0.031801734
-0.058661494
-0.1072787
0.0056719445
-0.042078946
-0.10165941
-0.17902128
-0.17999898
-0.02331547
-0.097154155
-0.2494637
-0.15264459
-0.04104388
-0.039398175
0.0055813463
-0.093309745
-0.20685582
-0.16496645
0.055357527
0.0053871563
0.024328748
0.06982587
0.083775505
0.001660733
-0.008215799
0.0052708434
-0.0016498948
0.06396844
0.017194532
0.029524699
0.015758038
0.0921844
0.11549233
0.022143206
0.025035817
0.007883878
0.100568
0.113529734
-0.005944256
-0.025568789
-0.06415486
-0.07114203
0.0659373
0.019118655
0.029042944
0.010607797
0.06903262
-0.025853075
-0.04965389
-0.062064763
0.10274521
0.026470466
-0.049402405
-0.040869024
-0.056018073
-0.058266897
0.008945458
0.0660038
-0.036854222
-0.10766858
-0.116714835
0.038721714
0.15170749
-0.04864074
-0.038547177
-0.13676324
0.022879299
0.15516438
-0.0018403396
0.017139057
0.05900416
0.08280154
0.018436132
-0.047038272
0.04621147
0.04355975
0.00791555
0.046418123
0.019825788
-0.05397605
0.025441948
0.06511219
0.0012405538
-0.07828872
-0.077449486
-0.027702281
0.055861175
0.07289172
-0.0334934
-0.06963734
-0.03787308
0.0588523
0.03720056
0.03821696
-0.032974273
0.058989566
0.050231416
0.078159325
-0.0424576
-0.015023084
-0.010226075
-0.047798194
-0.00025536737
0.019250069
-0.089553796
-0.06571861
-0.08917485
0.055607338
-0.03936818
-0.090146154
-0.104882725
-0.041306157
0.053065877
0.035178334
0.048996076
0.00024664018
-0.08034404
0.027036961
-0.032984085
0.03761855
-0.022454157
-0.014821992
-0.045109265
-0.0194728
-0.014389107
0.047995094
0.03619258
0.04270027
0.07381098
0.0044743544
0.07502507
0.08746358
-0.027720777
0.029498778
0.022889772
-0.0072599403
0.005846705
0.060755145
0.00710676
-0.030039636
-0.009080174
0.025441064
0.05988049
0.06531703
-0.0330772
-0.11261016
-0.11820015
-0.08820696
0.0056883413
0.024051344
-0.15566869
-0.1078923
-0.1431712
-0.02540065
-0.005792157
-0.09334193
-0.13341245
-0.090877816
0.09118882
-0.0079075545
0.05936265
0.11882437
0.058514006
0.029276393
-0.02360092
-0.008224844
0.077289075
0.101827696
0.058521703
0.023076955
0.08628934
0.10000785
0.02189233
0.014533095
0.015609645
0.041966964
0.018084956
-0.00053983857
-0.006040908
-0.052075755
-0.012542736
-0.0041630464
0.08875339
-0.041158624
-0.124364845
-0.14700536
-0.058069322
0.06495866
-0.04041701
-0.037713267
-0.046147026
0.015705585
0.004046511
0.0069111376
0.018429458
0.007693234
0.06026617
-0.039933078
-0.04276675
0.032174297
0.059797972
-0.023845196
-0.025313428
-0.044676077
-0.08458284
0.08015097
0.068848886
0.058424726
-0.08419763
-0.07209958
0.036198117
0.124218106
0.124356985
-0.0399389
-0.09201047
-0.08988613
0.005571278
0.035219904
0.013289241
-0.010429402
-0.013064234
0.004231413
0.08229696
-0.0035941086
-0.06091365
-0.016410813
0.06954323
-0.0061257444
0.018583957
-0.054099448
0.020440372
0.018475093
0.004721769
-0.00590492
-0.05466471
-0.058397207
0.028984964
0.0013655414
-0.06463487
-0.11130617
-0.05745692
0.0033663071
0.05069804
0.03912988
0.048883364
-0.005665282
-0.057925034
0.021007035
0.04365137
-0.030730344
0.0046807607
0.016046006
0.058782473
-0.029090414
0.0077721947
0.022252576
0.016997911
-0.00865404
-0.030189388
-0.0339007
-0.020308977
0.08931679
0.08043148
-0.036070287
-0.11711536
-0.016472837
-0.020504385
0.09305751
-0.022522613
-0.072171494
0.007511117
0.02941377
-0.025753802
-0.008573043
-0.06076141
-0.0034746116
-0.015296619
0.04649367
0.05877337
0.047393534
-0.07622821
-0.022090446
0.044258535
-0.00086574885
0.0017798208
-0.14094913
-0.13023098
-0.16005689
-0.0640336
0.006027971
-0.18533285
-0.20724988
-0.02318311
-0.012898563
0.045508765
-0.00029621515
0.025409374
0.097236894
0.054932166
0.025937827
0.030543374
0.08058196
0.0871983
0.029525109
0.016469928
-0.072999254
-0.05253823
-0.0025404133
0.002010706
-0.01492546
-0.07223743
-0.042878907
-0.003120237
0.00885054
-0.037060607
-0.092139095
-0.13575189
-0.07402011
0.051714767
-0.019150224
0.002732242
0.04617094
-0.02047303
0.023080459
0.00942518
-0.011935136
0.043543622
0.022137115
0.039666835
0.0117924465
0.009778303
0.041226123
0.049146116
-0.050347723
-0.035496976
-0.049695008
-0.021846643
0.07065778
-0.05033579
-0.0677901
-0.032087352
-0.041833542
0.06771984
-0.03148377
-0.052277923
-0.05757438
-0.047876887
-0.09517496
0.00072196184
0.03419206
-0.1956616
-0.200765
-0.10869637
0.021935558
-0.0650987
-0.12062053
-0.11292505
-0.056843184
0.01476519
0.0046942136
0.059769314
0.101124965
-0.0006605153
0.022592716
-0.0006079474
0.035610307
0.12916276
0.059347343
-0.058423337
-0.01702344
0.06457312
0.089557365
0.012730879
-0.030510914
0.017207958
0.0315947
0.06583178
-0.077517495
-0.123333566
-0.01013647
0.06300342
0.06625887
-0.13142745
-0.091945015
-0.101499066
0.12625277
0.15284
0.031255383
-0.09232794
-0.18005528
-0.010506709
0.11418587
-0.043221842
-0.033208862
-0.036290415
0.036319576
0.007616352
0.0089016985
-0.04583441
-0.038407188
-0.0067503015
0.0069948207
0.0066560823
0.03437203
-0.02373761
-0.020055959
0.050177347
0.04105123
0.030919868
-0.0696597
-0.12073622
-0.032306887
0.075236484
0.031184282
-0.022275079
-0.038073786
-0.020246169
-0.04294787
-0.018634554
-0.008782863
0.023508849
0.022989957
-0.0017267154
-0.03377837
-0.10582874
-0.02633002
0.06142882
0.035967708
0.095515706
0.031394683
-0.03465696
-0.11658448
-0.06944222
0.019899886
0.14481524
0.098248556
0.0701773
-0.038561802
0.0221724
0.068533935
0.07737394
0.021020945
-0.045479205
0.022195544
0.0914323
0.029612893
-0.030811707
-0.036294855
-0.072237246
-0.08743038
-0.037071023
0.058341116
0.0054689804
-0.012290745
-0.028403744
-0.0018951024
-0.030072367
0.031459026
0.03260969
0.07473702
0.03701874
0.007904919
-0.04651463
-0.02426536
0.03625941
0.02027688
-0.041945193
-0.050327286
0.05643642
0.05595505
-0.0035081585
-0.0197385
0.03475219
-0.017246703
0.009747221
0.0715532
0.055284884
0.06942077
-0.11798171
-0.020509515
0.009032866
0.123715535
0.032406326
0.029046535
-0.049437277
-0.050613776
-0.026154261
-0.033147726
0.03020802
0.0120711895
0.07249043
0.0011032398
0.03188684
-0.029682536
-0.02434072
0.039500106
0.0022950254
-0.05072221
0.00835958
0.019049903
-0.051983744
-0.045353916
-0.00738678
0.034524165
0.10541568
0.08357411
-0.06764827
-0.11637502
0.06387316
0.115939386
0.1992635
0.11657468
-0.018927455
-0.044315286
-0.09170566
0.0021478643
0.004567544
0.029570566
0.02529059
-0.03147075
0.1009133
0.07587786
-0.060166437
-0.025216836
-0.003959076
-0.02898343
0.01753453
-0.0026372157
-0.044766642
-0.002729397
-0.017020177
-0.05662489
-0.06292731
-0.022572294
0.055668414
0.036281943
-0.044001643
-0.05518098
-0.020046975
-0.039164256
-0.00916257
0.04545525
-0.039145626
-0.045621596
-0.017052647
0.04788006
0.032141864
-0.049131222
0.04904213
-0.030761836
-0.08424796
0.011987788
0.05290056
0.012255465
-0.016459256
-0.009658151
-0.10525884
-0.059455283
-0.014846541
0.07346588
0.10782619
0.02376493
0.014258084
0.045618735
0.04827262
0.044912323
0.10029212
0.0007052226
-0.0049269116
0.06486875
0.00278635
0.047096953
0.009290256
-0.057277016
-0.024725517
-0.03943603
0.014032792
0.051166203
-0.0558511
-0.028110532
-0.043669727
0.020464662
0.051890265
0.022866262
0.044394877
-0.066199064
-0.02969534
0.023799973
0.0022858677
0.06436545
-0.01387593
-0.008236582
0.026634935
-0.045383405
-0.0034288184
-0.00023921116
0.017547496
0.040523313
-0.054194808
-0.043882836
-0.031558633
-0.070019215
-0.08426079
0.047722153
0.007883368
-0.033244297
-0.02524433
-0.036902234
0.07004174
0.07379916
0.01085312
0.06313973
-0.025617478
-0.027859708
0.06280407
0.025251964
0.010002777
-0.041640695
-0.040853374
0.046780646
0.03885973
0.017532973
0.006098406
-0.07601716
-0.07653234
0.019352848
0.04438647
0.020026369
-0.017975256
-0.023454746
0.054715186
0.06378874
0.027182212
0.051690713
-0.024981527
-0.02971464
-0.065334015
-0.04729309
0.0024829062
0.019010553
0.010681518
-0.0077098412
0.021596784
0.18462135
0.14612024
0.033042252
-0.09473877
-0.0650963
-0.041330703
0.028084703
0.115287274
0.09985633
0.026312193
0.017227983
-0.049826153
0.084835954
0.07868718
0.1073447
0.13021931
0.10629644
0.037119664
-0.047450688
-0.06472603
-0.0057157166
0.039902885
-0.0007448002
0.059755936
-0.053536206
-0.010045261
-0.008016563
0.02090457
0.089107536
0.032451186
0.0313513
-0.0046969783
-0.02636741
-0.038850535
0.023084328
-0.022073643
0.055614114
0.10259472
0.08145584
-0.0068127993
0.03228356
0.04221838
-0.061120726
-0.03115296
0.045560334
0.038237106
0.03381046
-0.023517722
0.028904114
-0.011171731
-0.050285816
0.03832604
0.047977157
0.0022596538
-0.016820194
-0.06545747
-0.081444204
-0.05563624
0.015724875
0.042981118
0.0052147033
0.018722273
-0.02462312
-0.0032943182
0.012327837
0.05488794
0.019538857
0.018300459
-0.01892942
-0.06454561
-0.02341123
-0.023753123
0.059307974
0.0024923817
-0.041886486
-0.018747114
0.00994844
0.017597547
-0.04566461
0.0055596484
-0.034907505
-0.05408168
0.006299218
-0.0485404
-0.011673634
0.03518051
0.003958572
-0.022963746
-0.062572695
-0.0299913
-0.042227466
-0.020711092
-0.002411251
-0.006282984
-0.05605318
-0.0438576
0.039253026
-0.02157865
-0.040398575
0.029329771
0.030113127
0.06403723
0.013692121
0.042246345
0.056283865
-0.0728261
-0.00196748
0.027050368
0.022017688
0.029279368
-0.023172326
-0.0012413654
-0.06350221
-0.040824838
0.0069307373
0.030363461
0.050995357
0.005970033
-0.0019137799
-0.06361682
0.00022024948
0.0019221734
-0.031985752
-0.060305186
0.02297239
-0.07480351
-0.077343546
-0.026170306
-0.0170926
-0.01609201
-0.06756624
0.0069818567
-0.027136726
-0.17503513
-0.11444352
-0.03910468
0.047287427
0.08042712
-0.007677562
-0.049751848
-0.02953739
-0.042181246
0.07745176
0.023295896
-0.044032853
0.011699847
-0.021419417
0.031608295
0.005850648
-0.031881854
-0.021697728
0.011655816
0.01903349
0.012398293
0.02127562
-0.0621416
-0.039131436
0.028826982
0.030536005
-6.958613e-06
0.016148629
-0.02927968
-0.046988778
-0.027626006
-0.015173027
0.037144043
-0.05953467
-0.061858233
0.017653627
-0.049914174
-0.028791985
-0.036700487
0.011092895
-0.031221205
0.013656392
-0.013041965
-0.009988088
0.009458032
0.021931699
-0.023559164
-0.027408294
-0.04223797
-0.06616537
-0.019127924
0.041748215
0.016371397
0.0010231286
-0.030741703
-0.047315594
-0.020224184
0.03648173
0.035894807
-0.02541209
-0.019221349
0.03238985
0.053352337
-0.023476932
0.042953715
0.027053222
-0.02826102
0.078102306
0.09119993
-0.003526761
-0.036823664
0.025526332
-0.07089687
-0.023580043
0.12766375
0.06379889
0.021422565
-0.02927578
-0.03921384
0.044413015
0.025258712
0.045093752
0.072673395
0.017374568
0.0031863349
-0.070390165
0.00054112764
-0.04674928
0.002789479
-0.052633606
-0.01662809
-0.043919954
-0.09855219
0.0074544623
0.029850533
-0.018771756
-0.012946188
-0.03012093
-0.062045045
-0.039304946
-0.04414406
-0.026350452
-0.04350316
-0.098916754
-0.08989523
-0.0063159005
0.031017914
-0.01615248
-0.050814785
-0.08874798
-0.037627645
0.0035520645
-0.03724757
-0.032438494
0.057492662
0.011389369
-0.037039366
-0.054364786
-0.002755513
0.012579476
0.003356285
0.015651163
0.013429902
-0.05844945
-0.015364695
-0.053869646
-0.0035433476
0.068147555
-0.0034516393
0.05858594
-0.007501073
-0.0042517586
-0.051661547
-0.010214178
0.06498456
-0.01816029
0.012351227
0.048133317
-0.03952477
0.026655661
0.011719445
-0.007540926
-0.025911927
-0.10152116
-0.12990028
-0.115954325
-0.091980964
-0.041433517
-0.037162565
-0.014619955
-0.023702718
0.01809814
-0.0048708343
0.029484235
0.054419603
0.033893168
0.040861275
0.047243673
0.039245393
0.033734594
-0.010023962
0.049193144
0.05857213
-0.019603556
-0.05401286
0.010145638
0.034987945
-0.042634275
-0.0039762775
-0.059406854
0.008781951
-0.025112566
-0.035000514
-0.022928819
-0.030253964
-0.013078304
-0.033876136
-0.03756531
-0.017830366
-0.028861528
-0.07852145
0.051931262
0.0034505383
-0.0128462585
0.036361832
0.06027417
0.039891366
-0.051876828
0.010102355
0.0421499
0.018360563
0.03907426
-0.005121082
-0.049564134
-0.06828072
-0.04168898
-0.09176385
0.0396382
0.04119877
-0.0169685
-0.0984019
-0.12497499
-0.0016831411
-0.002947734
-0.060967993
-0.106149994
0.06996017
-0.0050325813
-0.0057576317
0.044868767
0.10015391
0.117509596
-0.023842974
0.051345468
0.046769544
0.015854403
0.02017656
-0.03673199
0.00011624399
-0.0823866
0.0036387001
-0.033583328
0.0022426513
-0.016577581
0.07416581
0.08664866
0.08631838
0.016932175
0.11854448
0.117051035
0.022185272
0.031161496
0.10337231
0.099619046
0.0010979767
-0.028520588
0.033868924
-0.017946575
-0.12381629
-0.09014009
-0.09830539
-0.027026605
-0.14802924
-0.0481365
-0.05069063
-0.058037058
0.0013498854
-0.08231319
-0.041067157
-0.09474345
-0.059613187
0.03388657
-0.063139945
-0.05517301
-0.05863315
-0.01281736
-0.06008688
-0.10362162
-0.055168077
-0.045633454
-0.043411665
0.02577323
-0.04140612
-0.009689047
0.052031167
0.028913254
-0.07796437
-0.05333187
-0.05653781
-0.04853713
-0.08698186
0.0013312614
-0.024985323
-0.066759735
0.01155465
0.0073379762
-0.0018902929
0.017188853
0.039214984
0.08611271
-0.033903036
-0.021729222
-0.0155962
0.05362814
0.0067967386
0.039567474
0.008377637
-0.021166923
-0.0016168761
-0.009199874
-0.057200294
-0.037013207
-0.07769209
-0.04782248
-0.033906847
-0.05491577
-0.068569005
-0.06324025
-0.036795843
-0.022245375
-0.016374316
-0.07171197
0.030670548
-0.023089059
-0.05544336
-0.08286402
0.015233394
-0.016046291
0.026533874
-0.0043317694
0.042446274
-0.0030987414
0.000522702
0.037869915
0.04359847
-0.014148843
0.022645433
-0.056668606
-0.02642116
-0.07435967
-0.098135546
-0.024694744
0.011215691
0.016235381
0.04815272
-0.011434005
0.05546786
0.04519604
0.08904839
0.024214316
-0.0055544744
0.005864506
0.004761211
0.07047725
-0.02209667
-0.050003614
-0.008087697
-0.058407802
-0.076727666
-0.06711981
-0.048101906
-0.014625555
-0.053419057
0.01330811
0.010548429
-0.029271623
0.0031790247
-0.026553236
-0.06866079
-0.041359067
-0.039271202
-0.051390518
-0.031133702
-0.08032219
-0.05087282
-0.098665655
0.06503831
-0.055650227
0.03700946
0.07397846
0.09045046
0.03427175
0.022156121
0.06466126
0.06304887
0.06380469
0.020242658
0.11729128
0.07972536
0.022477305
-0.028966295
-0.077012114
0.087642595
0.09810023
0.04398814
-0.043048017
-0.07634639
-0.056667056
-0.055155236
0.015190284
-0.040256724
0.011292282
-0.098877974
0.022028431
0.026280258
0.081475794
0.120830916
0.036696766
0.009648946
0.054937217
0.009884437
0.09073459
0.004444392
-0.04740191
-0.09537447
-0.031174643
-0.031294215
-0.037575785
-0.019106453
0.027962904
0.050157607
0.039395154
0.0010817207
0.06890104
0.087550096
0.03184746
-0.07093701
0.057065926
0.008189419
-0.013097214
0.009212416
0.098549396
-0.0138576515
-0.013079335
-0.02114855
0.0003050291
0.016520476
-0.07155935
-0.045656025
0.0019416481
-0.044877987
0.008243952
-0.08475118
-0.033934873
0.01484385
0.0115417335
-0.011582143
0.008151409
0.016417915
-0.019587481
-0.05110949
0.025999451
-0.023552492
0.01675606
-0.020802757
0.017817754
0.04452064
0.03694508
0.04230249
-0.0147013385
-0.014572954
-0.07337592
-0.060178623
-0.056551646
-0.022087885
-0.025502311
-0.04411696
-0.08554351
-0.06321119
-0.039601598
-0.02827974
0.037228767
-0.00919132
0.028014855
0.050092578
-0.0040941206
0.035449132
0.04214878
0.05158001
0.05127426
0.014358719
0.05454812
0.0009933596
0.06634938
0.055748764
0.0071543464
-0.07247721
-0.058234733
0.028096434
-0.041461263
-0.038608827
-0.039674338
-0.066780575
-0.031307515
-0.047457065
-0.028168023
-0.023386095
-0.07714442
-0.036056027
0.03568478
0.06886683
0.067843616
-0.034800246
0.07212999
0.07188211
0.0054673706
-0.012545778
-0.017513176
0.02945995
-0.028153377
0.02374863
-0.067280464
-0.14095773
-0.021453986
-0.039740976
0.0036878334
0.020714365
-0.14310169
-0.102695286
-0.025125261
-0.033513296
0.050612208
-0.15164573
-0.048175972
-0.028497824
-0.015432284
-0.015815
-0.13660286
-0.099928446
-0.008422269
0.013322065
-0.082052276
-0.11672971
-0.0020223625
0.023439204
0.039276592
0.0027850447
-0.009670179
-0.0666442
-0.06847886
-0.07991112
-0.023613213
-0.07543845
-0.093235865
-0.1025218
-0.09924314
0.006075532
-0.061867688
-0.10271495
0.009329343
0.06457761
0.061645616
0.03690719
0.041365985
0.04734574
0.07228314
0.018676564
0.020534482
0.012619986
0.03635205
0.057991046
-0.0057112654
-0.005885833
0.0033894982
-0.06625304
-0.0048797
-0.062064297
-0.019413196
0.0037251767
-0.037232433
0.018423777
-0.07344534
-0.08202426
-0.04829983
-0.013055941
0.027930172
-0.041883044
-0.008019038
-0.0031339456
0.052358806
0.06127179
0.02684625
0.0283016
0.0009553281
0.047618914
-0.05911321
-0.05078314
0.048713002
0.103695236
0.03537463
0.043270428
-0.027723044
0.046902835
0.07880252
-0.061307706
-0.03161431
-0.05394637
-0.098432384
-0.03991283
0.011396228
0.0575395
0.07280841
-0.0730699
-0.040163737
0.03089025
0.07602516
0.034221973
-0.05343084
0.006248448
0.004611606
0.0031010304
-0.013347126
-0.03460198
-0.017026423
0.011173106
0.004869514
-0.06736995
-0.014127606
-0.098071836
0.02837034
-0.004248254
-0.097729236
0.04930231
0.022902535
0.04146343
-0.0312547
-0.14010197
0.022045096
-0.004419925
-0.058375005
-0.08806241
-0.08562669
0.04199113
0.004295646
-0.071175136
-0.021316312
-0.020596502
-0.01241692
-0.060537145
-0.024136975
-0.06269621
-0.013164999
0.022012003
0.03777588
0.0028982577
-0.01352941
0.10447073
0.05898138
0.045559477
0.029986043
0.080280185
0.025814904
0.03751697
0.06581877
-0.029158307
-0.050221007
-0.022101456
-0.038816128
-0.045176856
0.005822226
-0.012916247
-0.01103096
-0.03222485
0.03912274
0.03788749
-0.021468766
-0.044742342
-0.022386914
-0.0055780825
0.033285134
-0.022673054
-0.028511724
0.05359461
0.02980673
-0.07359865
-0.02731341
-0.008801118
0.04823136
0.011200917
-0.0403544
-0.050078146
-0.014437594
0.008695885
0.020013968
-0.01189026
-0.027863668
-0.052469693
-0.06309232
-0.0076988316
-0.03414396
-0.025206393
-0.06568825
-0.04754369
-0.029716322
-0.010983657
-0.04106887
-0.039273832
-0.015528764
-0.045577936
-0.007683482
-0.017973237
-0.033358656
-0.023998583
-0.013533524
-0.015770415
0.0026214519
-0.04697769
0.025917161
-0.04690937
0.004467018
-0.009479058
-0.0153012015
0.012735978
0.02975942
0.02410975
-0.031095479
0.02498983
-0.05174932
-0.07802882
-0.03869953
-0.06863411
-0.05726272
-0.015807068
0.002750325
-0.010569815
-0.011130767
0.017959494
0.043534495
0.030373026
-0.0016211292
-0.044313073
-0.01952777
0.029666713
-0.03212521
0.006780871
0.0101772575
-0.0026248903
-0.020320896
-0.017725872
0.04028941
-0.05025662
-0.07085005
-0.015178414
-0.02691236
-0.03173124
-0.059063543
-0.031696074
-0.010905865
-0.005321895
-0.007887778
-0.015371677
0.008606897
0.008930165
0.012500327
-0.03345332
-0.028295703
-0.024736468
-0.0067384318
-0.03909011
-0.016093418
-0.062924124
-0.022286713
-0.033887476
-0.0043259654
0.029662486
-0.035949234
0.012107814
-0.022140374
-0.0060853693
0.03052763
0.0054983874
-0.020133479
0.016984986
-0.03955913
-0.009785971
0.00073671597
-0.04762828
-0.003148212
0.0062521086
-0.0033216497
-0.018720336
-0.040914234
0.04887738
-0.038080487
-0.01848883
-0.028660595
-0.020576691
-0.025864061
-0.06435316
-0.033551197
0.0038181646
-0.058910664
-0.035533823
0.023091275
0.017814014
-0.03066819
-0.013869828
-0.011320414
-0.03162756
-0.036232255
-0.017618358
-0.0019123578
0.05034385
0.03611178
-0.010923078
-0.05842885
-0.03925106
-0.00031483645
-0.04956127
0.035582714
-0.04683945
-0.031607278
0.028284317
-0.045273483
0.011662886
-0.034630984
0.012945801
-0.032282405
-0.002626318
0.012321155
-0.061529472
-0.03091712
-0.04694988
-0.05431226
-0.0554437
-0.06673841
-0.010998352
0.016698046
-0.026067065
-0.026569106
0.00071956177
-0.04084173
-0.042465236
-0.046436787
-0.048225164
-0.0030296864
-0.057911374
0.039843965
0.01680297
-0.038125385
0.012644344
0.006506534
-0.022256954
0.012984804
0.0050262283
-0.019899078
-0.018359367
0.03801084
-0.016073273
-0.07244291
-0.057707418
-0.0316572
0.013442122
0.024883488
-0.06726808
-0.05037581
-0.060909197
-0.034047306
-0.04783805
0.018926784
-0.013519327
0.033292014
-0.03153303
-0.036675725
-0.00849452
-0.05054613
-0.013873527
-0.033214435
-0.03698979
-0.027037913
-0.037604794
-0.06867034
0.021642586
-0.019533679
0.0048362846
0.0050265286
-0.022321897
-0.06198084
0.028267425
-0.03348412
0.028058134
0.015273035
0.0042409725
0.007962333
-0.03005659
0.001968465
0.0046383576
-0.010646955
0.009404484
-0.043489482
0.014731122
0.02188378
-0.043683138
-0.06334724
-0.0122786835
-0.021303141
0.00016519242
-0.061667506
-0.03541768
-0.022845043
0.014941635
-0.031009525
0.015037451
-0.058200054
0.014344597
-0.024885835
-0.06173994
-0.004642482
-0.0063791885
-0.05549206
-0.044391625
0.025932763
-0.0070457947
-0.02383141
-0.013583238
0.015601373
-0.042998523
0.027049785
-0.025514284
0.0027341265
-0.06621795
-0.065509886
-0.031736385
-0.005156598
-0.0206705
-0.05416588
-0.03680005
-0.040404424
-0.046554226
0.0132057965
-0.046572085
-0.05029431
0.016213292
-0.031433493
-0.0044216434
0.0029517594
-0.049936168
-0.026820391
-0.0047803023
-0.0030891544
-0.025880897
-0.051225763
-0.024161847
0.020373035
-0.009884258
-0.017343856
-0.012065305
-0.028515935
0.0047908444
-0.05414881
-0.019530723
-0.010656291
-0.023152903
0.022326756
0.016535655
-0.0032328847
0.003117756
-0.037313905
-0.04620533
-0.045766406
-0.048736975
-0.017530661
-0.022823686
-0.004590881
0.0144822765
0.014820894
-0.045889705
-0.058189098
-0.013063666
-0.013437436
-0.060922373
-0.06420832
0.01994391
-0.047396462
-0.058175497
-0.034299064
-0.005240335
0.0021731262
-0.018140195
0.017789077
-0.059378948
-0.052138023
-0.04701702
0.0037544558
-0.009652153
-0.05334221
-0.025574882
-0.053371668
-0.007747464
-0.050890002
-0.029162947
-0.05724468
-0.021054797
-0.042675897
-0.044075992
-0.007200917
-0.037914153
-0.008479158
-0.02526993
0.0024469877
-0.0465796
0.00983929
-0.03377443
-0.0119876
-0.033529628
-0.016931538
-0.021187233
-0.01281509
0.012953781
0.01878066
-0.07628005
0.00069277576
0.042125467
0.02142726
-0.035560105
-0.0130725065
-0.045101352
0.049035467
-0.052999437
0.0051247403
-0.07656097
-0.023857376
0.04925613
-0.015216713
-0.034408577
0.020669248
-0.02189619
0.016129285
-0.01207652
0.032116767
0.019532597
-0.020978242
0.009921315
-0.04805838
0.03373163
0.02962613
-0.07201871
-0.023102986
-0.0013759219
-0.036101583
0.01916289
-0.02983574
0.030405115
-0.012645336
-0.05510305
-0.025651304
-0.03789601
-0.038079213
-0.015312143
-0.009551759
-0.034593143
-0.021999229
-0.044818714
-0.01982753
-0.054536376
-0.040000387
-0.046629116
-0.013459682
-0.03912622
-0.0033760802
-0.07378198
-0.063533425
-0.027646668
-0.01738031
-0.03956816
-0.0572537
-0.065956354
-0.017873405
-0.06062479
-0.06576505
-0.05253304
-0.05771359
-0.004984021
0.018601235
0.008247145
0.011601096
0.0085460525
-0.018065365
-0.022244543
-0.0042720973
-0.004628229
-0.057459194
-0.008582689
-0.040806618
0.011484886
-0.07827564
-0.007222744
-0.012400498
-0.036021266
-0.042312633
0.009987572
-0.009596791
-0.032895472
-0.016562019
-0.027700715
-0.024850719
-0.032497272
-0.045392923
-0.021331774
-0.060939353
-0.033121664
-0.021959847
-0.04608014
-0.010514032
-0.01843112
-0.007968601
-0.056389183
-0.0024798338
0.014106195
-0.06763849
-0.025304185
0.0039054444
0.02056975
0.001362895
-0.015596617
-0.04799127
0.004613553
-0.056540035
-0.019097026
-0.027415307
-0.0002626085
-0.04343392
-0.02440169
0.008811931
-0.053778887
-0.001040354
0.011265156
0.0006480757
0.016595623
0.0065711723
-0.03432159
0.020214316
-0.04028976
0.032741386
-0.02240361
-0.056881208
-0.01719971
-0.05467078
0.0037195995
0.0065019573
-0.002325394
-0.024558548
-0.051874116
0.010930238
-0.05306503
-0.04795212
0.011687355
-0.036737047
-0.030980954
-0.06443906
-0.06052958
-0.034189425
-0.051155593
-0.027067274
0.018898988
-0.03377907
-0.016490169
-0.0033528775
0.017068503
-0.02766161
-0.0560891
-0.042256564
-0.047345005
-0.0010434025
0.026945125
0.04533552
0.008229499
-0.042717427
-0.009811847
-0.035845146
-0.0067472286
0.07441952
-0.13052908
-0.061808903
0.0030353141
-0.022699425
-0.013396039
-0.09898352
-0.17574348
0.006467276
0.011045784
0.07174777
-0.039400104
-0.09325798
-0.0513926
-0.031122025
0.10753077
0.07601205
-0.036722153
0.045193065
0.013555537
0.06773674
-0.003468925
0.05033223
0.06675785
0.038680967
0.051506475
-0.07212601
0.06602996
0.09971502
0.014859537
0.025465708
-0.064448245
-0.04358052
0.08467567
0.061861187
0.051653374
0.0054100123
-0.079196826
-0.006624584
0.06563805
0.018760659
0.14071333
0.0759426
0.02727352
0.09573367
0.037461657
0.011835197
0.03572154
0.011541745
0.019837458
0.04548566
0.058575504
-0.024632463
-0.03554103
-0.0387236
0.02347002
-0.036621857
-0.01272729
0.008449384
-0.008704804
0.008821166
-0.016700896
-0.02172216
-0.042306997
0.0270369
0.06489614
0.010380858
0.0027577365
-0.0224288
-0.066753715
-0.028983222
-0.039927743
-0.013753146
-0.059446063
-0.044830292
-0.030580826
-0.11462522
-0.14777626
-0.16060582
-0.033507273
-0.13654105
-0.051103454
-0.14157362
-0.22735049
-0.086018786
0.012000196
-0.037628688
-0.05381558
-0.14745039
-0.13173504
-0.00012210352
0.034747083
0.011889235
-0.0017566667
0.04865529
0.03264357
-0.06622922
0.042518944
0.076172195
0.08742101
0.030432014
-0.058555685
0.010139685
0.03989013
0.16794606
0.07520309
0.13720965
-0.014703344
-0.00987932
0.08012996
0.09967794
0.110562086
0.050733432
-0.085747965
-0.0018037283
0.08318781
0.027145304
0.0041729007
0.03404637
0.0627992
0.0750429
-0.012233709
0.00019710949
0.026712684
0.024786009
-0.051032502
-0.082676835
-0.01737141
0.017719857
0.081455655
0.0395094
-0.07654019
-0.11864376
-0.024009384
0.082434826
0.11013165
-0.036129415
-0.012798101
-0.03247033
0.02867376
0.13060346
0.040578872
0.026902236
0.01687664
0.052325454
0.058853865
-0.049983088
0.04738502
0.049600456
-0.043215048
-0.019356545
-0.05200242
0.008056981
0.06422828
0.008025616
-0.03407828
-0.021457935
-0.10261039
0.024604518
0.011825289
-0.027822083
-0.028789503
-0.051352922
-0.02722531
-0.00743392
0.0051981737
-0.06389497
0.028513037
-0.022173252
-0.0058928323
0.04048251
-0.043189563
0.003933365
-0.06976366
0.045787603
0.042812668
-0.11912007
-0.11242748
-0.008376132
0.017985296
0.06532209
-0.06690242
-0.094167486
-0.017160885
0.040812828
-0.0007922248
0.02197235
0.022615165
0.0032819288
-0.008885314
0.038251307
0.08548171
0.047486942
0.03425407
0.039678082
0.08343506
-0.016511807
0.0077139856
0.03273138
0.021873029
0.04880159
-0.026596446
0.03959986
0.063305125
0.030345041
0.029956866
-0.025787937
-0.03633143
0.025004135
0.021430695
0.022471018
-0.0006842864
-0.10067744
-0.050165955
0.03029759
0.023854908
0.08229581
-0.017602943
-0.09988947
-0.02954457
0.01035506
0.016277906
-0.11118589
-0.1946056
-0.053492367
-0.027101496
-0.029714914
0.06375069
-0.08251602
-0.13145584
-0.034784716
-0.07589179
0.026836365
0.034845028
0.037723787
-0.028614664
-0.011604976
-0.08761053
-0.00548779
0.100213416
0.05774331
0.04961158
0.02524331
0.024984054
0.10966885
0.111782156
-0.0903422
-0.027187277
0.021680696
-0.0012051527
0.092360534
-0.066250235
-0.0066000526
-0.021112526
-0.009467104
0.061363544
-0.067179054
-0.03438822
-0.060234975
-0.06023183
0.021033837
-0.018934932
-0.03462017
0.017687298
-0.009640154
-0.06783073
0.051569927
0.061878394
0.022336943
0.024891522
0.052532107
-0.03994621
0.0046460666
0.07380846
-0.015106873
0.052590206
-0.06356862
0.0008452955
0.03987243
0.045206204
-0.016060514
-0.0827826
-0.06765268
0.08547095
0.11270968
0.030647632
-0.049410038
-0.046256524
-0.03160149
0.046234723
0.06524719
0.02013429
0.02301393
0.0022744548
-0.015291499
-0.012683215
-0.009151847
-0.0011368267
0.040039934
0.010737248
-0.03189411
0.002636959
-0.035584185
0.01484221
0.046149336
-0.011711268
-0.00018853314
-0.08742186
0.034344856
0.016789503
-0.007128894
-0.03205167
-0.07285395
-0.049539283
-0.03804264
0.03935082
-0.021046821
-0.00026361132
0.043927804
0.05995894
-0.0060503087
0.061562985
0.08879779
-0.022348199
0.009195205
0.067839846
-0.03929283
0.00092464144
0.0059530423
0.021170583
-0.04839975
-0.029106015
-0.06966402
0.010481988
0.08553294
0.03669687
-0.05209367
-0.058464423
-0.05848197
0.067235604
0.06318122
0.012928756
0.027287103
0.042248398
-0.018307086
-0.028879868
0.027696455
-0.011537168
-0.010068991
0.06318831
-0.07539248
0.151496
0.12025169
0.0056833797
0.10247876
0.08508308
0.09384729
0.0027024392
-0.14743179
0.00166134
0.0057199127
0.040652007
-0.03758195
-0.07974062
-0.057085615
0.017863506
-0.032235134
0.05110214
0.05529042
0.030312454
-0.00394381
-0.012490626
0.05044634
0.010142862
0.06664844
0.027320564
0.069033556
-0.0021833258
-0.052167382
0.024226386
0.000107387474
0.06908602
-0.00027762476
-0.12686327
-0.059921525
0.03901998
-0.057121042
-0.025149211
-0.08952435
-0.008605258
0.013901942
-0.008861866
-0.010411996
0.0027654255
0.03207034
0.0346872
-0.029898647
-0.007932149
0.076244205
0.033808384
-0.0007020776
-0.012809335
-0.038375385
0.017386016
0.05956329
0.019832293
-0.048428293
-0.07163511
-0.011766319
0.043748878
0.05981114
-0.04321649
-0.041631404
-0.056541048
-0.023242177
0.012641271
-0.038436107
-0.049337793
-0.052466683
-0.056056537
0.036727354
-0.031461596
-0.09445722
-0.2120642
-0.09003515
0.0790569
-0.04002829
-0.017111013
-0.13437696
-0.15949921
0.020479
0.00826523
0.016293343
0.005809853
-0.015898084
0.033839796
-0.044240076
-0.052987188
0.039887752
0.0044293874
0.03604385
0.036482014
0.066859804
0.005010014
0.0015804138
-0.03995636
0.018047871
0.036716472
0.0693064
-0.05172352
-0.017706716
-0.03717097
0.084443346
0.08755489
0.01222316
-0.03405539
-0.10523513
-0.013994701
0.08967922
0.021015113
-0.08855788
-0.032521237
-0.0801562
0.09459817
0.05907639
-0.044926308
-0.01983204
-0.039006982
-0.0005373099
-0.018751455
0.0018147645
-0.00613133
-0.06675515
-0.043015566
-0.012661906
-0.015285184
-0.04305293
-0.050730236
0.0061950483
0.024636764
0.03636032
-0.01949019
-0.10022693
-0.016455963
-0.0139353145
0.044824384
0.045023244
0.037202504
0.0038327556
-0.048846804
-0.020292884
0.01635681
-0.0003591626
-0.017176932
-0.020045869
-0.05003055
-0.03260921
-0.10634502
-0.025989477
-0.08668287
-0.022977209
-0.045754433
-0.03354206
0.0023300585
-0.03888591
0.012302912
0.0068120374
0.0063437363
0.027514765
0.05497679
0.047439404
0.025159806
0.058489434
0.09959796
0.053285513
0.0032214648
0.03661735
0.033061847
-0.010947792
-0.010528355
-0.0558643
0.04007244
-0.014433508
-0.0101573495
-0.03946469
-0.044581145
0.0024219947
0.053204663
0.0016572431
-0.0249169
-0.045972005
-0.010725918
0.018749269
-0.020172214
0.03652728
-0.032903895
0.03815734
0.06260488
0.019868707
0.0066419654
0.0007665918
-0.12910855
-0.13500373
-0.09085326
-0.08337402
-0.09516908
-0.10467081
-0.071125425
-0.04108302
-0.055725507
-0.03338289
-0.17535368
-0.14639185
-0.11815491
-0.08479603
-0.035246946
-0.13989688
-0.11507493
-0.07810148
-0.05942762
-0.057686716
-0.01410433
0.041550726
0.01947911
0.024062363
0.017965276
0.053267434
-0.034256715
-0.054837696
0.06631735
0.03713798
0.02227656
-0.071747854
-0.11529221
0.013398321
0.020415813
-0.08488569
-0.13186657
-0.109353565
0.014342953
0.011527969
-0.19454151
-0.035375707
0.002262231
0.035409693
-0.044167608
-0.11392267
-0.02248864
0.07782561
0.013406369
-0.06260591
-0.09762716
-0.07660359
-0.016860869
0.08086526
-0.024663212
-0.08206756
-0.013040207
0.054782886
-0.025973061
0.039744135
-0.058365647
0.059005294
0.107566446
-0.051322937
-0.029733812
0.017434316
0.02465965
0.057650097
-0.034309406
-0.04012927
0.0033281907
0.01389498
0.044182308
0.0052635954
-0.061304804
0.01807213
0.006450749
-0.045401737
0.0167231
0.004995666
0.013257701
-0.04432555
-0.055147566
-0.05321557
0.0456461
0.012597471
0.029983006
-0.045233782
-0.040176976
0.021902356
0.007783271
0.063180946
-0.005694424
0.031374495
0.039000746
-0.020570219
0.024120126
0.09513303
-0.019785127
0.033967648
-0.0068950937
-0.04737392
-0.009911291
0.0062230383
-0.044466086
0.04196861
0.037978813
-0.03865979
-0.02191648
0.0085504865
0.027525023
0.021505183
-0.07131898
-0.062155064
-0.03789525
0.06508845
0.04171647
-0.015534816
-0.01579161
0.03412916
0.04314358
0.0076857978
0.0137478085
-0.037548743
-0.014190597
-0.015064572
-0.020349719
0.013279389
-0.055124227
0.038706746
0.005684172
0.0026424748
0.0064249705
0.024826802
0.050137315
-0.041273165
0.0424388
0.044486206
-0.018064694
0.03406379
0.023478452
0.009364016
0.06860411
0.05565635
0.021771898
-0.04583406
0.057379384
0.00441742
-0.029790465
-0.04951055
-0.043887667
-0.045460384
-0.062051646
-0.079023965
-0.056278083
-0.027239038
-0.06497598
-0.085814744
-0.05849191
-0.020781407
-0.041036323
-0.0068022367
-0.0761776
-0.05993898
-0.031840067
0.0073770555
-0.0176384
-0.07626708
-0.0444148
-0.04136384
-0.017307784
-0.020494848
0.017989025
0.023611112
0.07159536
-0.16310693
-0.23971377
-0.15032555
-0.09449441
-0.056491394
-0.24088556
-0.22532712
-0.079453684
-0.09688174
-0.10460035
-0.24216773
-0.17724377
-0.12326278
-0.14975612
-0.016726503
-0.11907674
-0.10920314
-0.0984504
-0.058479056
-0.027204728
0.021637086
0.07873665
0.04966276
0.048826918
0.051857743
0.0065338495
-0.058657948
-0.047896758
0.012099545
0.020479186
-0.019063143
-0.06517897
-0.08535113
0.019459898
0.03956959
-0.0073476667
-0.07902764
0.006093921
0.040792033
-0.0071365824
-0.04187298
-0.016602123
0.072195165
0.07117543
-0.027413547
-0.05903561
0.00023402981
-0.03691718
-0.061202567
-0.079612784
0.0010506313
-0.0046845507
-0.06023069
-0.014366778
-0.052548837
0.06299597
-0.018321443
-0.051992554
-0.066386126
-0.021210486
0.026381101
-0.018792117
-0.013666856
-0.054180298
-0.040989414
0.06081065
0.04510469
0.031394295
0.04202778
0.047428872
0.00056461664
0.015738433
0.06383435
0.030633662
-0.035033554
-0.04009448
0.031775985
0.018954333
-0.048310712
-0.05996676
0.027781555
0.07177053
-0.04800093
0.012482093
-0.03941324
0.062082183
0.08372843
-0.037700403
-0.001131648
0.037477735
0.04340744
0.060761184
0.06822609
0.033703666
0.045752514
0.046118665
0.07737373
0.03870545
0.028954884
0.050745882
-0.04010216
0.021196922
-0.002073647
-0.023733925
0.009148176
0.014383001
0.020989403
-0.014374026
0.013779752
0.031309195
-0.025423605
0.01234563
-0.020159645
-0.007901983
-0.010200292
-0.03195824
-0.028732002
0.02406547
-0.025253069
0.017699411
-0.0035898623
0.03700352
0.04765616
0.028227875
0.0559314
0.037429407
0.061744988
0.03755428
0.05789387
0.024332976
-0.029854637
0.08116493
0.032893334
0.0057065478
-0.015434357
-0.029828498
0.039605852
0.0006433359
0.0057047936
0.05441603
-0.0063420623
0.038745828
0.06084053
0.048140544
0.09473577
-0.040676363
-0.068179116
0.019953001
0.011695435
-0.01849893
-0.06775307
0.03166001
0.070368215
-0.016708165
-0.007099812
-0.03693398
0.08102409
0.024407335
0.0055308673
0.02732053
0.023632007
0.060481668
-0.02812789
-0.0058481726
0.000553749
-0.030504527
0.017910989
-0.040279947
-0.017814815
0.07201394
-0.031817537
0.02614783
0.04749835
0.016944466
0.052932017
-0.00035402804
0.026832022
0.005546483
-0.008815738
0.026518086
0.033298608
0.072446086
-0.05013456
-0.046987325
0.04799091
0.05225386
-0.025131173
-0.02133324
0.04794154
0.032528177
0.072914064
0.009468011
-0.021042844
0.04275033
0.053162012
-0.0023349214
0.01637855
0.0010458853
0.023017284
-0.015884047
-0.14937823
-0.15059522
-0.083461225
-0.06731946
-0.04855204
-0.16931039
-0.13481383
-0.06844358
-0.12513298
-0.04692711
-0.21255116
-0.1456489
-0.09075407
-0.1668378
0.004555676
-0.08470225
-0.019864213
-0.03228368
-0.008005481
-0.011605644
0.024241816
0.09714968
0.086167544
0.07435647
0.1170359
0.036868133
0.05865263
0.0047994484
-0.008621504
0.051698904
0.08640895
0.04430392
-0.033088796
0.0386713
0.02556468
0.11588955
-0.029665666
-0.0859591
0.012382577
0.06856585
0.14490607
-0.03977304
-0.038817618
0.050314784
0.032709464
0.09797706
-0.031967133
-0.09070154
0.0059515606
-0.043429054
-0.05334486
-0.059065934
-0.056547593
-0.021336947
0.02991914
-0.026948499
0.0003788715
0.026350759
-0.037971284
-0.030948978
-0.044333823
-0.041968163
0.035075866
-0.018366175
0.03887476
-0.02832932
0.069076434
0.07991819
-0.0084690545
0.06400192
-0.04003175
-0.023565887
-0.041379552
-0.053778626
-0.07676029
-0.023555093
-0.017936295
0.0020623866
0.06658437
0.061128255
0.0030490437
0.02068084
-0.032206167
-0.08483766
-0.071134865
-0.0062630484
-0.06472586
-0.02373241
0.047035675
0.057396468
-0.0274062
0.07577357
0.01035132
0.07815189
-0.008980865
0.061318778
0.04573743
0.008671479
0.041377753
0.011820952
0.0432033
0.008799411
-0.05706289
0.02415114
0.044919323
-0.015607201
-0.0043326705
0.024100894
0.09129987
0.013123161
-0.008367588
0.112682484
-0.00041207092
0.055103205
-0.00914
-0.06608642
0.03970922
0.0047245203
0.03972169
0.007855199
0.010562159
0.01992282
0.037303552
-0.041496534
-0.04582746
0.01358348
0.015982654
-0.14561655
-0.032307588
0.010481633
-0.031081554
-0.041678235
0.0574255
0.054514557
-0.00040761734
-0.073915064
-0.026437553
0.019509176
0.039967634
-0.0348391
0.0365388
0.07282256
0.0056845373
0.01904594
0.09200979
-0.052647218
-0.022242807
0.007490205
0.011788388
0.04790819
-0.044415843
0.022144228
0.011400013
-0.010550908
0.003995897
0.019464407
-0.074108385
-0.18165803
-0.09891689
-0.08496869
-0.12484416
-0.097993046
-0.110359944
-0.08875446
0.053625084
-0.08371334
-0.11769065
-0.006510065
0.030646158
0.0011269825
-0.033976104
-0.043685805
0.025894213
0.1305726
0.06330088
0.03703193
0.149459
0.019831914
-0.007815673
-0.02680983
0.10232666
-0.028398052
-0.02699446
0.10717618
0.10295959
-0.057865895
0.013946576
0.13332972
0.027333807
-0.00417223
-0.030387884
0.006221109
0.044792894
0.032187603
-0.003221452
0.036939137
-0.048681263
0.00010708159
0.0015149635
-0.02598363
0.008046378
0.09493089
0.0682458
-0.038364254
-0.0034836133
0.07349152
0.03093021
-0.074505486
-0.045525175
0.033332013
-0.01399068
-0.013402841
0.032366265
0.01194459
0.05316032
-0.0022796183
-0.07227726
0.0616064
0.032078546
0.0059631844
-0.004187749
-0.04578909
0.05435177
0.03777692
-0.051264863
0.021400616
-0.0056075216
0.0001009289
0.048999477
0.08179716
0.030282008
-0.06250511
-0.0035043547
0.04180658
-0.010415976
0.03220945
0.078862056
0.027524121
-0.00043482872
-0.0014715601
-0.028143395
0.05182403
0.0011975985
-0.0053605456
-0.01459394
-0.075294554
-0.0052226293
0.0034393026
-0.048919547
0.015081728
-0.019802058
0.02135746
0.00012094331
-0.05210042
-0.015592778
0.04537761
0.00566948
-0.01732739
0.0006537588
0.0886845
0.0072268923
-0.047486417
-0.014794482
0.031667877
0.031047298
-0.043252163
0.015536522
0.031941693
0.042930715
-0.02493001
0.05732019
0.042056534
0.04634231
0.004501853
-0.039718058
0.066189
-0.025567686
-0.10535711
-0.0074368203
0.11086491
-0.09021768
-0.0383859
0.033921745
0.062111974
0.020594928
0.06973805
0.07229393
-0.003331916
0.04205968
-0.017605128
-0.029730728
0.00952701
0.0110250395
-0.0028108906
-0.03058169
-0.0902907
-0.08551331
-0.046522636
-0.017112292
-0.008336746
-0.095681794
-0.12415229
-0.17578863
-0.19608954
0.0030872582
-0.061403688
-0.122200705
-0.032402482
0.10119584
0.078934394
0.043112736
0.044141136
0.03992931
0.047355633
0.07231368
0.0021040388
0.1221553
0.021518122
0.06920009
0.055527452
-0.043353926
-0.005114243
-0.020782683
0.014805263
-0.09106831
0.03112936
0.046776697
0.108433135
0.011702989
0.050427955
-0.00063306466
-0.032417793
-0.013466918
0.06695966
0.080305286
-0.12505972
-0.096809715
0.07319184
0.075095765
-0.002721523
0.0037466153
-0.024690725
0.0001075326
0.037829116
-0.037999615
-0.08391588
6.3341926e-05
0.006311501
-0.047004648
-0.04823666
0.034086112
0.028122384
-0.0139276115
0.039237443
0.035702966
-0.012522385
-0.010100659
-0.0051092627
0.083264604
0.06398138
0.036530405
0.08214167
0.010276024
0.03897767
0.05087851
-0.006354923
0.03289167
-0.025968557
0.046211246
0.02294539
-0.054627426
0.00020235854
0.020984085
-0.032708086
-0.040532537
-0.011262781
0.037430163
-0.021063931
0.04386272
0.048560053
-0.0022792108
-0.01957023
0.0144378515
0.016907152
-0.012546241
-0.046082474
-0.0004575153
-0.020835394
0.025161063
-0.04144754
-0.05291139
0.010215406
-0.072054364
-0.036272332
-0.03722302
0.022097262
-0.06727259
0.0042747874
-0.026196279
-0.03410098
-0.08373609
-0.047098868
0.056695975
0.09066366
0.05978372
0.039281275
-0.008665027
0.0530271
0.06934171
0.03932683
0.05127114
-0.000803772
0.0021495954
0.03244513
0.05528372
-0.010976663
-0.033889543
-0.02098775
-0.07319324
0.022096269
-0.039761905
-0.04296321
-0.050441936
-0.051928643
-0.038286246
0.082584225
-0.07577824
-0.11148733
-0.06497946
0.06761754
0.0068088616
-0.023696207
0.0069805174
0.057632234
-0.0052914666
-0.044145096
0.04054217
0.05831955
-0.0010853743
-0.048929602
-0.033556614
-0.012447812
-0.047499035
-0.043239042
-0.026847322
0.012332274
-0.014830174
-0.0044524414
-0.076332025
0.010699129
0.03973177
-0.09294087
-0.013606306
0.109205455
0.10239649
-0.017592922
0.030265719
0.073347524
-0.022547802
0.015118925
-0.0063318894
0.008951787
0.03654379
-0.01176772
-0.03825437
-0.08040284
-0.060468458
-0.0020063533
-0.087386906
-0.06052581
-0.012562155
0.010036211
-0.04761215
-0.07885536
-0.010077937
0.053809512
-0.004988622
-0.009082771
0.065873295
0.0060886443
0.022079222
-0.00789158
0.07148115
0.053944316
0.014216763
0.004022479
0.04111629
0.059289932
0.0027018362
-0.033619452
-0.058402117
-0.04904785
-0.03215208
0.020199308
-0.03549356
-0.045094203
-0.018719098
-0.04277571
0.021536948
-0.053086016
-0.06650136
-0.15502377
-0.09921211
-0.0013440195
0.09355193
-0.12496593
-0.07750734
0.03484111
0.08037284
0.01197856
0.086954676
0.013289415
0.05891298
0.042400457
0.0315508
0.004975305
0.06881545
-0.00088388775
-0.009373338
0.026957927
-0.03304478
0.027111301
0.0062381136
-0.053599745
-0.098768905
0.048162796
-0.039546248
-0.039931234
-0.093304686
-0.1545526
0.05336529
-0.015045672
-0.028352836
-0.09626916
-0.06525435
0.040219214
0.013261742
-0.06388732
-0.069021724
-0.1027995
0.044885527
0.04442638
-0.038305324
-0.0014246203
-0.08490057
-0.03449602
0.0027190153
-0.002771885
-0.04456905
-0.08132784
-0.023476418
0.0476127
0.018741358
0.044750806
-0.044815645
0.014633203
0.012254231
-0.06843211
-0.007939961
0.049945716
-0.025819575
-0.057606902
0.013187255
0.036968827
0.0054554655
-0.037244044
-0.012744723
-0.023153337
-0.002325478
0.038289767
-0.0034199758
-0.059291508
-0.03536557
-0.011062174
-0.044015463
-0.063004285
-0.08078923
-0.046352282
0.052418597
-0.013991602
0.015660774
-0.086194746
-0.014287927
-0.049150232
-0.028890723
0.086845934
0.031023366
0.073911116
0.07767046
0.09073659
-0.062362604
-0.08231379
0.07913376
0.035130166
-0.17758895
-0.13493451
0.0592704
0.09934659
-0.029875189
-0.045743212
0.02674074
-0.065639816
-0.043076884
0.015785834
0.0050058197
0.023318801
-0.026587956
0.054417703
0.0561204
-0.022350565
0.022463357
0.01773692
0.030233433
-0.03720637
-0.0009411486
0.04179911
0.0016600707
0.02096211
0.024762701
0.04094663
-0.023664873
-0.0782455
0.00473858
-0.106906995
-0.037618585
-0.06439314
-0.07992575
-0.107103504
-0.044828556
0.023265539
-0.13047266
-0.20967124
-0.011113828
-0.03615891
-0.050317075
-0.15531872
-0.16212505
-0.15745656
-0.06553459
0.028008116
0.07371094
0.11156698
0.1485863
0.17290325
0.062153045
0.0294542
0.043067135
0.160658
0.07485636
-0.017924692
-0.004991126
0.06914448
-0.05168282
-0.057483267
-0.043195844
0.02857241
-0.06699588
-0.08070584
0.00024707415
0.027188936
-0.053944793
-0.093500234
0.022127436
-0.022978675
0.009720015
-0.1692758
-0.06834154
-0.11743973
-0.047523674
-0.09052939
-0.08231802
0.05030638
0.18150419
0.112745695
0.08367466
-0.020424385
0.0815255
0.023817403
-0.0052145263
0.06648823
0.032574277
0.06408684
0.022318065
0.084612586
0.0012260143
0.06598285
0.082165316
0.15666969
0.08771134
-0.08800275
-0.092805184
-0.055967506
-0.053780556
-0.10756534
-0.017384423
-0.027241757
-0.005665922
-0.057203345
-0.036296245
-0.115124926
0.03788085
-0.0013507364
-0.025131311
-0.0748236
0.043207675
0.027660133
0.008516196
-0.08288108
0.007243551
-0.036173698
0.0505907
0.0058533745
0.079486884
0.048191614
-0.05250938
-0.031345703
-0.027303318
0.07589422
-0.0047915196
-0.043703847
-0.104099095
-0.08205985
0.04264778
0.015212671
-0.07839633
0.036568984
-0.009852505
-0.092467494
-0.019726109
0.004869047
-0.020394754
-0.010011323
0.029253438
0.051935162
-0.0054000528
0.028764687
0.028396314
0.054563936
-0.0011755463
0.0018929946
0.004357713
-0.016849969
0.030788422
0.114447296
0.046741605
-0.022313695
-0.08366897
-0.04557255
-0.08391871
-0.11090605
0.04381608
0.023657005
0.02139842
-0.045543693
-0.061291926
0.029974781
-0.008278181
0.03645774
0.08817587
0.044373665
0.016578127
-0.03116367
0.060210403
-0.0037649411
-0.08988414
-0.12441808
-0.0906944
-0.11412721
-0.14753531
-0.18478161
-0.044991538
0.038389705
-0.010747692
-0.09825818
-0.06883709
-0.028428571
-0.00626343
-0.042885147
-0.039455917
0.03324446
-0.07287128
-0.05199324
-0.011042127
-0.007965057
-0.031173091
-0.001363243
0.009585045
-0.013544858
-0.021018656
0.039588146
0.04308305
-0.0019259491
0.10475698
0.13244696
0.13133538
-0.030659536
-0.0045857844
-0.0147538185
-0.020499032
-0.13713151
-0.19650897
-0.20581816
-0.131345
-0.011856278
-0.06311805
-0.08532557
-0.12924291
-0.122748494
-0.0070017176
0.0022083216
-0.025269201
0.018551825
0.095966
0.0010462648
-0.011353593
0.01669043
0.18105243
0.18149777
0.12798907
0.12630095
-0.02682994
-0.005451873
-0.026098536
-0.0062803556
-0.041113656
0.0035886639
-0.0369057
-0.04912365
-0.052742176
0.010641988
-0.0077794967
-0.050912242
0.076073974
0.13450772
0.11930727
-0.15723962
-0.109348446
0.01774146
-0.036337286
-0.1404661
-0.09219783
-0.07694411
0.08248959
0.091933474
0.115757056
-0.14368331
-0.055133775
0.038506117
0.08355204
-0.014471054
0.024858428
0.026089272
-0.06721943
-0.0011461102
0.062277257
0.004205208
0.004193937
0.022701597
0.017974997
0.024521237
0.03685442
0.040476274
0.015585514
-0.038812105
0.029375969
0.0031449231
-0.03548921
-0.05447777
0.02552203
-0.0112005025
0.0024142324
-0.022270162
-0.0680666
-0.06407744
-0.11498601
0.02798635
0.018455643
0.001834673
-0.011276552
-0.039097626
-0.0002796433
0.034487356
0.02603585
0.040438868
0.041464873
0.014564154
0.009180261
-0.023484958
0.029050896
0.024795134
0.032711357
0.028089771
-0.043971416
-0.033068646
0.013202396
0.024041293
-0.011568606
-0.0068359403
0.0030689838
-0.059440818
-0.082452945
-0.07466484
0.013360763
0.058424175
0.03602077
-0.06469076
0.032478232
0.029991439
-0.006207577
-0.0042513227
0.02632833
0.01303046
0.057948023
0.12237671
0.1081013
-0.002859551
-0.01043961
0.0015726364
-0.002588811
-0.07026405
-0.06193978
-0.09749608
-0.053054918
-0.046484273
-0.0380794
0.059306797
-0.025286453
-0.015279506
-0.07426759
-0.110974476
0.09217949
-0.0035894562
-0.011486923
-0.0033747756
0.053183697
-0.021234069
-0.05099782
-0.08483313
-0.060081504
-0.02416535
-0.0013809678
0.008472042
-0.115453914
-0.04283948
-0.03753642
-0.06820236
-0.04828019
-0.0608691
-0.10447749
-0.018662183
0.025342269
0.075029776
0.039501872
-0.030251468
0.006530837
-0.06604787
-0.015753295
-0.018732566
-0.082521334
0.027421655
-0.08865538
0.004531426
-0.024101773
0.07290144
0.09044477
-0.07430073
-0.030219965
-0.041383952
0.008215673
-0.006415965
-0.03179435
-0.054848634
-0.08512808
-0.080766335
-0.0274482
0.008769768
0.028293109
-0.025460301
0.0085308915
0.065550834
0.0030848095
0.035197597
0.016452376
0.025696818
0.017035207
-0.0052481936
0.03461706
-0.024655892
0.041293334
0.022317983
0.03718418
-0.023801228
0.07360186
0.114584245
0.05356967
-0.054425508
-0.099368855
-0.042161036
-0.00833106
-0.14206152
-0.15560724
-0.11370936
-0.013389216
-0.032705158
0.011755428
-0.09350494
-0.13530609
-0.10634932
-0.0655219
-0.07187388
-0.054151684
-0.009483626
0.04499216
0.0990111
0.10448566
0.073456846
0.10271248
0.13368978
0.15034612
0.107126504
-0.13585079
0.0065463604
-0.01829325
-0.11834993
-0.16941941
0.03677468
0.064819865
-0.008510486
-0.03157153
-0.071287364
0.065006904
0.00075294916
0.016003987
0.014985076
0.012680781
0.06493057
-0.056078877
0.009760477
0.00015069902
-0.07519033
0.009235866
-0.07469911
0.024579147
-0.12041151
-0.13898875
0.074299596
-0.07539905
0.047419444
-0.04438678
-0.100934744
-0.044975445
0.012741531
-0.0040459367
-0.013836916
0.037316058
0.012063927
0.09116893
0.09278889
0.1017972
0.06214136
0.012879822
0.009478774
0.053152382
0.020336084
-0.059269402
-0.096802585
-0.10010066
-0.09204036
-0.10004078
-0.0018733363
-0.041701086
-0.08175577
-0.015211616
0.049485143
0.07830521
-0.081862785
0.014757345
0.02350791
0.015801227
-0.049593646
0.047148086
0.04349389
0.06415849
-0.033598978
-0.07020385
0.0125850495
-0.005513943
-0.14037237
-0.12181957
-0.045666657
-0.017063744
-0.029448746
-0.07985031
-0.05236889
-0.1024403
0.0065316632
-0.05229818
-0.12745646
-0.124279246
-0.03379097
-0.049894307
-0.0649182
0.042069692
-0.03278215
-0.026473789
-0.03223979
-0.040340215
0.054716233
0.042458944
0.018518535
-0.041306727
0.0026618927
0.02129039
-0.0032804145
-6.035865e-06
-0.07309318
-0.07193841
-0.03608323
0.073468134
0.028154353
-0.095509134
-0.07849795
0.014398844
0.038427394
-0.008584047
-0.12924683
-0.12380991
-0.19005692
-0.19576357
-0.13126767
-0.06802326
0.037992112
-0.05536471
-0.05435788
-0.013061704
0.14716314
0.13110735
-0.08290072
-0.01670783
0.020205695
0.18010269
-0.02042038
-0.15508085
-0.05157078
-0.01616057
-0.006617943
-0.12468413
-0.0708998
-0.05935936
-0.023395324
0.019691499
-0.009441219
0.0003664972
-0.006018917
0.023261337
-0.0072742472
-0.056300316
-0.06041936
-0.05772472
-0.059804864
-0.08222133
-0.016456705
-0.09449166
-0.06869473
0.0037167822
0.020534147
0.06525718
-0.09837124
-0.22182228
-0.010325851
0.040872052
-0.04248364
-0.20740542
-0.07642624
0.068786286
-0.01746105
-0.024412943
-0.102690436
-0.0041781887
0.061651926
0.027193751
-0.0551026
-0.10742218
0.026313499
-0.0029590367
-0.0074913264
-0.12969016
-0.11375339
0.045781445
0.03009862
-0.051470816
-0.07777931
-0.1692765
0.094811596
0.06344323
-0.060791127
-0.12640232
0.017335953
0.03683387
0.03314235
0.027583577
0.009673771
-0.03832907
0.002213103
-0.055486623
-0.016431613
-0.0031277097
0.060990557
0.05473843
-0.0881617
-0.0623573
-0.04964613
0.035389498
-0.08149826
-0.09796655
-0.067122765
0.050495304
-0.053091463
-0.09906474
-0.047314808
0.039572556
-0.016934024
-0.055805027
-0.04045691
-0.016834967
-0.08680586
-0.030223716
0.053337682
0.016994061
-0.11906047
-0.07354811
-0.0047021597
0.1101515
0.05767748
-0.05420546
-0.01667655
-0.0035428645
0.09532589
0.0151265245
-0.11276724
0.021570975
-0.0074905376
-0.018711671
0.028082749
-0.07489125
-0.07271406
0.013609331
0.04845567
0.010771699
-0.08109906
0.0004757119
0.005074277
0.014982115
0.0332265
-0.015909279
-0.022815822
0.019356698
-0.0085513145
-0.014573922
0.015372782
-0.022811294
-0.056504343
-0.14160447
0.0042409524
0.034570016
0.022171155
-0.027361983
-0.13437705
0.03143559
0.07140299
-0.0014657463
-0.05955592
-0.06490508
0.04122276
0.08757321
-0.12838574
-0.09761452
-0.0034933577
-0.047416404
-0.122016095
-0.054780144
0.038401738
0.07263421
0.056684613
-0.044672105
0.099464834
0.051499672
0.0404142
-0.007160555
-0.03809819
0.054511294
-0.041446704
-0.015899088
0.02681858
-0.05317029
-0.01460067
-0.049868036
0.051502816
-0.014255636
-0.026680868
-0.12534107
-0.14602448
-0.2052523
-0.2795345
-0.1643642
-0.006491941
-0.0412888
-0.030395715
-0.0030115168
-0.0039316593
0.056063272
-0.048461154
-0.0858194
-0.11142307
-0.0071548386
0.0471791
-0.1770101
-0.21168363
-0.0758807
-0.044574484
-0.08983383
-0.11828041
-0.0066274
0.08354936
0.027236372
0.010695173
0.021072514
0.03836621
-0.068876654
-0.08316858
-0.07715417
-0.025510766
0.031741835
-0.1873968
-0.22090104
-0.046674557
0.11836506
0.08625089
-0.12762785
-0.0846578
0.12227997
0.045794986
-0.089459024
-0.13500306
-0.0525948
0.065148555
-0.086678155
-0.09946932
-0.026035657
0.018105837
0.00480557
-0.018667236
0.053833026
0.026668847
-0.06127452
-0.024913043
0.0210249
0.08415031
0.07702458
-0.11659494
-0.013414953
0.010094178
0.06265349
0.0020551085
-0.082807206
-0.03018354
-0.00070752634
-0.016769437
0.051140815
-0.014184018
-0.0144833205
-0.015159903
0.055267315
-0.018662198
-0.06515078
0.007302198
0.017242229
0.022943737
0.05940714
0.060308058
-0.006700409
-0.023776153
0.0031889759
0.05111049
0.06732207
-0.03215273
-0.012045667
0.03607025
0.08675136
0.022683468
-0.06720082
0.010484244
0.081197105
0.08234946
-0.058319923
-0.052577764
-0.023838421
0.06741131
0.050435487
-0.056407854
-0.061869953
0.051456638
-0.0034873455
0.008330599
-0.01955587
0.068581015
0.07365239
0.061398596
-0.016038904
0.018091839
0.019235056
-0.00016623126
-0.007812248
0.049284946
-0.05613805
-0.083570845
-0.020638129
0.00622645
0.029614165
-0.10035368
-0.0077102385
-0.0015366279
0.051138904
-0.032758947
-0.023876308
0.04013511
-0.050633807
-0.020345796
0.028196054
0.09638887
0.04049413
-0.14222366
0.025127498
0.14328824
0.13290662
-0.15187716
-0.21395153
0.08641298
0.098109305
0.09003937
-0.20906222
-0.12810622
0.038556375
0.07398574
0.05586144
-0.14140593
0.09017282
0.13913752
0.054882698
0.005738994
-0.044649914
-0.1245775
-0.09197483
-0.02402866
0.029000785
-0.009198766
-0.015556415
-0.08077768
0.050052185
0.057540026
0.003647296
-0.10497105
0.0072990903
0.08832684
0.06650643
-0.07183626
-0.08772081
0.057196748
0.071557134
0.0071285325
-0.06346836
0.04836343
0.06583504
0.051294766
0.028821627
0.007492601
-0.01095089
-0.03628425
0.065133385
0.031428054
-0.041064426
-0.0152884945
0.013246461
0.060918927
-0.03560172
-0.010022729
0.009875549
0.01991875
0.011676334
-0.061665982
-0.0875507
-0.02860723
0.08909248
0.035205543
-0.07622047
-0.02160669
0.077147715
0.06645571
-0.033818804
-0.036808915
-0.11234416
-0.11432942
-0.16707262
-0.20848112
-0.07538297
0.02686936
-0.0030319106
-0.059766844
-0.043216635
0.07485224
0.15070476
-0.041216068
-0.16333798
-0.077649035
0.07308825
0.07563608
-0.13253103
-0.12365351
-0.016206238
-0.008723704
-0.031191226
-0.05145747
0.057454336
0.07402461
0.007903232
-0.03572207
0.054332636
0.07260933
0.069209814
-0.1031828
-0.047365285
0.055623833
0.12865832
0.08971465
-0.10293819
-0.108438626
0.040769998
0.13324858
0.10750296
-0.082162425
-0.035144847
0.0692633
0.14760675
0.027083954
-0.06933167
-0.037717607
-0.012831538
0.0940273
-0.045513242
-0.007096115
0.04674171
0.056166355
0.054811634
0.0732844
-0.05382982
0.08390741
-0.030736806
-0.04916583
-0.021531045
-0.114790425
-0.044597045
-0.04034927
-0.025911035
-0.026815912
-0.024571715
0.0524065
0.037031826
0.005739617
-0.05086663
0.0026924363
0.045477357
-0.0018522221
-0.051902577
-0.01056276
-0.022997137
0.04041566
-0.016993048
-0.08308833
-0.10254098
-0.041283198
0.058839455
0.00828432
0.040912
-0.07589236
-0.07888502
-0.001813799
0.046188302
0.031605557
0.033058073
-0.0044230083
-0.07922927
-0.061013382
0.0013518995
0.085221164
0.03554864
-0.012959156
-0.043292943
-0.027203033
0.051442146
0.04889054
0.05247969
0.016442727
-0.029678943
0.008176373
0.0060200235
0.054164585
0.117782526
-0.03474713
0.010425634
-0.048671287
-0.022368994
0.10616038
0.026740681
0.035481136
0.010954764
-0.0029755891
0.047399662
0.055391792
0.049566787
-0.028010966
-0.038267333
-0.0075548645
-0.019957729
0.09752163
0.058477793
-0.031134019
-0.09313248
-0.020878365
-0.016277568
0.008281211
0.03923247
0.015133506
-0.015166438
-0.017015006
0.055138834
0.06300039
-0.037638754
-0.11852725
-0.048513908
-0.0613736
0.060272463
-0.0010249218
0.025731886
0.0062466078
-0.05835519
-0.014248277
0.020279264
0.036663312
-0.02633951
0.007588399
-0.05918069
0.0001339544
0.0035027578
-0.07750002
-0.016486477
-0.045775305
-0.03831659
0.030932548
0.0036639054
-0.10807839
-0.09752923
-0.103094906
-0.0031040385
0.0152321635
-0.07843958
-0.019704925
-0.20406672
-0.13892426
0.029723043
-0.012282539
0.07429967
-0.06475629
-0.12386635
-0.13766079
0.027535923
0.034864068
0.107097976
-0.021006651
-0.004304972
0.0082388325
-0.055225033
0.10759041
0.07821714
-0.027299194
-0.04220572
-0.052166052
0.01645417
0.11603342
0.09170526
-0.022433002
0.033705074
-0.02620264
0.07217356
0.086083844
0.08071141
0.045298964
-0.10154675
-0.04792569
-0.024543311
0.031044962
-0.030445982
0.0457879
-0.022425741
-0.019830504
0.0077464273
0.01836481
0.10547134
0.105347805
-0.0115756225
-0.031310625
-0.0044899625
0.06785101
0.12595409
0.07267605
-0.02948498
-0.056800853
-0.057408053
0.048113827
0.06449878
0.019110559
0.0404714
-0.00484302
-0.0020640555
0.06437186
0.109648824
0.030878576
-0.0046945754
-0.060036793
0.018154584
0.012140338
0.054335676
0.009082992
-0.021277837
-0.07441105
-0.009504784
0.031782974
0.07279849
0.0329999
0.027036645
0.009522758
-0.005662628
0.012378387
0.039111335
0.009873677
-0.009052468
-0.05099931
0.012579756
0.046632167
0.0056372527
0.035940893
-0.0073163747
-0.025440108
0.033806767
-0.076646864
-0.071690075
-0.004799261
0.06974172
0.024929715
-0.015207896
-0.023796473
-0.012910614
0.04375722
0.08079501
0.016940381
-0.038323954
-0.054646697
-0.0840823
0.10912819
0.062153134
0.060132734
-0.046157908
-0.04547312
0.029793033
0.067358136
0.055987705
0.024188511
0.0068994127
-0.026829747
-0.015219068
-0.03154738
-0.011860292
0.07011392
-0.066797875
0.010334726
-0.034597646
0.047977716
0.025973143
-0.0056373323
-0.030330766
-0.024301365
-0.025104329
-0.033241924
0.018546866
-0.039162673
-0.06091526
-0.039395012
-0.0032884502
0.0074047153
0.0562087
0.037879605
-0.008042373
0.013119645
0.041250985
0.05180409
-0.034304712
0.087769784
-0.080388434
-0.1261561
0.02566375
0.025830707
0.05965026
0.07928741
-0.07953066
-0.1154389
0.00072497164
-0.04735649
0.046211876
0.08535591
-0.05279441
-0.033186223
-0.05364668
-0.041401222
0.11421319
0.044309236
0.03294547
-0.03279088
-0.024164611
-0.0037089807
0.02590716
-0.0061399816
-0.047177162
0.005192767
-0.0119927265
-0.012741129
-0.010488766
0.062162388
-0.030412542
-0.03383999
0.031724475
-0.014155918
-0.003940476
0.026912784
-0.02388633
-0.02928296
0.0062254057
0.016350716
0.012588787
0.010188351
-0.0021020225
0.04506052
0.027219802
-0.011614993
-0.020542657
-0.027092172
0.02547054
0.06650903
0.031031594
-0.003473963
-0.0022657656
-0.028695745
-0.004802417
0.0076601477
0.022418879
-0.006676948
-0.01621651
-0.048354764
0.012491695
0.09268291
0.0008480579
7.6943594e-05
-0.030517539
-0.050109424
-0.0010348647
0.056016404
0.01578248
0.034137126
-0.0278268
0.0069411993
-0.026697736
-0.038630363
-0.022090737
-0.029308384
0.014926303
-0.05037188
-0.06452685
0.018903777
-0.027619107
0.045931432
0.027945537
-0.054831825
-0.03721058
0.040518295
-0.0022103405
-0.017542528
0.00068665564
-0.06701961
-0.048109923
0.023560543
-0.021976264
0.040524546
0.02307477
-0.020934366
-0.061620507
-0.0012260404
-0.007071499
0.050009757
0.014813867
-0.06314305
-0.042644728
-0.007197577
-0.0066546965
0.028965315
-0.017145703
-0.045459423
-0.008205305
-0.014106504
0.008256124
0.05126303
0.00816749
-0.0345039
-0.0012963922
-0.044316173
0.009531033
0.04648108
0.055604912
0.018960034
0.09961929
0.045481704
-0.05666543
0.00351661
-0.053711295
0.037541363
0.06850607
-0.018202687
0.04616693
-0.0455015
-0.110653505
-0.017851487
0.09948426
0.017417464
-0.025994284
-0.071791485
0.017980937
0.025160173
0.047476687
-0.022712389
-0.006442739
-0.013679216
-0.0050094267
-0.023476746
-0.027945062
0.018758148
0.017265823
-0.021589058
-0.03144087
-0.031986814
-0.06462341
-0.0016654243
0.015697546
0.008521826
-0.027076595
-0.10220731
0.0016507062
0.02106285
0.0003768372
-0.055273958
-0.070636965
0.019036569
-0.022656448
0.05065143
0.049368635
-0.022089904
0.032431804
0.008522307
-0.009832217
0.014962217
0.041987356
-0.021009676
0.0012481844
0.022002393
-0.0028887654
0.016564785
0.0024506575
0.00067777885
0.012719368
0.0047858623
-0.025295325
-0.0027980385
-0.022441149
-0.015479648
-0.020925984
0.009511028
0.013648845
0.004031863
-0.018645616
-0.0367415
0.004804818
-0.044188686
0.006598679
-0.0067383796
-0.053951763
-0.08167764
0.017427891
0.002830079
-0.06887546
0.1161361
-0.12492283
-0.14902551
-0.035537712
-0.038344353
0.08110103
0.009982096
-0.10435757
-0.12948819
-0.06974448
-0.020202829
-0.035097465
-0.010597278
-0.03040449
-0.05153646
-0.016917817
0.014160395
0.045170285
0.06784062
0.023739807
-0.08631123
-0.099855214
-0.046199232
-0.01866875
0.008228901
-0.00090775016
-0.04011209
-0.10031993
-0.021856805
0.0126463985
-0.016460592
0.036596
-0.058775697
-0.120865434
-0.017662453
-0.0386859
0.010495171
0.044959057
-0.09506935
-0.07377767
-0.039057173
-0.017893735
0.031105902
-0.029563585
-0.08872026
0.012198211
0.03326819
-0.009901669
-0.039213475
-0.01419201
-0.07892037
0.060396634
-0.019048128
-0.044076093
-0.054919578
-0.0336939
0.029728513
0.055409864
-0.016508961
-0.027031405
0.020493833
-0.056522217
-0.026787126
0.013217286
0.05838625
0.010039752
-0.01610551
-0.0536064
-0.046640493
-0.005459616
0.038247503
-0.017599981
0.026287321
-0.006313133
0.026821168
0.022112817
-0.05082428
-0.027590647
-0.023013381
0.0087664155
0.013690553
-0.021705888
-0.054815006
0.0067141037
-0.045069423
-0.053011935
0.02527558
0.03129825
0.03677735
0.03796389
-0.040859956
-0.041794315
-0.00454183
-0.021304313
-0.038383573
0.0031260364
0.034500774
-0.030341605
-0.014901369
0.031542774
-0.041780926
0.017032959
-0.042975467
-0.01913597
-0.039349303
-0.042088673
-0.033305787
0.028042236
0.03736604
-0.019721126
-0.02045079
-0.011160916
-0.034788065
-0.008652026
-0.001543724
-0.0216543
-0.03129221
0.015280914
-0.048455846
-0.0018611996
-0.045655098
0.03523376
-0.0062006083
0.02956174
0.010246643
0.004147897
-0.039662655
-0.038940113
-0.013175847
0.011468885
-0.007904457
0.00871673
-0.027316319
0.0033377046
0.012767075
-0.008544267
-0.050876547
0.0095003415
-0.010075811
0.020007255
0.010429349
-0.0055908062
0.007270711
0.0060203075
-0.015829988
0.031570822
-0.036255807
0.042532284
-0.0015566013
0.004059882
0.006077472
-0.022044057
-0.0485062
-0.03368134
-0.020443328
0.006919275
-0.03127221
-0.04184946
-0.021977449
-0.025547177
-0.020187063
0.0029594193
-0.013568788
0.03741938
-0.0251449
-0.04723536
-0.012486711
-0.00977548
-0.03150194
0.029831557
-0.010448138
0.007077426
0.0030201734
-0.020150274
0.0014702268
-0.016942
-0.031720955
-0.024868323
0.033397127
-0.025541931
-0.013473372
-0.046259604
0.013477297
-0.0054241596
-0.027345518
-0.00998631
-0.015958317
-0.040453374
-0.008012777
-0.051075913
0.024115646
-0.036984254
-0.010411318
-0.024532314
-0.040040873
-0.0041325497
-0.008990974
-0.023614606
0.034230907
-0.051579233
-0.034096684
-0.043263987
0.0001443411
0.0073029767
-0.04023183
0.018219588
0.00024246726
0.030090922
-0.051967602
0.0042129816
0.021944156
-0.01554525
0.006646965
-0.020066356
0.014203517
-0.014581345
-0.016295277
-0.048292335
0.027567068
-0.000983762
0.029214751
-0.0034288212
0.0023766991
0.014723505
-0.0064240037
-0.026031552
-0.044026166
0.007818588
0.029065775
0.037438788
-0.0511121
-0.049071122
-0.0077531533
0.009720478
-0.05268895
-0.039641872
-0.025198417
-0.03945898
-0.050958272
-0.025814006
-0.048952468
-0.03534166
-0.04702468
-0.02039584
-0.006908554
0.034145236
0.030894702
0.0009909539
-0.036462296
-0.02243711
0.03083594
0.010234847
0.015140941
0.030579915
-0.01759263
-0.03689796
0.003314323
0.0015651329
0.015717857
0.014926382
-0.031319823
-0.033136092
-0.04293899
-0.011623047
0.021391587
-0.022682786
-0.037848204
-0.008258191
-0.052050896
-0.028061442
-0.03437652
-0.03437137
0.007009228
0.0070874756
0.033135444
-0.017495878
-0.03457389
0.02755113
-0.009299647
-0.03903853
-0.03857906
0.004881959
-0.01016907
-0.040446345
-0.023982987
-0.026626939
0.012522513
-0.0034413799
-0.041657716
-0.04125621
-0.005972912
-0.010233659
0.012284649
0.018339561
0.01012361
0.0033754695
-0.0036170927
-0.038092766
0.017573643
0.0017765255
0.02040463
0.05801373
-0.024903456
0.012642489
0.0017125305
-0.0091396365
-0.027170047
0.019895166
-0.018299602
0.04501372
-0.008253387
0.0027934602
0.032997366
0.0076352544
0.016792867
-0.017950637
0.015116521
-0.0051336256
0.029334547
-0.03952916
-0.0067910757
0.02918823
0.0173918
0.01487935
-0.0016627649
0.029661994
0.0328312
-0.04199885
-0.0019293111
-0.028550383
0.014203441
-0.03254007
-0.039607573
-0.007549758
-0.012797361
-0.0343541
0.0030915001
-0.0029403619
0.023938254
-0.034575026
-0.021894902
0.0020059666
-0.0050070295
0.025529388
0.015027895
-0.004538415
-0.028850479
-0.024065882
0.021777146
-0.042136926
-0.037602812
-0.0282266
0.024737118
-0.024554579
0.0055603376
-0.019106518
0.0056102565
-0.03684657
-0.016769355
-0.053186983
-0.039497096
0.02542081
-0.033654
0.017428882
0.028017728
-0.018105209
-0.044741932
-0.01357161
-0.031552114
-0.033993356
0.019917982
-0.0361487
-0.018449793
0.0042821844
-0.008978494
0.030941606
-0.016558351
0.02671657
0.033325974
-0.048980884
-0.02867697
-0.04196955
0.039536733
-0.021943731
-0.021318784
0.014941298
0.018828036
-0.037071403
-0.014449856
-0.02235466
-0.015835702
-0.050358344
0.009452626
-0.0381779
-0.0027906068
-0.0373781
-0.03916069
0.025437407
0.03208939
-0.029847322
-0.036682133
-0.034784287
0.03954846
0.018613897
-0.043625254
0.0070639816
-0.039561905
0.026626317
-0.018161599
0.003730079
-0.035765987
-0.0030616336
0.034058165
-0.03658675
-0.033731066
-0.023569955
-0.031071283
-0.014369973
-0.004148278
-0.045508347
-0.026627107
0.023068564
-0.03179222
0.013198814
0.015811821
0.0042074025
0.030006068
0.02607491
-0.0021911825
-0.044154514
-0.013398399
-0.05114072
-0.04254685
-0.014981206
-0.006884958
-0.050904494
-0.020142607
0.0028723485
-0.008546328
0.006477094
-0.03915097
-0.050016258
-0.04278053
0.0229035
-0.018894175
-0.01812185
-0.008250719
0.013077272
-0.030500673
0.035701554
-0.0134846615
-0.026530828
-0.0147809135
0.02975744
-0.011556425
-0.01760339
-0.038393695
-0.0369693
0.005336803
0.0054764207
-0.022147527
0.024163412
-0.005561558
-0.04246281
0.014538759
-0.033041403
-0.048842985
-0.0257807
-0.018173445
-0.050453242
0.026896335
0.016116533
0.02093221
-0.028726097
-0.021892851
-0.022822585
-0.020855658
-0.03661314
-0.0038016017
-0.009968823
0.031228077
-0.045857985
0.035183705
-0.0090553835
0.032026757
0.019946562
0.017258879
-0.034585044
0.027004106
0.0075641223
-0.0075740335
0.02558884
-0.051790763
0.0061423094
0.018869517
-0.042243175
-0.025255447
-0.016053004
0.010440295
0.00044992467
-0.04019126
0.04577511
0.027097018
-0.0031394518
-0.004942597
0.01839881
-0.02679138
-0.03574706
0.024549317
-0.017066764
0.009359669
-0.026611386
-0.004823541
0.023890931
0.030555272
0.028090725
-0.022822274
-0.015540404
-0.009459477
-0.030685423
-0.03978154
0.018658133
0.015334575
0.023399053
-0.028440792
-0.034406368
-0.018640807
-0.032795444
-0.011605012
-0.0054069385
-0.03459621
-0.010281922
-0.004573961
-0.00958358
0.015226643
0.011796993
0.03575366
-0.027636796
0.029713072
-0.044161063
-0.010785648
-0.051460255
-0.029166779
-0.038285103
0.026312554
0.008760078
-0.03297209
0.042199355
0.025557226
-0.0037753198
0.03389265
-0.039397713
-0.032388687
-0.044733163
0.033269174
-0.028653275
-0.024761137
-0.048902802
0.00404119
0.030093528
0.013080063
-0.035045724
-0.021312423
0.03237348
0.03167147
-0.012977801
-0.0066748583
0.032739483
0.0028608348
-0.044704672
-0.005840772
-0.02709902
0.008420484
0.00025890546
0.06654895
-0.01659137
-0.03567964
0.0145537825
0.024829311
0.049230054
0.069540136
-0.009895617
0.0049617244
-0.020219618
-0.05494441
0.14108261
0.07362484
0.08190229
0.07161848
0.017855091
0.07968538
0.084132396
0.07698054
0.06541786
0.013746448
-0.01412094
-0.003676712
0.028623529
-0.059236687
0.05304287
-0.066341005
-0.026530255
0.024889905
-0.042284116
-0.0003263011
-0.025267577
-0.01437334
-0.051825646
0.0035160834
-0.020969557
0.016095402
0.04567815
-0.03494211
-0.04775115
-0.033053476
0.011395886
0.09910208
0.010288679
0.009859621
-0.032042753
0.061561454
0.045687962
0.02557651
0.010485125
0.062308803
-0.057451133
-0.021972174
-0.025412697
0.07064174
0.06665783
-0.03733666
0.015105222
0.15100002
0.15783116
0.11048962
-0.04943122
-0.029415749
-0.06551013
-0.11143821
-0.09318419
-0.0095666265
0.0034727734
0.013383216
0.05949314
-0.022209257
0.04118116
-0.015876647
0.017581483
0.016044656
-0.021799443
0.025511859
-0.030553892
-0.04057664
-0.11204969
-0.1430815
0.08065348
-0.019764595
0.019471984
-0.058763683
-0.03328155
0.12219452
0.07964342
0.1288867
0.10472726
0.16538893
0.023172313
-0.06174437
-0.013617952
-0.024706557
0.05671961
-0.093155906
0.030366924
0.13841817
0.07596784
-0.082757145
-0.068529844
0.02790492
0.018807173
-0.042047773
-0.04498918
-0.0719468
-0.10869907
-0.05742685
-0.018121673
-0.05555006
0.04860909
0.011568658
0.006826762
-0.10826882
-0.06447577
-0.005423713
-0.035563197
0.026151901
0.02761551
-0.010209476
-0.014003127
-0.0060853036
0.051166315
0.0610676
0.01447265
-0.0015337227
-0.052850846
-0.021949554
-0.03785327
-0.026014617
0.012549005
-0.03609129
-0.028693281
-0.06651123
-0.07232459
0.074139535
0.10686578
0.09558379
0.025739823
0.023915289
0.07574999
0.0683573
0.08920356
0.06513627
-0.025215939
-0.014059787
-0.018530486
-0.008336579
-0.025322447
0.04276662
-0.07877778
-0.0327984
-0.05467078
0.008827677
0.029959228
-0.065269545
-0.03278952
0.035963185
-0.020597659
-0.032229297
0.050532766
0.015027344
-0.07044208
-0.037041664
-0.07749318
-0.04013681
0.019664112
0.06445002
0.039639007
0.033213362
-0.028315343
0.0067986604
-0.0053155166
0.030110389
0.024470901
0.00045859354
-0.04318446
-0.0011281976
-0.119638376
-0.051027387
0.063481495
0.03205499
-0.019343652
-0.015197339
-0.028623538
0.051210344
0.03685268
0.043078817
0.010582903
0.014545624
0.025061728
0.070109285
-0.010604358
0.026768029
-0.038152393
-0.022242174
0.021076092
-0.0050467565
0.038022414
0.008468732
-0.026427114
-0.006387794
0.036055535
0.0833252
0.11142975
-0.020646904
0.037668426
0.025137896
0.10351421
-0.017094303
-0.0489026
-0.07346256
-0.11131737
-0.060178213
-0.11701337
-0.06548299
-0.0071271
0.018950785
0.07058213
0.04490951
-0.043442365
0.038097896
-0.014537286
0.028839316
0.06657138
0.00085793994
0.1101944
0.13897109
0.10177019
0.09532046
-0.0018749402
0.11376195
0.18594936
0.14785722
0.07556747
0.04589415
-0.029712448
-0.096944265
-0.0421185
-0.11838416
0.04278314
0.0068714377
-0.047017254
0.014639507
0.027087443
0.047506697
0.08719441
0.08499011
0.092426315
0.07506369
0.025939722
-0.008144569
-0.074257486
-0.069118105
0.06678131
0.01184655
0.03940237
0.09138328
0.12735264
0.10958593
0.030417359
0.0074041197
-0.030048085
-0.040523034
-0.06304188
0.013803919
-0.07290812
-0.06398422
-0.039686684
-0.03954179
-0.03656254
-0.016030805
0.027794614
0.011218602
-0.026570218
-0.06608875
-0.052134536
-0.04540199
-0.0060286974
-0.02897246
-0.00438243
-0.07078279
-0.022783948
0.026190503
-0.04388791
0.068197794
0.04291398
-0.044492576
-0.03431197
-0.03171727
0.0069810054
0.06313339
0.07314498
0.031252187
0.01909312
-0.03364912
-0.007547007
0.04751979
0.03448177
0.037597246
0.0036186383
-0.034720562
-0.01918112
-0.052032504
-0.049593195
0.00027660423
0.015989814
-0.06026418
-0.05125119
-0.0047614113
-0.0008617654
0.031035403
-0.020666162
-0.020732962
0.0023611814
0.07256573
0.00989239
0.031966276
-0.030130126
0.024656618
0.025548836
-0.03553893
0.036261976
0.0241245
0.052062113
-0.052436594
-0.004344507
0.027412504
0.051218994
0.05213296
-0.030629233
-0.078687906
-0.0040499396
-0.03900018
-0.08829431
-0.029268362
-0.022555334
-0.049986985
-0.031868838
0.013456319
0.042466905
0.03793859
0.06055807
-0.041379947
-0.0012049043
-0.091637686
0.022893062
0.02635612
-0.07374812
0.0063899346
0.030352423
-0.06619094
-0.117665745
-0.15633516
-0.044151384
-0.007888719
0.020822532
-0.007615942
-0.07745885
-0.045720574
-0.046674203
0.047892433
0.03790755
0.022459334
-0.045978837
-0.010205961
0.027949886
0.06146119
0.09261974
-0.065640524
-0.018384207
-0.037279826
0.001580311
-0.03363703
0.04965339
-0.031510282
-0.010856107
0.02073737
0.027185468
0.0053886506
-0.08327484
-0.07326268
-0.018231131
-0.04681633
-0.09922838
-0.0665346
-0.04199105
-0.04930537
-0.042215485
-0.028130293
0.04902954
0.025370767
-0.0018994354
0.04674718
-0.03744017
0.0046105986
0.00862324
-0.009384329
-0.023905769
-0.006231787
0.017665239
0.02153863
0.0064629493
-0.0031063692
0.02308803
-0.012898273
-0.00030567602
-0.035538994
0.013085191
-0.02514459
0.015941175
-0.00616949
-0.05838871
-0.06900181
-0.035340592
-0.0002718759
0.012445001
0.057612002
-0.008265126
-0.012797108
-0.0054352065
0.012620454
-0.06967745
-0.0142327165
0.099065974
0.019278346
0.026964853
0.077298366
0.08983323
0.10105609
-0.02342193
0.05059556
0.068942785
0.10001702
-0.040635835
-0.045371227
-0.16751869
-0.11177344
-0.04533437
-0.10766997
0.012992405
-0.018821096
0.0035808538
0.026791032
-0.02840607
-0.039182056
0.04351691
0.019947208
0.05211384
0.0042101857
-0.07114771
-0.025272671
-0.09112791
-0.11555783
-0.081459016
-0.12106498
-0.05009567
-0.13552517
-0.02013041
-0.05923145
0.0072164773
-0.028312817
-0.03792972
-0.061330337
-0.037671078
0.021690067
0.0103692375
-0.008014271
-0.049549412
-0.08889512
-0.059940215
-0.0081371935
0.0074884184
0.046900094
0.06529548
-0.023303686
-0.010554449
-0.023096396
-0.050754357
-0.04473702
-0.002082878
0.007990422
0.030272914
0.045740232
0.050195277
0.009423274
0.030750478
0.015396834
0.035251707
-0.014850633
0.04059542
-0.010185366
0.030033523
-0.06135401
-0.014805445
-0.016228113
-0.062250346
-0.15231045
-0.13605872
-0.052132983
0.045730356
0.09301296
-0.022589156
-0.06661345
-0.1148306
0.014859881
0.06559062
0.09577348
0.11558445
0.08735816
0.0056133005
0.008260161
0.028144693
0.10787826
0.05614222
-0.05640874
-0.06811274
-0.039197166
-0.008586856
0.021345587
-0.05454283
-0.090756394
-0.061471466
-0.04469404
0.037031777
-0.04816184
0.03387939
0.007146228
-0.078994796
-0.018241823
-0.013293066
0.020857036
0.057375766
0.022548687
-0.02483853
-0.023643665
0.010692088
0.039853882
0.05932944
0.010886456
0.0174805
-0.06870529
-0.05459699
0.0017127618
0.05493231
-0.030450879
-0.11051756
-0.024234122
-0.04755418
-0.030134233
-0.011173173
-0.021433344
-0.010089247
0.0063395444
-0.034055423
0.05394396
-0.0424901
-0.131447
-0.10549481
-0.059203
0.14364754
0.11591071
0.12202075
0.09493876
-0.011326664
-0.027560271
0.030991688
0.023025148
0.035681896
0.025698973
0.092158
0.06600633
-0.1272834
-0.17641188
-0.15620224
0.027796928
0.107776865
-0.016567755
-0.07815274
-0.057330944
0.017231928
0.0049042194
0.03550105
0.08548864
0.051087737
-0.06599777
-0.036559798
-0.07997959
-0.005479665
0.072142094
-0.115988225
-0.00814347
-0.088859536
-0.043205366
-0.05660591
0.047878224
-0.00968671
-0.095540434
0.031832967
0.031865858
-0.06082522
-0.044809863
0.028529247
0.035499703
-0.027924793
0.037598524
-0.03371365
-0.008185847
0.012447704
-0.022798873
0.041473497
-0.04726728
-0.043388717
0.050642114
0.034385413
-0.011812389
-0.0077979607
-0.03259864
-0.07785853
-0.05288675
0.048133932
-0.00793314
-0.069139056
-0.06747584
0.008041213
0.012774113
0.0021233684
-0.031920485
-0.11630352
-0.10137261
-0.0018288626
0.0713374
0.10592358
0.09764472
0.10797444
-0.0036143165
0.005302306
0.05463397
0.06652376
0.12883773
-0.07730149
-0.039297342
-0.004684279
-0.045548264
0.010416158
-0.045637377
-0.042266585
-0.054385234
-0.016264956
7.647499e-05
0.018352887
0.02747256
-0.0006767011
-0.09410161
-0.025316017
0.003499865
0.0015045411
0.0073909187
0.0034698106
-0.080555744
-0.014546922
0.042136062
0.076377176
0.034376223
0.011673924
