-0.07300741
0.03940819
-0.03783425
-0.058413967
-0.024325568
-0.03772083
-0.06813974
0.07343023
-0.05287273
-0.024710463
-0.04321029
0.0116133895
0.0437425
0.029139949
-0.021116845
-0.008209925
-0.018851247
-0.09646781
0.006613389
0.03813306
-0.11005251
-0.08716703
0.008182824
-0.09584938
-0.011201354
0.050480455
-0.017332481
0.03430917
-0.011821994
0.0487198
-0.082043946
-0.08404071
0.06829927
-0.016952833
-0.008191223
0.042633176
-0.07930661
-0.09468167
-0.00041294057
0.071467474
0.023621064
0.018225199
-0.017125735
-0.015481067
-0.06597208
-0.04446316
-0.045653112
0.067204654
0.040563982
-0.046569645
-0.029749364
-0.059086088
0.051074013
0.042691797
0.054963604
-0.08828151
0.03700199
0.012485793
-0.03093934
0.030279063
0.007930753
0.035073068
0.014729107
0.07115082
-0.0095063215
-0.028384343
0.031356674
-0.049535505
0.0054822625
0.030989734
-0.07986196
0.039568592
-0.023145825
-0.0048325663
-0.037566938
-0.032518897
-0.029387152
-0.01807351
-0.065305285
-0.11007885
-0.006596404
0.005672993
0.016779818
0.035496302
-0.067465015
-0.08148428
-0.0100883
-0.04156426
0.04037024
0.038686294
-0.025965335
0.037643634
0.04705368
-0.05044856
-0.009070377
-0.07080732
0.0372875
-0.07608278
-0.017175395
-0.1100186
-0.02451559
-0.070276424
0.05331937
0.029728137
-0.10644747
-0.00969693
-0.08081558
-0.017559927
-0.009916603
-0.034401823
-0.036620878
0.025046576
0.021441763
0.04195848
0.0020166917
-0.044106044
0.0007014366
0.07185106
0.06312027
0.021153672
-0.091080606
0.048160914
-0.041934513
0.010707364
-0.07259879
-0.057974506
-0.04428412
0.042568833
0.0237318
0.03577642
0.012922709
0.010954439
-0.06753874
-0.006723258
0.04397569
-0.02846626
-0.062181134
-0.047423247
-0.058421127
0.01453464
0.016145073
-0.013907026
-0.0025192413
0.029981442
0.06468809
-0.057032302
0.007497609
-0.016867936
-0.03308567
0.0064112013
0.0122419335
0.008436217
-0.009124681
0.016229674
-0.091940366
0.009994695
0.021889484
0.030750342
-0.019936003
-0.035769794
-0.013521548
-0.055487067
-0.022262344
-0.003393039
-0.08009914
-0.0028480466
-0.028653368
0.042284288
-0.053914804
0.047465183
0.038406346
0.032050617
0.001824957
-0.09270432
-0.011722626
-0.0407484
0.02094435
-0.01951757
0.052445885
0.009759123
0.020380167
-0.054713707
0.0056415433
0.03816009
-0.04086333
-0.058569312
-0.009544508
-0.015143565
0.028028803
0.018420158
0.046890095
0.0474814
-0.08240681
0.010343291
-0.04288495
0.04301367
-0.05274172
0.056331996
-0.0046356856
-0.047628332
0.05493272
-0.001110354
-0.06354143
0.042835686
0.100226365
0.00022161871
0.04950848
-0.027603658
-0.0055579506
-0.00014215184
0.02390482
-0.014942516
-0.032301724
0.04975116
0.0048317183
0.035713386
-0.005799704
0.05433556
-0.02337654
-0.056927923
-0.022620153
-0.007883108
-0.07339561
-0.015154415
0.051640086
-0.054795995
0.016307745
0.0152843455
-0.0072411206
0.042147767
0.05694181
0.057026576
0.022190709
-0.032249242
-0.054751247
-0.026386706
0.005725217
0.047004145
-0.04493691
0.016211562
0.04985669
-0.14914939
-0.07711788
-0.070760705
-0.08462012
-0.016615828
0.053338025
-0.017327607
0.034472223
0.05934186
-0.035090365
-0.08182469
-0.053446032
-0.0871824
-0.021200228
-0.017464632
-0.02688616
-0.1483931
-0.042242315
-0.0027587193
-0.041402902
-0.027327409
-0.0034719703
-0.04492978
-0.013936685
0.06575969
0.05679576
0.037487686
0.031352676
0.01888189
-0.021131217
0.0104927635
0.009258428
-0.12397635
0.011979995
0.00032303613
0.08660094
0.046722952
-0.042274088
0.06609044
-0.04909088
0.030403115
0.03341056
0.016121343
0.043383174
-0.025414126
0.06204057
-0.06586429
0.05673376
-0.040392444
-0.02786667
0.016737781
0.0009044028
-0.08055758
-0.028794564
0.0471386
0.015901044
-0.063784
-0.03372049
-0.014421888
-0.06955682
-0.04843916
2.4784616e-05
-0.12972052
-0.008322943
0.047213122
0.02919521
0.021668157
-0.01502599
0.01068736
0.020587806
-0.018548736
0.0049172128
-0.077972464
-0.029399209
-0.040574323
-0.033721533
-0.079109415
-0.006046112
0.055157427
-0.025351705
-0.010446602
-0.010519503
0.021930555
0.047781814
-0.013234078
-0.020332765
-0.027997183
0.03348355
0.064432934
-0.03546728
0.025236977
-0.031699058
-0.053727303
-0.029086757
0.08623707
0.049583923
-0.036233447
-0.008486976
-0.02195763
-0.07661246
0.051339943
-0.055264544
-0.11555092
-0.062973075
0.010453151
0.021187048
0.030725453
0.02894852
-0.09430686
-0.063627034
0.053677924
-0.04778431
0.0042465082
-0.041018043
-0.00782268
0.042993482
-0.017588502
0.028716022
-0.05500225
0.040808085
-0.07421858
0.02669356
-0.018239476
0.03333993
0.05228518
0.023364838
-0.07930926
-0.06896917
0.009803387
0.039554007
-0.008834774
0.16837889
-0.1297079
0.023066573
0.015322212
0.07193028
-0.10952611
-0.008431965
-0.011557501
0.0022226404
-0.0053060153
-0.027972925
-0.041886803
0.074569814
-0.030067204
0.012304959
0.018562574
-0.015271627
0.023017123
0.06015536
-0.054828085
-0.005530542
0.038571484
0.0057730186
-0.016478823
-0.033740077
0.026025996
0.024731021
0.052562688
-0.032391485
-0.0044132373
0.022981578
0.0648209
0.012604716
0.015761275
0.06975716
0.030081911
-0.0035495835
-0.019372124
0.03418352
0.030405449
-0.0087879
0.049039166
0.009245351
0.0457375
0.2070828
-0.057516217
-0.0060770265
-0.009984477
-0.08292639
-0.015090865
0.03827043
0.00020820602
0.012420733
0.035045203
-0.027766062
0.043287303
-0.13024339
0.04344612
-0.026785502
-0.048566572
0.073983215
-0.10961108
-0.014391456
0.05257665
0.014092875
-0.083223596
0.013622424
0.00061608263
0.022039656
-0.018183563
0.032846842
-0.0599335
0.037791528
-0.036951173
-0.055491686
-0.061684757
-0.024920505
-0.071939565
0.023195343
-0.028041152
-0.0007402707
-0.0017190827
0.019487662
0.0022677018
0.006320468
0.0023903279
0.029426673
0.020677146
-0.007947993
0.011446151
-0.008724
-0.095875174
-0.024146672
0.0072294343
0.028285751
-0.097659186
0.017449956
0.012027767
0.027902482
-0.027687369
-0.014063326
0.03580527
0.02059735
0.011290556
-0.01900719
0.15159012
-0.02281874
0.043239594
0.02830234
0.040671095
0.042588603
0.013723504
0.06589525
-0.010506066
-0.04075827
-0.037306633
-0.021931997
-0.03159583
-0.09091667
0.027552148
-0.000436919
0.03483439
-0.045383837
-0.016553061
0.022773702
0.04899596
-0.0014326955
-0.075846404
-0.061849356
-0.088809095
0.045636997
-0.0037062818
0.06362397
-0.005897622
0.007689092
-0.093336985
-0.0041469345
-0.00874101
0.01992877
0.0008751714
-0.035285998
-0.08596145
0.04090782
-0.06679982
0.025230499
0.0145848
0.020181268
-0.1020414
0.035075825
0.036835384
-0.041592963
-0.066813655
-0.07176977
0.050208215
-0.0018050116
0.021774529
0.04674648
-0.0524664
-0.05086952
0.08970868
-0.010957903
0.012077554
0.034788385
-0.029126925
-0.015415685
0.049894206
-0.0016345102
-0.016190993
-0.010625165
-0.11092813
0.035734303
-0.01824026
0.048797168
-0.014412712
-0.008295451
0.018229993
0.07066301
-0.0007862871
0.014793268
-0.055122476
-0.039975233
-0.100473665
-0.0017477629
0.058002885
-0.036203876
-0.051008057
-0.014707884
-0.072011426
-0.045516703
-0.018171776
0.017554661
0.07489639
0.008830142
-0.11613995
0.03001352
-0.04298292
-0.07346277
-0.009176037
0.079081304
-0.0619591
-0.07289066
0.034459572
-0.0061961957
-0.07010774
-0.0579064
-0.038247507
-0.022826158
0.018772503
0.03417081
-0.0016557728
-0.020200387
-0.039718486
-0.01359479
0.0396782
0.021272436
-0.018444
-0.006121632
0.0074003423
-0.029529886
0.052863512
0.13280721
-0.09963689
-0.019947771
0.022842305
0.052395537
-0.0012782892
0.0154063925
0.040338766
-0.06700352
-0.03501189
-0.08968328
-0.009557543
0.010562891
-0.041179184
0.035407398
0.03367393
0.027355853
-0.04967567
0.029009182
-0.0068098707
-0.026608957
0.00282137
0.020665936
0.048294347
-0.01464517
-0.050456166
-0.0393485
-0.012257467
-0.0016982714
-0.011718755
0.06495976
0.00947558
-0.04114171
0.06307067
-0.00791306
-0.077928856
-0.04913357
-0.09124286
-0.061517686
0.005376315
-0.052035745
0.034297697
0.014989524
-0.037427083
0.0016875016
0.020148002
0.03161316
-0.064390466
-0.010196292
0.015837993
0.016828075
0.022963641
-0.056805335
0.031710006
0.0312484
0.0112377275
-0.008820016
-0.039126247
0.0086810915
-0.023358913
-0.06439106
-0.040212654
0.030814994
0.004779357
-0.034454502
-0.008493828
0.0024310036
0.011250636
0.009016287
-0.07957974
0.019086886
-0.013752464
-0.011242143
-0.008630637
0.026770199
-0.09391698
0.026087927
0.020092834
0.029592793
0.05545524
-0.00083029305
0.0014547658
-0.039965127
-0.0146256015
-0.026844518
-0.022791252
0.07530265
0.018851524
-0.011530661
-0.012761008
-0.01254708
-0.0677051
-0.04910727
-0.07183283
-0.036056183
0.019346364
-0.05305723
-0.07465315
0.012857279
-0.0798784
-0.0487107
-0.047051158
-0.023040721
-0.053955052
-0.015826054
0.055432145
-0.047471397
-0.027702099
-0.035577673
0.03849728
0.115827225
-0.08621096
0.06003122
0.07364449
0.02867181
0.019065885
-0.032880925
-0.043622527
0.008728985
0.0150418505
-0.0021457076
-0.013346189
0.014628764
0.014904824
-0.07533259
0.040429745
0.034931246
-0.008234847
-0.02195138
0.015689712
-0.06885479
-0.009674567
0.04192697
0.07939731
-0.05721628
-0.014031257
-0.0108933
0.04663237
0.032226093
0.095445536
-0.064162835
0.057127353
0.087814815
0.031637076
-0.035010546
0.04771716
-0.035668246
0.03910362
0.039147116
0.0051358007
-0.050240174
0.116948016
0.05160886
0.0022396888
-0.05571244
0.054615777
0.051922098
0.057551373
0.014485396
-0.07098327
-0.13702199
0.031081375
-0.011604701
-0.008078428
0.0021332065
0.13065223
-0.03162921
0.0112951435
-0.036232498
-0.032818653
0.025617858
8.542019e-05
0.0102548655
-0.022726327
-0.025226194
0.04332586
0.019160233
0.026764391
0.00964155
-0.00759619
0.004731556
0.069190554
0.014060412
0.007488942
0.10656161
0.06254312
0.02529805
-0.09663786
-0.06381547
-0.0419309
-0.0067621833
0.026601644
-0.048771407
0.07449644
0.06892979
-0.07931205
-0.0070271627
0.047936603
0.060298152
0.00984121
-0.06450169
-0.017316494
0.019381808
-0.060002618
-0.1257199
-0.04092256
-0.038092073
0.027710814
-0.075001314
0.040078845
0.022182684
0.03318617
0.068938576
0.23813492
0.087640665
0.0177763
0.0571179
0.05776782
-0.07428038
-0.025964085
-0.010648953
-0.069387816
-0.0613461
0.09142059
-0.04104799
0.05067708
0.007270858
-0.035941795
-0.041264404
-0.014155619
0.034619667
0.04357162
-0.09821761
0.03980403
-0.10009215
0.046261672
0.03805458
-0.017899334
-0.084691636
-0.08951033
0.0044693826
-0.06971058
-0.01824204
-0.010669555
-0.0032416906
-0.014283491
0.014722764
-0.035967547
0.03784416
-0.085490994
0.0106609175
-0.0034268643
0.021538146
-0.031668816
-0.09965773
-0.014453188
0.008105873
-0.0043418473
-0.036913797
-0.06689054
-0.046314552
0.05773393
-0.008883366
0.0550356
0.035671514
-0.03769412
0.019675966
0.05377565
-0.050210245
-0.0031783823
0.0052517233
-0.023123614
0.03473941
-0.0461295
-0.050507396
0.014713067
0.07767378
-0.050394177
-0.027568052
0.05787904
0.04750599
-0.028229857
-0.041160192
-0.012185152
-0.0054900623
0.035480134
0.006521234
-0.010181639
-0.065240964
-0.028225806
-0.057303865
0.024805421
0.06975134
-0.016024195
-0.08863491
-0.08250069
-0.08903777
-0.026747447
-0.057526324
0.020161293
0.001646405
-0.12329602
-0.038870554
-0.034214202
0.0024297817
0.007095247
-0.012931173
-0.033694047
-0.015295797
0.02929219
-0.029826704
0.066191725
0.039027136
0.019412866
0.05734408
-0.057192482
0.01218837
0.0055667968
-0.08265191
-0.054928783
-0.11740201
0.057871636
-0.08681286
0.08243621
-0.029081387
-0.059873514
0.00020555152
0.013853385
0.037313607
0.063516535
-0.04086069
0.04069556
-0.0036237778
-0.022759574
0.033688486
-0.058141287
0.053736966
0.07187364
0.07232056
-0.04259709
0.031064222
0.033444505
0.01167198
0.047843322
-0.0003760424
0.047026686
-0.053924784
-0.021629415
-0.0901232
0.004514747
0.00028162106
0.05068791
0.01942192
0.035990637
0.024600554
0.018593939
0.03836724
0.0027484286
0.027106652
0.032343797
-0.09410246
0.031162204
0.038700953
0.014956943
0.037135273
0.02713988
-0.038451895
-0.048628896
0.007122881
0.016182754
-0.038217846
0.038084082
-0.0067982683
0.091296785
-0.012884001
-0.019567158
-0.089582026
0.04866703
-0.0054382873
0.048255436
-0.057279177
0.058530286
0.015676081
-0.04012439
-0.09144844
0.108811244
0.044701938
-0.026206668
0.023343408
-0.07358397
-0.080536775
0.12297501
0.0819068
0.058408216
-0.00859967
-0.077116966
-0.037974294
-0.04877578
-0.055766083
0.05005881
-0.03304494
0.013444069
0.004106018
-0.04856897
-0.09255375
-0.07255956
0.06598465
-0.00091933477
-0.087956436
0.07007537
-0.0056576114
0.058364633
0.040151708
-0.015106598
0.0065323324
-0.07340662
0.009522079
0.0018966118
-0.053952146
0.031329002
0.07511688
0.026075272
0.011695748
0.043076947
0.05498539
0.030355416
0.005907318
0.038814
0.026241912
-0.07062442
0.01806595
-0.006471159
-0.06275666
0.053235244
0.055199597
0.035898257
-0.023377657
0.046327766
0.06087939
0.061761063
-0.06440123
0.027411973
-0.10627519
0.018394852
0.024602462
-0.032481037
0.02023765
0.049579944
-0.011834002
-0.070176125
-0.06955046
-0.024262033
-0.073348045
-0.07432013
-0.035434224
0.078420855
0.051748298
0.06358817
-0.038684264
0.019751515
0.051406745
-0.0255607
-0.015527445
-0.0012381261
-0.030850733
0.023921695
-0.02865235
-0.008815623
0.023263253
-0.00668032
0.03202709
0.04891357
0.036499187
-0.05167708
0.07408086
0.020240666
0.043134578
-0.020336945
0.05227237
0.054444678
-0.003453837
-0.09441217
-0.090472706
-0.034151975
0.0032417986
-0.011784081
-0.05530648
-0.008977915
-0.09018012
-0.007240668
0.015614268
-0.059911337
-0.08355491
0.00052787166
-0.0054813386
-0.103712395
0.05390877
-0.15840769
-0.011200351
-0.08188894
-0.024705596
-0.047026284
0.0220577
0.011794554
-0.06377506
0.058297433
0.0022539222
0.035968084
-0.04373084
-0.011662235
0.053168386
-0.022710152
0.00060024066
-0.032770067
-0.057897612
-0.041787054
-0.045280084
-0.076138146
0.026236951
0.017166387
-0.06805949
-0.0055079986
0.01685888
0.025766134
0.028812958
0.042702038
0.06522868
0.051718455
0.0033581315
-0.012786151
-0.005552804
0.02162514
0.035873003
0.05189096
-0.0132967485
0.014011979
-0.026942864
0.031988792
0.043185405
0.05878547
-0.057578024
0.044535488
-0.08520366
0.023484545
0.05578766
-0.024548376
0.018169772
-0.05036753
-0.025054777
-0.01147916
0.080257334
0.06852522
-0.064649634
-0.017729148
-0.048360992
-0.070623145
-0.0195295
0.017528148
0.044328436
-0.08973583
0.007559557
-0.06699545
0.037608333
0.020794239
0.0051208837
0.01711929
-0.0021719572
0.0031112125
-0.029177625
-0.068421595
-0.002622649
0.026541695
0.056338884
-0.017907958
0.015429184
0.042578608
-0.06453957
-0.012451323
-0.0074636466
-0.008397709
-0.05288435
0.054562733
0.007062869
0.005921598
0.037023995
0.008559732
-0.058571704
-0.044757973
0.025665734
-0.042733334
-0.049513094
-0.008518882
0.10492057
-0.026626635
0.01012268
0.0072000497
0.017089108
-0.014617901
-0.037320502
0.034713723
-0.061809976
-0.0432786
-0.042000327
-0.03673566
0.03455265
0.10217797
0.02241779
0.01095271
0.018985288
0.043287765
0.02119483
-0.08426699
-0.014780553
0.050034996
0.052288897
-0.008694361
0.00093550835
-0.10441731
0.058872305
-0.033897616
-0.020516083
0.0361287
0.010011978
0.036726385
0.039281927
0.057731412
-0.03958823
0.061292686
-0.01022269
-0.028840672
0.027573451
0.03718284
-0.022434771
-0.04312609
-0.06585531
-0.08529809
-0.03255033
0.0614591
-0.10811242
-0.10216984
-0.043695156
-0.102563605
0.093075
-0.032324392
0.008065475
-0.13897866
0.0037403693
0.013450526
0.014965477
-0.018335735
0.017902173
-0.13964134
-0.0009926402
-0.049477972
0.08174494
0.09201708
0.0114187
0.0073466236
0.03775722
-0.095229
0.08267757
-0.0034741147
0.03293463
0.006659907
0.021744763
-0.055749834
0.0067287027
-0.001626362
-0.048919123
0.0006899476
0.10043247
-0.055938505
0.080782056
0.011442338
-0.01051137
-0.005280597
-0.024846269
-0.016685944
0.0074163624
0.0024574648
0.00406537
0.07401519
-0.011973454
-0.013298699
-0.091501385
0.046608612
0.045382183
-0.07010642
-0.05962727
0.0046381126
0.02777461
0.014169216
0.02927158
-0.026607428
-0.01662948
0.019492099
0.043420978
-0.0023949458
0.042709276
-0.021708177
0.014913133
0.0050364295
-0.05157026
0.018550277
-0.050301302
-0.122362874
0.055688147
-0.0116834855
-0.040294163
0.024636403
0.023535416
0.07704957
0.051266227
-0.2462189
-0.19514814
-0.015310699
-0.017727641
0.038074754
-0.0006195214
0.035545904
-0.035428014
0.048013974
-0.03973415
0.019833997
-0.0013863856
-0.009458277
-0.0373244
-0.036452338
0.022861365
-0.002778983
0.033456102
-0.06617573
-0.015971696
-0.038754378
-0.007840278
0.03739973
0.0109393485
-0.058246102
0.0005089009
-6.9677844e-05
-0.055482846
-0.049634337
-0.04913263
0.06837462
-0.10678059
-0.0055492828
-0.022562407
0.016081335
0.043946266
-0.08025919
0.03352303
0.085663006
-0.101923816
0.013266933
0.03257542
-0.04544091
0.035311516
0.040075812
-0.042655926
0.026225958
-0.031964418
-0.042952288
-0.0014769594
-0.045262586
0.02065996
-0.026640084
-0.030931594
-0.11854309
0.07450569
0.011622317
-0.03331288
0.007986353
-0.01591292
0.13845275
-0.026337272
-0.14407346
0.09396349
-0.014693656
0.0071730786
0.042610805
0.058218557
-0.07553397
0.025416333
-0.0060777916
0.14819615
0.056780748
0.056779545
-0.04888516
0.0063420907
-0.020876536
0.05274544
-0.011065469
0.0025931615
0.031167941
0.048192706
-0.03603712
0.011418883
0.018583747
-0.03465844
0.05036305
0.017473718
-0.091118164
0.05997674
0.006176517
-0.03594535
0.019720213
0.043378465
0.0023761569
-0.0144992275
0.044115093
0.02463955
-0.11981538
0.06071535
0.031048091
0.10727301
-0.023884904
0.037952434
-0.03679375
0.019623788
-0.07205967
-0.014609761
0.05222628
-0.034088917
-0.092999145
-0.054180406
0.031557508
-0.026254931
0.06675569
-0.040334463
0.03659211
0.04000416
0.033633497
-0.059877545
0.0024915454
-0.029869052
0.04884231
0.034595132
0.06747006
0.061121725
-0.024187967
0.00030910314
-0.006605138
0.0097895935
-0.042636424
-0.025514292
-0.037158627
-0.0026516363
-0.02063067
0.06647967
0.013976136
-0.07161235
-0.033467323
-0.008624917
0.034846816
0.060649984
-0.060211994
0.008979138
0.002155627
-0.0282157
-0.014490936
-0.05327295
-0.031327907
-0.02962079
-0.09839203
-0.015471967
-0.080846705
-0.012315483
0.008872667
-0.0060742926
-0.08670498
0.030238613
0.005496811
-0.025667667
-0.03473662
-0.011145212
-0.044626508
0.051847056
-0.02455208
0.013829824
-0.08732831
0.0039022428
0.048876286
0.015168101
0.02406787
-0.07257693
-0.095663466
0.021212438
0.039303936
0.021501154
-0.06393728
-0.05788666
0.07061202
-0.093929656
-0.04997291
-0.017985271
-0.034089852
-0.019433837
0.084051825
0.010897777
-0.0025203198
0.03264738
0.010991225
0.025425512
0.018100608
0.008462843
-0.0058842376
-0.07235075
0.0093968315
-0.00043418867
-0.026180146
0.056773067
-0.03561641
-0.08421802
-0.015099337
0.058985543
0.06550069
-0.01903279
0.03771451
-0.0052962378
-0.010357787
-0.04992522
-0.020861799
-0.0085967975
-0.019276842
-0.061530538
0.079435065
-0.007262475
0.017475242
0.055614784
0.021709658
0.02584535
0.05882351
0.018300405
-0.054052442
0.0053775976
-0.06677118
-0.044384927
0.06448616
-0.06555005
-0.03910762
-0.04875648
0.0064457664
-0.0921898
-0.050373457
0.04192056
-0.053209603
0.05801244
-0.07933957
0.02511742
0.0561122
0.004298274
0.025760058
-0.0801395
-0.012381509
0.08672863
-0.024796931
-0.051975705
0.014988867
-0.077961326
0.041977074
-0.027024986
0.018918412
0.06030603
0.06022407
0.066207975
0.0133331455
-1.6050042e-05
-0.02184999
0.045748174
-0.0017476615
-0.008896169
-0.0865005
-0.004323292
-0.023138253
-0.086962074
0.030244082
-0.05846209
0.04145904
-0.005635991
0.050676122
0.046865143
-0.006906293
0.04340057
0.011830743
0.03711872
-0.0019761685
0.027915442
-0.015691545
-0.07083766
0.006213533
-0.021244837
-0.054239087
-0.005798266
-0.048450854
0.026041754
0.03846682
0.027992168
-0.052166123
-0.081537224
-0.088872775
0.04590841
-0.063109525
0.025093166
0.023554496
-0.032706846
0.026938165
-0.019810395
0.015910126
0.041264214
-0.04021946
-0.022050222
0.007542981
0.0053742547
-0.040491764
0.047075044
0.011622212
-0.04899242
-0.028333662
0.05014857
-0.045279622
0.021460826
0.044420313
-0.0020148228
-0.04158278
0.02426373
-0.011950227
0.0091747735
-0.096182555
0.004589679
0.012066209
-0.00095655746
0.034896135
0.022246754
0.043669056
-0.037609596
0.035930056
0.016454685
-0.030577002
0.033034872
0.02054221
0.050484877
-0.043184828
0.05626826
-0.024903756
0.00067096687
0.016027208
0.046338566
0.0037271054
-0.018291209
-0.039775364
-0.10994874
0.052073237
-0.044786077
-0.16848055
-0.0009947892
-0.03371976
-0.020005085
-0.005528104
0.025583662
-0.07899182
-0.04834261
0.014933616
-0.038891584
0.012993627
0.03482282
0.013824678
0.033754006
0.036888283
-0.01696612
-0.0535766
0.037800387
-0.004373326
-0.06588081
-0.03106972
-0.020041505
0.025757737
0.0036162848
-0.03692455
0.020602454
-0.041713785
0.018903255
0.017954793
0.0053381794
-0.03014948
-0.029181935
0.015692502
0.04209112
-0.022136126
-0.011691799
-0.06793658
0.010654757
0.043226954
-0.0056070746
-0.00054736336
0.03529766
0.025661625
-0.004337005
0.049479477
-0.115008175
-0.06733157
0.0041911523
0.023232682
-0.011254721
0.045226324
-0.0053274347
-0.09030895
0.037851613
-0.047659237
0.04563808
0.016677685
-0.053690325
0.032169517
-0.06621388
0.05602698
-0.020710874
0.012213264
0.00581113
0.0010619622
-0.086037114
0.036007814
0.015712896
-0.022076983
0.028538553
0.056552853
0.040413246
0.031407297
-2.7923168e-06
-0.04330088
0.00995365
0.059022393
-0.086941704
-0.060841218
-0.04307209
-0.015323128
-0.06418201
0.04462708
0.0103238085
0.0026123105
0.07201065
-0.09956401
-0.06638427
0.06174933
0.06461955
0.013892673
0.040516727
0.04198147
0.0033816465
-0.019352283
-0.017548276
0.076846614
0.08233093
0.08207062
0.061490744
-0.037158694
-0.024498496
-0.11116868
-0.15528525
0.016280657
-0.014766253
-0.086404264
-0.072998606
0.018221484
0.02490907
-0.044655252
-0.004919695
-0.0790669
-0.0063054333
-0.003359918
0.020350298
0.0060959
-0.11784547
-0.04653068
-0.11963277
-0.03988608
-0.08844197
0.0078651495
-0.091120146
-0.014816093
0.074646845
0.061629362
-0.026624827
0.06489822
-0.042164832
-0.012870894
-0.09242445
-0.08965867
0.01744207
0.012778238
0.038100768
-0.001512011
-0.021988574
-0.016008198
0.055475336
-0.05613935
-0.09690361
0.019886175
-0.10640731
0.018876327
-0.017985597
-0.04801584
0.06902755
0.058302183
-0.0230613
-0.01255264
0.023787355
0.07052363
0.032825317
0.013270705
-0.019575855
0.057516556
0.004710318
0.02250424
-0.022668103
-0.023325948
-0.15076175
0.0040575024
0.015653485
0.05201142
0.031710252
0.02873383
-0.05430442
0.07459718
-0.06319024
0.0010648342
0.025062293
-0.029453978
-0.031022089
0.0019136402
-0.07477274
0.018312925
0.013261845
0.038983665
0.047933828
0.0072626513
0.038859744
0.015674226
-0.004227423
-0.03240243
-0.047805697
0.053084496
-0.060574885
-0.05890383
-0.0004978318
-0.07150396
0.031215712
0.05051289
0.047587447
0.020977987
-0.026878532
-0.05642349
0.018334426
-0.044347238
0.012317862
0.021942971
-0.0476183
-0.0020936779
-0.033801254
0.06794203
0.06609773
0.042073872
0.09598473
0.049478833
-0.01597446
-0.10173608
-0.028862711
-0.0076617394
0.012640309
-0.049388103
-0.051029902
-0.05334906
-0.017470546
-0.023067938
-0.020428402
-0.09280988
-0.06578159
-0.00969591
-0.13826708
0.027750645
0.054076366
0.047813382
-0.09203566
-0.06461653
0.004475231
-0.01496239
-0.099951334
0.047714353
0.07786605
-0.009191946
0.07452607
0.023859316
0.025258724
0.029343756
-0.0145511
0.059792668
-0.007579105
0.0015653498
-0.00028952555
0.038203884
0.017260324
0.011416365
-0.03941417
0.04409459
-0.00081112667
0.0059461305
-0.007574055
0.008516423
-0.06607948
0.06810781
0.0056504733
-0.01974747
-0.028059075
-0.079998255
-0.008740454
-0.0034259025
-0.115716174
0.044648297
-0.020959627
-0.06611278
-0.04028835
-0.09486923
0.017716777
0.04281891
0.02014508
-0.14263225
0.10707358
-0.050432872
0.037268672
-0.03814164
0.0154513
0.0098284725
0.05601662
-0.01688587
-0.067723356
-0.036149446
0.032218013
-0.024087893
0.068033
0.018478436
0.004170594
0.005753892
-0.02044928
-0.002216869
0.03755069
0.075948395
-0.022208001
-0.03855219
0.03186268
-0.022714538
-0.03605618
0.024580559
-0.02340911
0.008169048
0.022718249
-0.0072873984
-0.017364947
0.035114285
0.024973754
0.06267794
-0.012082985
-0.04661062
-0.0747929
0.028117364
-0.0074967057
0.03532839
0.008214115
-0.0578974
0.01521938
0.06574654
0.029158967
-0.055958126
-0.0063803727
-0.02699303
-0.05312564
-0.054287955
-0.06327329
0.0043672505
0.030343387
0.0665442
0.004232299
0.00051932037
0.03465862
-0.09063838
0.05325094
-0.014398438
-0.029930072
-0.056915343
0.031390898
-0.028198833
0.014839506
0.0043922937
-0.016526762
-0.041148193
-0.05206588
-0.05426529
-0.0004734254
-0.07627653
-0.0045756088
0.025191363
0.050672404
-0.04816378
-0.060364563
0.0062170466
0.010249146
-0.029552445
-0.028194344
0.015820721
0.009037393
0.00034748577
-0.005671461
0.04286621
-0.00984055
0.048439912
0.028051205
0.02877329
-0.04811794
-0.0013880571
-0.0976973
-0.018354608
-0.0012453119
0.038757153
0.047427043
0.03909001
-0.016367624
0.040326566
-0.01938453
-0.034232236
0.015176555
-0.08545364
-0.0051994678
0.03746585
0.01811929
0.050034754
0.017546771
0.0030817557
-0.020894622
0.037344974
0.06150845
-0.027007423
-0.09361273
-0.004499475
-0.020080125
0.032490857
0.031534243
0.056346368
-0.011285046
0.06215769
-0.06827643
-0.11012515
0.0008984303
0.009647394
-0.111752816
-0.09150559
-0.0076518515
-0.043029852
0.057638466
0.018237738
0.062331535
-0.07663075
0.061514407
-0.067281455
-0.048939962
-0.02685247
-0.07169132
0.03582809
0.053438935
-0.07393726
0.022858823
-0.024011962
0.00942093
0.025675802
0.06398127
0.06901137
-0.02420388
-0.03259938
0.0911335
-0.047476932
-0.013571198
-0.011262331
0.01852126
0.005684837
-0.06673483
0.040103633
-0.02840967
0.048414636
0.047133174
0.037683155
0.04678097
0.01255906
0.048968975
0.011345385
-0.023897655
0.06004327
0.0011959843
0.031018605
0.03449186
0.0392255
0.008516165
0.011187193
0.0628162
0.09910155
-0.11252605
0.047028724
-0.004056875
0.01727525
-0.09598998
0.0051696445
0.0001446407
0.053323276
0.0396794
0.056357108
-0.07548586
0.044263083
-0.11455859
0.036898576
-0.05870101
0.023938864
-0.039502498
0.06237121
-0.053629756
-0.016342765
0.024625883
0.049143545
0.029807815
-0.057947416
0.022672124
-0.06910782
-0.037526734
-0.018790446
0.060524885
-0.00311804
-0.0934189
-0.019924877
0.03813214
-0.0015970505
-0.0068688537
-0.038479682
-0.02334105
0.04112304
-0.0020734982
0.016724827
0.03396682
-0.03725471
-0.10138359
-0.013713458
-0.042316
-0.02511344
0.058931574
-0.027871607
-0.042116683
0.010663959
0.096226834
-0.01071307
-0.062444232
-0.06802219
-0.009038097
0.02071401
-0.02105647
0.030528404
0.031228391
0.0313198
-0.03561606
0.05535186
0.0153133925
0.010270604
0.010346588
-0.06441592
0.015245429
0.027667277
-0.01169281
0.031894717
0.02035413
0.00060147844
-0.020664304
0.013765948
-0.024888499
0.0015861464
0.050527852
-0.043673564
0.016050873
0.0032575594
0.0014598534
0.06285924
0.00025385924
0.026635813
-0.002921234
-0.028830599
0.01580251
-0.05063042
-0.05701271
0.03312567
0.002585316
-0.012404558
0.06825475
0.022353651
0.013636074
-0.038728222
0.025879225
0.020918632
0.022867132
0.04814398
0.05177418
0.031876754
-0.0061121783
-0.057166718
-0.11257838
-0.08458359
0.019853245
0.042599306
-0.053392503
-0.01617717
-0.060477972
0.030825894
0.01613236
-0.05848926
-0.019124508
0.03213104
0.013491576
0.040997006
0.02216605
-0.032942455
-0.0057260483
0.087407
0.010801659
-0.08912999
0.058701478
-0.15656412
-0.04104064
-0.04797348
0.027603526
0.023246247
0.015720978
0.03706767
0.04048843
0.010382223
0.048494536
0.047428258
0.017479649
-0.014922983
-0.083566934
0.043265685
0.05586427
0.014556216
0.008607216
-0.020516552
0.036493566
-0.04360702
0.028318545
-0.11375761
-0.08572755
0.019371217
0.033499822
-0.056295656
-0.08518717
-0.034623373
-0.045457933
0.0639925
0.0838887
-0.0675638
-0.019375829
0.04628862
0.034115613
-0.022746062
-0.006791541
0.06572376
0.029141074
0.061727986
0.035749372
0.016231256
-0.046070278
-0.026862225
0.057265773
0.007999282
-0.09162737
-0.071946606
-0.020470096
-0.016138887
0.016280286
-0.038525153
-0.036140706
-0.07102229
0.01823878
-0.18103121
0.03691765
-0.030402284
-0.057831977
0.07121364
-0.021256678
-0.05230742
-0.002993586
-0.02397259
0.029334385
-0.051782303
-0.028755646
0.00567785
0.108275324
0.043183416
0.029132316
-0.02562752
0.028819956
-0.028265024
-0.03300919
-0.03970322
0.03328903
-0.07457084
0.022096688
-0.03318206
-0.118771896
0.040657926
-0.037924215
-0.073939286
0.024653854
0.1008019
0.0047391816
0.031112706
-0.106881395
0.0054788855
-0.067508675
-0.010528972
0.013878691
0.024274847
-0.015955651
0.0045445003
-0.0145317
-0.074678786
-0.033868115
0.0042260434
-0.014354225
0.03205434
0.06334563
-0.0040666047
0.030879378
-0.06626452
-0.06597832
-0.033427637
-0.071716934
-0.039161187
-0.025690135
-0.0527519
0.03952548
-0.08408679
-0.03941775
0.06206221
-0.03776565
0.07982696
-0.061620742
-0.01260864
0.028310193
0.024820773
-0.015667077
-0.04070809
0.031677373
-0.03592565
0.058793984
-0.051766448
-0.019498892
-0.03278899
-0.026450327
0.018436726
-0.06684035
0.0004266384
0.036924474
0.073432066
-0.001352086
0.06365832
0.006054873
0.018689886
-0.03291958
-0.0005299589
0.043589357
0.06352336
0.037091635
-0.009278932
-0.018009026
-0.014865526
-0.059940625
-0.020022623
0.07396286
-0.046688627
0.017028362
-0.012067503
-0.04017657
0.05030913
-0.032786466
0.031025736
-0.04677729
-0.0507658
-0.102679804
-0.03890063
-0.11957935
-0.007788026
0.051229905
-0.032657105
-0.16335703
0.008921398
0.0385194
-0.04234746
0.055899724
0.0013804532
-0.11103039
0.04483384
0.0016314952
-0.035231527
-0.04487363
0.030579038
-0.04035427
0.007834876
-0.022682875
0.012173118
-0.029776685
-0.08562968
0.012772569
-0.06159549
0.005730183
-0.04606686
-0.044027284
-0.059517737
0.040953025
0.0711959
-0.0433779
-0.017392185
0.016360944
-0.034360684
0.0050246995
0.026707122
-0.12830666
0.046728637
0.013853099
0.046898082
-0.02002699
-0.07276188
-0.089177534
0.02084459
0.082738444
0.029893788
-0.028675446
0.011474666
0.0019211808
-0.048725106
0.06418224
-0.05080884
-0.10826361
0.037965927
0.04060091
-0.03868421
-0.032593675
-0.0672392
-0.06662026
0.03386846
-0.01273237
-0.043419752
-0.0045219944
0.0027402297
-0.023767168
-0.02772252
-0.041782036
-0.011767879
-0.033336088
-0.031510293
-0.019434407
-0.004417158
0.04032198
0.0047073434
-0.01104482
0.07038462
0.015046692
0.06905798
-0.1081144
-0.009608819
-0.0024897256
0.093526654
-0.032165557
0.03540063
-0.0007337843
-0.02231721
0.02039736
0.007546109
0.07533858
-0.044214293
8.7817316e-05
-0.004272322
-0.011842465
0.02859628
0.019548913
-0.030465757
-0.0107724825
-0.23997635
-0.109450385
-0.021794388
-0.10628669
-0.055346023
0.05719057
0.040646553
0.060870912
0.03884129
-0.022684233
-0.0065237503
-0.021849373
0.05781649
0.046690132
0.018234942
0.07126063
0.008082467
-0.03626028
-0.012148122
-0.038866904
-0.07001566
0.039299574
-0.007603887
-0.0516563
-0.05834531
0.03534788
0.038943052
-0.042803824
-0.0020339442
0.013406978
-0.0002794917
-0.08486677
0.00884506
0.025966942
0.03239633
-0.06130465
0.030147001
0.004548262
0.050368384
-0.05454751
0.014286668
0.034733374
0.0062270164
-0.12353033
0.037083533
-0.04227383
-0.06673714
0.028295191
-0.0061192657
0.015312335
-0.042144142
-0.08857073
-0.0061761355
0.056084886
0.028635316
-0.051507264
0.02980137
0.019277787
-0.043205056
-0.044631496
0.020675167
-0.038568348
0.045654256
-0.0115010515
0.046076503
0.0674433
0.037493773
0.04112014
0.050690215
-0.075260155
-0.058696423
-0.076551184
-0.032953497
-0.065232866
0.07155969
-0.004110188
-0.02567692
0.04617339
-0.06653339
0.004729153
-0.06939088
-0.0046898946
-0.053048875
-0.0045120795
0.014933518
-0.115167335
-0.15547276
0.008234886
0.014145662
0.05177501
0.054087013
0.029272446
-0.0065963846
0.041080102
0.02086534
-0.0008501613
0.04483982
0.018583683
-0.058836456
-0.011202314
-0.029077947
0.047751136
0.0074358927
-0.010570047
0.0034483469
0.029928343
0.03532511
0.019315418
0.075213075
-0.010637705
0.04378734
-0.013468644
0.027234003
0.02530144
0.09297815
0.06774834
-0.004605754
-0.034535106
0.02465606
0.068753086
-0.042484622
-0.007565319
-0.0015952165
-0.010157945
-0.043929297
0.022688448
-0.0036755719
-0.014789731
-0.03655532
-0.024502529
-0.03950392
-0.038223524
-0.012603768
0.013185387
0.022397753
0.02436529
-0.03955193
0.00265747
-0.0069398866
-0.08072053
-0.05309598
-0.036105305
-0.06864989
0.0025392296
-0.012460893
0.017443795
-0.0338844
-0.030011946
-0.08425643
-0.02869173
-0.037450355
0.0050339964
0.04549054
0.013478734
-0.07513002
-0.001444018
-0.05614242
0.06328448
-0.01847628
-0.17129612
-0.014510603
-0.06655719
0.0102318395
-0.043146465
-0.010011594
-0.022913521
0.013201543
0.008264943
0.026617264
-0.018659255
0.044713125
-0.004843037
0.017595334
0.00402927
0.043443628
0.017568244
-0.026783777
0.00861166
0.016945492
-0.017607266
-0.046872318
-0.016211344
0.010851317
-0.00079124485
0.05363672
-0.046981197
-0.01765679
-0.072087355
0.03871052
0.03399001
-0.0010895377
0.058710318
-0.033893578
0.025163513
-0.059515856
-0.04632604
-0.028988428
-0.024529258
0.028106088
0.012523598
0.041451067
-0.03191834
0.04466437
0.048380625
0.009898476
-0.02853294
-0.035502836
-0.01412926
0.024446914
-0.031750884
-0.012208713
0.014684625
0.028925866
0.015433618
0.044275742
-0.0120963035
0.01707754
-0.04146136
0.042169683
0.0022658082
0.044040486
-0.028722908
-0.019892693
0.05861057
0.037108615
-0.009186557
-0.054399278
-0.13090232
-0.032869603
0.04476608
-0.007784105
-0.020266673
0.07883887
-0.074437246
-0.0436588
-0.028578026
-0.07850845
-0.01863083
-0.046584435
-0.019688044
-0.13912223
0.005070579
-0.04235279
-0.006700782
0.063419886
0.034306936
-0.031457968
-0.06609568
-0.048381273
-0.04793115
-0.08683958
0.029495737
0.028554527
-0.02870951
-0.07047757
-0.012983997
0.036271088
-0.10664816
0.011767147
-0.02393891
0.08807212
0.03477336
0.042658463
0.008949459
-0.00631273
0.0065415422
0.10594547
0.044481546
-0.0011781149
-0.034697957
-0.038631324
0.121254966
0.03765327
-0.012334466
0.08999677
-0.009490486
-0.028174007
-0.008576218
-0.010706135
0.0069258334
-0.01056755
-0.024961855
0.037619814
-0.022361947
0.007674954
0.010014519
-0.048725016
0.08033337
0.038946614
0.02254376
0.060571387
0.09669509
-0.021668803
-0.08848284
0.051178783
0.0010855016
0.040062726
-0.019839542
-0.036461428
-0.046878505
-0.057347097
-0.024007833
0.017003467
0.03899232
-0.009568601
0.029455386
-0.00956707
0.012942369
-0.06263297
-0.014064846
0.03696145
0.025834758
-0.025331972
0.051935878
0.013734492
0.018969039
0.023953937
0.014786054
0.051812254
0.057704635
0.05824244
-0.14210238
-0.068697505
0.015279141
0.061249185
0.020822935
-0.17633006
-0.081145026
0.054937907
0.07101881
-0.057221238
0.04867901
0.012868966
-0.010742227
0.0091892
-0.012513268
0.02413833
0.049946826
0.039532565
-0.06321501
0.0076275636
0.051451594
-0.0058502182
-0.03008685
0.033820387
0.011766863
0.027860202
0.056891453
-0.006212641
-0.0042470517
0.038261894
0.042063862
0.02625196
-0.1029837
0.019422458
0.06406429
0.06424757
0.017913027
-0.15257934
0.05035085
0.021866055
-0.02764534
-0.004453135
0.06477099
-0.00010473719
0.053387094
0.048282046
-0.055992886
0.021058619
-0.060733844
-0.0018116903
-0.007316988
-0.037471075
0.04699195
-0.058573704
-0.00730569
-0.04666302
-0.04550024
-0.13091624
-0.020343557
-0.03741413
-0.02775538
0.08343518
0.0004102484
-0.094482034
0.00024281921
-0.03015451
-0.032072216
-0.020418447
0.03865315
0.055684708
-0.03851972
0.05151188
-0.09824406
-0.008796749
-0.10493684
0.026204444
0.036946636
-0.014159957
-0.13788666
-0.0516694
-0.051053427
-0.002808469
0.013594721
0.036243048
-0.053631477
0.040806476
0.0136477165
-0.050014567
0.039100304
-0.03167481
-0.020232653
-0.001250147
0.018837407
-0.08760495
-0.025631944
0.053932194
-0.03192515
-0.016226428
-0.042662792
-0.045553323
-0.042343855
0.06866102
0.041372407
0.072208084
0.007086129
-0.0050556213
-0.08577657
0.008381411
0.027486453
-0.03838204
-0.005806425
0.060165368
0.021903459
0.07978798
0.012995588
-0.054468513
-0.03410182
0.044079322
-0.108570516
-0.04874781
0.016358836
-0.035005406
-0.023166569
-0.052216552
0.034239434
-0.0018056581
0.0007471841
-0.02400764
0.011867987
0.027490761
0.06143137
0.047396734
-0.065669835
0.04663813
0.039017305
0.03387647
-0.037178364
0.050673332
-0.022454223
0.016184803
0.009874038
-0.028115451
-0.015391564
-0.014630751
-0.041510604
0.0168751
0.011115432
0.049225897
0.020512216
0.0654996
0.0125494385
0.019955488
0.01555486
0.00081717
0.054497845
0.03821374
-0.017166492
-0.039370496
-0.033075336
-0.060333908
0.07033782
-0.0325956
-0.007961609
0.082591735
-0.032163125
-0.0058796527
-0.016795365
0.014292012
-0.024926625
0.05181072
-0.014449343
0.060366396
-0.019372309
-0.10786794
-0.046925887
-0.080491304
0.053893074
0.010328306
0.05376754
-0.014801481
-0.051688626
0.030098809
-0.046240054
0.045061983
0.013696172
0.040543575
-0.05764856
0.045270048
-0.003984577
-0.008818371
-0.02200894
0.061341234
0.01722692
0.058037065
0.029542193
0.009477632
-0.03277158
-0.009909281
0.035178583
0.0053614946
-0.08572689
0.025747037
-0.04322395
0.030246204
-0.10073669
0.012257538
-0.06989556
0.03598884
-0.1006319
-0.07703328
-0.011392591
-0.00992141
-0.028717153
-0.021791188
-0.018328277
-0.0026202155
-0.026582327
0.03814038
-0.13423829
-0.09174878
0.0044008307
0.040527612
-0.033500083
-0.039786585
-0.01736932
0.0006181602
-0.06284903
0.059672665
0.024101328
0.050255317
-0.018255595
0.024815524
-0.014482431
-0.07686912
0.05902577
-0.0148055805
0.015924398
0.04446485
-0.019316059
0.04736983
0.046661295
0.001279351
-0.050633468
0.029566014
0.004253434
-0.12597106
0.04831779
0.05864994
0.06264394
-0.14234865
-0.092993334
-0.07119146
0.051054824
0.028623797
0.07112937
-0.0011118873
0.0093342215
-0.02223079
-0.05773795
0.02962756
0.033542134
0.030134495
-0.09906693
0.017309276
-0.06874439
0.018691516
0.015221282
0.018136002
0.030100783
0.026329383
-0.06062644
-0.0112675745
-0.10238947
0.0028432384
0.05364545
0.031378023
0.018676694
-0.04952137
-0.026463669
-0.028235883
-0.0037398937
0.026341697
-0.035882138
-0.020106036
0.004406592
0.028773416
0.030547893
0.029138638
0.027774312
0.007939894
0.06567077
-0.04169634
0.006061188
-0.053351637
-0.0898757
-0.11575221
0.030541642
-0.0889956
-0.059179634
0.018502165
-0.020220771
-0.07027817
-0.11739825
0.013727725
0.05328943
0.01036002
0.03541253
-0.012943071
-0.058952864
0.029021226
0.0040140064
0.032778475
0.05329246
0.009312277
-0.094730034
0.06464642
-0.026368648
0.047914766
0.025941417
0.06963474
0.020111477
-0.025317838
-0.07088339
-0.004862559
-0.0008602156
-0.011619181
-0.12328327
0.023656836
0.023068177
-0.032373462
0.022210194
-0.05485265
-0.035687342
0.03400443
-0.05470769
0.0008887524
0.026270838
-0.018030008
-0.08449977
-0.14217937
0.04606837
-0.070086576
0.046475716
-0.015538485
0.012475587
-0.038900234
-0.032763053
0.092470534
-0.019929951
-0.03026871
0.01359099
-0.028226877
0.019916216
0.05213964
-0.033777528
0.00012938562
-0.032950744
-0.010078725
-0.02657973
0.03608306
-0.009896048
-0.015904445
-0.04086758
-0.068301015
0.008987733
0.040375374
-0.04565904
-0.022919886
-0.04051748
-0.0064408574
0.049781114
0.021073926
-0.03725943
-0.03188162
-0.03982042
-0.06124929
-0.030602112
0.016562188
0.034064587
-0.029376723
0.081737705
-0.016292997
0.022380129
0.012288508
-0.032141328
-0.009669959
0.008187576
0.05498995
-0.024526201
0.006086911
-0.028731655
0.025590876
0.081561886
-0.056436505
0.015684402
-0.015148244
-0.043286875
0.04196191
0.07201249
-0.10650545
0.021116497
0.011745567
-0.042463433
0.03127893
-0.07377949
0.058114
0.019398447
-0.056098085
-0.015915109
0.033487506
-0.003123011
0.057559468
-0.030026538
-0.045026675
-0.020758089
-0.072482996
-0.011083091
-0.04815586
-0.0557318
-0.04305938
0.017895984
-0.024580697
0.028164556
-0.02028382
-0.03186507
0.06860891
-0.050505556
-0.035269756
0.06666091
-0.06927562
-0.036868088
0.021254629
-0.027502676
-0.0314864
0.050900947
-0.09900599
0.06936563
0.013423622
0.014385955
0.07287824
-0.02056128
0.071421064
0.028893126
-0.10169602
0.0100190155
-0.15755346
-0.016720926
0.01633032
-0.012247813
0.029309733
-0.060645636
0.03888541
-0.01393222
-0.02836525
0.048448607
-0.13070132
0.015037592
0.029686887
0.0010794608
-0.08896829
-0.01974447
-0.004902048
-0.044402998
0.009130963
0.013320751
0.039898917
-0.023758657
0.025878139
0.060445573
0.041295644
-0.03717647
0.012243132
-0.026775949
0.03826888
-0.08063363
0.035215795
0.019451365
-0.0021346745
0.02735396
-0.033130813
-0.025088115
0.039193355
0.045199133
0.013738976
0.015281517
-0.027966833
-0.0843296
0.024069987
-0.014166965
-0.097490795
0.012558743
-0.066413574
0.039411675
0.005732335
0.044143874
-0.00576618
0.031610228
0.029783735
-0.02429508
-0.06979557
-0.110060275
0.02661414
0.080419004
0.054186277
0.032299876
-0.14406554
-0.0402347
0.014556339
0.0077093374
-0.11043042
-0.09935368
-0.03796619
0.004853408
-0.0080155255
-0.012792066
0.01907179
0.0062788296
0.0036760238
-0.113461696
-0.07163813
-0.037002023
-0.029354155
0.013140951
0.0051250574
0.028682172
-0.053367816
0.030201102
-0.020814901
0.059652176
0.06278718
-0.008902785
0.06919284
-0.02860721
-0.044760972
-0.023670534
-0.12047158
-0.033004835
-0.019332977
-0.0050746445
-0.12508044
-0.0034546484
-0.02073631
0.007122536
0.067877404
-0.03328979
0.027054345
-0.040101767
0.021126157
-0.027090112
-0.01113144
0.013577138
-0.124574065
0.009806624
0.044739477
0.07559478
-0.064257324
-0.016163297
-0.07052978
-0.01067045
-0.017120017
-0.018850759
0.0023028383
0.011402901
-0.08490182
0.00053346297
-0.051801667
-0.043567926
-0.03158345
0.04855049
0.01610943
0.03545533
-0.10521565
-0.047589153
0.028450925
-0.1299959
-0.020014772
0.0052753603
0.0021926963
-0.045745283
0.06183727
-0.094533786
0.06503399
0.05014379
0.036147453
-0.09004859
0.025544211
0.065294
0.047499456
0.05708051
-0.0061355815
0.031480286
0.03149607
-0.025677538
-0.03721963
-0.0148401875
-0.0036314477
-0.07136007
0.019347293
0.03847627
-0.02231182
-0.008387151
0.057254385
-0.0055027143
0.07422222
0.029478163
-0.053882122
0.048628736
0.04379471
-0.032779712
0.03753264
0.013298993
-0.091600746
0.048845228
-0.04853105
0.04239844
-0.039130278
-0.06614702
-0.14582524
-0.015445998
0.0046837362
-0.04104026
-0.035426974
0.015795058
-0.09921094
-0.051100522
-0.041301407
0.06635603
0.0028744861
-0.0006838201
-0.01591644
-0.028855938
-0.0801893
-0.035447273
0.035091374
0.074145846
-0.054441806
0.010878312
0.081666
0.0037537026
-0.023967776
-0.052075624
-0.00671835
-0.06948779
0.02515696
0.03709079
0.043955486
-0.007265156
-0.05438222
0.044690885
-0.08803639
0.0071134125
0.0094681
0.025078
0.027214339
0.014546875
0.009036282
0.016103588
-0.05083644
-0.0106702205
0.034759633
0.0028127122
-0.09626264
-0.021639567
0.03718451
-0.002223458
-0.077529304
-0.09958799
-0.015746232
-0.025154598
-0.12512887
-0.028506761
-0.10147674
-0.0052798614
-0.08108137
-0.110659204
0.011223215
-0.056788117
-0.097496174
0.05391009
-0.029989514
0.007516345
-0.09457553
-0.020001195
-0.03404091
0.025873518
-0.018862732
-0.015653498
0.05875152
-0.020567106
-0.039432958
-0.00033268487
0.008635393
-0.059896793
-0.08314416
0.06677921
-0.012186864
0.010241439
-0.00069420575
-0.04987247
0.05921943
-0.115888216
-0.029529372
-0.0127251055
-0.13161573
-0.06585859
0.05186355
-0.11834219
0.032901786
0.01002994
-0.093717985
0.014954867
0.020005306
-0.0256125
-0.021388607
0.010705792
0.04203983
-0.015710948
-0.08528173
0.054351732
-0.01909182
-0.008224113
-0.03315851
0.040806126
-0.0036409586
0.0016668693
0.032894984
-0.0009767985
0.00349729
0.032281015
0.028217267
0.044248547
-0.049536258
-0.039389156
0.08143265
-0.09512745
-0.013420956
-0.070807934
-0.11035674
0.029156424
-0.031584222
-0.085069925
-0.031042501
-0.034358304
0.0337348
0.058874886
0.021248247
-0.104776315
-0.10928309
0.025812402
-0.044737693
0.0032841756
-0.037546765
0.029437907
-0.03753057
-0.0604549
-0.087027125
0.051082388
0.047372226
-0.05392659
0.014696053
0.037594892
0.005367485
0.05447286
0.026813775
-0.0017266538
0.022730721
-0.0056131976
0.0068068313
-0.11821398
0.011793472
0.030782746
-0.03565722
0.07063906
0.036804236
0.0035591053
0.06467699
0.044404387
0.017008182
0.0065795155
-0.009543438
0.02680754
0.05560797
0.06667714
0.008801503
-0.017029112
0.032764774
-0.04261313
-0.096073546
-0.0021517116
0.06905496
0.05495227
0.04283133
-0.092772275
-0.116904065
0.023175038
0.04105105
0.0206536
0.055099674
-0.04143205
-0.0017585738
-0.016819349
0.02330794
-0.0032597184
0.04352576
-0.014941016
-0.016166495
0.052332815
0.033720493
0.025238674
-0.028245768
0.0052680983
0.036018346
-0.06029494
0.030593056
0.019822836
0.06341924
-0.011517112
0.0033630235
-0.044626202
-0.13651213
0.027218971
0.05712944
-0.10464096
-0.010446184
0.02716317
-0.03901219
0.06596783
0.036786366
0.021954566
0.027171036
-0.021908194
-0.017261926
-0.010849664
-0.08157461
0.054798484
0.05674784
0.008313865
-0.037458863
0.0044824514
0.011534536
0.034806434
0.030648315
-0.0063012345
-0.028952962
-0.06642522
0.053240392
0.06574077
-0.02564351
-0.027592577
0.057140782
0.024297304
0.022834044
0.0686674
0.031786755
0.0034173748
0.025257772
0.046090994
0.03636153
-0.0066187214
0.0359406
-0.011485618
0.008701589
-0.0059790644
-0.07548083
-0.048388395
0.03984108
0.06219249
-0.034203105
-0.037363973
-0.02299501
0.028110744
-0.041593563
-0.04124786
-0.065270826
0.027245333
0.06402906
-0.017092278
0.00028956708
0.026610041
0.056006916
-0.024282811
-0.0028101
-0.09010539
-0.011371416
0.0033195508
-0.029114515
-0.07845689
-0.09847823
0.002117577
-0.03222055
-0.024571043
0.042381737
0.03662968
-0.019378806
0.006062203
0.021260597
0.034615148
-0.05573697
-0.02087841
0.060120657
-0.03838475
-0.024870139
-0.017832637
-0.03199128
0.11971069
-0.058169004
-0.10193936
0.07452309
-0.053143993
0.011414851
-0.013303791
-0.081096925
0.0024443015
0.022348836
0.017783817
0.04979067
-0.0014111173
0.009809615
-0.12173198
0.021685328
0.020514563
-0.03134133
-0.035618864
0.011747847
0.03441059
-0.07684482
0.06925445
0.06533235
-0.0055156955
0.027408367
0.037447855
-0.10087537
-0.105534226
0.04865896
-0.09000439
0.036774326
0.0917491
0.009807038
-0.020876184
-0.042049572
0.028553933
-0.051247492
0.05647526
-0.012733738
-0.03588648
-0.07926773
0.0036259412
-0.03865686
0.035522442
0.06795375
-0.00032409647
-0.07654065
-0.03805804
0.0651263
-0.06916042
0.033978727
-0.029183114
-0.032148626
0.00044297928
0.12213823
-0.010356198
0.01048424
0.022278572
-0.0022965032
-0.06303388
0.044969622
0.038868826
-0.06323846
0.06454871
-0.024993977
-0.021714203
-0.013510575
0.052618917
-0.0036005015
-0.04333188
0.050654337
-0.045231823
-0.00041942627
0.08570399
0.0017103861
-0.029431997
0.029484408
-0.03627168
0.0130659435
0.022584207
-0.019306013
-0.04163484
-0.0004483931
-0.059757065
0.021885417
-0.011755313
0.019099565
-0.07738592
0.0018848166
-0.092700325
0.03677333
-0.033796832
-0.014258135
-0.07612572
-0.027497558
-0.0072583286
0.0134895565
-0.04578948
0.0053861174
-0.015068294
-0.10524466
0.08032342
0.039786443
0.015218751
0.008383791
-0.049675163
-0.05083245
0.066208765
-0.0011673849
0.015043902
-0.07659593
0.017993841
-0.006335609
0.0668072
0.0060613644
-0.02945492
0.023226004
-0.12710193
0.026465343
-0.027463086
0.051041976
-0.023701016
0.013258853
0.043190055
-0.036701225
-0.013011303
-0.07468934
-0.023193296
-0.06458671
0.005596908
0.06931187
0.0034553572
-0.0052004317
-0.07969962
-0.004403721
-0.049048834
-0.0084580295
-0.06650814
-0.037245642
-0.06644435
0.09715716
0.038903344
-0.0027162454
-0.06427315
0.027231885
0.009764957
0.038325615
-0.08836041
-0.09488619
-0.063332185
-0.026362
0.01595693
0.0066767214
0.027569963
0.0023240875
-0.0012889231
-0.056680486
-0.08448577
0.037200827
-0.043827817
-0.00010680622
-0.004235374
0.002603085
0.03107471
-0.007755415
-0.047123425
0.047157675
0.0028370894
-0.045414332
0.013939782
0.05105394
0.035384636
-0.036631167
0.0112950485
0.056519434
0.008779215
0.0011245327
-0.032418653
-0.04904243
-0.029803544
-0.012295071
0.14588167
-0.011127397
-0.115185544
0.008727803
0.03178954
-0.014009883
-0.034619715
-0.014673205
-0.011717808
-0.0340241
-0.068979695
-0.035379436
-0.026111413
0.041500267
-0.07882371
-0.058846172
-0.0120699825
-0.0471355
0.012112935
0.05872325
-0.083569914
-0.020110935
0.036573835
-0.055467293
0.0017608836
0.042498495
-0.029567625
0.083411954
-0.03508554
0.039224792
0.048626035
0.05604481
-0.17686145
0.04659272
-0.03911343
0.030233782
0.06287778
0.048139375
0.011702995
-0.03590378
0.030859686
-0.020434938
-0.027491024
-0.08261361
-0.03389857
0.053539455
0.032736346
-0.10873979
-0.05350168
-0.054864183
0.025176197
-0.11877207
-0.03337574
0.0022171321
0.005801179
-0.0100982245
-0.06149654
-0.024243359
-0.060127184
-0.03557558
-0.036105152
-0.044703145
-0.0142182335
-0.08622808
0.022093304
-0.06389392
-0.049835954
0.015311216
0.033642374
0.025861353
-0.033290103
0.045159463
0.029457701
0.08267662
-0.115163624
-0.0049179215
0.022793083
-0.0993139
0.031280454
-0.016614543
0.05131627
0.04972387
-0.0020122752
0.026442852
-0.01476837
0.039391067
0.025411308
0.016429363
0.0382551
0.047148686
-0.00889309
-0.049763646
-0.024473874
0.05228973
0.0017928611
0.039782323
-0.01757202
-0.037907656
0.080206834
-0.053229637
0.010595818
-0.06950619
-0.05178443
-0.018044747
0.02771192
-0.014947999
-0.030768495
0.010188315
-0.12393644
-0.008461609
0.011752038
-0.02074552
0.020548383
0.03802633
-0.04482966
-0.011367685
0.060977466
-0.033190668
0.03982009
0.038318254
-0.050277255
-0.04667339
-0.041053798
0.03416256
0.08674741
0.025619004
-0.05059125
0.0045895195
0.03278359
-0.04250826
-0.042754132
0.077352546
-0.0018073053
-0.07844843
-0.03263476
0.016593989
0.059594117
-0.038471162
-0.032086883
0.035231516
-0.008474759
-0.025208764
-0.031164024
-0.04472727
-0.011597367
0.037091557
0.038662218
-0.11284332
0.091039576
0.036201093
0.07688451
-0.017043613
0.053784862
0.046256505
0.013797221
0.07499951
-0.004754132
-0.060886275
-0.046830766
-0.035431333
0.04291199
0.023251375
-0.078615345
0.062288683
-0.060962513
0.04957746
0.030965324
-0.0057495297
0.049564827
-0.022493593
0.02772147
-0.05098047
-0.0076037003
-0.035216544
-0.050819334
0.017671414
-0.06678289
-0.048518408
0.07354846
-0.18883699
-0.031524148
-0.008681848
-0.13419968
0.007625468
-0.01577785
-0.023365336
-0.027838325
0.011314812
0.06703383
-0.08097383
0.037038106
0.011259193
0.024824314
-0.0032513028
-0.08326174
-0.048665658
0.050039962
0.026086865
0.017424602
0.017435823
0.0058607426
-0.007496074
-0.0058866246
0.04044238
-0.06979152
0.0016455721
-0.062140275
-0.027509226
-0.098394364
0.025219034
-0.030747566
-0.09659194
0.002321152
-0.07944644
-0.0034349645
-0.007869298
0.025515806
0.0649077
0.0039883777
0.018868433
0.041294742
-0.006062626
0.0123063
0.01675243
-0.028693276
0.014339011
0.04210158
0.02070802
-0.018721145
-0.12586235
-0.009304105
0.06014273
0.0734255
-0.0049346136
0.011103205
-0.037820734
0.06717774
0.008274337
0.036302194
-0.018403938
0.0031205122
-0.053113334
0.03534999
0.050873656
-0.01283488
0.03901184
-0.0050083403
-0.0071822777
-0.07532635
0.05201202
0.02545021
0.036872543
-0.026100108
0.05019863
0.04983505
-0.05518727
0.026423452
0.0033837087
0.01597397
0.063204505
0.035734426
0.018831573
-0.0017238706
0.016967636
0.039796624
0.012356012
-0.04063444
0.055488095
0.010533196
-0.010852923
0.0126827
0.038587414
-0.012002672
0.02711954
0.021234069
-0.030596681
0.008454232
0.06932823
0.0035757911
0.022538846
-0.015703887
0.025819315
0.020736746
0.041098878
-0.09073331
0.014754605
0.0284522
0.052915443
0.009039262
0.051278643
0.0045096995
-0.026045391
0.03736005
-0.026776882
-0.08482815
0.0029420422
-0.006903364
0.029279986
-0.009551272
-0.015424678
-0.09264389
-0.06031398
-0.029913208
0.012130327
-0.016150435
-0.017236235
0.043660335
-0.028129492
0.007738333
0.015919238
0.015008688
0.056319095
0.015567013
-0.05154591
0.021112764
-0.0012166969
0.03173198
0.028122619
-0.13640758
-0.016641783
0.041155487
-0.06257629
-0.095153965
-0.019015327
-0.03636638
-0.042518336
0.02027493
-0.009614967
0.0040334077
-0.13916822
0.0054670135
0.03128402
0.052635632
0.066345476
-0.044667765
-0.038165174
-0.0068637305
-0.021715242
0.0043947524
0.025135254
-0.05954426
0.06454832
0.070018254
0.03286157
-0.017897706
0.024730293
0.08195329
-0.11775959
-0.05734704
-0.056381255
-0.10213114
-0.024024736
-0.002517636
-0.05118954
-0.011036294
0.055743624
-0.084193654
0.02509525
-0.09250336
-0.10744588
0.039942395
-0.0029467416
-0.0627073
-0.09819316
-0.09849183
-0.046025462
-0.0073950095
-0.005774637
-0.10517974
0.045025926
0.010711405
-0.0019465652
-0.0041272207
-0.18464106
0.021895038
0.010358615
-0.014655616
-0.0016152004
0.030178685
0.065331385
-0.024343492
0.012642997
-0.072434686
0.04185015
-0.07820152
-0.030480336
-0.000105333755
0.013228571
0.040015824
-0.059763063
0.022607919
0.016243005
0.05739122
-0.06845677
0.0016003092
0.026638085
0.015516541
-0.030244589
-0.007420112
-0.01187184
0.011789099
0.07540922
-0.09570338
0.029684551
0.045554914
-0.022426205
0.023019023
0.008167987
0.026052399
-0.031339075
0.02637411
0.024764258
-0.048545077
-0.053981222
0.018857285
-0.03342604
0.07277631
-0.02498613
0.029190624
-0.14503378
-0.007082342
-0.09749247
-0.05546382
-0.016910031
-0.025191607
0.056793675
0.048925165
0.019431643
-0.01838244
-0.01628965
0.042808488
0.027211364
0.038720615
-0.06734397
-0.023491342
0.027467484
0.06893894
-0.0009423027
0.03272353
-0.019219317
-0.010584419
-0.035838276
0.00042720605
0.020315457
0.014897793
-0.05262252
0.03893349
0.04138715
0.03926106
-0.079397164
0.0047267717
-0.09532636
0.037032295
-0.043136176
-0.041281268
-0.031740326
-0.026708158
0.014946991
0.054429814
-0.045206532
0.030041149
-0.039257757
0.027926464
-0.023279836
-0.025504334
-0.02818608
0.02784358
0.009853086
-0.05523215
-0.16136095
0.012055041
0.028675027
0.020593552
-0.00044958026
0.023533966
-0.01561504
0.02276203
0.06336506
-0.013955885
-0.00047960784
0.05352196
-0.08210019
0.013512653
0.021963136
0.13191709
-0.0007130642
0.06804688
0.018852875
-0.119252294
0.06642519
-0.036298353
0.005603744
0.025883282
0.0078758
0.0504172
-0.06864292
0.041865997
-0.049277652
-0.00784038
0.024772543
-0.16983442
-0.01661202
-0.016565464
0.06298209
0.01816018
-0.036023695
0.03699638
-0.016161785
-0.02060177
0.041866615
0.04283196
-0.02123219
-0.040890574
0.022439549
-0.03165657
0.045083884
-0.033210494
-0.07058216
0.014785025
0.061706617
-0.082011
-0.025997696
0.06843791
0.03635131
0.024682377
0.052926518
0.03190913
-0.06653472
0.0068554017
-0.12321961
-0.018119026
-0.12342157
-0.09723427
-0.04417664
0.03209247
-0.03910754
0.007944326
-0.011164022
0.04414229
0.01008424
-0.18348303
0.027631227
-0.010725261
0.060610685
-0.027325245
-0.012907641
-0.0058216928
0.074217044
0.03750581
0.029627658
0.034250166
0.014307419
-0.03569651
0.028258007
-0.014061757
-0.022252573
0.019795125
-0.0047367336
0.07487156
0.07420395
0.030919915
0.012407629
0.04866556
0.06740581
0.03356303
-0.001491772
-0.009981652
-0.031049758
-0.0029624447
0.018027531
0.024784628
0.035384674
-0.015745118
0.054598793
0.059484687
0.005876641
-0.0081534535
-0.026449423
-0.0331186
0.054169107
0.0037790958
0.042384494
-0.015956014
-0.06388099
0.012594251
-0.03171281
-0.037595946
0.06189691
-0.04314753
-0.04154141
0.00895995
-0.0009633755
0.051092472
0.06035213
-0.009392276
0.01248956
-0.030522648
0.05348961
0.016536228
-0.11758054
-0.12050475
0.07579848
0.022319512
0.036656417
-0.008444546
-0.064858206
0.051574446
-0.090012565
-0.06979118
-0.040970262
0.037540093
0.019260645
0.06358884
0.037479598
-0.0007489525
-0.055630744
0.054986887
0.053106822
0.055941634
-0.056009836
0.04490918
0.018558308
0.03167575
0.035798676
0.0023599123
0.0052298876
-0.028307043
0.03373024
-0.033833735
0.0108722765
-0.03233887
0.037499573
0.050914936
-0.007605002
-0.03108044
-0.03618234
0.035747197
0.06046042
0.03433562
0.020446153
0.005150534
-0.104357116
-0.009501646
-0.085324734
0.0285584
-0.0701434
-0.027417582
-0.120671965
-0.05067347
-0.023239817
0.010090269
0.04438887
-0.109025575
0.0135796275
0.025438264
-0.117522374
-0.0029245066
0.022971436
-0.004572564
0.03860726
-0.026286285
0.05895483
-0.006140445
0.05662386
-0.104744285
0.019734921
0.0057337387
-0.0031480077
0.015422665
0.06543116
-0.064708136
-0.10688552
0.014844939
0.009419214
0.03638806
-0.0558625
0.047897127
0.0048659747
-0.02368417
0.027213752
1.452713e-06
0.016547201
-0.08800253
-0.042737603
0.014299795
-0.023379352
-0.06076801
-0.025404666
-0.0010441325
0.0773279
-0.048232965
0.06272364
-0.056667946
0.012086107
-0.058067773
0.02801949
0.008199637
-0.05041798
0.03137118
-0.013361419
0.04423228
-0.016166478
-0.021489924
-0.028535824
-0.042590547
0.042158328
0.0070223333
0.00060922385
-0.097859256
0.07008304
0.022839287
0.03423631
0.02579604
-0.0047470033
0.019752841
-0.037073743
0.017655505
0.036329303
-0.036473524
-0.0038892669
-0.098515734
-0.0031542033
-0.017284378
-0.041616775
-0.013910397
0.022494176
0.023784062
-0.017597582
-0.019135892
0.0037340668
-0.041788653
0.014354319
-0.046328377
-0.022008946
-0.08657656
0.0077444226
-0.0367377
0.027599746
-0.088288754
0.0370756
0.058731776
0.0049877744
-0.0099386135
0.008834632
-0.03201116
0.060324408
0.014277882
0.0046561244
0.05345133
-0.14788444
-0.005747547
0.08107667
0.046939112
0.021635436
-0.10775638
0.04755862
0.001238666
0.033559665
0.024204481
-0.10115816
-0.015837688
0.062901236
-0.012096138
0.055903055
-0.009168271
0.0119403275
-0.08344119
-0.07568555
0.038227428
0.059745666
0.050163724
0.02826561
-0.04638539
-0.12813613
-0.03650772
-0.039529193
0.020625114
0.039426256
-0.016587857
0.011605023
0.043175455
-0.017344303
0.023239372
-0.052135497
-0.0034557013
0.0051729474
-0.033363186
-0.0112128975
-0.029476047
-0.049507555
0.023698615
0.026087457
-0.019442221
-0.071395546
-0.07378214
0.013182557
0.013904135
0.018625464
-0.04121387
-0.02264783
-0.025202261
-0.022507211
-0.036813226
-0.024109188
-0.017933585
-0.011225817
-0.070547655
0.009171333
0.017220888
0.02042019
0.01851748
-0.047325324
-0.074967146
-0.03083789
-0.015721597
-0.021868601
0.011804584
0.01957453
-0.03555864
0.033777922
0.057886302
-0.10981654
0.003294441
-0.0017340586
0.014945863
-0.01315536
-0.00074902986
-0.027846418
0.028090151
-0.048221033
0.030629903
-0.05787769
0.0068768584
0.023165451
0.042098463
0.07590954
0.025213087
0.025837475
0.065730445
-0.042208984
0.02796973
-0.020143302
-0.009704849
0.03847618
-0.023126243
0.01855059
-0.03652997
-0.031677134
0.030485969
-0.004621742
-0.14706907
0.015672382
-0.02247473
-4.943894e-05
-0.038527694
-0.07382995
-0.012773733
0.004558065
0.04180929
0.026981913
-0.082150325
-0.06301507
-0.0155012775
0.014390436
0.03311199
0.015153883
0.030811418
-0.026788812
-0.022775557
0.048414897
0.016300399
-0.018306939
-0.019068705
-0.0055517345
0.018142065
-0.023437897
-0.012711868
-0.016901946
-0.011118656
-0.036492646
-0.011646977
-0.05715983
0.06575242
-0.07253913
0.028683048
0.009662466
-0.0069449972
0.028378533
0.0011298849
-0.1220609
-0.015064139
0.022072457
-0.07992552
-0.049974114
-0.020431506
0.04258668
-0.013050134
-0.038669508
-0.022490134
-0.04828342
-0.042525694
-0.0046733893
0.06435736
0.059122283
-0.07310651
0.074855804
-0.09210561
-0.014397364
0.037586957
-0.01780836
0.033784043
0.042069633
0.06877595
0.06437473
-0.015726605
0.043297015
-0.033860493
0.021206522
0.047559276
0.10349945
-0.16059393
0.041364644
-0.0014373626
0.07403129
-0.00515261
0.0013370179
-0.06325081
-0.006841471
-0.0070264596
0.07133497
0.06369253
-0.03986922
0.023786684
0.064468876
0.03373426
-0.024752887
-0.017578993
-0.034473665
-0.05003222
-0.057815276
0.02394004
-0.01635889
-0.06060457
-0.061158262
-0.022193328
-0.04845707
0.06974299
-0.05253256
0.03283246
0.06763157
0.00071372656
0.06420546
0.047602523
0.02084273
0.0031996886
0.018271383
0.027004052
0.00050839485
-0.07990525
-0.10019648
0.07151295
0.016755428
-0.033313356
0.017156525
0.013075009
0.03665005
0.0133826705
0.027478827
-0.13178809
0.0978559
0.019091854
0.041304838
-0.009575585
0.014658598
0.0250765
0.012706837
-0.06529953
0.027863896
0.008834095
0.01402516
-0.01652799
-0.01594556
0.043410156
0.03877322
-0.13468356
-0.0049565057
0.08648006
0.029028885
0.040916268
0.021898987
-0.04607431
-0.03352974
-0.038924783
-0.10480465
0.020335598
0.026885312
-0.061542507
0.0009752902
0.07022725
0.03594481
-0.15859737
-0.09502539
0.023977315
0.07408876
0.043180015
0.032572508
0.056828436
-0.02750347
-0.016925722
0.0373495
-0.03955188
0.0056683617
0.022675414
0.014370136
0.07467827
-0.10669395
-0.005350044
0.042698342
-0.019386912
0.070580974
0.077263065
-0.02346718
-0.045537844
-0.08183969
-0.03337748
-0.004350343
0.031107223
-0.016235292
0.0014138587
-0.1274627
0.030950062
0.036914382
-0.099315025
0.054403894
-0.043506946
-0.031894725
0.028128918
-0.0427452
0.00026932103
-0.023942918
0.12161782
0.029888894
-0.035726253
-0.031083876
0.01979363
-0.10528239
-0.14640331
0.041460853
-0.028331188
-0.06043113
-0.030493012
-0.13561256
0.0077944826
-0.023556802
0.06532516
0.042779036
0.04027731
0.036649115
0.07040243
-0.056378346
0.031586096
0.032578234
-0.12802619
0.045389604
0.030929148
0.055247795
-0.044057455
-0.010098338
0.011761874
0.025210803
-0.03966537
-0.006968737
-0.032404162
-0.023587272
-0.060684916
-0.0063098026
0.028828712
-0.05122565
0.029502213
-0.037409175
0.06411764
0.0032568597
0.027603194
0.039662916
-0.06144181
-0.0135718705
-0.013864468
0.06420091
0.06541363
-0.058608174
-0.02383015
0.047870375
0.06454239
0.045630433
-0.08673411
0.064366125
-0.08863624
-0.03621464
-0.075526655
-0.08201977
0.07293458
-0.07280548
-0.023132287
-0.04716812
0.003389328
-0.046604235
0.036425885
0.085943736
0.03330321
0.015891753
-0.008950497
0.03982015
0.014391086
0.032738432
0.0043797814
0.018456051
