-0.05380559
0.051400784
-0.033274762
-0.057606783
-0.04260081
-0.056125697
-0.06305169
0.071339
-0.06530722
-0.024783105
-0.040537477
-0.017662711
0.04531782
0.0323685
-0.011125636
-0.012640432
-0.017970625
-0.09258002
0.0066142483
0.041615516
-0.10618331
-0.074982986
0.02308285
-0.07631178
-0.0124833435
0.050539333
-0.07325467
0.0139547475
-0.010735974
0.055234995
-0.07877084
-0.096553124
0.06174437
-0.016777245
0.0040852493
0.05582822
-0.07358549
-0.08246187
-0.006316932
0.0566406
0.045194898
0.011080912
-0.01014975
-0.014393505
-0.0662758
-0.035294097
-0.030738931
0.07324148
0.099400856
-0.044962607
-0.035089184
-0.043370895
0.043601904
0.0475738
0.039191663
-0.1403507
0.050834045
0.016886095
-0.100000724
0.025200443
0.0063876677
0.03407827
0.0017985951
0.042734534
-0.009512614
-0.028379545
0.0074923397
-0.040599655
-0.005148323
0.17336364
-0.07941209
0.04327983
-0.020167625
0.007816993
-0.06489166
-0.0183164
-0.014235519
-0.017790543
-0.029117536
-0.07671447
-0.012452195
0.006224125
0.011319618
0.02285801
-0.058735147
-0.055313643
-0.030678116
-0.053967122
0.033835262
0.04943412
-0.0116982255
0.038024608
0.050697405
-0.02777936
-0.009070382
-0.058024593
0.043182854
-0.058638517
-0.022880359
-0.0780089
-0.0132322665
-0.0703786
0.04873531
0.027789986
-0.03859247
-0.055823557
-0.059030056
-0.017608501
-0.009484754
-0.039779663
-0.0341949
0.025046527
0.013751864
0.059127863
0.002016684
-0.054041103
0.003157023
0.02328957
0.06547754
0.022172153
-0.05624507
0.04815869
-0.05467369
0.02500044
-0.0646944
-0.06409173
-0.032120757
0.041054957
0.02373165
0.039057862
0.019820813
0.001501137
-0.06248393
-0.025254373
0.041043434
-0.0006192413
-0.037818734
-0.050979048
-0.068016544
0.018109404
0.010863615
-0.014031103
-0.004148612
0.053395364
0.065188415
-0.0017080602
0.00749944
-0.009855714
-0.05702532
0.00678023
0.008293513
-0.0037386997
0.022298088
0.023811128
-0.07587714
0.015509251
0.029101226
0.02047854
-0.020003559
-0.04775169
-0.0015079894
-0.05331922
-0.03426064
-0.011962698
-0.10151575
-0.0033441968
-0.08315081
0.038286302
-0.05081454
0.029080046
0.038851187
0.0027435047
-0.021162743
-0.09145594
-0.014579845
-0.07021044
0.030492887
-0.00670003
0.05684029
-0.022472924
0.0111531755
-0.06364156
0.005611656
0.03836894
-0.024255507
-0.0631639
-0.009385844
-0.02666401
0.030100383
0.028923467
0.03597988
0.04703885
-0.07855514
0.011430368
0.010850609
0.037716154
-0.034354966
0.043060962
-0.004635496
-0.010923883
0.060341425
-0.0011280912
-0.035212792
0.04730641
0.085097805
0.013142323
0.038541272
-0.027580662
0.016609048
0.0004347074
0.020676196
-0.011530232
-0.032301757
0.060422465
-0.003597211
0.050576795
-0.0137140155
0.02896078
-0.023229523
-0.04135269
-0.022620294
-0.03829936
-0.050722864
-0.028154764
0.052529853
-0.042599164
0.01148065
-0.0032072722
-0.007224326
0.043269586
0.06625379
0.04163142
0.0168931
-0.017313078
-0.01836795
-0.033917777
0.002682277
0.022649249
-0.048261363
0.013576014
0.04863947
-0.08678575
-0.06623786
-0.05210027
-0.08462349
0.013729093
0.04921298
-0.014235332
0.04121938
0.05400833
-0.03508255
-0.030587133
-0.0643023
-0.085517295
-0.024349868
0.008808969
-0.026854962
-0.10569493
-0.042243864
-0.0064627873
-0.04165692
-0.027884929
-0.011172394
-0.01708083
-0.018871449
0.07007591
0.05704151
0.026861139
0.051387135
0.030888962
-0.0071486724
0.012819064
0.08604421
-0.11328212
-2.7129183e-05
0.050471526
0.06600721
0.044252202
0.018491695
0.06274104
-0.05507184
0.030471895
0.04092426
0.017552167
0.040776834
-0.058429636
0.051396325
-0.068549074
0.0420863
-0.03507294
-0.009041918
0.01672872
0.008415823
-0.078800894
-0.09826426
0.03800673
0.018308595
-0.082052976
-0.05778615
-0.01573183
-0.05697411
-0.02643552
-0.00132866
-0.07855218
0.0038118984
0.003103329
0.052493427
0.025122589
-0.016345251
0.0070411544
0.011666608
-0.042177368
-0.06495913
-0.060480155
-0.020113312
-0.028353155
-0.024392262
-0.07110616
-0.007900536
0.019334858
-0.032935318
-0.011133636
-0.013089089
0.048993923
0.05248706
0.010556666
-0.011811983
-0.02353776
0.024594024
0.057616718
-0.026575014
0.022477124
-0.038739134
-0.044016257
-0.029677251
0.06905056
0.056774676
-0.024903912
-0.008473875
-0.021979202
-0.0628132
0.049025133
-0.049675338
-0.072454534
-0.0769878
0.017458476
0.019314567
0.030725922
0.02866804
-0.073791206
-0.06525669
0.05862851
-0.013165659
0.030472327
-0.05557754
-0.002779291
0.061393593
-0.01832231
0.040724244
-0.025412794
0.030602176
-0.07307154
0.026703568
-0.018203044
0.117398605
0.025242547
0.017906249
-0.054698084
-0.03664698
0.025218928
0.044052467
-0.008615476
0.029593008
-0.09128091
0.02054998
0.06901499
-0.023553945
-0.11217298
-0.0065086875
0.02459387
-0.0012998111
-0.0045788954
-0.0012676453
-0.062273752
0.059138186
-0.05217395
0.011018967
0.019093102
-0.01254852
0.023022085
0.053281534
-0.049013935
0.003011637
0.03920605
-0.0053835684
-0.010616829
-0.033766557
0.026020572
0.017759133
0.033899944
-0.03238997
0.0069344477
0.022981629
0.058310654
0.040569935
0.03000391
0.064960875
0.028008653
-0.03920124
-0.059474517
0.031482786
0.015157659
-0.0016697821
0.016629
0.022737255
0.002859233
0.01447518
-0.038089108
-0.007873274
0.00093848247
-0.056149952
-0.019394998
0.03615765
9.643833e-05
0.024560593
0.034708973
-0.015755864
0.012326635
-0.09173459
0.052988946
-0.055636786
-0.04989007
0.06365663
-0.09169505
-0.011380508
0.04712596
0.0016956957
-0.014801524
0.013236961
-0.0023611954
0.027872667
-0.018183583
0.0059224274
-0.07177909
0.037779182
-0.028701091
-0.05600695
-0.046847984
-0.024917748
-0.058696937
0.023154834
-0.040039625
-0.010080879
-0.013728763
0.019040104
0.004702681
0.0047537456
0.009351232
0.015107726
0.027984338
-0.0075241295
-0.0047618477
-0.008346935
-0.113905
-0.022828458
0.022243954
0.024236377
-0.08138035
0.00921793
0.007771393
0.030589277
-0.03034888
0.002342486
0.020907598
0.13847207
0.0016998076
-0.017023908
0.025441535
-0.036182918
0.041390013
0.02537105
0.03630723
0.03815377
0.0705066
0.054966964
-0.019879654
-0.021653727
-0.04076114
-0.02193519
-0.045715716
-0.07437858
0.05721081
0.0026236097
0.04699506
-0.045384757
-0.016525485
0.016074084
0.050537232
-0.0084226355
-0.03795363
-0.06246949
-0.08040988
0.04425408
-0.0067672967
0.07194601
0.031295795
0.0058061127
-0.0655626
-0.0021975061
-0.008804159
-0.008940885
-0.03778507
-0.03987979
-0.0792657
-0.0028364232
-0.06425635
0.024203068
0.05794709
0.020182217
-0.08446251
0.038437758
0.031935755
-0.044430718
-0.069638625
-0.0781811
0.052511495
0.023548702
0.04267403
0.0649156
-0.053389378
-0.03942107
0.088823706
-0.010888592
0.011893191
0.0532923
0.0023929244
-0.01680793
0.041190058
1.540313e-05
-0.028718313
-0.04630608
-0.09101484
0.037602644
-0.033843484
0.049091015
-0.0051979246
-0.012104266
0.014289716
0.0859439
-0.004912508
0.035129543
-0.05773991
-0.032444745
-0.10437891
0.0018393226
0.050771043
-0.037214935
-0.04999573
0.068852186
-0.08424771
-0.05325653
-0.030463621
0.0094340015
-0.078051165
-0.004492919
-0.113017805
0.024892189
-0.047659002
-0.07354675
0.13953446
0.0761546
-0.052246053
-0.058848392
0.02544706
-0.004232465
-0.05778686
-0.060658276
-0.040838756
-0.041957363
0.022495305
0.017455228
-0.0005788479
-0.01176884
-0.03595639
-0.007376642
0.042281013
0.010885256
0.0060168765
-0.0067205615
-0.006867468
-0.03140737
0.07211271
0.070003666
-0.08723618
-0.019947965
0.019474624
0.054891836
-0.0020789737
0.009694888
0.03762089
-0.05073163
-0.020455588
-0.07689267
-0.060990304
-0.0016109128
-0.068872854
0.038715437
0.03352802
0.02779379
-0.023918413
0.029307596
-0.0068102786
-0.0187635
0.014682584
0.020665858
0.050717726
-0.009002451
-0.0005441222
-0.043333694
-0.009055541
-0.0048771664
-0.011718857
0.06661508
0.0008510201
-0.03546325
0.060284812
-0.020297958
-0.087639
-0.049133647
-0.032183506
-0.059126027
0.005353587
-0.033439804
0.029865483
0.016612606
0.008588385
-0.00806044
0.024244698
0.031376783
-0.04559861
-0.0010440091
0.0052060834
0.039909475
0.0140555585
-0.04149118
0.024986694
0.031250395
0.009237698
-0.012368734
-0.040212806
0.0070952424
-0.01462774
-0.028358143
-0.039074253
0.036998168
0.0071274564
-0.041152157
-0.025672764
0.0023445936
0.011251841
0.009017394
-0.063259825
0.019086896
-0.021463292
-0.0006258723
-0.010289793
0.043923024
-0.08852314
0.034298226
0.019155364
0.03005624
0.024066713
-0.0055883615
0.0010936118
-0.042919282
-0.028743716
-0.05473825
-0.024843141
0.07358088
0.051239584
-0.023804933
-0.003999658
-0.012578031
-0.09017209
-0.030347025
-0.067826055
-0.036062535
0.018752214
-0.03613358
-0.045040604
0.023949474
-0.065007694
-0.046083674
-0.049215745
-0.012675695
-0.051538993
0.0008572754
0.04242363
-0.047361434
-0.03574463
-0.05636155
0.038477518
0.025845988
-0.07701757
0.064601496
0.06702576
0.04616206
0.01909065
-0.06407995
-0.039470997
0.017029315
0.022063656
-0.0021456615
-0.004422107
0.014824039
0.009889319
-0.043903027
0.024946949
0.034928497
-0.0031086134
-0.02195139
0.0070336745
-0.04718865
-0.0013711631
0.03631118
0.08165418
-0.055481516
0.005720601
-0.010875747
0.055896785
0.03959694
0.07833516
-0.061454758
0.0648016
0.05207668
0.02810963
-0.07079006
0.037488684
-0.028641751
0.023378989
0.03135276
0.005248436
-0.02299996
0.142345
0.051626667
0.021422582
-0.06775831
0.046698514
0.13047974
0.061149076
0.014497453
-0.046025116
-0.115676574
0.033756662
0.00097341184
0.018589519
0.0020028753
0.11670515
-0.032289956
0.01074868
-0.04757782
-0.0325762
0.018593622
-0.013644158
-0.008340843
-0.031093938
-0.034755986
0.043383114
0.04310809
0.026763901
0.00504562
-0.010018788
0.06773951
0.056728862
0.014060427
0.035683595
0.04884038
0.055528384
0.03638465
-0.09826838
-0.055518266
-0.041791946
0.00096636015
0.024347607
-0.041675314
0.047187854
0.042229615
-0.07494719
-0.008567896
0.03729064
0.045399405
0.009832023
-0.06327571
-0.015163153
0.06312884
-0.051907673
-0.026475659
-0.07669718
-0.053216603
0.009450322
-0.05335564
0.034315508
0.011639061
0.03777555
0.06045266
0.010045786
0.08410758
0.018241046
0.059107266
0.06103873
-0.06301755
-0.012066265
0.0029238116
-0.06811614
-0.058876023
0.02571382
-0.037760507
0.051699836
0.010770075
0.00095340563
-0.021746108
-0.013680931
0.03282504
0.048451003
-0.09304046
0.067599714
-0.06688232
0.04383201
0.031243429
-0.03639052
-0.060612444
-0.07916246
0.010688287
-0.07973546
-0.017224748
-0.03446542
-0.011392487
-0.001735525
0.0027243914
-0.036004186
0.04056813
-0.09958382
0.008196751
-0.017278861
0.014605019
-0.04150128
-0.08200488
-0.014453318
0.010204189
-0.0050102817
-0.03395406
-0.07895865
-0.0093910275
0.03652699
-0.0039934544
0.047207758
0.033223998
-0.03427926
0.019675968
0.06311205
-0.03790394
-0.006603249
0.005250498
-0.022428118
0.24106528
-0.04528599
-0.04645535
0.026637396
0.03495863
-0.061589178
0.006883446
0.05427616
0.015088959
-0.01524601
-0.01314814
-0.04531784
-0.045641474
0.039909285
-0.0008421008
0.06726117
-0.056243926
-0.11814425
-0.060077514
0.020559397
0.04648882
-0.0196941
-0.08589693
-0.06775937
-0.08990236
-0.026742697
-0.063662924
0.018182188
0.0020817947
-0.10494711
-0.026605846
-0.06705518
0.0024016164
0.0070851822
-0.0027677615
0.0048310137
-0.015041058
0.021267664
-0.029826635
0.023042573
0.046124294
0.022574676
0.05425254
-0.0646608
0.029319813
0.020075446
-0.08277971
-0.04154802
-0.10649649
-0.009040855
-0.073838204
0.005791861
0.024746045
-0.054995894
0.0022804588
0.018366685
0.04102655
0.057087544
-0.045030747
0.046564
-0.004471113
-0.030164883
0.03368792
-0.026437422
0.043289106
0.08586443
0.059056994
-0.03917752
0.044958044
0.030061306
0.012575407
0.031265177
-0.008659711
0.043180525
-0.07780949
-0.0077965306
-0.087827325
0.004514865
0.0072130854
0.055165596
0.019412922
0.028081143
0.021264253
0.018043859
0.038368434
-0.004526662
0.028178379
0.032530673
-0.07003131
0.031162223
0.038249798
0.010818486
0.03688706
0.05097839
-0.029826116
-0.040893354
0.0068795816
-0.005151214
-0.027082995
0.040750604
0.002138853
0.08150585
-0.00183164
-0.029056998
-0.07775395
0.07241455
0.0009903656
0.049384933
-0.07315964
0.056991
0.12840377
-0.052495334
-0.08182634
0.009271832
0.034671843
-0.03983126
0.016326038
-0.079687834
-0.07608343
0.10136614
0.057605226
0.055607025
-0.044927012
-0.06907345
-0.037997242
-0.06962615
-0.062908515
0.03972308
-0.021921087
0.013523395
0.004105977
-0.048651878
-0.09081184
-0.07939185
0.07009384
0.024578178
-0.06699255
0.057105772
-0.0038390171
0.060189415
0.050150845
0.00097444427
0.011004705
-0.06900684
0.012991222
0.012653767
-0.041292064
0.10978248
0.070169665
0.013127327
0.005724638
0.05010197
0.05015778
0.03890499
0.005924801
0.04751186
0.020612892
-0.07474045
-0.0014579776
-0.0010065709
-0.004275639
0.05066266
0.05817971
0.06711791
-0.032896712
0.052948132
0.066083215
0.07328089
-0.086171776
0.027585994
-0.16251732
0.0018779243
0.03001575
-0.039546918
0.015985306
0.025369052
-0.021494498
-0.07874738
-0.06843187
-0.020936903
-0.07137733
-0.07709114
-0.06624522
0.09612952
0.12399781
0.06789122
-0.06512629
0.027961465
0.050411172
-0.023707956
-0.009572485
-0.00019733535
-0.045715965
0.027939307
-0.05643362
-0.014368626
0.016020285
-0.008041823
0.04486207
0.05282448
0.027331525
-0.061671235
0.07808856
0.010163026
0.060047172
-0.05673152
0.041111935
0.048075583
-0.00011883724
-0.09764431
-0.081067644
-0.0361268
0.0005891951
-0.0132103525
-0.027499888
-0.008979459
-0.09471337
-0.0063974024
0.01781681
-0.07767585
-0.083945215
-0.0064943465
0.010007433
-0.13500433
0.05108876
-0.114231035
-0.018987909
-0.09521196
-0.058053415
-0.027795916
0.02205761
0.0070024673
-0.09862256
0.05612716
-0.0034367356
0.03361382
-0.04159738
-0.004002522
0.046045355
-0.05178824
-0.0006803574
-0.05804484
-0.058419857
-0.041963827
-0.044845957
-0.09094622
0.030667825
0.017166333
-0.045781173
-0.053848352
0.016859509
0.02240787
0.02871938
-0.005391531
0.06952923
0.053247552
0.010837237
-0.012786131
-0.010803471
0.038899582
0.036703426
0.041318607
-0.013112855
0.022518994
-0.02694286
0.031401232
0.039016284
0.030928552
-0.055482917
0.03953991
-0.062010407
-0.04904818
0.026554309
-0.021588223
0.020132365
-0.12133522
-0.013481994
-0.011671484
0.13064408
0.09485382
-0.034144267
-0.02404077
-0.0483623
-0.07565606
-0.01376035
0.017915484
0.044642463
-0.12818322
-0.020847622
-0.08064055
0.03006713
0.021696933
-0.004071963
0.0073804795
-0.0022727987
0.0031115527
-0.02908475
-0.033715382
-0.0026225497
0.08279373
0.056250785
-0.03165128
-0.009778418
0.054385677
-0.042871933
0.029046856
-0.006163027
-0.0066972417
-0.055752944
0.05494711
0.004202868
-0.007930718
0.0748356
0.0064120064
-0.050287727
-0.016683586
0.02458675
-0.054827407
-0.04951329
-0.04549561
0.09216931
-0.024769746
0.010241923
0.0066306903
0.017655715
-0.0042613577
-0.040059175
0.02608807
-0.06931658
-0.045637574
-0.041954815
-0.02515836
0.03543332
0.122670196
0.022405282
0.020968987
0.015211917
0.04371403
0.0016795328
-0.10137848
-0.014788855
0.051237117
0.05374343
-0.008671769
0.019307561
-0.10461091
0.05608852
-0.04895261
-0.020517115
0.04122098
0.010495434
0.03509228
0.009955099
0.048000205
-0.041926913
0.033636622
0.0017860819
-0.02296235
0.019546334
0.036200855
-0.011312134
-0.05385281
-0.079380035
-0.123155594
-0.020578284
0.06381706
-0.10108218
-0.14760916
-0.075012214
-0.097437024
0.0150669515
-0.03252631
0.007251224
-0.13990423
-0.0047576847
0.009411932
-0.0071542882
-0.012949548
-0.0018497643
-0.13045625
-0.008545254
-0.07011672
0.053655338
0.0903665
2.3210305e-06
0.008454753
0.02707588
-0.024686625
0.082394734
-0.0036416552
0.047142662
-0.023330333
0.021818927
-0.09220626
0.028567918
0.00402616
-0.049177002
0.0010755728
0.10189447
-0.03700617
0.02576452
0.01310556
-0.008097073
-0.0008203968
-0.055386133
-0.01668593
0.0051581026
0.0066569257
0.13079786
0.07076312
-0.011967984
-0.04635377
-0.0119405305
0.04046516
0.021748833
-0.06102109
-0.06834407
0.0047325096
0.029767612
0.014762835
0.041556794
-0.012100241
-0.031781264
0.025274105
0.04273965
0.00057067885
0.029329099
-0.021746898
0.023121858
-0.007993865
-0.083127804
0.015791574
-0.043719266
-0.20856494
0.055056542
0.0007159746
-0.03048796
0.019265823
0.022637585
-0.022317236
0.040789574
-0.038758498
-0.22483823
-0.023128597
-0.01060134
0.03112454
-0.014143431
0.044893976
0.0022220362
0.07227651
-0.034024715
-0.027270358
-0.0011203161
-0.016092239
-0.022777077
0.011800563
0.013565437
-0.0034612503
0.03614037
-0.066882886
-0.019831272
-0.084679596
-0.0060066152
0.039563254
0.0075313495
-0.07950085
-0.013608807
-0.0018651675
-0.060579486
-0.03967357
-0.048474763
0.08428629
-0.13403976
-0.0018477275
-0.022778766
0.016054127
0.04318818
-0.07539447
0.037897315
0.09265597
-0.0847258
0.02394102
0.035689894
-0.045440488
0.034984037
0.041364588
-0.040131513
0.038363703
-0.027731802
-0.007961772
-0.003168502
-0.03770564
0.06806013
-0.021931445
-0.030931378
-0.1207247
0.06768019
0.00783428
-0.033302262
0.007845371
-0.077753514
0.1194293
-0.024174802
-0.13150935
0.02688054
-0.0058130287
0.018059418
0.049678076
0.049693022
-0.09021958
0.022825234
-0.011541224
0.07764075
0.052062698
0.05537602
-0.109944254
0.008333141
-0.06346559
0.060017057
0.018602598
-0.057771098
0.039154597
0.044153724
-0.029466322
0.0022203987
0.01858894
-0.029749084
0.049829777
0.054247834
-0.077094294
0.027962722
-0.00053954736
-0.035970666
0.019717125
0.044302102
0.015796855
-0.014243094
0.03895589
0.0126339905
-0.04243796
0.0773758
0.041749414
0.08269661
-0.01884583
0.061385963
-0.03526753
0.023914631
-0.076740935
-0.023080612
-0.002466001
-0.035544153
-0.024258818
-0.02762903
-0.0007588159
-0.022342708
0.07340263
-0.0498442
0.028634211
0.042069808
0.033168837
-0.029353768
-0.0062422697
-0.029869238
0.019054849
0.034620192
0.06572485
0.06424861
-0.022138784
-0.043164857
-0.01666054
0.012502875
-0.03698853
-0.027584158
0.016513428
0.009638446
-0.03160063
0.068525046
0.013976364
-0.015972704
-0.03448521
-0.034624454
0.040656324
0.0673928
-0.029336942
0.008982245
-0.00081892917
-0.028519284
-0.014303086
-0.065756135
-0.031327847
-0.030069038
-0.074423194
-0.018166
-0.09820553
-0.0062003653
0.00977173
-0.006334364
-0.057888523
0.031250775
0.004332128
-0.027954912
-0.051378325
-0.025113717
-0.04351457
0.05389786
-0.032202296
0.06308221
-0.088920146
0.0008320192
0.039793167
0.120373465
0.03253973
-0.08072162
0.0010295397
0.017471747
0.05194325
0.011068406
-0.062451627
-0.05711491
0.10690409
-0.084902704
-0.04798454
-0.033407476
0.0036424648
-0.019493293
0.1073578
0.008584997
-0.007628866
0.030184459
0.037417445
0.025425432
0.018103728
0.022483924
-0.0009903235
-0.061262187
0.020597883
-0.00061834493
-0.0011304714
0.056976195
-0.035565913
-0.12706453
-0.02310575
0.06181771
0.058247354
-0.022114016
0.03767653
0.007982794
-0.034690145
-0.050704405
-0.016583007
0.026728965
-0.014003007
-0.051267695
0.07679536
-0.007261608
0.01804869
0.071019724
0.035117388
0.022530204
0.059515383
0.0131099215
-0.055189643
0.05144755
-0.07420144
-0.054992545
0.055284537
-0.0631707
-0.047608957
-0.039397478
0.0066216276
-0.114963464
-0.045667782
0.029465055
-0.03183912
0.05546435
-0.06063292
0.05096162
0.058442373
0.0026165142
0.026021553
-0.058681536
-0.0061285486
0.07565643
-0.037425935
-0.1296865
0.017254608
-0.07663984
0.0440366
-0.021711905
0.021245522
0.058447357
0.052617643
0.06261736
0.015337381
-0.028464781
-0.026734818
0.038953792
-0.0041911043
0.0019011339
-0.061954968
-0.0067227585
-0.025208123
-0.096140355
0.033763014
-0.06637914
0.06913841
-0.013267257
0.045644972
0.060018413
0.0067149354
0.04077163
0.011291005
0.036465093
-0.0145035265
0.013884994
-0.014552965
-0.063210875
0.0064661484
-0.0076974495
-0.015573009
0.005040097
-0.039459843
0.01029021
0.048926927
0.011026077
-0.041983135
-0.09282719
-0.09909949
0.045782343
-0.050582316
0.025092984
0.029228311
-0.03357742
0.015711915
-0.019475967
0.0076356865
0.034048144
-0.036133293
-0.021190714
0.02805461
-0.0064321384
-0.061351582
0.05039516
0.011433786
-0.048562564
-0.033285987
0.050448757
-0.045279585
0.0100422315
0.06544137
-0.0020148365
-0.04271079
0.022821277
-0.007280898
-0.003944237
-0.092225775
-0.00051955483
0.012066169
0.010275795
0.051593713
0.027347906
0.05660183
-0.03762985
0.038502343
0.01645475
-0.026318412
0.030749433
0.016047044
0.043027796
-0.043204788
0.046163578
-0.017256644
-0.02190416
0.01593452
0.042045757
0.01365099
-0.030118948
-0.03992213
-0.07007069
0.066979825
-0.0509155
-0.03730434
-0.000993815
-0.03011996
-0.027836327
-0.0059092375
0.021340525
-0.09348633
-0.02967534
0.018098794
-0.029345728
0.01359962
0.042247843
0.00615197
0.04551589
0.036889635
-0.015950674
-0.019691477
0.037800416
-0.03482456
-0.06857126
-0.02146868
-0.0055203233
0.022228869
0.0023130944
-0.032514468
0.02105511
-0.0038454433
0.037448898
0.014421988
-0.0009468045
-0.0454352
-0.0608793
-0.0010253211
0.01459945
-0.0051525054
-0.013028544
-0.068358265
0.010626071
0.029891208
-0.006897193
-0.0066934787
0.03543163
0.02509876
-0.00366467
0.037956502
-0.10278255
-0.065500274
0.008662158
0.02206974
0.0021545815
0.038641658
0.008030591
-0.10279024
0.037846617
-0.12742366
0.04927882
0.016835414
-0.008464787
0.023789136
-0.03867123
0.048577137
-0.016846238
0.012239614
0.029747503
-0.004490368
-0.08104431
0.03276319
0.027722113
-0.03848756
0.029545255
0.059880618
0.04685568
0.040245824
-0.0015909144
-0.02921629
0.00995413
0.03750336
-0.07772161
-0.05991659
-0.031561133
-0.028886171
-0.06955192
0.04382364
0.010341653
0.0063940296
0.062177368
-0.08498606
-0.05892727
0.05007322
-0.036437593
0.03622535
0.06324553
0.05622931
0.0060929633
0.006513218
-0.0031125569
0.06620716
0.072239175
0.083612405
0.07070855
-0.0064113857
-0.013911128
-0.08810004
-0.080520295
0.019501025
-0.0040758
-0.04966921
-0.06725252
0.022471732
0.0016385057
-0.030871896
-0.005045703
-0.0790039
0.0035680607
-0.0010374911
0.02011384
0.006598445
-0.110919006
-0.024522599
-0.045895647
-0.04775813
-0.07973681
0.0046381694
-0.08911625
-0.014814227
0.07128742
0.062357314
2.5647932e-05
0.06746627
-0.030169107
0.021656092
-0.04142714
-0.08808211
-0.021119358
0.016767463
0.042020325
-0.0015792059
-0.022550423
-0.01718083
0.045375425
-0.005189998
-0.073115624
0.027235182
-0.1057041
0.016489131
-0.0104004815
-0.036289554
0.06743688
0.065742835
-0.13131927
-0.010616776
0.013115002
0.08870514
0.014776626
0.017440049
-0.017575767
0.059294775
0.0061142575
0.009057443
-0.0055178464
0.013936938
-0.1595634
0.004652945
0.024297206
0.051987253
0.014581633
0.057837807
-0.05126391
0.07194926
-0.060088642
-0.03527087
0.025930865
-0.025665523
-0.02736345
0.003262903
-0.062069397
0.017634787
-0.0034429515
0.023539104
0.046689924
0.037491057
0.046654113
0.024570439
0.00076243695
-0.019621728
-0.052889124
0.0474527
-0.06703653
-0.04702753
-0.00061389373
-0.06749966
0.033297922
0.045689125
0.03640312
0.020928925
-0.025829433
-0.053122148
0.016778363
-0.06708953
0.012613328
0.030819124
-0.052059863
-0.0020931936
-0.03236784
0.05847249
0.06925413
0.035882078
0.022057677
0.04215959
-0.043306254
-0.079615705
-0.095219575
-0.008389756
0.01264033
-0.047604095
-0.039579567
-0.04942338
-0.017460672
-0.021988157
-0.13667202
-0.07976106
-0.061135832
-0.01484675
-0.04845753
0.02142439
0.033688348
0.053462252
-0.10428225
-0.0533194
0.049155753
-0.09877986
-0.079389304
0.053028952
0.074784644
0.02492413
0.0739386
0.0710633
0.0350094
0.029925967
-0.015472677
0.066493146
0.0004965213
0.007224278
-0.0020610595
0.038208976
0.015245375
0.015540592
-0.1151004
0.04205679
-0.011324132
-0.01094649
-0.0076026823
0.008512667
-0.06446444
0.037097782
0.01770715
-0.012619914
-0.028059093
-0.07334895
-0.03872717
-0.014937984
-0.1212461
0.047287118
-0.04567379
-0.055908903
-0.031267054
-0.09230067
0.0031276373
0.009653101
0.012193888
-0.017542232
0.028596275
-0.041728128
0.03540712
-0.070324324
0.025476504
0.012369882
0.051555037
-0.023811523
-0.04938191
-0.043168217
0.032217078
0.0043621883
0.06280022
0.009287232
-0.0035209025
0.010988508
-0.016222509
-0.0015952262
0.025046906
0.06569598
-0.004554638
-0.008036421
0.031110186
-0.008679491
-0.040910996
0.024580935
0.0015027468
0.023647083
0.022717826
-0.010600792
-0.015720198
0.035961315
0.024974633
0.062293835
-0.0117221875
-0.03344
-0.07493268
0.028117534
-0.007942557
0.020512233
0.0076600444
-0.04270711
0.018526243
0.057811305
0.028920904
-0.00080513523
-0.0037456285
-0.025305169
-0.041625746
-0.052294508
-0.045600925
0.0040245755
0.0340973
0.07125872
0.017787134
-0.00040297728
0.041514937
-0.08750899
0.09424257
-0.009191716
-0.023504922
-0.038290717
0.039282203
-0.030517397
0.02057473
0.0069358596
-0.027680475
-0.09580945
-0.00019612002
-0.035207093
0.023451857
-0.105938956
-0.0045670313
0.026558552
0.047475487
-0.04980357
-0.057775903
0.011221635
0.010216163
-0.029517528
-0.036144365
0.015481642
0.009068725
0.007457453
-0.01081547
0.042522043
-0.0057279808
0.047873504
0.048717376
0.052291214
-0.044126138
0.0027997834
-0.08043006
-0.005219032
-0.021381205
0.06425343
0.03938319
0.041856505
-0.030232094
0.034934662
-0.022161111
-0.028527508
0.015177443
-0.096080296
-0.014056948
0.037086867
0.034745358
0.043699093
0.014123736
-2.6081834e-05
-0.009998288
0.05444623
0.0641602
-0.022560155
-0.0841959
-0.050742764
-0.029486472
0.0326641
0.03724707
0.06631272
-0.016856285
0.061336085
-0.041062444
-0.082916364
-0.008343254
0.015693435
-0.08573653
-0.07847494
-0.013853847
-0.044336464
0.045823526
-0.0019708187
-0.16174282
-0.07895034
0.062161542
-0.056946546
-0.041106638
-0.031004965
-0.078221865
0.017234799
0.05775225
-0.065493286
0.045879293
-0.040676918
0.021061001
0.013962647
0.05019335
0.009513489
-0.026303759
-0.03350397
0.07914289
-0.04217132
-0.0055313148
-0.21862759
0.026221253
0.010651487
-0.08351204
0.023933321
-0.014495231
0.050926555
0.038260877
0.03767849
0.038935043
0.008371178
0.05168492
0.010502595
-0.030443344
0.06316529
-0.008376133
0.039580464
0.035170317
0.039200272
0.012309168
0.012702022
0.06301758
0.097640336
-0.03738956
0.03536771
-0.004057068
0.026904343
-0.12844673
0.0017150164
-0.0057136617
0.050979424
0.034514524
0.056546092
-0.059712563
0.047139592
-0.042825945
0.067029566
-0.066272855
0.035552066
-0.039069682
0.060603466
-0.05818783
-0.016342748
0.03163924
0.019968912
0.029807867
-0.046154957
0.0148545
-0.042014275
-0.03443385
-0.013870228
0.03997236
-0.0031180137
-0.086632445
-0.08451799
0.035416137
0.0069831805
-0.006728399
-0.0535759
-0.023341049
0.022807876
0.0032985578
0.013381938
0.042945877
-0.047329888
-0.09561802
-0.0048284107
-0.03320616
-0.024487479
0.04155338
-0.037109744
-0.038650367
-0.0015259028
0.14745443
-0.020516675
-0.0616913
-0.047533154
-0.009036248
0.013117869
-0.022948094
0.023741584
0.03609478
0.036677722
0.0073917746
0.0600783
0.008485075
0.0009240182
0.013727525
-0.07732765
0.015098422
0.027668608
-0.01625608
0.011703386
0.02035376
-0.027242307
-0.039534684
0.009717289
-0.02563807
-0.0028445486
0.05485784
-0.067619935
0.016482545
0.008165525
0.029188659
0.06583829
-0.0034178998
0.047704916
-0.041139513
-0.03441332
0.004224485
-0.0264741
-0.046434168
0.034094524
0.0025545913
0.030689744
0.07327464
0.032158736
0.013781384
-0.039309204
0.021341586
0.014135934
0.022536222
0.048645888
0.054028176
0.026473233
-0.010791945
-0.056207124
-0.09191379
-0.04033619
0.01975434
0.050722506
-0.034869216
-0.016271807
-0.0089884605
0.026296517
0.041735746
-0.030579448
0.004767996
0.032155406
0.017998235
0.038065653
0.006576798
-0.032941233
-0.0057260017
0.053719588
0.011336904
-0.0886301
0.06528291
-0.10528351
-0.04104257
-0.042274494
0.027601847
0.028207
0.0073269997
0.034278516
0.037831876
0.014235365
0.04829347
0.05286263
0.02945198
-0.019774
-0.092329204
0.049206972
0.044694718
0.016697586
-0.01667235
-0.030639932
0.055086758
-0.012674602
0.028415076
-0.07290772
-0.10491019
0.019762095
0.030187922
-0.08013931
-0.07893296
-0.017593672
-0.060576662
0.05581477
0.040587608
-0.0736101
-0.019368203
0.024305683
0.024960887
-0.028302869
0.0050153243
0.04138939
0.029179106
0.075381786
0.03402428
0.011529074
-0.04631773
-0.025821233
0.044774428
-0.004651482
-0.037498727
-0.089755386
-0.015404755
-0.030500354
0.013402521
-0.0385253
-0.03984936
-0.071508095
-0.11810146
-0.12716158
0.036917403
-0.10245256
-0.048186384
0.0720254
-0.029783139
-0.0587677
-0.007033156
-0.02388816
0.021487337
-0.05055839
-0.057214394
-0.008764415
0.10952203
0.030737175
0.016029047
-0.015932357
0.022263035
-0.02827425
-0.029522358
-0.041437402
-0.03595679
-0.06064502
0.013817413
0.0015272172
-0.07611557
0.005577634
-0.0516128
-0.057632744
0.022742322
-0.003392453
-0.00040389545
0.024622628
-0.09943965
0.009586658
-0.08636787
-0.004715606
0.0040749293
0.014117829
-0.023578342
0.0087915715
-0.01117672
-0.029275049
-0.042503778
0.00577629
-0.011080515
0.015681893
0.058496304
-0.0047495826
0.03698848
-0.036313724
-0.053561676
-0.069571145
-0.051235206
-0.036059543
-0.015463159
-0.05216711
0.04005502
-0.08955143
-0.02943914
0.070829414
-0.037943035
0.07714066
-0.063658126
-0.0031296252
0.04403573
0.024783503
-0.015044323
-0.049449652
0.030424908
-0.050664615
0.05326156
-0.039443847
-0.034977112
-0.032791197
-0.014748041
0.017642587
-0.06590461
-0.003998433
0.008747471
0.046750344
0.0073829405
0.060437333
3.5126886e-05
0.023929337
-0.03291958
-0.005258316
0.04395171
0.05897406
0.037102677
-0.009597081
0.042946175
-0.011037872
-0.05221624
-0.020524377
0.029783504
-0.058719836
0.018313123
-0.0035080665
0.0054798466
0.037057858
-0.11694619
0.08165504
0.032720298
-0.052040502
-0.08509768
-0.060190056
-0.09644
-0.012147214
0.054642368
0.02271084
-0.16319694
0.0006631959
0.03608697
-0.047941845
0.05768855
0.0013798851
-0.0962489
0.040782075
0.028456347
-0.044849243
-0.027035281
0.05180229
-0.040381096
0.007831959
-0.03554943
0.0052229017
-0.036701217
-0.046526425
0.012772345
-0.036313068
0.02538347
-0.07755965
-0.023747021
-0.06521679
0.07031016
0.067479126
-0.050900344
-0.008263524
0.009775645
-0.018026747
0.007667233
0.0008413183
-0.02872406
0.058763884
0.0117538385
0.062066663
-0.02200009
-0.057635143
-0.09209481
0.019169929
0.052668456
0.02735445
-0.028675858
0.005773537
0.0061922725
-0.09885443
0.058492403
-0.04293025
-0.11498014
0.037328474
0.028304752
-0.02504222
-0.040760603
-0.060163923
-0.071771055
0.03739069
-0.022843407
-0.04341953
-0.0023922215
0.0004237287
0.0023015812
-0.014081714
-0.049597602
-0.0022788588
-0.03333452
-0.022606151
-0.019631341
-0.004394912
0.036337715
0.004707759
-0.022573981
0.072065614
0.012877078
0.050200783
-0.11949826
-0.0029587832
-0.002733459
0.029195415
-0.02735949
0.034292012
0.0025675723
-0.046803266
0.047141697
0.015405554
0.06999617
-0.042959023
0.06130663
-0.0015863914
-0.017546177
0.021760022
-0.069692835
-0.019620081
-0.007289868
-0.04698192
-0.08249821
-0.026856234
-0.07410123
-0.07111256
0.051590253
-0.013901513
0.058564123
0.030535107
-0.006601758
-0.023040755
-0.02185965
0.06931138
0.043505613
0.024618212
0.07277113
-0.0007538614
-0.024250953
-0.012146662
-0.038537197
-0.06737197
0.04641285
-0.043813907
-0.05565463
-0.06762204
0.030425029
0.03831669
-0.09853682
-0.020226687
0.014736099
-0.0033285213
-0.098371156
0.008698772
0.037322767
0.019400492
-0.069889486
0.035341106
-0.013195408
0.054899156
-0.0500838
0.019699961
0.034734286
0.009902675
-0.12825479
0.027769633
-0.008788351
-0.100460514
0.04101469
-0.019807557
0.00046589412
-0.052199703
-0.08343685
2.3671571e-05
0.047318775
-0.04175622
-0.03439184
0.029977938
0.013970717
-0.04916676
-0.045466863
0.021034274
-0.049146194
0.046595924
-0.02340476
0.04835732
0.06089183
0.03486008
0.043305352
0.042095903
-0.04254653
-0.035411593
-0.04184985
-0.04373783
-0.073911615
0.06387864
-0.008067034
-0.036631517
0.05673982
-0.016418897
0.009932465
-0.08462019
-0.03098266
-0.03503925
0.0021337364
0.006888711
-0.13426131
-0.012010481
0.0071789413
0.018214704
0.06094012
0.060470942
0.03308707
-0.084425814
0.04102438
0.027159972
-0.0021850783
0.05472173
0.023393124
-0.06632243
0.0025469444
-0.024106046
0.021310497
-0.0054139597
-0.004119831
0.0033926268
0.03955338
0.0350862
0.012012155
0.07309633
0.004341629
0.053829942
0.016365068
0.029623358
0.033686187
0.10952999
0.054742415
-0.0034771173
-0.034232758
0.018813238
0.08747062
-0.047824744
0.00026664342
-0.0018818895
-0.003376821
-0.03171208
0.01782133
-0.013041001
-0.037131894
-0.05480459
-0.041179616
-0.039840765
-0.038668554
-0.012835364
0.0042300886
0.022396168
0.031084329
-0.039066613
0.0026570624
-0.012711353
-0.07867472
-0.024320025
-0.033422396
-0.078871556
0.003000706
-0.024470467
0.011207139
-0.108828306
-0.03568055
-0.08580689
-0.029168766
-0.03036622
-0.006942828
0.04276267
0.012993017
-0.03568017
0.0036963718
-0.07527451
0.060458668
0.004251987
-0.037149917
-0.01029574
-0.06780064
-0.009634075
-0.042753983
-0.010155595
-0.03588522
-0.0025423528
0.012218113
0.007840904
-0.030656539
0.051138718
-0.0048549566
0.017991433
0.012459012
0.046078574
0.027309677
-0.021742225
-0.0038560808
0.018628852
-0.011431937
-0.026037712
-0.016345896
-0.0011438532
0.0025552653
0.05285353
-0.046982158
-0.04877584
-0.05106373
0.040753014
0.059124097
-0.0018739741
0.059272762
-0.03959174
0.024271064
-0.034141198
-0.031499885
-0.023662377
-0.030740516
0.037034117
0.020997703
0.04220862
-0.02885267
0.048074543
0.048681162
0.009092086
-0.046217453
-0.023658695
-0.009790146
0.021587295
-0.031613726
-0.0007877313
0.015627313
0.025536539
0.017453922
0.039999947
-0.008111354
0.014676441
-0.009897091
0.042412005
-0.02235223
0.028185412
-0.040730543
-0.041798875
0.06121045
0.036471248
-0.01852772
-0.049836103
-0.1465023
-0.04503912
0.046047293
-0.0077586146
-0.052761536
0.073939115
-0.09121999
-0.026259605
-0.028576069
-0.057748586
-0.017710526
-0.0478286
-0.04172973
-0.08957896
0.0049117925
-0.0041498095
-0.006702063
0.02290541
0.033906646
-0.03595106
-0.033339184
-0.04400095
-0.048074797
-0.08402885
0.029514007
0.022762729
-0.015249215
-0.027168052
-0.021979872
0.022201393
-0.04262983
0.038029183
-0.032637436
0.08121745
0.036311712
0.038348325
0.020398878
0.0036578947
0.0043173223
0.09177342
0.03481739
-0.042747308
-0.023842944
-0.03374509
0.047046714
0.038520187
-0.023018366
0.03137233
-0.021587899
-0.029236414
0.002027176
-0.003994233
0.0069682277
-0.029415816
-0.024963403
0.032171946
-0.021936778
0.0074593374
0.0025830232
-0.027998902
0.010217543
0.038190767
0.018280089
0.060325775
0.08604629
-0.021668945
-0.06927875
0.04921743
-0.015882038
0.020434737
-0.019839289
-0.101721495
-0.04357855
-0.076576255
-0.052826144
0.01775273
0.035647914
-0.009532167
0.02991092
-0.011291397
0.023788797
-0.05244181
-0.01813968
0.038803533
0.024719568
-0.02479249
0.026406407
0.0137453275
0.008715194
0.028454438
0.028524427
0.047315698
0.037971813
0.053798936
-0.097360685
-0.03031139
0.009674154
0.050343104
0.02096719
-0.016250659
-0.058655575
0.028447576
0.056489002
-0.03493968
0.057546485
0.01604344
0.010848703
0.016221927
0.04451074
0.014861978
0.052266214
0.030138027
-0.0572019
0.004297093
0.037990358
0.022862226
-0.028044093
0.03315453
0.016601264
0.017074076
0.054953076
-0.02925605
-0.007933037
0.0250716
0.054992747
0.025865769
-0.11587944
0.017878026
0.06778065
0.06796691
0.019641602
-0.12537359
0.050779182
0.018432723
-0.027527187
-0.004318479
0.056250315
-0.00093853276
0.05248588
0.06857604
-0.014635506
0.014342427
-0.06444811
0.010192819
-0.008646466
-0.040323548
0.042373914
-0.058322016
-0.032832697
-0.025846802
-0.0784641
-0.10668517
-0.060412686
-0.0366068
-0.027755463
0.072700575
0.009891062
-0.09453872
0.00025602593
-0.043555006
-0.17090423
-0.020388981
0.03275581
0.04825074
-0.003266311
0.07153465
-0.014678806
-0.013200321
-0.03615349
0.04103973
0.095609844
0.06944876
-0.06896384
-0.059927247
-0.03241636
-0.04851396
0.011883678
0.08033302
-0.07548524
0.043941323
0.011872241
-0.06204772
0.032194458
-0.038450688
-0.026175698
-0.0012450797
0.02086993
-0.08101772
-0.0770624
0.05762673
-0.03318267
-0.006280961
-0.042691257
-0.03355371
-0.030182803
0.031470887
0.028233856
0.06649293
0.007086142
0.0029601047
-0.08981513
0.020773051
0.047639087
-0.022873338
0.0047957674
0.04940833
0.019252311
0.078735426
0.010695273
-0.0075669135
-0.021825727
-0.012116661
-0.03806349
-0.06273813
0.016357498
-0.0136156315
-0.04023026
-0.04554293
0.03855059
0.029435046
0.018053249
-0.03245653
0.0118682
0.017424706
0.035464168
0.05128783
-0.08089265
0.040859643
0.042809274
0.028152982
-0.02321625
0.04250622
-0.023352453
-0.034280766
0.0070406944
-0.022056097
-0.020597357
-0.026625508
-0.020501746
0.017095136
0.010438299
0.03724554
0.001348383
0.05900216
0.012549386
0.003761958
0.015164437
0.01282771
0.04761387
0.038215164
-0.02867281
-0.018057695
-0.03510247
-0.058070708
0.07384648
-0.021099199
-0.0081958
0.016407449
-0.027660659
-0.010574192
-0.02845061
0.016423386
-0.019551333
0.046934605
-0.017212829
0.06856471
-0.031606928
-0.08236013
-0.049365573
-0.051960494
0.046616815
0.006731682
0.05412225
0.015154816
-0.047943324
0.021124668
-0.057946444
0.04677634
0.019010004
0.020123998
-0.043281067
0.029643372
-0.028465055
0.001448542
-0.022008838
0.06822352
0.012759607
0.060891706
0.03281622
0.005699174
-0.032771513
-0.00990796
0.037824996
0.008605141
-0.10544496
0.007945497
-0.06007361
0.040171772
-0.0968267
0.012521878
-0.08020787
0.08163235
-0.1453546
-0.076053366
-0.01825194
-0.020285089
-0.050386038
-0.014342218
-0.0074107843
0.005818051
-0.03434619
0.04092548
-0.1146446
-0.047695674
0.004401659
0.03769131
-0.047585964
-0.035696525
-0.018618299
-0.008916027
-0.054451838
0.06268904
0.044783276
0.075207286
-0.020682907
0.02283352
-0.006658192
-0.024148306
0.057518356
-0.014632409
0.01661685
0.034574352
-0.008575871
0.041086026
0.037511133
-0.012736442
-0.08668448
0.02274462
-0.010018874
-0.1298027
0.03404484
0.0547812
0.06259431
-0.11524919
-0.123675644
-0.07597395
0.06411242
0.039770726
0.0672682
0.004633428
-0.00049454905
-0.054251175
-0.039007682
0.020303052
-0.011817717
0.023246296
-0.06988599
0.02442387
-0.043694153
0.041261792
0.015901534
0.018446688
0.028423388
0.026544144
-0.049539737
-0.038228575
-0.09884751
0.001965592
0.055498764
0.024565285
0.015339484
-0.06727895
-0.027903857
-0.028235972
-0.008535838
0.019012172
-0.03512962
-0.020976515
-0.002085693
0.01981841
0.022529025
0.024779193
0.0009268128
0.00992555
0.060754698
-0.035377193
0.008491683
-0.046160016
-0.079838686
-0.08103819
0.030541457
-0.05367057
-0.054937664
0.015725564
-0.025941994
-0.060140632
-0.083005294
0.007984344
0.051181242
0.010894716
0.016171865
0.00020013776
-0.04585774
0.028870905
0.0044506444
0.038785018
0.04738657
0.009312172
-0.0880042
0.056567844
-0.026368637
0.04597793
0.025598697
0.029639712
0.0238548
-0.01927287
-0.050965592
-0.0048624217
0.0046237567
-0.019041358
-0.11911232
0.022159107
0.023129556
-0.036099896
0.022223163
-0.04207452
-0.03222071
0.031518955
-0.057209007
0.015122112
0.024346385
0.025206389
-0.02952293
-0.12845987
0.03853857
-0.058858607
0.01874662
-0.022986514
-0.026224092
-0.040994104
-0.019862756
0.05026907
-0.031924807
-0.02248457
0.003616872
-0.025756804
0.030398984
0.06150447
0.00040798736
0.0023844084
-0.027747588
-0.018953655
-0.022083992
0.0306673
-0.010084487
-0.01591026
-0.040569417
-0.06745319
0.008987755
0.056289546
-0.0199965
-0.013282506
-0.08729585
-0.00917055
0.049132217
0.056226097
-0.04712053
-0.017150462
-0.11303126
-0.057828654
-0.026494112
0.030888772
0.06164032
-0.04138701
0.066426545
-0.050352555
0.022454754
0.008748844
-0.03213785
-0.06608972
0.0011852643
0.05446133
-0.024395682
0.005504736
-0.027203597
0.017426388
0.082287036
-0.04291018
0.017289061
-0.0143087935
-0.019432401
0.041037448
0.06503766
-0.091436945
0.021114634
0.01402116
-0.04256711
0.034474924
-0.042498022
0.051322058
0.020393215
-0.063192256
-0.015461898
0.033511266
-0.010405286
0.059900466
-0.016408717
-0.044671476
-0.020759847
-0.06906293
-0.024714326
-0.05921911
-0.04546585
-0.037318148
0.018540546
-0.015174371
0.028172133
0.0024352118
-0.017369755
0.07291812
-0.026392763
-0.04432841
0.06752578
-0.059152592
-0.04880686
0.025559288
-0.02945841
-0.032721784
0.049696412
-0.07622412
0.030876867
0.03578158
-0.0036524984
0.06763317
-0.017050901
0.068406075
0.04161517
-0.095405445
0.009843062
-0.109204285
-0.0163638
0.007990687
-0.015419429
0.03251696
-0.005457106
0.0436554
-0.024538359
-0.009989186
0.054074615
-0.11095914
-0.006205387
0.012507229
0.0011469844
-0.102540605
-0.019744271
0.008176462
-0.044657692
0.009471588
0.018051798
0.015596781
0.00018584296
0.02612271
0.048849963
0.044674873
-0.018194556
0.024247421
-0.043445617
0.035045452
-0.098731905
0.031963337
0.019449519
-0.014186731
0.032067243
-0.026831837
-0.05688655
0.04160801
0.046040535
0.01409917
0.022374032
-0.024047753
-0.085481755
0.004283723
-0.015535335
-0.09113746
0.026034817
-0.117226
0.013255127
0.0057244096
0.04524036
-0.034478135
0.057227474
0.031158077
-0.020697325
-0.0661426
-0.08634781
0.022240324
0.06259761
0.05104885
0.032468177
-0.054748274
-0.028023977
0.0057402886
-0.0039154757
-0.09309535
-0.06892537
-0.029640222
0.01698639
-0.0153143015
-0.10508164
0.016673509
0.0010291012
0.01280117
-0.102527104
-0.07109661
-0.038380202
-0.013785494
0.01177072
0.0044255937
0.016193274
-0.06490045
0.025112836
-0.014814207
0.051642593
0.059428077
-0.02286108
0.07366018
-0.026776081
-0.035299852
-0.011519283
-0.1192357
-0.03431846
-0.015882479
-0.0032335552
-0.08838543
-0.003398827
-0.020768436
0.0063207014
0.071682125
-0.032452166
0.0155783305
-0.0531335
0.035999928
-0.02096203
-0.011131275
0.013331686
-0.11320758
0.0045732353
0.041237947
0.027381966
-0.04170974
-0.007023744
-0.085198976
-0.010421023
-0.012745782
-0.018850777
-0.017240953
0.011752277
-0.08323828
0.0005490325
-0.0389285
0.015002943
-0.019325601
0.040400546
0.0064720125
0.00052954315
-0.11931435
-0.0089937635
0.019076241
-0.14174305
-0.020058243
0.063193776
0.051093824
-0.030272042
0.07425003
-0.09017253
0.0949937
0.044161655
0.043750823
-0.106098466
-0.030673753
0.06277457
0.063267075
0.061438207
-0.0010670506
0.041677292
0.031500902
-0.036137648
-0.03252588
-0.033765167
-0.010177704
-0.044260297
0.029746225
0.038449477
-0.034371123
-0.02727414
0.03555432
-0.0050380137
0.06653765
0.029478207
-0.053197294
0.05810499
0.06318852
-0.017537815
0.034184217
0.032706685
-0.06776414
0.049816962
-0.051417828
0.04782581
-0.018431356
-0.07451472
-0.049866185
0.01020942
0.0010237895
-0.04175148
-0.043001667
0.011727795
-0.09492599
-0.0428796
-0.0422325
0.05437427
0.002796138
-0.0006837219
-0.0152994525
-0.012847155
-0.07316008
-0.042878337
0.028568503
0.0770065
-0.0550044
0.012744259
0.08222474
0.01079998
-0.017074406
-0.04684135
0.015367853
-0.054794393
0.025156163
0.015003088
0.034499764
-0.008076
-0.043596808
0.055261645
-0.047120787
-0.0048918584
0.0028009396
0.024540711
0.027214877
0.025459476
0.00903612
0.015654238
-0.063113816
-0.011756383
0.028150119
-4.647064e-05
-0.09857606
-0.033004254
-0.019707305
0.0014456434
-0.08719895
-0.09375562
-0.026117489
-0.013074923
-0.116884835
-0.022892352
-0.102822244
-0.038155675
-0.07457715
-0.097671226
0.009191561
-0.11136114
-0.095735244
0.0531357
-0.0059294184
-6.2479434e-05
-0.07080421
-0.021277625
-0.027180782
0.032296862
-0.026717864
-0.0042521697
0.06765051
-0.006998967
0.012057178
-0.0003214419
0.019002534
-0.05233803
-0.08553794
0.065979384
-0.012121748
-0.0017686097
-0.000669762
-0.049519714
0.05277441
-0.110238336
0.009542747
-0.012846796
-0.124196224
-0.06355408
0.04057209
-0.08599086
0.04655861
0.011085205
-0.07836715
0.013365111
0.023728348
-0.03156952
-0.1121946
0.0063257143
0.030103382
0.057385396
-0.099258885
0.058200594
-0.019655088
-0.008224153
-0.040581547
0.041403174
-0.0036965748
0.0022089113
0.035134207
-0.016387364
0.014655389
0.025017017
0.029292809
0.04413633
-0.057690706
-0.050165024
0.077599235
-0.09930452
-0.013248871
-0.091780834
-0.12535368
0.014879918
-0.022149907
-0.06690013
-0.036722537
-0.054100662
0.024613563
0.045221984
0.026580835
-0.09259822
-0.0833593
0.030076658
-0.030901803
-0.003981801
-0.040385537
0.01165559
-0.06092259
-0.04115817
-0.10778221
0.05333282
0.024776721
-0.06557189
0.014952709
0.08501226
0.008110335
0.054622617
-0.025189165
0.021706093
-0.11594248
0.009097514
0.0098553905
-0.10548187
0.0032864402
0.026881311
-0.0077386685
0.07264415
0.035924207
-0.010775173
0.04386204
0.030598253
0.0135168955
0.0037075155
0.0057434794
-0.008303104
0.05097446
0.06424035
0.008432241
-0.03129181
0.018803999
-0.026889283
-0.08206353
0.006059233
0.07071789
0.07069365
0.033969603
-0.09266595
-0.104596876
0.025496889
0.02664127
0.020653402
0.051475976
-0.032819647
-0.005999548
-0.018251343
0.019763095
-0.012405906
0.037334118
-0.011161132
-0.03680302
0.0027564894
0.0699962
0.029691076
-0.015501164
0.005696773
0.036457077
-0.053589724
0.04259487
0.01817155
0.09444103
-0.0115167545
0.013574706
-0.025502613
-0.008570211
0.028861925
0.056032043
-0.0777928
-0.0104460325
0.03741831
-0.026212227
0.06382716
0.038327534
0.022099562
0.025340581
-0.02190824
-0.014692253
-0.01788466
-0.029282846
0.050722137
0.070160754
0.029179743
-0.047857262
-0.015307703
0.015598996
0.0015916991
0.030963859
-0.010999992
-0.027622342
-0.054672576
0.056940448
0.054458782
0.0013661566
-0.02757771
0.05398562
0.030110296
0.022530619
0.060060967
0.03277713
-0.0277772
0.018975256
0.043499164
0.035738558
-0.013076748
0.033996563
-0.017826352
0.008702978
-0.0118084345
-0.07652973
-0.0483881
0.060236234
0.078723975
-0.025921533
-0.054593652
-0.042502247
0.015107669
-0.07230929
-0.040801086
-0.04150028
0.050268613
0.05524112
-0.017951906
-0.019841196
0.039438605
0.07130448
-0.045758758
-0.03441749
-0.077950776
-0.010942227
0.0032898497
-0.026548298
-0.07991708
-0.07575183
0.0022443195
-0.03278538
-0.028512271
0.05198404
0.028139677
-0.020155847
-0.00044022314
0.019213023
0.037925646
-0.063439265
-0.04020078
0.0480634
-0.038448665
0.01195451
-0.026361298
-0.031843394
0.027718471
-0.05966697
-0.06396342
0.07892222
-0.03678642
0.011439433
0.009553217
-0.07305288
-0.00015177224
0.01921876
0.0057761916
0.04860562
-0.0003299151
0.019668428
-0.08469505
0.022351356
0.014136041
-0.027046071
-0.035618864
0.03479552
0.030377218
-0.08389059
0.05224847
0.058384378
-0.01586607
0.0241243
0.037465833
-0.11059225
-0.07152514
0.057054147
-0.06263074
0.0371284
0.013250956
-0.0013691444
-0.011016381
-0.023109594
0.028304724
-0.028365962
0.054613218
-0.021800503
-0.039460912
-0.0891792
0.0060039675
-0.015567119
0.038745668
0.059793625
0.043088827
-0.0860991
-0.03805145
0.028965682
-0.051981814
0.036875885
-0.04516939
-0.014482695
0.00049351464
0.10203584
-0.0104113845
0.017020758
0.022037558
-7.803561e-05
-0.060725022
0.025393935
0.012372844
-0.06202294
0.062357504
-0.013515796
0.05368983
-0.013510627
0.04842157
-0.00068279053
0.03616057
0.04352032
-0.04523503
-0.00914006
0.01272941
0.0070411
-0.026519567
0.024428638
-0.03523621
0.013320574
0.030401023
-0.019336892
-0.03160386
0.015236975
-0.034065235
0.022854125
-0.0021812853
0.026648194
-0.040035877
0.0019107652
-0.11288166
0.044630256
-0.07426176
-0.014724619
-0.029835993
-0.06716886
-0.01086818
-0.0016855586
-0.017659307
-0.0076019336
-0.015457375
-0.045980845
0.053826228
-0.009919621
0.009351898
0.0060457243
-0.058285777
-0.04876522
0.07098134
0.013278667
0.05110761
-0.09667817
0.009453061
-0.04540388
0.061071172
0.0034135904
-0.026025085
0.021182252
-0.13508596
0.025794832
-0.024780063
0.06042129
-0.032428045
0.047320012
0.026926642
-0.045401387
5.1805782e-05
-0.059536614
-0.02532125
-0.06764716
0.009388045
0.05650737
0.0033374426
-0.028303085
-0.061254203
0.0006308786
-0.037008733
-0.020772696
-0.05653082
-0.039438285
-0.08775883
0.12596047
0.034067925
0.008091196
-0.07345963
0.015247605
0.009827756
0.039213415
-0.084821686
-0.09972861
-0.026325315
-0.032408733
-0.0006755144
-0.004768872
0.047484122
0.0040448173
-0.013288869
-0.0589884
-0.09156407
0.04007522
-0.043818202
0.0007233786
0.029225737
0.011326649
0.036467627
-0.021140296
-0.034381613
0.049991004
0.014819776
-0.04021907
-0.041499775
0.04051442
0.07139413
-0.112773366
0.0065609445
0.055704758
0.013064208
-0.00089488545
-0.03853126
-0.08425439
-0.029054724
-0.001220693
0.14429182
0.0069470224
-0.10297583
0.011442095
0.024649886
-0.014004391
-0.03390275
-0.023744639
0.0027760533
-0.050978795
-0.042238213
-0.034153234
-0.026108358
0.041626908
-0.034928486
-0.008034068
-0.01202776
-0.048496004
0.012112983
0.034171563
-0.08763634
-0.07634025
0.04418573
-0.06029194
0.03586425
0.03569938
-0.029752987
0.09489858
-0.030039309
0.010518242
0.044116236
-0.00071670185
-0.03738365
0.056663018
-0.031822335
0.04936177
0.059797976
0.042674538
0.011071726
-0.03620771
0.020090757
-0.020667572
-0.027491305
-0.02903981
-0.029826254
0.07537323
-0.022385195
-0.0980636
-0.032183904
-0.054781076
0.03753965
-0.11788754
-0.035301566
-0.0018076494
0.0064597297
0.010354288
-0.0646631
-0.024243085
0.0036373856
-0.03222717
-0.024209596
-0.03749564
-0.029650122
-0.05003507
0.022094274
-0.047560662
-0.050209768
0.02733165
0.038768854
0.025859086
-0.021749273
0.039111514
0.024927896
0.0700062
-0.13089365
-0.015425785
0.022550955
-0.011838113
0.036336165
-0.006251446
0.04570906
0.044878203
-0.038247902
0.02846373
-0.016174603
0.041777704
0.061704647
0.015221422
0.035857547
0.06491078
0.02022109
-0.035564948
-0.022281375
0.027600423
0.008762852
0.038543843
-0.01584063
-0.041793514
0.08582689
-0.005306608
-0.022209581
-0.042064805
-0.03494495
-0.07824158
0.027691923
-0.02680777
-0.029805485
-0.0005279381
-0.1396524
-0.015542105
0.011749593
-0.020743137
0.019895429
0.029485963
-0.040108684
-0.037930325
0.053058337
-0.05175016
0.03970728
0.03936752
-0.057058297
-0.10036228
-0.049869966
0.030636821
0.07102455
0.023670828
-0.030314414
0.022097243
0.036316108
-0.03384929
-0.011010476
0.073252395
0.0006058143
-0.11911143
-0.032633886
0.02065659
0.056772362
-0.0235408
-0.026820572
0.03044831
-0.023510158
-0.027682828
-0.01846557
-0.1044671
-0.039692525
0.039083827
0.027133817
-0.13858
0.07858321
0.036372527
0.07599601
-0.005750854
0.040321425
0.038053773
0.016072584
0.06672486
0.005868529
-0.04702832
-0.044233203
-0.04097021
0.044064365
0.014255032
-0.07896861
0.042162586
-0.14822277
0.048765596
0.030701863
-0.001249946
0.05181365
-0.011754705
0.021799458
-0.015797231
-0.01494741
-0.027471196
-0.06253754
0.0201115
-0.06120584
-0.03835299
0.06160444
-0.051025182
-0.032593872
-0.013742597
-0.1042364
0.014692522
-0.016087461
-0.14358804
-0.027225029
0.012206431
0.06416507
-0.026781298
0.031809423
0.006883651
0.010427069
-0.0035997024
-0.050229263
-0.04355853
0.04614178
0.025706228
0.018034646
-0.00075718656
0.007561033
-0.005787412
0.0068608276
0.027604416
-0.06552286
-0.021142205
-0.058724914
-0.043400824
-0.08817281
0.024504209
-0.030747766
-0.10676223
0.008241188
-0.065314114
-0.008917332
-0.012086587
0.020113457
0.052825965
0.0017755225
0.05834671
0.012644939
0.0019472054
0.0057944763
0.016566657
-0.028262708
0.011696031
0.042493228
0.020708
-0.027579572
-0.11743451
-0.009304105
0.06323483
0.07288223
-0.01826208
0.019336082
-0.031011024
0.049377356
0.0082743885
0.02545136
-0.003101756
0.0016587316
-0.060957823
0.035524122
0.0507669
-0.012831601
0.03527485
-0.008767451
0.0078296885
-0.060119465
0.03152542
0.008936025
-0.00896323
-0.027219217
0.041573767
0.043199442
-0.022695612
0.01998147
0.00315651
-0.047848023
0.057183105
0.019576175
-0.0053826775
-0.01372029
0.017699936
0.045584146
0.025980478
-0.035123114
0.049908902
0.020696621
-0.014425828
0.017170379
0.028618721
-0.015037323
0.036278114
0.021095345
-0.030595453
0.009994304
0.059694603
0.015582622
0.017736182
-0.0172778
0.024172317
0.03730825
0.052305695
-0.073628366
0.025140053
0.0288906
0.01647786
0.009210345
0.05183312
-0.0020499437
-0.006670342
0.05125342
-0.05032707
-0.065738566
-0.04596482
0.0011539779
0.03707277
-0.009542879
0.030057674
-0.08183377
-0.056621622
-0.029783001
0.011529415
-0.033074386
-0.029525807
0.042040415
-0.025729861
0.006315705
0.004015167
0.002248379
0.05367755
0.009953511
-0.055009298
0.021112284
0.056218456
0.02950859
0.035093512
-0.036556277
-0.008649881
0.010056639
-0.076345004
-0.10534892
-0.018991988
-0.06848537
-0.045651343
0.03462951
-0.0068734526
0.00403372
-0.10158198
0.0032380228
0.044371292
0.06106887
0.06695387
-0.0488516
-0.04585957
-0.0068637556
-0.011492615
0.002161861
0.019318819
-0.057016786
0.051538043
0.06469033
0.030640293
-0.017880244
0.028708277
0.060941637
-0.104895435
-0.054667916
-0.045720644
-0.024991855
-0.093563356
0.004595814
-0.049584936
-0.0030925581
0.027946146
-0.07654178
0.010320942
-0.058619175
-0.12894441
0.032548025
9.095392e-05
-0.031373587
-0.07113154
-0.0778747
-0.03968259
-0.0073876022
-0.011691377
-0.083866045
0.03399318
-0.004516089
-0.00743563
-0.0040929387
-0.16354546
0.02309079
0.010984717
-0.01490294
0.009707058
0.03115777
0.03752078
-0.0027378136
0.021861667
-0.06311551
0.03663469
-0.10499125
-0.03047949
0.0012865516
0.020706171
0.0012289264
-0.054161135
0.022608476
0.056737985
0.03955693
-0.05673818
0.01931142
0.0243646
0.014100844
-0.017320408
-0.004897231
-0.0105592
-0.004144583
0.049129542
-0.0972361
0.026155945
0.04172498
-0.013003566
-0.0016229931
0.008167899
0.024928216
-0.03968877
-0.0013202399
0.029316237
-0.024813518
-0.13780032
0.018584035
-0.0054258127
0.050070148
-0.02297109
0.04090033
-0.029283632
-0.014534217
-0.009543456
-0.035831362
-0.0182244
-0.037935536
0.061774448
0.024030019
-0.0012916479
-0.040681418
-0.0083105285
0.03474342
0.00087602664
0.03914098
-0.055831477
-0.032511473
0.042586267
0.06411108
-0.0016524971
0.038333774
-0.025440179
-0.007181605
-0.06238232
-0.014361937
0.01895696
0.006769826
-0.053131226
0.035994522
0.035202637
0.039065477
-0.062013
0.0027416835
-0.08036637
0.04239489
-0.059258923
-0.02917611
-0.03177103
-0.026631404
0.0027416875
0.045475267
-0.033250317
0.04886223
-0.033841386
0.029436797
-0.023280831
-0.026160624
-0.031967293
0.02243562
0.021377485
-0.04609418
-0.037369713
0.012379472
0.01516589
0.053472336
-0.0002457421
0.023533966
-0.010151774
0.022668507
0.05361165
-0.013953049
-0.003493675
-0.10722678
-0.055261463
0.016681204
0.012793213
0.035482235
-0.030100584
0.04287646
0.019932402
-0.016952975
0.05865629
-0.09041384
0.017287163
0.06400671
0.008900769
0.051667664
-0.11484988
0.04340658
-0.07402053
-0.003481373
0.024591256
-0.1340035
-0.004439847
-0.01949954
0.04511171
0.02083829
-0.036018685
0.026099512
-0.011387593
-0.0047991923
0.040151313
0.028620433
-0.033876035
-0.04091748
0.022435198
-0.030592749
0.026904881
-0.033200216
-0.0634402
0.014784967
0.046795223
-0.11096789
-0.013115687
0.06126773
0.029104482
0.04025486
0.050319817
0.038595106
-0.075762
-0.0010172476
-0.023818843
-0.013788763
-0.03327091
0.00029605805
-0.07509494
0.04308226
-0.04852637
-0.0048343563
-0.003272827
0.041361976
0.0118207885
-0.14493316
0.019122202
-0.010725101
0.028777892
-0.027321657
-0.015424494
0.013904523
0.06910318
0.041613344
0.027974008
0.037476
0.020258652
-0.047356315
-0.007202996
-0.008919294
0.00094996626
0.026485668
-0.004736462
0.049373712
0.06327239
0.016958686
0.017195906
0.050355956
0.041006163
0.033598892
0.0066012456
-0.010374337
-0.019799309
-0.005044013
0.018027583
0.02433203
0.0273068
-0.020099
0.043524224
0.048839018
-0.0092257
-0.008414082
0.00064048026
-0.04395774
0.048575208
0.009274971
0.053958926
-0.01102453
-0.0749265
0.021024168
-0.04178412
-0.07392903
0.056655217
-0.035423387
-0.047779173
-0.068802536
-0.00043256706
0.0438488
0.029222582
-0.014239086
0.013625435
-0.026482644
0.04718952
-0.003498685
-0.12256168
-0.112278536
0.06494298
0.036612134
0.043978885
-0.008446617
-0.07391249
0.04165691
-0.07452093
-0.064442344
-0.040821787
0.049548972
0.019245487
0.0601819
0.035977297
-0.0063982825
-0.03759907
0.056695472
0.04813084
0.05660784
-0.029885264
0.039244153
-0.0009197157
0.035317227
0.029338622
0.01901137
0.0046607433
-0.0039776117
0.04938286
-0.029726546
0.0018482445
0.002643075
0.033697512
0.047820833
-0.031776667
-0.043082003
-0.058885764
0.05880196
0.047238357
0.024297016
0.029918114
-0.0048145624
-0.08841883
0.005049098
-0.16022071
0.034580387
-0.08200818
-0.022556644
-0.11491985
-0.025808882
-0.023060823
0.013837124
0.035898633
-0.07593397
0.005623379
0.022853324
-0.07548581
0.0088177845
0.017218735
0.0017249605
0.038720954
-0.036984727
0.05941488
0.0008837073
0.079634845
-0.035275336
0.039414953
0.003589516
-0.009723665
0.018999936
0.06398244
-0.06975149
-0.08831715
0.013997254
0.0011957051
0.10485013
-0.04888868
0.04620648
0.022693038
-0.034473803
-0.026574058
0.0022142439
0.016126394
-0.08313101
-0.055415403
0.010463514
0.047661193
-0.054402683
-0.0323631
-0.007822901
0.054965273
-0.04971336
0.06781299
-0.05519326
0.01214529
-0.034735937
0.022013342
0.01152081
-0.051240683
0.03184754
-0.00011380596
0.03812678
-0.042962182
-0.028974338
-0.035391793
-0.05481384
0.033541527
0.0047840998
-0.01796082
-0.10032543
0.066040084
0.022839108
0.03163905
0.020493155
0.00036544027
0.016829912
-0.03850805
0.016838599
0.03109656
-0.032899227
0.00026050303
-0.044523995
0.0126766665
-0.014822068
-0.04179094
-0.0134768905
0.020164052
0.021359505
-0.017597336
-0.018220572
-0.020299619
-0.029779743
0.00716161
-0.0722598
-0.005713857
-0.09686218
-0.00068719784
-0.029325027
0.02759978
-0.097439006
0.07055845
0.060468137
0.014450845
-0.009801916
0.016438564
-0.032011166
0.056413304
0.022174181
-0.008260598
0.044489313
-0.09753294
-0.012144844
0.05567543
0.027522137
0.025428848
-0.06533298
0.06801392
0.00826095
0.03336182
0.055400632
-0.19440359
-0.018094556
0.011266682
-0.012094278
0.05386335
-0.007001496
0.018622017
-0.09567241
-0.0749813
0.019426184
0.05990907
0.050927524
0.028580448
-0.044016898
-0.10191519
-0.036717262
-0.039527852
0.026193602
0.025244664
-0.01658784
0.014933126
0.030366153
-0.022443902
0.05116818
-0.06962156
-0.025539113
-0.02517948
-0.03289926
-0.006262481
-0.03729125
-0.04567155
0.019928407
0.051421653
-0.050826237
-0.046622913
-0.012723752
0.018881999
0.007571978
0.018773338
-0.023550404
-0.022201385
-0.029445946
-0.043241475
-0.036690395
-0.024683857
-0.022429902
-0.0040959823
-0.077215776
0.009083756
0.020355867
0.020298183
-0.008589649
-0.05117955
-0.074549526
-0.013629025
-0.027721537
-0.061389074
0.0070483643
0.018089578
-0.02220864
0.03959292
0.056229223
-0.0894006
-0.0035089506
-0.0017367919
0.04006564
-0.011650295
0.0029948256
-0.026161173
0.028090201
-0.064911105
0.028124033
-0.091526546
0.0013852639
0.035432354
0.03534162
0.034883745
0.02521298
0.031687103
0.058516983
-0.044627033
0.019818367
-0.008368748
-0.0055237026
0.042427592
-0.023109037
0.0068053077
-0.046082284
-0.027843453
0.05644666
-0.013455516
-0.033739157
0.002978513
-0.046368442
-0.012669178
-0.03959923
-0.06827654
-0.007548309
0.010247929
0.03902115
-0.002354374
-0.0813032
0.0014803535
-0.00447628
0.015306841
0.021940302
-0.00579204
0.020132516
-0.038508445
-0.022673272
0.050958063
0.016548213
-0.017172007
-0.019028287
0.01748078
0.018135786
-0.024845198
-0.012949133
-0.016993375
0.002725938
-0.028236367
0.016045101
-0.06130095
0.06678865
-0.085175306
-0.032923896
0.009662395
-0.0029527042
0.01501828
-0.2390868
-0.12142829
-0.015064131
0.050609786
-0.029665696
-0.051401153
0.022476941
0.04134626
-0.013986572
-0.04039918
-0.014597073
-0.047696546
-0.046830434
0.019049266
0.06854299
0.05712864
-0.060598303
0.07413085
-0.033925984
-0.0142213665
0.039612886
-0.01562354
0.13844995
0.048101578
0.025787909
0.111074954
-0.0012807725
0.022857111
-0.015376599
0.03668146
0.03809753
-0.029449675
-0.116853446
-0.04398349
-0.0056366976
0.067590676
-0.020936452
-0.0006712133
-0.044256426
-0.029435532
-0.0152254505
0.06511305
0.062981725
0.011962743
0.02679303
0.055313062
0.03740739
-0.008390717
-0.0054263147
-0.035156276
-0.047074445
-0.06878693
0.022399118
-0.01183785
-0.06073103
-0.048102252
-0.030904891
-0.04742755
0.06951907
-0.04667898
0.021519272
0.06118411
0.0021574511
0.048466627
0.0363064
0.01641945
-0.01807849
0.0057812636
0.015592202
0.017821055
-0.06682255
-0.12642659
0.053180028
0.032306854
-0.031391744
0.017156892
0.012775171
0.03537759
0.013794242
0.0144322915
-0.04523245
0.031848297
0.011032779
0.04519822
-0.046764337
0.018968225
0.025076415
0.011941085
-0.07875286
0.032204315
0.008850488
0.013472483
0.034125336
-0.0010195195
0.037084583
0.04348036
-0.041618098
0.0036186175
0.049480714
0.021958206
0.09905069
0.018894097
-0.13131145
-0.11464062
-0.026808042
-0.14689817
0.01065191
0.018246543
-0.07910341
0.010771867
0.071519606
0.019488564
-0.13530274
-0.16592693
0.02307103
0.07435421
0.048893113
0.0325779
0.057800367
-0.032786578
-0.005930123
0.03657082
-0.016954655
0.0043533626
0.022647643
0.014364935
0.075991355
-0.035149314
-0.004158734
0.032449935
-0.019387143
0.060804896
0.052098386
-0.058645748
-0.029746048
-0.08801384
-0.106378436
-0.0055740825
0.022336809
-0.014259594
0.009774548
-0.038615968
0.03070892
0.012676645
-0.0447955
0.06407655
-0.053139426
-0.05678656
0.03807675
-0.039484706
-0.0005553604
-0.023024285
0.06530806
0.03009676
-0.035726212
-0.02540651
0.028044047
-0.13092375
-0.06227286
0.03864413
-0.059751466
-0.044889487
-0.027157893
-0.13321526
0.008484103
-0.018581672
0.070414506
0.017190084
0.039195403
0.036649253
0.021764053
-0.055820428
0.031534906
0.027811138
-0.11248394
0.01755156
0.01892322
0.04634408
-0.04466165
-0.0100820325
0.012917663
0.025210835
-0.040113267
-0.005363144
-0.030517673
-0.008920935
-0.049368784
-0.0032997536
0.028590433
-0.02344284
0.03508306
-0.035000563
0.06638835
0.028352384
-0.021453654
0.043715425
-0.07902518
-0.019642169
-0.1346638
0.06502859
0.06804524
-0.0518723
-0.13906121
0.04769195
0.06056137
0.03806918
-0.08966668
0.069017895
-0.08195472
-0.041542076
-0.068099126
-0.14997983
0.07313991
-0.08884432
-0.04967169
-0.07977774
0.0034007973
-0.077673495
0.041792184
0.08281339
0.031440668
0.014461765
-0.008950509
0.039829835
0.017435208
0.04274289
0.0050481125
0.01370416
