-0.0056661908
0.008863676
0.040283535
0.005828547
0.046266504
-0.017324425
0.0133361
-0.015919583
0.03627319
-0.0021694233
0.01572164
-0.019687124
0.0053739017
-0.02248312
-0.040508922
-0.03475101
-0.014505019
0.00059273466
-0.030900227
-0.031919777
0.0068000187
0.014576148
0.010028774
0.010587448
0.010731544
-0.009734164
-0.04165384
0.003959361
-0.0145846065
-0.02830817
-0.013199351
0.0076686204
-0.027312523
0.019829066
0.027594015
0.0029805205
-0.009472321
0.03961649
-0.012327269
0.0077783694
0.01668598
0.02010925
0.048160374
-0.019897215
0.05293496
0.04701115
-0.02988239
0.019232923
0.037207015
-0.00037649923
0.03034007
-0.03319914
0.007074906
-0.019120846
0.030082017
-0.0172742
-0.0046814634
0.020022549
-0.037031822
-0.0005925397
-0.01859813
-0.035900984
0.014665494
-0.0005473481
-0.0032403995
-0.02156113
0.058031935
-0.018679442
0.032417
0.0032706594
0.019118724
-0.017414965
-0.040502004
-0.017513743
0.033709314
0.01933909
-0.026187904
0.0059163333
-0.0021743146
-0.02197439
0.0003149237
-0.0009115066
-0.032586467
-0.003593431
-0.022322772
0.054691087
0.0018431464
0.03922231
-0.014381731
-0.0068053487
0.043264695
0.06166613
-0.00050705805
-0.007942319
-0.028019045
-0.01892623
0.02090607
0.016201954
-0.037814334
-0.021122972
0.022279955
-0.000101723
0.023070283
0.0057221763
0.04010836
-0.012709213
0.0412437
-0.0070815925
-0.014636957
-0.033069603
0.03259991
0.00340665
0.033357676
0.03497572
-0.0013508592
0.042963393
-0.008895895
-0.020131368
-0.026630104
-0.0068298825
-0.011470907
0.0132331345
0.045317046
-0.010976676
0.022690631
-0.008171451
-0.030745868
0.015868023
0.01711485
-0.011132813
-0.04696483
0.01776203
0.03132375
0.018572863
0.019439949
-0.048277233
0.0015552957
-0.01283086
0.039065603
-0.00812925
0.0032523894
-0.008894269
0.03517712
-0.006631341
0.00842515
-0.00453695
0.01799952
0.021744372
0.001511748
-0.040228184
-0.024327675
-0.02148531
-0.0075143315
-0.007617022
-0.01567134
-0.033038493
-0.0064423243
0.0212626
0.006875606
0.0008532434
-0.050963886
0.041550934
-0.03951505
0.015187576
0.0016083533
0.0020914692
-0.03645024
-0.041900795
-0.023531584
0.0048979414
-0.031920962
0.045288466
0.003674482
-0.009479905
-0.034223747
-0.03761084
-0.010192266
-0.009243098
0.050878774
-0.005162413
0.01789188
-0.00044346153
-0.014295282
0.0034478481
0.023233742
0.011059359
-0.03153534
-0.0043732887
0.013406079
-0.0203237
0.015739283
0.006529037
-0.007027963
-0.029268747
-0.04313899
0.0010764055
0.025122706
-0.022420637
-0.04128626
-0.0078087393
0.00435406
-0.031270035
-0.015193039
-0.007208413
0.042731978
-0.03415937
-0.002322002
0.005846408
0.02359297
0.039991554
-0.011860137
-0.033612162
-0.035139393
0.021330928
-0.028136896
0.011053663
-0.021539608
0.007954594
-0.033417813
0.010596189
-0.03385315
-0.055260006
0.014341233
-0.015203565
-0.010972582
0.0015473913
-0.0062460424
0.0053212456
-0.040601023
-0.0004866306
0.0036621161
0.041532032
-0.021951066
-0.012962743
0.018306665
-0.008122731
0.027361702
0.01977349
-0.03422374
0.05205442
0.016892234
0.017648766
0.0227359
-0.005635974
0.0059576635
-0.0027721094
-0.009384397
0.008937
0.026736107
0.037904717
-0.00058740366
0.04209285
0.014477387
0.039829873
-0.039963923
-0.026194805
0.0109716775
-0.0025672254
-0.03338196
-0.026165575
0.016941898
-0.013967399
0.057324514
-0.0146186445
0.00055261573
0.04499266
0.015262325
-0.004700089
-0.014499874
0.02023462
0.009448435
0.015202788
-0.022715045
-0.018663973
0.027786808
-0.00975059
0.03393131
0.043161493
-0.03967644
0.0024430605
-0.02603084
0.018930782
-0.022893082
0.008366391
0.018330617
0.030852498
0.04774245
0.00039146113
0.006709125
0.017607406
0.025907062
-0.022565687
0.013915897
0.0102034975
-0.040677335
-0.0034194286
0.019348292
-0.0006218844
0.0062461477
0.029831216
-0.034316048
0.010316818
0.020857772
0.005592718
-8.505794e-05
0.031349003
0.049285136
-0.034355372
0.041188203
0.040185723
-0.030623373
-0.013260435
-0.061371356
0.009158676
0.030907122
-0.05748987
-0.032209765
0.0009986444
-0.01099011
-0.036248717
0.03947305
0.0016408775
0.005309672
-0.027329076
0.025147876
-0.03841282
-0.017165124
0.024364688
0.01576459
-0.0020588487
0.015389836
0.024868531
0.05096049
0.0010435027
-0.0036150492
-0.015881749
0.04034956
-0.045776233
0.011359223
0.001059488
0.041787848
-0.018994909
0.026994187
-0.020319777
-0.034502435
-0.017846107
-0.013660278
-0.004368438
-0.016223831
-0.0390436
0.01821653
-0.0070643444
0.03782731
0.037179127
-0.002406786
-0.007463213
-0.008412384
-0.017415773
-0.01785193
0.019422187
-0.0067286007
-0.019487299
-0.019246664
-0.0025395455
-0.034845896
-0.018554844
0.033777405
0.0268947
0.060911782
-0.021462858
-0.043142006
-0.017656086
0.027566787
0.004567686
0.023501769
-0.00442139
0.025362665
0.016473373
0.025585482
0.04286094
0.015516892
0.021120332
-0.001587091
-0.056079216
0.012590739
-0.0057759183
0.032381713
-0.023128867
0.008664542
-0.03376286
-0.03190657
0.019254431
-0.023198223
0.004963861
-0.015742643
-0.022876017
0.02783452
0.013339609
0.01850828
0.038152125
-0.025942484
-0.009716501
-0.008226943
-0.00540343
0.004672827
-0.008595012
0.034635644
0.020931507
-0.0021158354
0.0383421
-0.00011716908
0.006032983
-0.034100328
-0.00055566983
-0.014719726
-0.003993106
-0.03185977
-0.031638086
-0.009125578
0.019297248
0.016997112
-0.020310985
0.0008564968
-0.022928193
0.035385426
0.023207448
-0.007512276
-0.019453647
0.032036953
-0.022439128
0.026596649
0.026651384
0.023240717
0.009217151
-0.03302906
0.062414624
-0.036493815
-0.052008517
0.016082043
-0.022596478
0.015824096
0.0009708978
0.038688764
0.05401651
0.015015723
-0.0039469386
0.04537635
0.027663229
-0.0073943096
0.021458602
0.012701941
0.008922936
0.027695129
0.019320158
-0.005722915
0.027829044
-0.03491786
-0.0031024343
0.0043821554
-0.0028466692
0.019238718
0.042374913
-0.027666468
0.0022113381
0.009275593
0.054754246
-0.027222337
-0.024037188
0.0071790186
0.033563986
-0.00923553
0.0051231696
-0.03027723
0.03359489
0.016931888
0.012752606
-0.0029106084
-0.0082641775
0.043473396
-0.005576377
0.00981086
-0.018987805
0.023099495
0.039235346
0.024231909
0.07108171
-0.01822241
-0.016113212
0.024505934
0.013748249
0.021633113
0.044299062
0.015741084
-0.032675788
-0.018165726
0.00038111076
0.010103073
-0.03028931
0.026616232
-0.054714266
