-0.0017484438
0.00490602
0.03997152
0.009571861
0.055366006
0.0071175676
0.011869291
-0.011238039
0.035505705
-0.0038263465
0.021940479
-0.0120799905
0.005511707
-0.026246004
-0.05276228
-0.03598786
-0.016465528
-0.00019471104
-0.030899853
-0.032720726
0.0068297987
0.017473007
0.012677764
0.020461647
0.012074345
-0.012741801
-0.02605338
0.0059600635
-0.003728843
-0.03283201
-0.014588193
0.005247125
-0.012629413
0.020011924
0.044401817
0.018542342
-0.007945358
0.045951873
-0.01110934
0.0027665682
0.022075485
0.019339902
0.042367868
-0.023154408
0.056416668
0.038563885
-0.028740196
0.022214737
0.051817924
-0.0017505853
0.036724593
-0.036480274
0.0069062226
-0.017024083
0.026573941
-0.010224871
0.0056229266
0.019508287
-0.028183715
0.0031019843
-0.019207144
-0.039107073
0.011603781
-0.006104137
-0.0012131045
-0.022268953
0.05226944
-0.018385002
0.025338462
0.026845548
0.019493788
-0.016425958
-0.03740167
-0.018378416
0.035329644
0.028280087
-0.021790875
0.006358839
-0.008237227
-0.021546697
0.0062559457
-0.0017560077
-0.031022117
0.0047563743
-0.020982597
0.05125523
0.0017811351
0.040522873
-0.01310227
-0.0054948665
0.042733233
0.059980582
0.0022754834
-0.005158842
-0.028019022
-0.025527423
0.015573545
0.0186827
-0.037828837
-0.017466078
0.032443468
0.00715336
0.016446076
0.014869821
0.0072528888
-0.004343272
0.03878696
-0.0075640013
-0.014190212
-0.02263249
0.031473882
0.0034066632
0.034267504
0.040835187
-0.0013508532
0.037186626
-0.009930999
-0.033567876
-0.02990548
-0.0032167777
-0.006851036
0.013233146
0.035754405
-0.008021384
0.021709504
-0.009859029
-0.030346837
0.017319538
0.017114865
-0.014266691
-0.045178544
0.018027445
0.036860064
0.02265702
0.0115942145
-0.03126702
-0.0033080266
-0.011027861
0.044494238
0.002325298
0.012706137
-0.010577831
0.027406309
-0.010314576
0.008781679
-0.030584458
0.018000634
0.021401674
0.019191602
-0.042269204
-0.024128892
-0.015293767
0.014031737
0.005157902
-0.019613318
-0.03409411
-0.004891882
0.021681802
0.007083618
0.0008540939
-0.03862601
0.03483013
-0.039515026
0.010825967
0.0026099244
0.015851581
-0.013232956
-0.045518354
-0.016541928
0.017935988
-0.03314577
0.008248583
0.014009239
-0.00273594
-0.03873782
-0.028128786
-0.00096464227
-0.015890153
0.049881607
-0.017772902
0.0006824004
0.0069293296
-0.0017821771
0.028275322
0.02061921
0.015456701
-0.031544417
-0.004814008
0.013990316
-0.012726604
0.017922003
0.0059220823
0.0023385214
-0.030046677
-0.013613373
0.0021225326
0.020987926
-0.031043988
-0.041480534
0.037483864
-0.00013453631
-0.03160782
-0.03599676
-0.002051887
0.039800514
-0.032855492
-0.0063629653
0.00584643
0.02359501
0.038380824
-0.004311719
-0.03715805
-0.035139367
0.022757502
-0.02617169
0.010448494
-0.019580401
-0.0018558746
-0.033601403
-0.0028872287
-0.033853162
-0.034127936
0.009926225
-0.007774395
0.0031268566
0.0059282365
-0.0004869959
0.0152888335
-0.040601116
-0.014923428
0.0015598327
0.05084305
-0.013509904
-0.01471484
0.0061132857
-0.00053897133
0.036360256
0.019842163
-0.033254307
0.051860206
0.018074661
0.024442796
0.025402362
-0.022159468
-0.00049324246
0.010585973
-0.0077015925
0.016050253
0.0062888223
0.032818496
-0.00058515335
0.0249495
0.004233665
0.03813138
-0.050516844
0.0020249216
0.011103754
0.0053591523
-0.031427998
-0.021582419
0.01649987
-0.013814617
0.055020675
-0.03021419
-0.010977823
0.03833943
0.012756308
-0.0046025044
-0.025139268
0.02023458
0.008943433
0.010094543
0.0086125415
-0.03284607
0.027786871
0.0090551935
0.03092563
0.043496046
-0.06780645
-0.0034796956
-0.02344865
0.019543607
-0.023151476
0.010949258
0.015625859
0.018785845
0.047749724
-0.00082179165
0.013299899
0.013910504
-0.00271017
-0.022531522
0.0075134146
0.010222919
-0.038682822
-0.0073484518
0.015445222
0.0007258482
0.0038619516
0.019074325
-0.028654542
0.0070285196
0.019846875
-0.02316104
-0.008629067
0.02507063
0.057805207
-0.026130203
0.04251863
0.043152634
-0.029993085
-0.023946637
-0.013037306
0.0040335935
0.025752364
-0.027275661
-0.030802505
-0.005048714
-0.009820015
-0.016443243
0.044694424
0.0011931513
0.010486484
-0.02624397
0.019800095
-0.020532629
-0.020664345
0.010326745
0.0155506
0.0015936572
0.023214202
0.02685646
0.047592312
-0.0016224178
-0.003538109
-0.0137500055
0.025046432
-0.043855116
0.01531474
0.0010226765
0.03365971
-0.029618436
0.025003418
-0.020267917
-0.023385309
-0.010267831
-0.016893823
-0.0043682395
-0.016486064
-0.035948083
0.01577161
-0.0045737596
0.017173229
0.027881416
-0.006090273
-0.00015497004
0.014645978
-0.018272987
-0.017851917
0.020278182
-0.005636851
-0.013533249
-0.019255402
-0.004283307
-0.020725943
-0.013294179
0.028386602
0.0312278
0.030747082
-0.020933395
-0.04252462
-0.022227222
0.042268563
0.006598995
0.032072518
0.03440798
0.041077
0.018425569
0.020181311
0.044657066
0.017345432
0.03355827
-0.003077615
-0.011314916
0.012508353
-0.00058268197
0.035587013
-0.0205308
0.014457058
-0.033761173
-0.036811557
0.022188421
-0.00060726475
0.0068274383
-0.02352052
-0.02712042
0.027834184
0.013605337
0.019452
0.0169593
-0.026483623
-0.012286502
-0.008226946
-0.0018746628
0.0066271327
0.003991418
0.037446875
0.020033503
0.017053448
0.039801136
-0.0033639928
0.009609838
-0.030494759
-0.0057424433
-0.011969296
-0.038432717
-0.022043338
-0.03187811
-0.011501692
0.023481969
0.016939918
-0.023736889
-0.0054323147
-0.022737438
0.030429441
0.024734523
-0.0075165792
-0.02885343
0.035653047
-0.015632352
0.03837355
0.025177505
0.024176676
0.015702022
-0.031305075
0.06462165
-0.03629726
-0.03776586
0.016524391
-0.024442345
0.013790703
0.0009708843
0.024003418
0.05238492
0.010206978
-0.018749429
0.04063881
0.01903665
-0.007395149
0.020871138
0.012348131
0.008943887
0.025842994
0.019320263
-0.0061698095
0.029738108
-0.032702748
0.0070047616
0.0025537703
-4.187849e-05
0.018794069
0.0043487726
-0.024540104
0.0071009095
0.013213244
0.055998575
-0.02395815
-0.023880435
0.017338308
0.029491704
-0.0028503474
0.0023504843
-0.031802032
0.039644003
0.013938943
0.00962077
-0.005897683
-0.040468246
0.03719537
-0.012427031
0.0023126022
-0.02126105
0.025808208
0.028851189
0.03232228
0.07122621
-0.014193975
-0.0076442477
0.024572115
0.015124883
0.023920543
0.0460242
0.016793882
-0.031249614
-0.018165708
0.00038556632
0.011212491
-0.029387081
0.030306166
-0.027023086
