-0.15711126
-0.088272564
-0.21923958
-0.20339985
-0.27369976
0.13320704
-0.16851994
-0.019650044
0.036658593
-0.05569986
0.21764743
0.15023234
0.21408173
0.2138522
-0.026975406
0.12311367
-0.012738814
0.13655317
-0.034292657
0.122680634
0.022200437
-0.06251088
-0.07578167
0.07822571
0.19521478
0.06812901
-0.04402227
-0.024512492
0.08097652
-0.24195713
0.0860661
-0.03672119
0.17546988
-0.024433231
-0.088315
0.08242902
0.1462499
0.064727634
0.3019164
-0.26246077
-0.0666665
-0.26663926
0.056941558
0.18580934
-0.08566747
0.022266889
-0.13032998
-0.2067218
0.21883406
0.15964323
0.15678173
0.23902021
0.18036762
0.22260934
0.26595384
0.0035717099
-0.11279948
-0.036371432
0.036436357
0.026335904
-0.010047216
0.07844312
0.037950967
-0.21410404
-0.10616172
-0.11194265
0.024884986
-0.17288832
-0.16046345
-0.045654114
-0.107125945
-0.14479429
-0.19558722
0.19111274
0.12923068
-0.31767362
-0.3394963
-0.12630418
-0.08638591
-0.28942886
-0.18495545
-0.17893027
-0.40210268
-0.28979906
-0.2578954
0.20665254
0.05359432
-0.12461657
-0.08054429
0.12361723
0.06451127
0.092465274
-0.042601
0.036299124
0.21539299
-0.09505503
0.022190526
0.22266017
0.26528645
0.14870356
0.09190241
0.14404
-0.07516944
-0.15252788
0.15489596
0.2759428
0.13895357
-0.23402001
-0.34803638
-0.22729382
0.07609599
-0.010233114
-0.12273185
-0.078403436
0.18124405
0.23839696
0.0913454
-0.01614315
0.11357259
-0.01396751
-0.16679733
0.1520957
0.2658145
-0.117851675
-0.059438568
0.009199255
-0.25913075
-0.29122895
0.051395837
-0.12979178
0.19684677
0.07378852
0.017785098
-0.18494332
-0.056061197
0.22217707
0.23659627
0.012520528
0.03269257
0.18683904
-0.19261281
0.20378034
-0.0014133374
-0.020235974
0.09630177
-0.22218989
-0.023053829
0.21755406
0.08295286
-0.11433357
-0.104317896
0.12992585
0.077103935
0.14593975
-0.13430685
0.07472437
0.07375002
0.10050311
0.2634494
0.12908876
0.14919971
0.092495464
0.12281967
0.027942229
-0.20601816
-0.24476004
-0.20148402
-0.13131191
0.13677812
0.07725885
-0.20552467
-0.24773744
0.17290029
0.17726792
0.12256145
0.24984257
-0.10331401
-0.27242255
-0.30404824
-0.16368337
-0.09084019
0.26664707
0.029713739
-0.033986572
-0.3137673
-0.035713956
0.05918995
0.012648703
0.22317536
-0.14324899
0.053358432
-0.11729609
0.041297413
0.064608544
0.18447459
0.16908623
0.12271392
0.02454487
0.020893201
0.23906526
-0.0681261
0.17749622
-0.04000774
0.21651588
0.27286866
0.20010953
0.22072676
0.16064334
-0.065965116
0.018056614
0.09156619
-0.013683215
0.054202866
0.0951852
-0.2222832
-0.24649774
-0.19686961
-0.028997129
-0.07363166
0.007902363
-0.13878526
-0.21436657
-0.013143592
0.109818764
-0.12071768
0.27213717
0.16013142
0.29968092
-0.089512
-0.13191524
0.15235996
-0.059479
-0.00032999078
0.23040491
0.20471287
-0.17510846
0.2189842
0.103463024
0.25768164
0.035186425
-0.31476834
-0.30232885
-0.17709562
-0.25078356
0.0796067
-0.07202103
-0.16912279
-0.19388269
-0.113668375
-0.1572785
0.10619183
-0.03495586
0.23549978
0.2706595
-0.037603334
0.051291287
0.15921342
-0.0042920164
-0.23723762
-0.011396339
0.049497597
-0.21605329
-0.3407538
-0.188957
-0.011668646
-0.20109406
-0.15164286
-0.17867595
-0.08110755
0.04514709
-0.036114566
0.22176568
0.16908951
0.27776706
0.22421487
-0.016968893
-0.11798858
0.09822826
-0.034530338
0.11897048
-0.018773932
0.22291228
0.0829612
-0.02560843
-0.19216749
0.15866825
0.037583336
0.11187832
0.11645169
-0.08944136
-0.17539015
-0.11204622
0.004926721
0.1870724
-0.013966351
-0.14189489
-0.06659759
0.015494626
0.20400976
0.18132743
-0.046935268
0.031013513
0.19881737
0.092133515
-0.019614324
0.10154431
0.10762336
-0.026568057
0.08809972
0.00870299
-0.084407575
0.009671396
0.20616561
0.060873464
-0.1809844
0.11270066
0.07457825
0.12519832
0.01569981
0.0936986
0.04343987
0.18537211
0.107242845
-0.08508059
0.110163495
-0.049687024
0.10925443
-0.10727475
-0.11088699
0.18206044
-0.04887373
0.0325097
0.034819752
0.019057572
0.020189023
-0.18912417
0.25724113
0.25786003
-0.10365026
0.0753534
0.23014274
0.10287924
0.09867498
0.15498735
0.10705774
-0.0392825
-0.2388939
-0.20994733
-0.20423916
-0.02816717
-0.10988547
0.19885477
0.10825344
-0.07967167
-0.14665057
0.113719925
0.02743667
0.07653102
-0.062054183
-0.095712826
0.089308806
0.08920487
-0.036274645
-0.057424515
-0.2764884
0.13502856
0.033251766
-0.22408992
-0.10734088
-0.06740901
0.2726632
0.26996198
0.24217802
-0.2100232
-0.21835366
0.049160678
0.12263123
0.12829836
-0.1018318
0.182814
-0.15431592
0.13854045
0.02041407
-0.008991985
0.17444451
0.20546533
0.17631488
0.17601001
-0.004105341
-0.21619128
0.09609928
0.238682
0.09117435
-0.30047408
-0.22516766
0.114510715
0.00031975933
-0.11481329
-0.34316143
-0.1586872
-0.044183943
-0.28380275
0.032140825
0.10970615
0.09231984
0.14145021
-0.079849035
0.13763791
0.075503975
-0.07394564
0.027337646
0.23432349
0.023028385
-0.044770397
-0.0108354045
-0.12497832
-0.12260764
-0.036160413
0.104156695
-0.04331807
-0.09860258
0.078461014
0.12089542
-0.047232166
-0.09758975
0.06799014
-0.08165464
0.19399272
-0.012834607
-0.006844726
0.2810782
-0.020442458
0.084848
0.29639128
0.045611165
0.012317381
0.29413012
0.11104905
0.23983203
0.25287074
-0.11798863
-0.29350668
-0.12479715
-0.17025739
-0.19091888
-0.2565326
-0.20532516
-0.4249433
-0.35075012
-0.08194477
-0.078081615
-0.0062485025
0.015812289
0.25524095
0.06903727
-0.2306325
-0.2046649
-0.19581783
0.05241387
0.12089015
-0.069585785
-0.07900337
0.023949819
0.1070192
0.086381115
-0.20840107
-0.048886366
0.00884367
0.025542386
0.24417855
-0.28640243
-0.0017122192
-0.09371162
0.1787996
0.22890863
0.15969513
0.110544965
-0.1348164
-0.1841148
-0.18358213
0.016519109
-0.0922227
0.013787996
0.00086318055
-0.13084674
-0.110987715
-0.14757666
-0.12914836
-0.12393703
0.1602705
-0.18171567
0.123676464
0.24283803
-0.07991041
-0.11245676
0.17479844
0.20704414
0.15956923
0.23138534
0.19745873
