-0.050662037
-0.05108681
0.023681756
0.006056161
-0.05812852
-0.0014257309
0.08391399
0.13982093
0.0909297
0.005968028
-0.040471103
-0.04843887
0.019553743
0.0022527042
0.07530195
-0.058620017
-0.09748938
-0.13275245
-0.1506205
0.03009079
0.029889518
0.017347375
-0.10917967
-0.15396339
-0.11014629
0.0077451826
0.07900152
0.04653825
-0.047611065
-0.041601498
-0.013439076
0.003372776
0.109429896
0.012432639
0.0072748163
-0.048648383
-0.012133805
0.07190245
0.11398314
-0.016866133
0.016143903
-0.08618807
-0.0019964525
0.010285695
0.03811184
0.023170624
-0.10343132
0.009312016
0.009545143
0.0509254
0.06333854
-0.06929267
-0.039349053
-0.037451815
-0.07247775
-0.061400253
-0.031309806
-0.015237557
-0.18076897
-0.053480256
0.10131313
0.12862112
0.0046078144
-0.16590743
-0.029968655
0.09794777
0.059480473
0.007103547
-0.108061284
-0.02537173
-0.0005103438
-0.053675123
-0.08122849
0.034199733
-0.011058813
-0.04066158
-0.019204412
-0.0029311748
-0.028300991
-0.1345796
0.0010285561
-0.028578592
0.05944468
0.07973445
-0.057388965
-0.06436907
-0.18975854
-0.13889383
0.021637982
0.015759962
-0.047147416
-0.093823075
-0.09922409
-0.123173036
-0.08057662
0.0047289105
0.023784034
-0.06798766
-0.15079135
-0.08274292
-0.0119779315
0.006525411
0.026007876
-0.08198537
-0.16819409
0.08279351
0.0018381756
0.01936505
0.02244463
-0.03164896
-0.007773745
0.045287378
-0.061770305
0.03834675
0.11836257
0.069164105
0.02993134
-0.11888641
-0.01764557
0.075420864
0.056422032
-0.07734125
-0.17892447
-0.05959159
0.05602502
0.006054706
-0.020565303
-0.0040283534
-0.0039591095
-0.014182743
0.02467038
0.0019385358
0.064805724
0.1140593
-0.038890153
-0.045365058
-0.07938357
0.013562202
0.04513374
0.04627539
-0.073184915
0.025616782
-0.082854114
-0.047543816
0.04388235
0.076881215
0.04570829
-0.02242406
-0.07392041
-0.00904829
0.10648502
0.048681766
-0.029068543
-0.06470744
-0.032683898
0.05036876
-0.02607527
0.04455241
0.04905479
-0.09940077
-0.076371156
0.046174202
0.0776023
0.070718996
-0.06173721
0.03145194
-0.049341504
0.072318316
0.05327745
-0.036379006
-0.055870056
-0.07047111
-0.024340663
0.09166985
-0.016955445
0.0023306396
-0.0057406873
0.052545555
0.010267092
-0.06095862
0.021323694
0.112860054
0.06874076
0.012271251
-0.04519931
-0.03545165
-0.03630526
0.07157047
0.037911583
0.07912497
-0.0981974
-0.06614577
-0.042800795
0.0056899283
0.09284354
-0.052009217
-0.09062453
-0.14513081
-0.09533078
0.04068492
0.052328855
0.011349445
-0.024800293
0.0033592721
-0.0085261185
-0.031783246
-0.056438774
0.036535595
0.011008337
-0.06761301
-0.010627636
0.048202235
0.030718599
0.06835686
-0.10631997
0.02698501
-0.0029290325
-0.010507243
-0.025053896
-0.09957366
-0.036541816
-0.04176746
0.08319893
0.04986604
0.023002464
0.07324474
-0.008621138
-0.16302729
0.025496678
0.056775775
0.024388373
-0.0007555592
-0.024903612
-0.066983104
-0.046582416
-0.0338828
0.0150404405
0.026643202
-0.091690145
-0.109492704
0.046229996
-0.09756946
-0.16335925
-0.15412192
-0.06306759
-0.045325346
-0.031939834
-0.08051902
0.008623955
0.066690065
0.10309421
0.039878186
0.031893652
-0.02115999
-0.042134892
0.10915815
-0.07126521
-0.05999877
-0.11861817
-0.09165236
-0.027099483
0.058755655
0.046148844
-0.19873308
-0.14444941
0.022888757
0.11601687
0.047493577
-0.08960762
-0.13480487
0.046952743
-0.03416934
-0.028204577
-0.016774027
-0.043744504
0.08561052
0.086087756
-0.01674161
0.0012635485
0.0038542836
-0.026522882
0.027550414
0.0770323
0.056249917
-0.028659891
-0.06929662
-0.05410184
0.057997443
0.075133145
-0.060772706
-0.023541313
-0.061033867
0.035231274
0.017665423
-0.0047372268
-0.057974786
-0.088748716
-0.014719016
0.08100409
0.01444953
-0.013243272
0.015323124
0.00041484344
-0.03264251
0.035245374
0.0063912636
0.048968483
-0.006155584
0.04329237
-0.013644562
-0.016532535
-0.03509312
-0.024179917
0.040835865
0.045059618
-0.029824076
-0.09145926
0.034989186
0.061826594
0.039241187
0.0026263432
-0.039849035
-0.025215833
0.014359398
-0.006691896
-0.001885895
-0.04716439
-0.04151435
-0.07943695
-0.051988155
-0.026754783
0.101449914
0.10650531
-0.004986361
-0.0589671
0.06958849
0.046945207
0.022696491
0.02606861
0.013797043
0.00858301
0.015240131
-0.05256568
0.032540053
0.062201586
0.010700561
-0.00954731
0.08347025
0.007763442
0.005182021
0.015090936
0.05803227
0.13954923
0.10912229
0.0039014292
-0.031931262
-0.053372853
-0.009505426
0.10955231
0.112796836
-0.12928809
-0.065956794
-0.045004718
0.110984094
0.108199306
0.047671884
-0.10008494
-0.046936765
0.10043151
0.109732375
0.053532735
-0.00859539
0.017289173
0.053274035
0.0012479207
-0.070665896
-0.03255531
0.0026864808
-0.13529298
-0.032309715
-0.03149769
-0.04552911
-0.10057829
-0.06990205
0.01700992
0.094195835
0.0053290487
-0.10229541
0.0260328
0.08362976
0.032239698
-0.068615004
-0.063583024
0.068483405
0.0553599
0.044469118
0.027804917
0.10323048
0.0709646
0.032356653
0.026785236
0.04556622
-0.02271637
-0.028332176
-0.032833803
-0.027789047
-0.008807681
-0.084856346
0.0036280232
-0.019188114
0.040808134
-0.0390922
-0.03456912
0.0132378945
-0.02639865
-0.023784539
-0.0047649727
-0.0015675839
0.008752418
-0.062156465
-0.037368264
0.032783706
0.06196103
0.048038017
-0.063736446
0.03594602
-0.0024077238
-0.10195584
0.012818113
-0.029293632
-0.0041615916
0.0772374
-0.013764263
-0.15611964
-0.09206144
0.0284121
0.10424621
-0.090958
-0.16882959
-0.04557289
0.042787775
-0.15621558
-0.1359043
-0.13158575
-0.036810555
-0.033468515
0.006795442
0.0600234
0.06326198
0.030053696
0.059628904
0.019644694
-0.020118214
0.008898579
0.02495332
0.07952268
0.0074273213
0.070382856
-0.0026843848
-0.105509005
-0.03044959
-0.026975507
0.06046615
0.10239196
-0.071575366
-0.12131419
-0.041325144
0.058206357
0.15128185
-0.04514708
-0.057320066
-0.0895526
0.057002474
0.075072095
-0.04931909
0.01266051
0.022267299
0.029973356
0.03292316
-0.09803846
0.033014253
0.07732443
0.049105905
0.05643634
-0.10700005
0.0015663129
-0.07394301
-0.020944782
-0.023885801
-0.04407278
-0.017992338
-0.0008652121
0.04020883
0.041175142
0.031818178
-0.032226
-0.02327248
-0.07946215
-0.01963602
0.044868547
-0.013636879
-0.075661376
-0.038249742
0.020213444
-0.02539393
-0.0038712523
-0.097033285
0.029998347
-0.09127479
-0.074199684
-0.06599512
0.008678403
0.044594694
-0.08969747
-0.04417727
0.0047307136
0.047122665
-0.03899702
-0.056829568
-0.07124348
0.025018733
0.026382234
-0.08811102
-0.10272015
-0.065421306
0.005947913
-0.06689055
-0.031640455
0.014863546
-0.0075718323
0.039997373
-0.033346668
-0.06684149
0.00920116
-0.018336935
0.01700949
-0.029165186
-0.048583742
0.048649043
0.008377888
0.04942991
-0.00959887
-0.07744656
0.07412821
0.038275484
0.04410716
-0.029261375
-0.03987798
0.09399783
0.074508816
-0.028853446
0.02490386
0.08353465
0.005723383
-0.08983675
-0.020045
-0.018329155
-0.07181237
-0.08385511
-0.08497976
0.0146187125
-0.061505843
-0.18447234
-0.11498149
-0.050071772
0.03668673
-0.028323403
-0.11712673
-0.085305296
-0.09481057
0.074268736
-0.022064244
-0.063292354
-0.029567834
-0.061387256
-0.006729628
-0.029664373
-0.07106807
0.02487988
0.042875536
0.0017814694
-0.030489422
0.051048398
0.08634245
0.021450115
0.015548746
0.03775652
0.10345433
-0.03348445
-0.099996604
0.06933097
0.10827616
0.035604052
-0.21005523
-0.09978653
0.14252503
0.08486326
-0.07865648
-0.12049856
-0.08989019
-0.07407874
-0.051587824
-0.06742156
-0.0792012
0.015287394
-0.014499441
0.034906458
-0.065078825
-0.09989396
0.073420644
0.0007398567
0.032020934
-0.03141222
-0.05197573
0.055140622
-0.021766895
0.0075932834
-0.12994319
-0.095012344
0.071966484
0.027362593
-0.019479139
-0.15926172
0.015688483
0.09047933
0.002071403
-0.06791866
-0.08012203
0.034882057
0.06820701
-0.028504206
-0.12068544
-0.01430892
0.02998885
-0.040342547
-0.09513441
-0.01281992
0.07765413
0.006972411
-0.08091182
-0.08223199
0.038721375
0.0077345995
-0.044701654
-0.024160938
0.01797771
0.006062656
-0.055515856
-0.07214855
0.028697804
0.009875555
-0.091151424
0.026234526
0.074498326
0.031965625
0.0015943719
-0.12665887
-0.076975636
0.06414775
0.00453637
0.04101954
-0.08664802
-0.06765748
-0.008897123
-0.037195656
-0.010814804
-0.064276665
0.011382161
0.083784
0.014787648
-0.062435932
-0.034218438
-0.009921497
0.0698198
-0.012269217
-0.017936531
-0.06262739
-0.07581521
0.010634022
0.09128412
-0.026602495
-0.007546773
0.02024883
-0.029289419
0.041798744
0.030083084
0.072806396
0.06346345
-0.1090867
0.027272837
-0.009925456
0.009341433
-0.056361
-0.031429455
0.101007834
0.05178052
0.022298818
-0.1190344
-0.048288323
0.060817942
-0.008865677
-0.024455799
-0.031529613
0.029591594
0.017559689
0.04629708
-0.061683692
-0.114143685
-0.0054538357
-0.07979576
0.043180596
-0.09334758
-0.056272887
0.0079552885
-0.07284917
0.03171757
-0.057536833
-0.04453906
0.021795167
-0.0015271765
-0.02152671
-0.062186874
0.04092251
-0.005475231
-0.039775327
-0.004895656
-0.035970517
-0.062135395
0.018326323
-0.1075858
0.045343455
0.026668614
-0.15620078
-0.21467337
-0.18551987
0.15682654
0.10242898
-0.24663009
-0.27256313
-0.15746596
0.11492621
0.031116452
-0.10940072
-0.09741106
0.031841688
-0.06633723
-0.13585684
-0.08871917
-0.0003122458
0.025773536
-0.10355566
-0.110264346
-0.010371542
0.03351715
-0.07321722
-0.05827123
-0.042260993
0.06416143
0.09011196
-0.10480358
-0.062554665
0.023970246
0.040740926
-0.04510153
-0.07340956
-0.017743887
0.03076134
0.058269266
-0.0712394
-0.059799064
0.096035175
0.061545454
-0.042838275
-0.0053530484
-0.0010097809
-0.019678956
-0.1336838
-0.050400116
0.016766533
0.04586536
-0.016081575
-0.05766739
-0.033179704
0.06696395
-0.028063254
-0.04955485
-0.08754505
-0.012059864
0.06023451
-0.030621128
-0.07290309
-0.010110156
0.010058035
0.030967763
0.057871215
-0.040622994
-0.017657565
0.01655514
0.02798931
0.006136102
0.053498704
-0.014279496
-0.072984435
0.025344543
0.038981784
0.034667842
-0.033591915
-0.07204805
0.024314985
0.07408391
-0.008317072
-0.08226252
-0.029911153
0.08077899
0.021470474
-0.030710615
-0.08146386
-0.022239538
0.0065232795
0.051170137
-0.016699795
-0.029647607
0.06607458
0.031983387
0.028014405
0.043098625
-0.0574473
-0.07343053
-0.06868266
0.03941321
0.014064987
-0.08755042
-0.07891856
-0.04228535
0.080541894
0.019412016
-0.063714094
-0.022552432
0.033623066
0.06727796
-0.058270745
-0.020496309
-0.0054630325
0.025375165
0.027921034
-0.036124676
0.04614134
0.08725024
0.028901746
0.022887982
0.06147523
0.2244576
-0.077301815
-0.0514571
0.10536145
0.12361548
0.16600454
-0.13483724
-0.025773514
0.10932451
0.046370026
0.06961321
-0.24343097
-0.004647771
0.11245986
0.0011536155
-0.08337999
-0.07683345
0.070316516
0.12587951
-0.020026952
-0.039050117
-0.026911749
0.0903836
0.035574295
0.046367474
0.094179004
-0.03232884
-0.093454614
0.12582633
0.047755595
0.009018121
-0.095153764
-0.078506194
0.13234915
0.008352038
-0.043156493
-0.14760917
0.056299634
0.100331075
0.030122247
-0.010364282
-0.039262407
0.028592197
0.09144333
0.021004234
-0.0052891383
0.06718876
0.04366163
0.057561606
0.10337078
-0.009197816
-0.104321934
0.013032951
0.019600052
0.00947743
-0.106798775
-0.06378972
0.09921525
0.02192947
0.057874277
-0.06793875
-0.004372146
0.08866845
0.022079263
-0.0027763203
-0.04714882
0.052752655
0.07037296
-0.024842009
-0.07472662
0.015576335
0.025226159
0.07583667
-0.04996081
-0.009951221
-0.0071280077
0.056406617
-0.112826064
-0.10306079
0.0836968
-0.010298804
-0.15441021
-0.24330935
-0.12025137
0.1451611
0.022116307
-0.13813823
-0.14391811
-0.022260215
0.0789173
0.07241705
-0.06364158
-0.08229534
0.009820131
0.007028023
-0.07132817
-0.030274158
0.021198647
0.03684537
-0.038179543
-0.037025534
0.10572025
0.16092221
0.09975823
-0.066039585
-0.10641998
0.074520245
0.13396962
-0.008814547
-0.085053936
-0.08525594
0.060772266
0.059778243
-0.040791787
-0.09378535
0.0471119
0.033532485
0.15563707
-0.014741366
0.00802899
0.05381309
0.06546868
0.15154544
-0.114835426
0.03788759
-0.09837929
-0.10951757
-0.0128549
0.07859257
0.017162034
-0.016061723
-0.0424948
0.0007197432
0.06557312
0.025818886
0.037195504
-0.005753987
-0.03057436
0.020510182
0.03368566
0.0454919
0.0276849
-0.04625231
0.059219804
0.030634373
0.0675468
0.0034735515
0.025238115
0.010866371
0.012299603
0.01468306
0.037321575
0.019185642
-0.009505536
0.006254307
-0.009649788
0.0045356164
0.042586327
-0.0014400079
0.025618108
-0.03102374
-0.045396097
0.03054052
0.023082113
-0.08077211
-0.051505223
-0.032613426
0.08334322
-0.020295823
-0.086302966
-0.056625746
0.04606818
0.036984544
0.021985715
-0.04235963
0.020156823
-0.03173166
-0.0138895195
-0.021587608
-0.04396766
0.06411825
-0.0041863923
0.071805544
0.045935113
-0.089594655
0.07556688
0.028249528
0.0012407331
0.043721035
-0.0035101105
0.1041412
0.063751675
0.023830904
-0.022731988
-0.042460755
0.08221003
0.055765323
0.08192077
0.009378075
0.010677963
-0.017586904
-0.12746073
-0.04435896
-0.07263797
0.0922453
-0.06082466
-0.11288134
-0.041243937
-0.05017886
0.0196294
-0.012816627
-0.101969466
0.003059783
-0.040452052
-0.011363371
-0.04937904
-0.10668476
-0.019865194
-0.03955029
-0.09310489
-0.09157484
-0.09506175
0.005890647
0.020499801
-0.12685254
-0.014528854
0.021544341
0.025816577
-0.09231876
-0.02834482
0.052018527
-0.02457527
-0.004232931
0.009448277
0.013057792
0.0006876078
-0.15561083
-0.111846976
-0.04549842
-0.004391891
-0.14740926
-0.19336009
-0.019067788
-0.0296394
-0.045984376
-0.22253741
-0.171787
-0.062806524
0.032434758
0.011860339
0.037657347
0.11527905
-0.003091668
0.040068164
-0.03940979
-0.031404767
0.098457254
0.0413156
0.044619903
0.022682302
-0.07207977
0.10972424
0.06981762
-0.015164419
-0.034527957
-0.093266115
0.14142542
0.098101944
0.022567088
-0.02809885
0.027367596
0.080443874
0.09506615
0.10477674
-0.060409296
-0.0015635641
0.11672414
0.024912475
-0.07868227
-0.060024608
0.021790432
0.061865788
-0.030351646
-0.008256752
-0.042915016
0.023379257
-0.020446869
-0.056324627
0.052377176
-0.00050632365
-0.020301444
0.0012244686
0.022431381
0.020557046
-0.020775676
-0.010196377
0.04004494
0.13956507
0.057806697
-0.034949977
0.004599692
0.025269266
-0.052507292
-0.040145773
-0.005997411
0.070204854
-0.016295636
-0.0021137549
-0.0027510352
0.007951728
0.07296224
0.05186683
-0.060855545
-0.035223294
-0.012322737
0.0740572
0.046055816
-0.0020424589
-0.038324084
-0.08140962
0.032873042
0.06506116
0.010957927
-0.03917605
-0.027335905
-0.0040827966
0.11363248
0.019061545
-0.04660528
0.008138317
-0.0037393635
0.021643016
6.997718e-05
0.058630165
0.005386455
-0.08640696
-0.051946875
0.038187444
0.049473166
-0.07070358
-0.12547772
0.055401225
0.093322694
-0.043698713
-0.08495588
-0.0043445965
0.026108291
0.051388025
0.039369807
-0.02965335
0.010222742
-0.08455962
-0.05057429
0.01717545
-0.04713194
0.07064602
-0.011459312
0.052368853
0.029417984
-0.052748896
0.03001216
0.07092334
-0.036799148
0.0038608524
-0.022161549
-0.028423287
0.0127206985
0.0076123625
0.01402633
-0.058684934
-0.029766236
-0.0453566
0.0051603746
0.03206798
0.06483436
-0.04616847
-0.20252272
-0.14909075
-0.05258418
-0.007098816
-0.028090483
-0.088053994
-0.022718724
0.10713214
-0.054867182
-0.13055557
-0.2842354
-0.05675181
0.058678973
-0.111689046
-0.10252883
-0.060094483
-0.13656041
-0.060692925
-0.0458767
-0.02476756
-0.04312816
-0.032355383
-0.02375134
-0.041847084
0.047057092
0.010559349
0.02340783
-0.005744497
0.030712262
0.0023126449
-0.07404345
0.03210166
-0.020539122
0.035971317
-0.05022805
0.014165061
0.067264386
0.006989897
-0.0002454723
-0.012111306
-0.026675975
0.031635642
0.03557303
-0.01345902
-0.05799008
-0.016759584
-0.04817368
0.0166045
0.018101845
0.041238405
-0.002423204
0.012591048
0.039063156
-0.00039768437
0.019377673
0.02296812
-0.011697783
0.0280607
-0.003408758
0.029258886
0.047344524
-0.025878295
0.011150041
0.0087789735
0.051050145
0.043607928
-0.01955374
-0.06726728
-0.030245157
0.07919831
0.04822068
0.044571772
-0.01786464
-0.003444007
-0.045115553
-0.011830459
-0.033133622
0.029461285
-0.045715064
-0.023202606
0.05546355
0.036127824
-0.002035539
0.008791612
-0.019226896
0.032317467
-0.03338593
-0.06518623
-0.06661793
-0.0035480647
0.011624179
-0.017558888
-0.009194126
-0.0844033
0.044745263
0.06908523
0.03757394
0.054799184
-0.0016074294
-0.045988817
-0.08155504
0.018764654
-0.029304923
-0.052515246
-0.019844698
-0.008342934
-0.009739984
-0.0027817197
-0.004170804
0.037175696
-0.0080824485
-0.013233331
0.01978077
-0.02364086
0.01587055
0.048104923
-0.022498738
-0.07032384
0.03376039
-0.023328727
0.005818436
-0.0028989494
0.0659477
0.047332566
0.06516828
0.06616724
-0.036497626
0.019511793
-0.046896886
-0.000113691836
0.046990663
-0.049398433
0.015603766
-0.014448008
-0.009824488
0.10201192
0.056172393
0.07107574
0.0020115583
0.02965193
0.14637484
0.0020360355
0.12034433
-0.013069687
0.020757286
0.050102483
-0.008984229
0.05579266
-0.016133172
-0.04463989
0.035072673
0.054069884
0.028606554
-0.072211355
-0.08302322
0.12674914
0.0072035585
0.020248884
-0.02525431
-0.027506119
0.091513984
0.0066846646
-0.008610703
0.013241718
-0.054497406
-0.007434394
-0.04056861
0.07223895
-0.058119748
-0.031472187
-0.010406456
-0.027642783
0.07181186
-0.029649042
0.019790018
0.005197048
0.041009147
0.008545155
-0.018921774
-0.034436848
0.012397809
0.0065383255
-0.027951268
-0.058525156
-0.027736176
0.038547054
0.002086456
-0.00029439665
-0.06572821
-0.0354838
-0.0054184883
0.025958795
0.02006866
0.0027852594
-0.023685854
0.011992339
0.06008815
0.0033864263
0.031460878
-0.041981973
-0.105724245
-0.06312899
-0.0427534
0.029165266
-0.10823655
-0.13577013
0.037306137
0.05982628
-0.05699355
-0.1691229
-0.19287162
-0.032053728
-0.00863975
-0.052678764
-0.12278966
-0.13979301
-0.08488304
-0.039391965
-0.07324078
0.011360722
0.026201036
0.018194817
0.004920119
-0.0642801
0.012550018
0.0003233063
0.020524086
-0.07472891
-0.027083993
0.08482669
0.00070167595
-0.03128723
-0.03769486
-0.005389278
0.1104302
0.028081093
-0.052234516
0.023238083
-0.023262216
0.10608653
0.026143454
-0.03411661
-0.08373355
0.03499934
0.07190309
0.050469913
-0.04116961
-0.07358991
-0.032763336
0.032235686
0.053923447
-0.017019799
-0.008973253
-0.0015947131
-0.008759933
-0.016312134
-0.016056253
0.083624
0.0034690097
-0.024857897
0.009096258
0.020757342
0.008682358
-0.042259455
-0.0041340683
0.09029265
0.052217748
0.049598552
-0.0047530443
-0.034775075
0.050461322
0.0009920414
0.0011242555
0.0051491717
0.014258078
-0.043835912
-0.010233637
-0.0021837126
0.12033227
0.069539934
-0.027179476
-0.029952599
-0.10429755
0.0362613
0.025506763
0.12537101
0.118179
0.099584326
-0.01702134
-0.09672988
-0.053932656
0.10144504
0.11333245
-0.07809707
0.050287537
0.029051736
0.006327067
-0.04692935
-0.010402635
0.0065793493
-0.071725644
0.013247083
0.054186687
0.08585597
0.051745236
0.008744095
-0.022685936
-0.0119438525
0.011890513
-0.013214227
0.09071445
0.06422033
-0.059194386
-0.06588912
0.0048977695
0.03094293
0.018475706
0.05640419
-0.039589692
-0.05308055
-0.044231046
-0.049439542
-0.06703945
-0.031945705
-0.08513689
-0.08668318
-0.03293476
0.0077606407
-0.011208932
-0.073501945
-0.1103844
-0.043429717
-0.04682827
0.10375044
-0.080224864
-0.121443786
-0.11424576
-0.10542063
0.11566623
0.10472439
0.1315066
0.08780757
0.03410861
0.022439498
-0.045823194
-0.027636169
0.07003766
0.021787971
-0.03212018
0.0409806
-0.05478407
-0.045848817
-0.043237258
0.004856033
0.059927482
0.0088231005
-0.09453802
-0.11805314
-0.088145666
-0.071462676
-0.05779631
0.07252362
0.0648955
-0.062911995
-0.07896071
-0.11735548
-0.11825856
-0.07793047
0.028425721
0.009001128
0.10077258
0.028144782
-0.05810078
-0.04389139
0.053095486
-0.018626157
-0.08777692
0.0992364
0.023850065
0.037021723
0.03877167
0.09400068
-0.018432856
0.073619254
0.03275482
0.054664455
0.13174726
0.11819168
0.010371116
-0.021751262
-0.06074028
-0.08105949
0.021427052
0.035299297
0.053886365
-0.07187282
-0.1265918
-0.089304626
0.013555149
0.017414048
-0.030852027
-0.047460645
0.0017147308
0.036468357
0.10125634
0.0029656228
-0.10574761
-0.1043111
0.062811665
0.08578975
0.14282937
0.11150588
0.10600063
0.011789789
-0.03616973
0.005659975
0.031073447
0.08741494
0.0071506556
-0.033614844
0.013451358
-0.07331986
-0.09554249
-0.054686647
-0.055889104
-0.04452132
-0.009409131
0.01393754
0.031549856
0.041835334
-0.045612495
-0.07771188
0.0060074804
0.07698175
0.027994445
-0.029061852
-0.0064685345
-0.038753662
-0.012524834
0.053619176
0.06277633
0.02898953
0.0075564617
0.011402442
-0.016507206
0.0057508484
-0.011434412
0.009624944
0.035455454
0.040798876
0.008757619
-0.097507074
-0.028780354
0.094390005
0.05196268
-0.02387358
0.009180429
0.0034093293
0.05001066
0.01707844
0.008773646
0.04526362
0.060360726
-0.0538179
-0.09967467
-0.08166517
0.020928143
0.05568061
-0.00073323294
-0.009054467
0.0054557393
-0.07657682
-0.05382598
-0.02564592
0.026246164
-0.018969066
0.026862185
0.03203456
-0.030012708
-0.016204469
-0.05356069
0.009976986
-0.020071298
0.042555816
0.034388587
-0.036986314
-0.0075495467
-0.06486041
-0.017309375
0.038950905
0.039732832
0.08163828
0.039176844
0.003658089
-0.0022333486
-0.04267266
-0.04577472
0.02517816
-0.06557322
-0.111765645
0.022965752
-0.06565953
-0.03270007
0.076513976
-0.11237846
-0.19034885
-0.03707307
0.07979609
0.070588015
0.08272589
0.13696656
-0.047666192
-0.10229698
-0.05484719
0.065691665
0.1844685
0.116634175
0.08162213
-0.11102375
-0.12160543
-0.002314467
-0.014874369
-0.007247745
0.06608732
0.029645387
-0.054089576
-0.027572073
-0.05787366
-0.031458676
0.010309025
0.051185034
0.10071084
0.10956659
-0.02208795
-0.13230985
-0.15847908
-0.08809466
0.024769366
0.05932009
0.025902407
0.013874144
0.04284465
-0.09929326
-0.008519208
0.003068567
-0.011585232
0.037175693
-0.022397852
-0.013126102
-0.016937034
-0.058744386
-0.017716857
0.0108157825
0.052115146
0.046260368
0.06326691
-0.059094932
-0.024913209
0.052913424
0.048676915
0.04136585
0.06936634
-0.027445512
-0.028550792
-0.042639885
0.02311401
0.029877657
-0.038563646
0.047051486
0.015559504
-0.040273387
-0.05747795
-0.060621615
-0.025113547
-0.012488614
-0.06457301
-0.05530944
-0.04783858
-0.012264989
0.034234665
0.06726522
0.015709782
0.015476715
0.03606502
0.0032966842
-0.01026633
0.022844007
-0.006885829
-0.026491845
0.05849029
-0.03532957
0.027325856
-0.0016106168
0.02080046
-0.025271628
-0.0014143285
-0.046239838
-0.059586957
-0.026420034
-0.0027870457
0.00029814334
0.022620376
0.042911403
0.048494693
0.017793542
-0.054038692
-0.08497916
0.023935746
-0.01918003
0.011732837
0.0656026
0.041853618
0.029386021
-0.037050217
0.038711485
0.029210387
0.003040113
-0.0020025524
-0.017932005
-0.033327475
-0.050123554
-0.016278716
-0.017694978
0.0947237
0.100376055
-0.028008273
-0.038588826
-0.07326053
0.03413562
0.03306332
0.048218906
0.18241261
0.0906104
-0.072789796
-0.13775674
-0.2151829
-0.010867151
0.0038396842
0.015811501
-0.08227439
-0.14228643
-0.091608204
-0.08165127
-0.018940229
-0.022895332
-0.058629557
-0.0473025
0.03558189
-0.07274794
-0.095909484
0.0044601895
-0.01602353
-0.03470108
-0.077415556
-0.09806249
-0.04201511
-0.077873945
-0.004170266
-0.010388209
-0.019272298
-0.07128685
-0.039367292
-0.051572736
0.04821945
0.045680948
0.020720618
-0.0628092
-0.030148434
0.0006134082
-0.056325834
-0.0556425
0.020958928
0.028627463
-0.0546494
-0.05310921
0.05451088
0.06178818
-0.011413347
-0.060191624
-0.028417293
0.060934447
0.019767834
-0.011186938
0.014707594
0.058467317
0.048684224
0.06392177
0.05143726
-0.016800543
-0.056930542
0.0394946
0.036638685
0.01626101
-0.00033420694
-0.042231053
-0.036032207
-0.05428933
-0.04995611
-0.05137075
-0.06314229
-0.035352398
0.04784141
-0.032678768
-0.025666539
-0.09069667
-0.15347072
-0.12582198
-0.002697609
0.10800938
0.022996645
0.07443156
-0.046408277
-0.04791232
-0.07625478
0.01704445
0.10586179
0.07756435
0.07659982
-0.08482752
-0.104776666
-0.04948666
-0.0046858885
-0.0018924293
-0.09565198
-0.063736066
-0.016234957
-0.110793084
-0.05100608
-0.046536427
0.060753733
-0.010936181
-0.12581342
-0.15831853
-0.023676027
-0.01838028
-0.016940914
-0.08529151
-0.09292921
-0.028899834
-0.0026125256
0.016770983
-0.10322406
-0.20768124
0.011486016
0.03663244
0.0023899039
-0.032005858
-0.10339975
0.038816832
0.062424082
-0.044625882
-0.033747587
-0.049692255
0.0830364
0.06375968
0.039120827
0.086037755
-0.013893009
0.031983387
-0.015632587
-0.04062737
0.051817235
0.04071932
-0.09035799
-0.02483083
-0.029296605
0.0036213712
-0.048163142
-0.07834844
-0.018397843
-0.017386703
0.00054576824
-0.04112155
0.090883546
0.017207427
0.04288831
0.025241826
0.06374595
-0.002787499
-0.068802744
-0.0167785
0.016474083
0.0011173758
-0.0814338
-0.11795562
-0.08088572
-0.035325613
0.04259523
-0.052092943
-0.12233789
-0.10399796
0.006145128
0.10685153
-0.0077441935
-0.02762788
-0.025605153
0.010702281
0.0054309503
0.011928655
0.0016881191
0.034377236
0.003466207
0.007843666
-0.028595163
-0.013810238
0.05078155
0.009974527
0.07353416
-0.04184721
-0.033250548
0.048394993
0.086012
0.07565047
-0.027098227
-0.03566568
0.01579543
0.07224465
0.081589594
-0.009164247
-0.03064716
-0.0037028382
-0.034617998
0.07441252
0.05404167
0.049187504
0.04607698
-0.025062844
-0.06139536
0.04680316
0.07693864
0.09575281
0.08352881
0.073377974
0.0012988666
0.049329415
0.002758651
-0.005111215
0.030850304
0.010098551
-0.08140302
0.0069158217
-0.009859773
0.02972492
-0.037440084
-0.055995166
0.021924406
0.01979494
0.11348631
-0.012221098
-0.0034306988
0.04553462
0.01749186
0.07905008
-0.027102865
-0.008007244
-0.026407152
-0.059193842
-0.0990218
-0.007191371
-0.058766108
-0.08791338
-0.19770207
-0.17055897
-0.048680916
-0.09574333
-0.24327928
-0.16537912
-0.03855306
-0.062232915
-0.013451786
-0.10967433
-0.20730804
-0.14380608
-0.024679976
-0.021644697
0.044129115
0.09080378
0.1210867
-0.018639453
-0.027580885
-0.007824448
-0.013185204
0.07643738
0.005175745
0.05731944
0.083143696
0.109646864
0.09037431
0.063912146
0.09865902
0.082072325
0.090881735
0.08154686
0.032096144
0.023510257
-0.021403043
-0.036180884
0.042590637
0.021291899
0.08241802
0.040530093
0.0687682
0.010459591
-0.048689313
-0.038922522
0.09848241
0.030667953
-0.02099098
-0.04888127
-0.066394195
-0.03772008
0.013144871
0.07875642
-0.043350272
-0.09203394
-0.07652619
0.042600244
0.13253503
-0.03149934
0.011717563
-0.09040495
0.039854426
0.13756001
0.026341822
0.029021544
0.034486316
0.067834295
0.043594994
-0.017381996
0.04744263
0.041649282
0.02616809
0.069723874
0.013885458
-0.027543396
0.019859863
0.044055797
-0.005152454
-0.072113946
-0.035052422
-0.03490317
0.032011975
0.0777022
-0.01523606
-0.029826196
-0.033599842
0.028976414
0.028441919
0.052431032
0.007543164
0.072464176
0.07457347
0.09963089
-0.06158795
-0.016953096
0.005128506
-0.048267666
-0.011567031
-0.0026540342
-0.08904274
-0.069936216
-0.0744096
0.027532142
-0.030446729
-0.050513897
-0.04847514
-0.014189807
0.04233204
0.035559442
0.053195953
0.033124197
-0.05104717
0.038342886
-0.003591912
0.046959475
-0.02188461
-0.03227156
-0.035731584
-0.030302553
-0.016229795
0.07243569
0.070617646
0.0638825
0.047546644
0.021828946
0.066707335
0.09184648
-0.02110442
0.018832315
0.028517088
-0.0074307583
0.0023317132
0.09051394
0.016256262
-0.016464828
-0.0050596516
0.021656422
0.060636174
0.09165665
5.3254644e-05
-0.1003693
-0.1054601
-0.055774234
-0.013401944
0.0190801
-0.11862849
-0.055187955
-0.071720146
-0.100289024
-0.045110084
-0.0704398
-0.10646496
-0.089050315
0.019161029
0.0020443134
0.06889152
0.09555828
0.065166496
0.060615476
0.011625754
-0.043835107
0.05275516
0.11488899
0.057602536
0.033181116
0.06899675
0.10348975
0.039147317
0.07163399
0.021895321
0.031072829
0.0652918
0.04144904
0.0050179996
-0.021727912
0.043746367
0.012329794
0.08565276
-0.03383003
-0.09557849
-0.0901388
-0.023331039
0.08650147
-0.057987384
-0.028989771
-0.019674923
0.02890077
0.027744059
0.0365509
0.041584786
-0.0049538487
0.06057302
-0.014215102
-0.025733102
0.037975498
0.055510517
-0.0121516865
-0.010800499
-0.048396315
-0.047533218
0.07961305
0.04834889
0.059750836
-0.06414186
-0.034427047
0.02490818
0.094474904
0.12202607
-0.022859976
-0.06396697
-0.07378397
-0.022857869
0.018812934
0.0016779109
0.007128694
-0.005793646
0.009234509
0.07319276
-0.0029583701
-0.046617042
-0.003357523
0.05887207
-0.015630335
0.03317252
-0.021296037
0.025498398
0.0044722124
-0.0043450915
0.012599158
-0.023670113
-0.050031714
0.01569678
-0.0008653479
-0.060649786
-0.096201375
-0.033436093
0.0016560317
0.040426765
0.055271354
0.046909973
0.0050766775
-0.032230776
0.036696788
0.026718648
-0.014152514
0.00940313
0.023808623
0.053569376
-0.02305831
0.02733146
0.0234512
0.0220932
-0.004425892
-0.024352381
-0.03578859
-0.017997526
0.080492415
0.074619904
-0.01866725
-0.10479148
-0.0052603018
-0.016001154
0.08098333
-0.0958885
-0.10189163
0.043097302
-0.0017960849
-0.07556381
-0.008613569
-0.02911478
0.019288395
-0.020316863
0.023326498
0.10924507
0.16553049
0.00615676
-0.028352289
0.02975808
0.08940136
0.13633159
-0.05943249
-0.13050497
-0.11974754
-0.058489352
0.019787014
-0.111572504
-0.18636397
-0.014958996
-0.026260206
0.017951798
-0.0019857362
0.046256084
0.07868123
0.056209963
0.05645431
0.08204939
0.09248988
0.07289481
0.037964314
0.059281446
-0.027766507
-0.051711373
0.0012310237
0.02059871
-0.0020844124
-0.027668329
-0.021442998
0.010143389
0.0019414071
-0.044221893
-0.050931264
-0.08430573
-0.04655104
0.053326756
-0.008340724
0.013120122
0.037226755
-0.026246514
0.028574597
0.028280117
-0.007647591
0.033133768
0.03486204
0.05941835
0.0393975
0.00875699
0.01645256
0.05934569
-0.02066397
-0.014342197
-0.04583805
-0.0075793285
0.07148332
-0.052182306
-0.033263728
0.0033214751
-0.032379806
0.073229365
-0.0204106
-0.0760026
-0.06482636
-0.023021564
-0.07508315
-0.043536667
0.013185522
-0.13408741
-0.15561083
-0.08369373
-0.032684945
-0.07191736
-0.10485675
-0.09334518
-0.07491515
-0.02597451
0.0013759895
0.0548718
0.112376474
0.021344353
0.042499296
0.0027393952
0.018217128
0.113911904
0.06846488
-0.010975316
-0.03818049
0.030596212
0.07107598
0.0193419
0.03494832
0.017235128
-0.0081928475
0.04523354
-0.06221364
-0.067235276
0.010908785
0.03709092
0.041360486
-0.089037955
-0.059165448
-0.0797902
0.09821457
0.10683149
0.06636952
-0.04904902
-0.116605185
-0.04992171
0.07635941
-0.028743483
-0.038392533
-0.011739245
0.05480759
0.016151452
0.02781829
-0.051122796
-0.029631615
-0.0046773353
-0.005726977
0.020784125
0.028087499
-0.03175062
0.006480763
0.05621129
0.032860935
0.019998018
-0.05455997
-0.082249634
-0.0023817606
0.061125565
0.0051849633
-0.03226473
-0.044269167
-0.01742419
-0.032638017
-0.0044670664
-0.005569418
0.0068465346
0.03320785
-0.006785418
-0.02347313
-0.05823542
0.019844493
0.09151533
0.029568234
0.09082863
0.050808977
-0.023197047
-0.09904752
-0.08670001
0.041909773
0.13420394
0.08811725
0.05864331
-0.05955239
0.007921625
0.07391114
0.101349816
-0.0015627618
-0.06274858
0.029986944
0.10662178
0.02774634
-0.028588505
-0.047590513
-0.043694433
-0.08205682
-0.053858574
0.070022054
0.0037773838
-0.02092313
-0.02617756
0.019310586
-0.0061440654
0.039356757
0.051865302
0.082786165
0.035821404
0.003683719
-0.036151715
-0.017865915
0.028269803
0.012835276
-0.060977753
-0.04476184
0.06524785
0.08611837
-0.001979999
-0.057691615
0.006497744
0.014129468
-0.029983824
0.040311012
0.06944141
0.056488615
-0.1492997
-0.023980819
0.02403291
0.12412821
0.0032935387
0.001532656
-0.009824998
-0.04512943
-0.04781313
-0.1171346
0.05370595
-0.0065197665
0.0016268844
-0.032398343
0.033581894
-0.07931249
0.008850616
0.06797493
-0.009697374
-0.046997745
0.033369496
0.079251975
0.003831038
-0.039920155
-0.004015502
0.055597115
0.022559207
-0.0026099666
-0.054103877
-0.07839606
-0.0049557695
0.03134544
0.18617843
0.116614476
-0.056152377
-0.10851623
-0.059781507
-0.008120179
-0.030062528
-0.008442083
0.02780531
-0.054908276
0.10472565
0.04783678
-0.003920731
0.038373247
0.04258128
-0.03212305
0.008954226
0.028376821
0.011206749
-0.014558108
0.016876008
-0.028903116
-0.009567692
0.0038760123
0.08406781
0.06713607
-0.04036977
-0.0913362
0.012265729
-0.047606792
-0.019516267
0.011599574
-0.06315139
-0.068271644
-0.019211737
0.06111637
0.0325571
-0.04444398
0.08487821
0.016286718
-0.07310924
0.018628877
0.060856372
0.020252261
-0.031884454
-0.0073205554
-0.09823968
-0.033288755
-0.013316473
0.085283
0.11446196
0.015610049
0.004528656
0.060145654
0.043051213
0.057895817
0.09664681
-0.015153589
-0.01962636
0.088413864
0.023101287
0.02986867
-0.018881578
-0.02852978
-0.021573631
-0.06279106
0.027434547
0.048298042
-0.0716953
-0.021259202
-0.014495442
0.04233017
0.04525206
0.035675757
0.060388286
-0.07100281
-0.022680162
0.026413752
0.015756968
0.054568402
-0.028855784
-0.018270178
0.03520437
-0.04342914
0.008486941
0.030893158
0.04183871
0.044536557
-0.033937257
-0.008164897
-0.006931938
-0.05161804
-0.08475064
0.06214223
0.0044481447
-0.07198774
0.00044276915
-0.0022782215
0.07423342
0.0658015
0.021046553
0.055354446
-0.024399554
-0.0364716
0.07847491
0.040809136
-0.013214856
-0.07183448
-0.03904811
0.06067039
0.04224806
-0.019828018
-0.017268538
-0.07465048
-0.105280474
-0.002983491
0.059115283
0.022314006
-0.043706927
-0.013676215
0.08971666
0.07729432
0.020899672
0.071211696
0.008128032
-0.032215044
-0.06451974
-0.08227486
0.021433206
-0.0023301856
-0.028280161
-0.010216382
0.026926713
0.15332663
0.083065055
-0.020084504
-0.1437507
-0.07878576
-0.042029932
-0.019871363
0.055253208
0.090656914
0.025457952
0.046212297
-0.042241354
0.09074074
0.07939765
0.07968964
0.08943524
0.05035496
0.039539114
-0.01159159
-0.09280256
0.009956106
0.03752104
-0.027671518
0.041664816
-0.08259372
-0.01907109
0.033717435
0.08284172
0.09595363
0.005879584
0.070878915
0.046398252
-0.026516978
-0.033683885
0.031173877
-0.030308062
0.032910064
0.12678951
0.10568574
-0.011133666
0.013432319
0.062995896
-0.043484252
-0.039267275
-0.011975024
0.058348514
0.023165818
-0.066492505
-0.0063199163
-0.026585177
-0.06316008
0.048546687
0.059413653
-0.017771373
-0.042138778
-0.035110325
-0.0652686
-0.06829481
0.01732855
0.03337327
-0.0034681037
0.017473964
0.0022315234
0.026116591
0.018005954
0.06465988
0.034206573
0.00965353
-0.019172786
-0.055308726
-0.011698655
-0.034416668
0.053503618
-0.007933694
-0.032833904
-0.01700842
-0.004325015
0.01436109
-0.031769283
-0.007068225
-0.04580666
-0.049282867
0.022410117
-0.036024697
-0.024776645
0.03843667
0.012793675
-0.015828209
-0.05611807
-0.031486914
-0.034421306
-0.018870207
-0.00032578086
-0.012231006
-0.049593925
-0.049672764
0.03294565
-0.031190043
-0.04803881
0.038986046
0.03650316
0.046722114
-0.0073195533
0.043401986
0.05653168
-0.09081115
-0.0036471335
0.054345746
0.027065039
0.011818538
-0.012826569
0.03756943
-0.03763426
-0.028116964
-0.015458138
0.04281174
0.04063459
-0.016386956
-0.017816264
-0.060418166
-0.008614973
-0.003911193
-0.037644405
-0.066000886
0.031242745
-0.07360189
-0.08079289
-0.033018887
0.052409485
0.055038244
-0.077376366
-0.03779346
-0.0190899
-0.13268381
-0.046154775
-0.07353963
0.02510887
0.114948
0.0055782027
-0.067603394
-0.04270485
-0.014947413
0.10370405
0.031371724
-0.037333444
-0.0063043293
-0.04248786
0.02140941
0.010575979
0.009270754
0.012672775
0.0077360943
-0.0013207612
0.0274952
0.035603546
-0.059466735
-0.049601424
0.07025543
0.051486224
0.015713653
0.017504994
0.0016195056
-0.014310582
-0.03173508
-0.045227114
0.050954424
-0.065261826
-0.0639109
-0.007497338
-0.057451896
-0.04541994
-0.044699438
0.0025955008
-0.023209706
0.025809256
-0.018923076
-0.007873453
0.01653797
0.032800186
-0.040913504
-0.034180533
-0.044012252
-0.0413079
-0.010364315
0.03542929
0.0015508578
0.026031533
-0.000986442
-0.049929395
-0.019150611
0.06391347
0.05369862
-0.047633756
-0.025741208
0.04720684
0.048658587
-0.032118198
0.018445762
0.032290973
-0.025290228
0.06203278
0.054949183
-0.060095776
-0.044524916
0.020989643
-0.09708186
-0.0715837
0.13503607
0.071278065
0.015880596
-0.03441077
-0.010046182
0.08216785
0.0303257
-0.020951496
0.053081196
0.0037834332
0.011075264
-0.07796898
-0.04270247
-0.019271279
-0.012815224
-0.079772614
-0.03665207
-0.035086475
-0.11548654
0.019792356
0.060768742
-0.030839346
-0.0666329
0.0064572715
-0.04651347
-0.027371643
-0.08317498
-0.07207515
-0.027876858
-0.09964418
-0.14428306
0.006041288
0.017952273
-0.021283835
-0.07200259
-0.118712395
-0.013263498
-0.0043344116
-0.036557246
-0.060033202
0.028878473
0.047161177
-0.012909151
-0.05281563
0.0034016788
0.03916635
0.023994735
0.01263092
0.012895575
-0.020589916
0.018093884
-0.06191526
-0.00023790977
0.08175813
-0.006225627
0.050491232
0.0064886613
0.022430629
-0.07681395
-0.014300297
0.06919011
-0.020341134
0.008705138
0.045504153
-0.01900571
0.022591894
-0.00947587
-0.033696834
-0.013045151
-0.100900546
-0.12915465
-0.10891132
-0.09023166
-0.046476312
-0.034204487
-0.026197186
-0.04378117
0.00027651273
-0.0027945512
0.03091967
0.048085663
0.026450418
0.03477495
0.0506707
0.03408439
0.02736913
-0.007509185
0.051126793
0.07655095
-0.020904016
-0.09174256
-0.031618286
-0.008381122
-0.03697224
-0.008231586
-0.0595619
0.015801359
-0.023361506
-0.031734377
-0.027265072
-0.03806572
-0.014622904
-0.03429519
-0.033476286
-0.018962357
-0.033621237
-0.07061835
0.041322935
-0.003171601
-0.02392615
0.031183936
0.061474726
0.032862555
-0.059135478
0.0031060795
0.037905246
0.01712159
0.037028354
0.0018782724
-0.053513385
-0.0683679
-0.039655793
-0.08911863
0.03264565
0.010795373
-0.04265372
-0.13240491
-0.15729754
0.013314783
-0.016591258
-0.08250483
-0.12408441
0.07534307
-0.016173555
-0.015854176
0.04634102
0.08390682
0.10008336
-0.0355509
0.04892711
0.048750106
0.020088566
0.020274922
-0.03449609
0.009488619
-0.07722749
-0.017215755
-0.030248147
-0.014829621
-0.016530445
0.06395831
0.053271886
0.070473745
-0.0011342897
0.12107898
0.11113081
-0.004446625
0.01873677
0.1216477
0.1109096
-0.008250121
-0.05612495
-0.020486413
-0.002889783
-0.14453161
-0.13139929
-0.13010316
-0.06408808
-0.10518351
-0.020684207
-0.056342103
-0.06064411
0.0052641234
-0.046083376
-0.03365733
-0.101691335
-0.052908167
0.043908983
-0.07452815
-0.06393352
-0.05566744
0.0055930153
-0.029295467
-0.11257121
-0.085465096
-0.063932635
-0.034141015
0.028361473
-0.046354953
-0.018732565
0.054617256
0.023210198
-0.06820045
-0.047032595
-0.06277634
-0.05299009
-0.07355996
0.0006757269
-0.018720439
-0.069753535
0.010394725
0.008318542
0.0018069589
0.012502939
0.048768878
0.08709602
-0.032022234
-0.02843739
-0.014141006
0.054839943
0.0034280913
0.022005681
0.008097942
-0.016694147
-0.017573912
-0.030040016
-0.08066685
-0.059185505
-0.06865752
-0.05526262
-0.033891924
-0.050069332
-0.06422018
-0.060406484
-0.056055196
-0.026362622
-0.006186574
-0.07812259
0.03301959
-0.026966022
-0.06668947
-0.08393322
0.0075815883
-0.015796531
0.011451912
-0.0070546726
0.044581536
-0.01927071
-0.009124935
0.033122696
0.03854003
-0.016830431
0.004055697
-0.041909643
-0.027211495
-0.07722735
-0.106359564
-0.025356563
0.01797538
0.02235994
0.032908797
-0.017211175
0.08187083
0.04491943
0.10063341
0.017062431
-0.0090197325
0.0018949739
0.0019253468
0.06166965
-0.028275792
-0.053102214
0.0010270625
-0.06626295
-0.11171509
-0.076032266
-0.070467815
-0.008208831
-0.041054863
0.024947982
0.012108638
-0.020354422
-0.0090299705
-0.020851133
-0.090246595
-0.06595947
-0.05858083
-0.081158265
-0.032245196
-0.08528547
-0.06362494
-0.106369235
0.067313194
-0.069001995
0.020098045
0.06947417
0.08813547
0.03755818
0.015409053
0.0666904
0.06282026
0.06487264
0.017097514
0.12572661
0.091842525
0.0481771
-0.033108056
-0.0756719
0.11122051
0.10183463
0.031556964
-0.050870012
-0.09541286
-0.028029604
-0.037584852
-0.029692959
-0.045702565
0.022307925
-0.112780705
0.00073416106
0.013296862
0.080264166
0.12340832
0.032383144
-0.0025647208
0.044767223
0.021118663
0.104004525
0.0006791171
-0.048887875
-0.10121195
-0.04404407
-0.023058413
-0.039668143
-0.028789248
0.028653456
0.046494275
0.05279174
0.0026189806
0.07030417
0.074530475
0.0008111771
-0.046952534
0.060465824
-0.013270436
-0.016399488
0.012741631
0.074706525
-0.029417975
-0.0018327642
-0.018364888
-0.01218088
-0.0024345904
-0.06107343
-0.054972637
0.0011999524
-0.042219903
0.012116474
-0.08107255
-0.042203307
0.016880661
0.018302243
-0.010093371
0.009022068
0.012700391
-0.016236676
-0.04391611
0.020805378
-0.0258009
0.012106309
-0.022115646
0.01977003
0.030675389
0.032119997
0.03706218
-0.021725358
-0.023151148
-0.10219832
-0.052246872
-0.06121806
-0.031671237
-0.02578152
-0.041594453
-0.086401954
-0.07120688
-0.042637277
-0.017912561
0.037693653
-0.010278056
0.027761757
0.05356467
0.0018783599
0.032342985
0.04742022
0.05772203
0.051375657
0.0148710115
0.04631026
0.007960821
0.068666875
0.054464802
0.0012291163
-0.08965648
-0.046041287
0.02046867
-0.050219003
-0.04244411
-0.042975776
-0.057517737
-0.035643734
-0.05176289
-0.03631006
-0.017607674
-0.07890007
-0.048127066
0.03534465
0.073084444
0.071310215
-0.048676964
0.074507155
0.073298655
0.012773584
-0.019407745
-0.008198477
0.029834906
-0.031722162
0.021164976
-0.07967484
-0.088729456
0.0074748504
-0.045838404
9.120999e-05
0.05214109
-0.13022147
-0.11768346
-0.0334518
-0.0017920895
0.071982555
-0.19300674
-0.104541846
-0.04908413
-0.020595694
0.0049933814
-0.16380225
-0.11020207
-0.013680559
0.027459305
-0.054656923
-0.081379965
0.019361248
0.0381913
0.038866818
0.01929473
0.016532432
-0.0672724
-0.07209467
-0.07467529
-0.011249235
-0.07084404
-0.1085919
-0.107527755
-0.08541614
0.015236531
-0.07267835
-0.13154036
0.0029849373
0.06917869
0.06640316
0.02366264
0.04845895
0.053426653
0.077530555
0.026373668
0.01523988
0.02172454
0.049255673
0.06581935
0.0025200462
0.004299544
-0.0032104205
-0.06452583
0.0074020424
-0.05107583
-0.01718084
-0.003113675
-0.025554582
0.03168402
-0.07888223
-0.09021953
-0.04359591
-0.008789083
0.03255733
-0.040465586
-0.0060044713
-0.0016534305
0.054649264
0.0653954
0.038373116
0.038243387
0.0032698868
0.05098605
-0.05791085
-0.058413178
0.07470935
0.124922134
0.04705596
0.02998812
-0.035801657
0.053374924
0.06974509
-0.07212554
-0.0521783
-0.069226794
-0.09667425
-0.053707555
-0.030406918
0.033987597
0.07168846
-0.09753073
-0.06823948
0.025273597
0.08423556
0.042141743
-0.05644123
0.009052154
0.008330814
0.011678621
-0.010252523
-0.066276975
-0.02828642
0.031677157
0.007856105
-0.07770735
-0.029924694
-0.11541012
0.04393821
0.010590602
-0.09956907
0.05251161
0.013410814
0.05406452
-0.023409577
-0.15826026
0.03342844
0.0019863655
-0.04937221
-0.0942142
-0.14370747
0.039900597
-0.01138531
-0.101862825
-0.047308687
-0.08186664
-0.01305045
-0.07909989
-0.03271978
-0.07069315
-0.02348571
0.02098276
0.033259626
-0.0076275663
-0.007466528
0.109979644
0.05372634
0.045641337
0.027671525
0.08202268
0.03186295
0.04427836
0.0720924
-0.037661023
-0.05241353
-0.036665786
-0.041431624
-0.05585919
-0.0032781921
-0.02842891
-0.03058912
-0.10242802
0.013561104
0.03136441
-0.0015346294
-0.05128118
-0.16460286
-0.10938431
-0.024442406
-0.16165027
-0.20069666
0.05040149
0.029988978
-0.055781
-0.04749954
-0.041370872
0.14975223
0.13465509
0.13627271
0.08524483
0.058349624
0.09776196
0.09902153
0.085196264
0.083181955
0.014306192
-0.056419697
0.030331511
-0.010627453
-0.017519027
-0.053222068
-0.08953189
-0.03204712
0.021021888
-0.04291222
-0.084574044
-0.04207328
-0.068401776
-0.021723652
-0.035742626
-0.079097904
0.017801903
0.026991477
-0.0014946866
0.019822324
-0.053685784
0.07955457
0.030777501
0.07336811
0.052849643
0.051659953
0.022947846
-0.025059802
-0.018466718
0.012372902
0.12620401
-0.077037625
-0.03857316
0.061468013
0.036783878
0.047348417
-0.010223935
0.05942873
0.047750343
-0.013011689
-0.015814349
0.02646644
-0.08887635
-0.1288931
-0.15785709
-0.12598975
0.09990386
0.012435265
0.03512986
0.04922814
0.0028077231
-0.049410414
-0.054318633
0.03942038
-0.066152595
-0.16974159
-0.044196676
-0.09606513
-0.038515273
-0.06277997
-0.101711564
0.10115441
0.15626392
0.1343087
0.05030535
0.029253688
0.18340588
0.17938994
0.11209472
0.1016599
0.11062056
0.09750728
0.0105190165
0.051129118
0.048040915
0.044768874
-0.08355888
0.01720994
0.12060988
0.02118178
-0.031680524
-0.15898313
-0.04967293
0.043885596
0.04494692
-0.071636915
-0.08253343
-0.081008315
-0.08585021
-0.097774714
-0.077123314
-0.07898947
0.033228595
-0.06292451
-0.09284352
0.0054511847
0.010007056
-0.05531059
-0.009252231
-0.021036116
0.017306559
-0.056008767
-0.06259756
-0.016668664
-0.010891666
-0.102788806
-0.100562
-0.056669008
0.0039345627
-0.05815686
-0.13083252
-0.051160175
-0.07583648
-0.107285805
-0.09068804
-0.080660716
0.08661415
0.13124388
0.08777677
0.0008628405
0.016439473
0.025222247
0.015480861
0.12324492
0.056374338
0.035218995
0.02855858
-0.016841576
0.011914967
-0.003494765
0.05925392
-0.064945094
-0.0110978
0.048816837
-0.036005583
-0.036440898
-0.06557401
-0.09262511
-0.08256212
-0.12582643
-0.089064464
0.042821407
-0.009864055
-0.050539676
-0.011337058
-0.08624259
0.008256514
0.016714469
0.010461087
0.046920214
-0.038944192
-0.045661286
1.3852031e-05
-0.050682027
-0.07833196
-0.05723875
-0.1407816
-0.119730555
-0.06855517
-0.13671806
-0.14274213
0.039381128
0.0074728127
0.014497366
-0.019880122
-0.045267608
0.08321463
0.11579152
0.03979578
0.022049095
0.027903894
0.014007006
0.018814234
0.114291474
0.05271652
0.07133439
0.014402295
-0.017341252
0.01052288
0.007938536
0.06715292
-0.011270699
0.022226235
0.06836344
0.06920451
0.010858557
-0.009537163
-0.044182446
0.01181362
-0.01921743
-0.051107638
-0.0958487
-0.006752665
-0.12792934
-0.092150785
-0.035271864
0.048382815
0.056969445
0.020269824
0.028063087
0.015124469
0.061245475
0.09917575
-0.0031740307
0.057873566
0.057911467
0.04398514
0.08057244
0.13669363
0.08249054
0.04895018
-0.07304607
0.0008712817
0.1525367
0.14965461
-0.0253661
0.012320701
-0.033664532
-0.019186122
-0.036519766
-0.09242581
-0.0060756714
0.033266407
-0.014789024
-0.01990164
-0.0022475934
0.042297307
-0.016699834
-0.0008977357
0.0066548237
0.019144071
-0.025492333
-0.09495785
0.04367761
-0.005132263
-0.028368972
0.016663615
0.080551155
0.096515186
-0.008208189
-0.05090992
-0.008199152
-0.066376954
-0.04261905
-0.12742582
-0.13168862
0.11214357
0.009001483
-0.04138206
-0.097550206
-0.12741052
-0.02638434
0.0021411371
0.008285577
-0.029595086
-0.04369086
-0.08806266
-0.032990057
-0.010602715
-0.040640626
-0.065003544
-0.054449808
-0.02935679
-0.102555625
-0.06822876
-0.08417045
0.0039062807
0.050944556
0.031467423
0.021258084
-0.014381062
0.0035970083
0.015664635
0.029046934
0.016966997
-0.008396806
-0.015320439
0.0385959
0.06093784
0.04793139
-0.025774578
-0.081045374
-0.026031038
-0.018730963
-0.082461
-0.10445446
0.024491336
-0.05044153
-0.070776224
-0.056712747
-0.041964736
0.03484003
0.010058551
0.03353988
-0.040892217
-0.034522813
0.03269001
0.07052077
0.050613124
0.0116774235
0.02309256
-0.031958606
0.04591834
0.022867696
0.01844421
0.0065111243
-0.021324383
-0.016994674
0.014719798
-0.02787361
-0.070157565
-0.04764225
-0.085193746
-0.07557402
-0.10834414
-0.04956098
-0.007958006
0.017440006
-0.021052329
-0.02232236
-0.037397627
0.026044149
0.05636238
0.051696472
-0.035745803
0.019248612
-0.07420028
0.040716514
0.055042926
-0.007716504
-0.14229882
-0.04452152
-0.02464946
-0.04989428
-0.18033469
-0.096950546
0.015630405
0.059850313
-0.004245492
-0.004887463
0.023268372
-0.053360034
0.0137507
0.074789464
0.104652055
0.09594426
0.025327018
0.024932958
0.07961646
0.10279076
0.05707293
-0.07504938
0.02140171
0.041925482
0.10449912
0.032953475
-0.0054210313
0.0024401764
-0.017711652
-0.008930587
-0.061197784
-0.100325234
-0.0634926
-0.11084198
-0.13834365
-0.094468266
-0.05432754
-0.053857528
-0.11984372
-0.08591146
-0.069538444
0.034718726
0.0039391867
0.029870003
-0.03102025
-0.006556876
0.021664372
0.028406259
0.0052633225
0.0068900846
-0.036627326
0.0055545117
-0.00528574
-0.0396605
-0.005964949
-0.09561048
-0.006368822
-0.019958157
-0.070922375
-0.0530037
-0.040100772
-0.030468486
-0.031969115
-0.0114913555
-0.019716812
-0.06549768
0.021381186
-0.002141135
0.04683523
-0.025702355
0.021243745
0.06453263
0.013728362
0.010356691
0.106892265
0.105885655
0.062323324
0.115875416
0.129878
0.0957328
0.017205331
-0.06691098
-0.0023866151
0.03908358
0.0346815
0.014783082
0.0030829546
-0.014681533
-0.03995583
-0.09535446
-0.08107676
0.013601205
0.03528051
-0.038506974
-0.02907607
0.004100284
0.043264877
0.0743099
0.04077396
-0.08020967
-0.012074606
-0.10072536
-0.13044393
-0.06884959
-0.10162096
-0.11981566
-0.07400892
-0.087277725
-0.08765942
-0.10117402
-0.0654972
0.020780614
0.0036600344
0.060490385
-0.0047548423
-0.012843188
0.0038895544
0.04771571
0.013432271
-0.05514388
-0.09713601
-0.08233586
0.018627392
0.028174223
-0.023080548
-0.05223136
-0.06294971
-0.05453449
-0.08811677
-0.03368853
-0.0019440938
0.032471064
0.052162156
0.01183633
0.03430036
0.0001761225
0.016765263
0.059975646
0.096239775
0.01573012
0.00866446
0.066122636
0.107833974
0.016856689
-0.032829247
-0.06083311
-0.040954784
0.016883854
0.018515067
0.015037657
-0.014529164
-0.0095397765
-0.0038273958
-0.029116375
-0.01828262
-0.01746945
-0.040848587
0.005608438
-0.03395231
-0.03932151
-0.05134922
-0.033513684
-0.047785014
-0.006075906
-0.030950937
0.0037045176
-0.042273812
-0.028533109
0.013724154
-0.06134654
0.000754698
0.02074171
-0.053795245
0.020822732
-0.031948145
0.03684148
-0.0016243295
0.0104016
-0.0070586824
0.020252528
-0.013778062
-0.04354014
0.035113085
-0.02050765
-0.04042694
-0.011628391
-0.04073287
-0.002812811
-0.014900298
-0.03324705
0.018148385
-0.021856055
-0.010413932
0.007385169
0.0076086484
-0.050232533
0.032226067
-0.00061799225
-0.05133246
0.008127129
-0.039286688
-0.0075353053
0.0135316495
-0.02161845
0.00022769185
0.0077979676
0.03528675
-0.03977598
-0.012246051
-0.058494557
0.03258754
-0.030032812
-0.013854611
0.026658937
0.008610974
0.017141014
-0.018011462
-0.007913825
-0.063413545
0.0009571634
0.03006452
-0.044339698
-0.022117522
-0.02926976
-0.07039544
-0.062138513
-0.065008886
-0.0042352933
-0.052307665
-0.012720888
-0.04988327
-0.047806166
-0.03957045
-0.025676697
0.018354014
-0.058669202
0.002408356
0.016387137
-0.051512215
-0.06256403
-0.020211047
-0.05780322
-0.027981302
-0.016078936
-0.013578877
0.031122074
0.03839637
-0.023496343
0.03539224
-0.0019649102
-0.03167106
-0.034371987
0.034408674
-0.006376135
-0.03806039
-0.026813114
-0.01566625
-0.038478646
-0.036206007
0.023542292
-0.0067920615
0.026212616
-0.0314522
0.016892973
-0.06683207
-0.018297862
0.028960686
-0.008096461
-0.024185589
-0.0061465087
0.0009929606
-0.014036032
-0.0319143
0.022308867
0.034986604
0.03333851
0.0063108806
-0.005723363
-0.014701846
-0.009893716
-0.0625732
-0.024243642
0.019529741
-0.00431738
-0.0042530214
0.014192621
-0.042201035
-0.045474064
-0.0074074627
-0.02058655
0.006746229
-0.04343988
0.02591071
0.026623199
-0.01691172
-0.0004882447
-0.047668707
-0.011887583
-0.03291224
0.013276371
0.0222574
-0.047472745
0.0016995221
-0.020066364
-0.059049673
-0.050315104
-0.010884042
-0.0048957397
-0.018150344
-0.05130846
-0.0557621
0.0348677
-0.037499815
-0.0454497
-0.06635467
-0.03568543
-0.029820843
0.027862443
-0.036393736
-0.059661876
-0.028224679
-0.041296642
0.024858957
-0.01640822
-0.036714736
-0.00040351835
-0.010086886
0.030909024
-0.046863787
0.010068858
-0.03469952
-0.03898128
-0.049736377
-0.014780573
-0.011076203
0.0026391984
-0.04065861
-0.032452423
-0.013650448
-0.008295428
-0.04017368
-0.015956251
0.022120137
0.025776783
-0.04687861
0.00043813186
-0.0010477884
0.021878032
-0.0069401027
-0.0134011125
0.015952762
-0.03462268
-0.037719887
-0.03952498
0.014130033
0.01104431
-0.03504369
0.012003213
-0.011164552
-0.021543039
0.026877094
-0.03106411
-0.02687382
-0.0034983607
-0.035615183
0.02555546
0.0238075
-0.050575703
-0.047358096
-0.0038858643
-0.021094572
-0.0025154492
-0.01861374
-0.062290173
-0.02027674
-0.011753759
-0.049506746
-0.029077169
-0.037342053
0.0014140871
-0.034443796
-0.07233288
0.004794327
-0.042207506
-0.018776387
0.013214287
-0.052322354
0.0067147263
-0.049110897
-0.014811064
0.014867387
-0.036630545
-6.771237e-05
-0.0426399
-0.00909423
-0.018192613
0.0011499417
-0.0075334692
0.0016888055
0.033510856
-0.008866129
-0.0507104
-0.0039107827
0.0003189036
-0.05509948
0.018656027
0.010732484
0.012556265
0.00078803854
-0.04511668
-0.014106327
-0.023166014
0.013204913
-0.023570737
-0.05706481
-0.012974589
-0.021918058
-0.04201715
-0.0015257013
0.012048529
-0.06681663
-0.016379626
0.027460368
-0.0010087775
-0.0038638005
0.024556218
-0.042268433
-0.05073661
0.003688798
-0.028457005
0.017593859
-0.014569604
-0.011905877
-0.049665928
-0.02384525
-0.034920596
-0.044308066
0.006829984
0.020065194
0.015428779
-0.002691847
-0.049960043
0.013147647
-0.019597262
-0.010641261
0.010051463
-0.013760408
-0.01429641
-0.044606317
-0.048328623
-0.025696225
-0.024639448
-0.029498862
-0.004249018
-0.028724255
-0.052186728
0.003956135
-0.021571677
-0.015000086
0.013045151
-0.043570288
0.019415757
-0.021335604
0.027860546
-0.011359763
-0.043342363
-0.013390925
-0.018710062
-0.026522703
-0.06437703
0.003156309
-0.02392879
-0.010930087
0.020564765
0.03361399
-0.04218976
0.03293141
0.025002351
-0.043598864
-0.014016294
0.02481655
-0.032850243
-0.016612986
-0.019837253
0.004937548
-0.057306264
0.0037487336
-0.046892185
-0.016022867
0.020429121
-0.009278657
-0.0073373932
-0.0027743124
-0.034568097
0.017891092
0.0040372442
-0.0065313135
0.0025121393
0.030042544
-0.07293683
0.008475259
0.003560768
-0.036188994
-0.020426845
-0.045321066
-0.028590491
-0.0063567497
0.02123874
-0.00442587
-0.03716309
0.020859709
-0.03831722
0.0034175857
-0.05063447
0.020967023
-0.011413718
-0.004143953
0.016372157
0.008362391
0.01298006
0.082334995
-0.045118842
0.001630116
-0.01466552
-0.04429398
-0.030535208
-0.04999994
0.0034857572
0.006526567
0.005235946
0.011789089
0.0011864196
0.011547314
0.03349513
-0.006269007
-0.026932325
0.027003407
0.012464218
-0.018936621
-0.046201352
-0.011309961
-0.03774588
0.027994033
-0.034981035
-0.0030692185
-0.009766973
-0.024334295
-0.023465443
-0.02126348
0.0088189365
0.014095961
-0.042754993
-0.026371675
0.02880234
0.0141410995
-0.00858878
-0.0339812
-0.016555166
-0.012838539
0.011913845
-0.007433436
-0.025336552
-0.027447283
-0.01435705
0.010890763
-0.0022822125
0.006562125
-0.00078377686
-0.051055122
-0.049773995
-0.04912457
-0.06786753
-0.017274868
-0.013218784
-0.05975962
-0.0009846431
-0.045201328
-0.055073805
-0.052919284
-0.029113915
0.03981963
-0.068925574
-0.027914213
-0.06373738
-0.030725842
0.005011029
0.0050635925
-0.0052478705
-0.043145686
-0.005661278
0.011809628
-0.043716162
0.01573185
0.01078075
-0.05816248
-0.03288571
-0.009425371
0.024186641
-0.02721523
0.056146685
0.012278593
-0.03279615
-0.03292931
0.01600929
-0.023106972
-0.00057246943
-0.03564884
0.012401425
-0.005382272
-0.003875568
0.0052485694
-0.03867285
-0.03785857
-0.015823018
-0.058602903
-0.05612996
0.015661784
-0.047658417
0.013799092
-0.032585576
0.0019212208
-0.003991146
-0.03771975
0.00076825527
-0.035683908
-0.05074116
-0.000348122
-0.03137404
-0.03503172
-0.042339258
-0.062044792
-0.0106114885
0.012946282
-0.0030221385
-0.011420535
0.015620168
-0.004593395
-0.04508879
0.023254536
-0.058693603
-0.01029352
0.019447686
0.028028652
0.019270265
-0.039036922
-0.030795028
0.008269119
0.007805763
-0.017534046
-0.039058745
-0.08345649
-0.040674422
-0.100567125
-0.031514443
-0.06952242
-0.006043668
-0.04756133
-0.024722556
0.016918356
-0.017916258
0.027197964
0.0005562662
0.015051444
0.023374928
0.06112344
0.047086067
0.05445884
0.084475145
0.11738454
0.07001815
-0.006188722
0.035478875
0.02940078
-0.0043181907
-0.01457417
-0.06082839
0.029833928
-0.016489271
-0.010796267
-0.0372146
-0.047507823
0.008528238
0.058130257
0.0031330578
-0.0077015604
-0.040728074
-0.005848898
0.027066203
-0.017502096
0.036960296
-0.03566856
0.037103385
0.06326702
0.016267532
0.013589887
-0.0055325553
-0.1451316
-0.12634215
-0.079166055
-0.079448275
-0.11127999
-0.13759963
-0.063769855
-0.042946916
-0.07718882
-0.061069302
-0.18467195
-0.14678483
-0.123209774
-0.085751735
-0.04234507
-0.123291485
-0.100428574
-0.061921112
-0.0547232
-0.04778128
-0.02139181
0.030913955
0.0024581512
0.011268913
0.02337072
0.060320944
-0.014465381
-0.022860562
0.048517343
0.025156656
0.02397022
-0.020734489
-0.08768086
0.021891836
0.040527668
-0.08998645
-0.1335305
-0.11872532
0.015249239
0.042431243
-0.18953592
-0.043730203
-0.012626192
0.033255577
-0.035362024
-0.13158788
-0.020360067
0.06936923
0.011639903
-0.110606425
-0.06460531
-0.07996174
-0.015582593
0.079789944
-0.03460925
-0.057241417
0.0023456772
0.049567357
-0.016139183
0.048374895
-0.047407456
0.06556489
0.09246312
-0.033967655
-0.022978988
0.034273654
0.018697957
0.055017453
-0.013332972
-0.030745467
0.0062098084
0.013659291
0.03445142
0.0070688846
-0.055616487
0.029120201
-0.0036143058
-0.030159852
0.00020737962
-0.018070178
0.0067381426
-0.058448654
-0.05352752
-0.050779868
0.04955628
0.02222756
0.038978033
-0.039049465
-0.027481394
0.042046744
0.007143384
0.06817854
0.005643399
0.045163255
0.04788663
-0.0093872445
0.04861923
0.1053693
-0.005902481
0.021679342
-0.012181761
-0.06174627
-0.0009491415
0.0020007358
-0.05317391
0.027908277
0.017686162
-0.041530367
-0.030391376
-0.002069829
0.027770864
0.011936393
-0.071750134
-0.05885526
-0.035024684
0.06389335
0.03357893
-0.011531533
-0.017341685
0.038550805
0.042792555
0.0019635942
0.012647849
-0.027090728
-0.0016906388
-0.020372652
-0.0051781926
-9.301406e-05
-0.060149513
0.019190842
0.0059559788
0.0071488284
-0.0008514323
0.039423227
0.07150044
-0.030956054
0.06139446
0.03348195
-0.004382645
0.05581745
0.030427884
0.026568286
0.06384986
0.066138476
0.03419747
-0.013980768
0.07260086
0.007595827
-0.021093953
-0.06711237
-0.039494295
-0.058465485
-0.045010343
-0.07993161
-0.06872428
-0.027740614
-0.08570884
-0.07933525
-0.06447522
-0.039224345
-0.0411757
-0.010930503
-0.074562125
-0.054021373
-0.05986537
0.017623516
-0.013563721
-0.06696672
-0.049984347
-0.04219622
-0.018111922
-0.027026203
0.016016982
0.03030135
0.08550512
-0.14496793
-0.22365427
-0.108419515
-0.061356768
-0.03450576
-0.21711968
-0.19265065
-0.028105443
-0.08160621
-0.106800415
-0.22108284
-0.13738094
-0.0960228
-0.12560824
-0.028807372
-0.093085796
-0.10103051
-0.10559851
-0.0557366
-0.013250365
0.017019961
0.0615977
0.03739773
0.03195883
0.041370407
-0.01744118
-0.06926954
-0.006772128
0.009901396
-0.0034020967
-0.042947985
-0.056005783
-0.08691702
-0.008569076
0.034449928
-0.027736252
-0.075529106
-0.00781474
0.033462275
-0.000526705
-0.032755025
0.0019786037
0.085777126
0.08041359
-0.020650702
-0.059975434
0.025379503
-0.029600913
-0.047394052
-0.053847395
-0.005969814
-0.01984176
-0.05782244
-0.025059685
-0.06796037
0.05183289
-0.034729768
-0.055260457
-0.07322223
-0.023763105
0.02495761
-0.02586642
-0.018951489
-0.052194316
-0.030084606
0.060511414
0.038731307
0.034384757
0.03854371
0.051005192
0.002853343
0.017779766
0.06415707
0.041799884
-0.026912376
-0.03876229
0.022731878
0.0069786482
-0.052858934
-0.072156034
0.03417845
0.0619788
-0.056192506
0.011223165
-0.055572864
0.05852323
0.075698555
-0.043151487
-0.00701034
0.03337727
0.03930075
0.05613881
0.06521141
0.03053837
0.046141665
0.047108363
0.07396716
0.043050613
0.032099508
0.053595264
-0.046932742
0.018080996
-0.0039730417
-0.030693723
0.004435083
0.0075134127
0.019156856
-0.016778387
0.010402549
0.019307
-0.026933149
0.0040677884
-0.021624705
-0.016341902
-0.0149359135
-0.03363842
-0.034507047
0.018910103
-0.03001072
0.030696722
-0.015648846
0.036213093
0.051571295
0.036029585
0.055647753
0.06207671
0.04403577
0.00028445583
0.06314611
0.028995309
-0.006588401
0.08007638
0.014677736
0.026061965
-0.00016573124
0.024563057
0.03748944
0.00045771708
0.0062679406
0.06493395
0.027993781
0.043412488
0.05973054
0.055054605
0.069001384
-0.07815955
-0.0988342
0.001490818
-0.010461889
-0.03793134
-0.044342652
0.03848484
0.064982526
-0.012992738
0.0038789376
-0.00446243
0.07315493
0.008479043
0.0058649513
0.012890655
0.043107893
0.05569592
-0.04352727
-0.014433085
-0.00066277426
-0.026289748
0.009387019
-0.04785242
-0.015404765
0.06266894
-0.041826334
0.013626156
0.04504355
0.02332674
0.056460306
0.007689445
0.018717023
0.012973923
-0.018858964
0.008194586
0.038410563
0.0594187
-0.043292277
-0.045002144
0.03989402
0.054550584
-0.035600826
-0.013895811
0.04413528
0.034025554
0.06621219
0.0095530255
-0.018274557
0.03844974
0.05660798
-0.004431748
0.021189904
0.0038301726
0.026992343
-0.0085488735
-0.1334889
-0.118892856
-0.06839002
-0.063088
-0.046777505
-0.17364249
-0.102146454
-0.07144594
-0.12449275
-0.06270857
-0.2174658
-0.12946999
-0.098013766
-0.17838155
-0.010650949
-0.076226994
-0.008798277
-0.045632564
-0.020114148
-0.0053398926
0.0040348843
0.09139725
0.08060242
0.0583282
0.09420101
0.01535571
0.049018797
0.0048934044
-0.016393933
0.041713234
0.06980212
0.030412108
-0.027372586
0.019862885
0.013511867
0.107468866
-0.032725044
-0.07331944
0.015957652
0.08272652
0.1400569
-0.037226167
-0.048694313
0.038292333
0.030508298
0.0937563
-0.04065296
-0.08537471
0.0069884807
-0.002769814
-0.0567684
-0.06514964
-0.04818643
-0.007473717
0.027130343
-0.017789785
-0.00041864932
0.047187645
-0.032318626
-0.02644076
-0.041853834
-0.03487724
0.027772773
-0.01783068
0.049682334
-0.014416786
0.07756789
0.08920298
-0.0030937812
0.06221086
-0.021013867
-0.006964422
-0.031676922
-0.04340249
-0.06338868
-0.04656249
-0.02351997
0.014350759
0.047784325
0.026722442
0.0018683469
0.014901049
-0.0368695
-0.06903638
-0.07193066
-4.0714196e-05
-0.046211727
-0.0011874804
0.06322438
0.065479405
0.02807187
0.08637044
0.003232901
0.017992208
-0.048053283
0.106331766
0.06542232
0.04696562
0.049061473
-0.0046679825
0.0403548
0.02258667
-0.04300599
0.014946584
0.024904877
0.008783214
0.0033563466
0.03178088
0.091907166
-0.004729385
0.022600126
0.09950086
-0.01059565
0.072019406
-0.015788585
-0.057722908
0.038151022
-0.013879081
0.024554687
0.0057881544
0.028222155
0.02819583
0.040005073
-0.05070037
-0.059296373
-0.022659851
-0.018132601
-0.15810245
-0.046298377
0.006212111
-0.008933764
-0.004338024
0.048336834
0.04507895
0.001158984
-0.035389822
0.0029042729
0.022757987
0.035601877
-0.06967232
0.050707925
0.08210851
0.0089120725
0.029474173
0.09152825
-0.031148544
-0.041496042
-0.038736086
-0.040050935
0.025309088
-0.04646156
-0.018755917
-0.021518787
-0.012801897
0.007376171
-0.0072856825
-0.10200644
-0.12834571
-0.06975209
-0.04022226
-0.107701145
-0.0462881
-0.040440436
-0.11106945
0.02376249
-0.042083703
-0.04906775
0.052385457
0.0014870898
-0.03781043
-0.0030278955
0.03292349
0.1018399
0.15691264
0.07230361
-0.028474586
0.14625284
0.057173114
-0.051236942
-0.05932603
0.06635414
0.0077610277
0.01449857
0.08932368
0.105636515
-0.0935087
0.008051469
0.1123975
0.016654646
0.01970078
-0.043627467
-0.037922263
0.009186251
-0.04151189
-0.01793496
0.008468338
-0.04880732
0.011751716
0.01605749
-0.015463134
-0.021571865
0.0741925
0.06675649
-0.02692476
-0.03330565
0.050783508
0.029271884
-0.06616772
-0.034458872
0.02396078
-0.010018088
-0.0041687014
0.0310353
0.023334963
0.06479686
0.014144586
-0.046699706
0.066672556
0.0010607891
-0.030146401
0.016732315
-0.011114224
0.073327325
0.02648205
-0.06969015
0.011196895
-0.007444846
-0.004979575
0.047967866
0.0638942
0.03391569
-0.050364845
-0.009524939
0.031816207
-0.024718776
0.03982218
0.065913245
0.018148836
0.0048746993
-0.0056881593
-0.028937718
0.041360248
-0.006529715
0.0022656037
-0.010754381
-0.07766507
0.01784209
-0.0018934191
-0.06562187
-0.012114971
-0.03556275
0.014365469
0.0042561176
-0.06934114
-0.04931183
0.018705685
-0.007860273
-0.012150591
0.009426134
0.052131742
0.019433504
-0.036168456
-0.009252038
0.02601831
0.026083276
-0.0035807209
0.013932258
0.031263154
0.005508099
-0.021438252
0.06923336
0.055087198
0.09956411
0.01673054
-0.036532518
0.0438628
-0.02197637
-0.088199876
0.00026333967
0.10736559
-0.04288854
-0.01682313
0.022531457
0.03357631
0.0036927485
0.0907821
0.06582751
-0.018869782
0.037164006
-0.024290144
-0.03445027
0.020685786
0.0062385667
0.0037233306
-0.023805931
-0.10698602
-0.109846875
-0.09532241
-0.053485326
-0.034133382
-0.12429754
-0.114587255
-0.1489663
-0.18670276
0.0008513265
-0.023844425
-0.055460114
-0.002216037
0.048756137
0.046489365
0.12897398
0.12493194
0.06795906
0.050501056
0.05497621
0.03721002
0.089440726
-0.0063309474
0.08448611
0.058420274
-0.0717653
-0.034834545
-0.08969553
-0.07965814
-0.13476099
0.013454009
0.010651908
0.061642647
0.008263867
0.044988822
-0.034868825
-0.032646935
0.014815718
0.06357987
0.09685069
-0.10742851
-0.0887064
0.062609576
0.06666282
-0.030710006
0.022975333
-0.0038972802
0.03382897
0.05565349
-0.018321756
-0.08583936
0.011843648
-0.009071763
-0.058956556
-0.058958106
0.022223111
0.026973743
-0.01874677
0.031630576
0.015828457
-0.006924641
-0.005340793
-0.0065587843
0.08038646
0.05015031
0.039294083
0.059042536
-0.0016635576
0.053399794
0.050781272
-0.022545831
0.026373822
-0.041535925
0.026793888
0.0148536125
-0.05319246
0.02009656
0.032548636
-0.035233643
-0.061789196
-0.017786631
0.04928318
-0.021510012
0.036063515
0.041930757
-0.0040322454
-0.015147143
0.0126455
0.015038859
-0.0105634825
-0.05242257
-0.014543807
-0.039207708
0.024395661
-0.039874006
-0.06877317
-0.0076447986
-0.08463603
-0.034703877
-0.039687168
0.0067128213
-0.05941936
0.015626831
-0.011208793
-0.035635162
-0.07177466
-0.0078992415
0.059206028
0.06931003
0.055807382
0.055050787
-0.007497824
0.048439875
0.058474008
0.025247414
0.043183908
-0.0073694773
0.0040830015
0.045470923
0.07325567
-0.033820864
-0.046643324
-0.06371117
-0.08444296
0.014307954
-0.04125181
-0.040260892
-0.0565648
-0.057028294
-0.047635082
0.06265968
-0.0027122183
-0.0703548
-0.10771343
0.052961387
0.022821765
0.012508803
-0.0064970483
0.0263077
0.017449234
-0.036194656
0.02730864
0.013963203
-0.0657989
-0.07301247
-0.06136412
-0.009561965
-0.043053262
-0.022777064
0.00020855333
-0.028456334
-0.034739453
0.020847293
-0.027325273
0.05743296
-0.022816349
-0.075631954
0.007485983
0.091544315
0.11616811
-0.041588258
0.009044873
0.05968314
-0.035252973
0.02890414
-0.021359798
-0.003032844
0.03150828
-0.02498353
-0.036924683
-0.090340964
-0.065163046
-0.027868014
-0.08648232
-0.03984384
-0.048465118
-0.024194326
-0.043863155
-0.060001533
0.0039874027
0.06133079
0.020014418
-0.010750396
0.06822544
0.024127457
0.045527324
-0.00010765423
0.053240355
0.052193183
0.0067249164
0.0038766663
0.03076278
0.034852196
0.018167194
-0.032886162
-0.05816122
-0.05204961
-0.034121495
0.02508974
-0.041400183
-0.044431895
-0.018965168
-0.03873376
0.02816988
-0.053824585
-0.11024625
-0.12892294
-0.060653836
-0.009900863
0.11045872
-0.05309929
-0.007758622
0.051410496
0.05205506
-0.028606692
0.12863165
0.04353818
0.0663608
0.05959923
0.03313981
0.03987043
0.06176021
-0.017370958
-0.007313156
0.05209594
-0.05319872
-0.0478465
-0.08975839
-0.12121793
-0.10425339
0.06469613
-0.060106143
-0.05741242
-0.055812754
-0.15272544
0.052329496
-0.03729731
-0.013384825
-0.03640953
-0.069950506
0.046465848
-0.045180418
-0.0674827
-0.03580587
-0.13795178
0.04972067
-0.010224974
-0.03204733
0.022336498
-0.09745945
-0.0046019126
0.04050176
0.02027271
-0.026938852
-0.11565573
-0.013776571
0.046964195
0.00346941
0.013147288
-0.060956072
0.0034115405
-0.004156332
-0.05121569
0.010994422
0.047772937
-0.024829682
-0.046515945
-0.0015863241
0.023479015
0.003716727
-0.018821975
-0.007376737
-0.009657249
-0.0034244002
0.036866073
-0.0050991224
-0.041510943
-0.006673322
0.00091430964
-0.037945405
-0.05629145
-0.051865935
-0.04392084
0.06477415
0.026194172
0.0112339305
-0.086707614
-0.0075950357
-0.041991994
-0.055773366
0.06522357
0.029324973
0.08784543
0.07071427
0.065445185
-0.077212535
-0.0688992
0.10849761
0.07289626
-0.123285025
-0.20661189
0.011018791
0.06262825
-0.060667187
-0.105221406
0.02504089
-0.049157627
-0.051531404
0.02265422
0.018936496
0.029619789
-0.0150686335
0.03382303
0.07321199
-0.03701315
0.017965714
0.046433322
0.038702574
-0.0337029
-0.02034239
0.045055375
-0.005723369
0.036065057
0.018690621
0.037207596
-0.026223237
-0.0909793
-0.00032610813
-0.10109127
-0.051759586
-0.08532591
-0.097854346
-0.11630872
-0.05028669
0.036184397
-0.12721184
-0.18891901
-0.025596796
-0.02848697
-0.0116986595
-0.13479474
-0.14937751
-0.13794954
-0.058391634
0.030454827
0.06303469
0.111202545
0.15266553
0.16353694
0.049440373
0.034017038
0.070636734
0.17630842
0.10053962
0.0045589916
-0.022152882
0.08862375
-0.027040252
-0.043251906
-0.050194003
-0.006456027
-0.046247296
-0.11332639
-0.02532465
-0.005869605
-0.04123989
-0.11811415
-0.01177361
-0.027286693
-0.05650038
-0.19444457
-0.10218157
-0.12311542
-0.075868376
-0.13920613
-0.1304071
0.0013292753
0.122775085
0.06635559
0.033960354
-0.015854279
0.114728905
0.04356062
-0.019416543
0.055249635
0.031852104
0.092838556
0.041831337
0.05746314
0.03009541
0.05592367
0.057416365
0.15982652
0.10661524
-0.07264919
-0.086458854
-0.04952369
-0.04701203
-0.1066398
-0.028432025
-0.055016093
-0.0116581945
-0.11215425
-0.024473444
-0.07841341
0.036909096
-0.00017046253
-0.0070620007
-0.068948366
0.056923337
0.022650255
0.036934577
-0.07753397
-0.0015754905
-0.024892619
0.04776591
-0.004321146
0.10622154
0.05499822
-0.075073235
-0.03219284
-0.052851167
0.12412214
0.0155532025
-0.041593194
-0.15872301
-0.092266016
0.04083163
0.008133873
-0.12028364
0.037074488
-0.0031686944
-0.10049382
-0.01361373
0.01458454
-0.01062263
0.0043437174
-0.008189844
0.04374057
-0.008856547
0.029782394
0.040075287
0.06763573
-0.0040455745
-0.01999814
0.005699842
-0.006715169
0.038126923
0.099899665
0.033422902
-0.024005454
-0.08021433
-0.03274603
-0.06851
-0.11092898
0.02820412
0.050432034
0.036910333
-0.027114158
-0.02900733
0.035669353
-0.015875183
0.022782661
0.05839139
0.021300673
0.017273039
0.021237079
0.042700145
0.0035562334
-0.11394662
-0.13874651
-0.09171192
-0.08197195
-0.17335062
-0.16888888
-0.084159
0.041279208
-0.06020031
-0.12505348
-0.094655015
-0.04006512
-0.036536247
-0.069927424
-0.04130922
0.042851336
-0.062315006
-0.05166376
-0.023626808
0.004670542
-0.014170037
0.00440621
0.017441316
-0.0013614927
-0.01726918
0.03492179
0.06418949
-0.0054319403
0.10633252
0.123334855
0.12298006
-0.016233176
0.009265892
-0.0027375706
0.011263828
-0.12898652
-0.24021325
-0.23966575
-0.15385692
-0.066223145
-0.050862685
-0.10954873
-0.18419363
-0.14548992
-0.0098545635
0.029198369
-0.033589534
0.0032968456
0.093957365
0.012702976
-0.05272522
-0.013447783
0.17506468
0.19083361
0.12222413
0.11508048
-0.019774247
0.01156092
-0.013754361
-0.021228328
-0.0427667
-0.02555721
-0.0234936
-0.04774036
-0.042370997
0.018593367
-0.029000144
-0.052816868
0.047453843
0.10629587
0.084316514
-0.1568715
-0.14488162
0.007880483
-0.004394139
-0.074358836
-0.086999536
-0.06887453
0.10615941
0.09823844
0.10542292
-0.15548459
-0.026264312
0.045568522
0.11094411
-0.0072754105
0.031809587
0.03567953
-0.07572983
0.012346904
0.07257218
0.0063733757
0.02026291
0.002221976
0.020314872
0.01086206
0.033923324
0.055135217
0.03393652
-0.038381863
0.021345591
0.011703429
-0.022643302
-0.044832088
0.0060456945
-0.016296087
-0.0026601776
-0.027220504
-0.053020135
-0.0611533
-0.11584103
0.03252742
0.016416784
-0.0012032894
-0.01392509
-0.026287924
7.51958e-05
0.030528516
0.030577235
0.02489131
0.03824496
0.020165542
0.008755998
-0.018356767
0.02501256
0.023360461
0.027219268
0.028478984
-0.056412198
-0.04006481
-0.00043413418
0.01724476
-0.032280236
-0.016083814
0.0073793842
-0.054436933
-0.07644593
-0.074629866
0.011892156
0.060816158
0.045575447
-0.059012387
0.04388011
0.042258542
0.00383033
-0.005655666
0.020277942
0.017993242
0.060866185
0.115740165
0.10880649
0.0070668347
-0.009698148
0.015325683
-0.0069945483
-0.075205274
-0.06944799
-0.1132745
-0.057904445
-0.047478653
-0.046327565
0.029836563
-0.005116794
-0.027922744
-0.13489085
-0.102760404
0.114400335
0.03053997
-0.022881085
-0.0336823
0.050623562
0.0049387934
-0.045946542
-0.09695158
-0.03908069
-0.019821452
-0.03208387
-0.017955909
-0.19004777
-0.036098402
-0.016858153
-0.055010676
-0.068393365
-0.08896555
-0.071793005
0.013153363
0.024622278
0.08011494
0.04077056
-0.03974804
0.009828456
-0.059041485
-0.006513054
-0.019026117
-0.08022634
0.04829574
-0.06807994
0.004562059
-0.03149282
0.05530296
0.09989697
-0.052092336
-0.02035285
-0.05082609
0.023604715
0.0027432349
-0.008541378
-0.05796465
-0.108256966
-0.044746306
-0.01966943
0.018163757
0.015613469
-0.0306574
0.027983204
0.07998367
0.012434722
0.03672957
0.025518728
0.028759886
0.03593205
-0.0039018523
0.03782199
-0.010169419
0.048255615
0.02733237
0.04277158
-0.025355875
0.06812659
0.12245858
0.04977638
-0.06221469
-0.115136705
-0.044997107
0.0027386104
-0.13698488
-0.21709767
-0.16803643
-0.04142083
-0.060006566
-0.008032246
-0.12667464
-0.18995576
-0.09653251
-0.049716678
-0.050800394
-0.069008596
-0.017529408
0.046467222
0.09422837
0.07357405
0.057143614
0.11368782
0.13292068
0.16318408
0.11992706
-0.16072752
0.04865808
-0.014653488
-0.11922646
-0.18261021
0.027324812
0.06423104
0.007789332
-0.0037943868
-0.061366737
0.058242172
0.03749175
-0.0104629975
-0.017294357
-0.011567384
0.055054486
-0.021914132
-0.016438413
-0.042908493
-0.05165102
0.013312269
-0.02645674
0.027788682
-0.11149164
-0.11096361
0.05378741
-0.05179474
0.048114445
-0.022373943
-0.06386873
-0.0469331
0.012112696
0.011972822
-0.009864855
0.040774405
-0.0029839387
0.09836512
0.090147816
0.081961475
0.04780924
0.01996993
-0.00021816327
0.06796829
0.030000433
-0.036356986
-0.10377862
-0.11801519
-0.10811464
-0.11743915
-0.03604426
-0.0715794
-0.11254029
-0.039362825
0.032021787
0.059844624
-0.08614655
0.0053410595
0.021385195
0.02799063
-0.03390993
0.04886976
0.04010919
0.054749634
-0.043009635
-0.05820707
0.029417625
-0.0059841825
-0.15926075
-0.12503618
-0.05995545
-0.0069964114
-0.029182713
-0.08976221
-0.048207078
-0.10898854
-0.0030575267
-0.06147463
-0.1362711
-0.12001388
-0.043622952
-0.04091239
-0.08290299
0.055457413
-0.017042264
-0.026867038
-0.021206854
-0.05701719
0.04747093
0.059514347
0.023880623
-0.037377555
-0.002178361
0.0030839033
0.013568011
0.0073782243
-0.06324725
-0.07829847
-0.053408172
0.07748796
0.036935925
-0.099618234
-0.072557874
-0.0001233096
0.03479709
-0.005120749
-0.101874776
-0.10800925
-0.18153916
-0.20010257
-0.09831573
-0.060526725
0.026809905
-0.07705412
-0.0660355
-0.016473802
0.16053833
0.14053796
-0.08176977
0.0005611813
0.03176163
0.20011394
-0.03457102
-0.14147879
-0.023848308
-0.012410482
-0.006401803
-0.1372841
-0.069505006
-0.04173818
-0.014826228
0.010585516
-0.013790897
0.00041530226
0.0029357893
0.025768097
-0.015828589
-0.05792373
-0.0723728
-0.066096455
-0.07426331
-0.060459618
0.00030207168
-0.08216157
-0.099654384
-0.014811211
0.020668615
0.07061599
-0.11338452
-0.20687486
-0.041765135
0.033626687
-0.06508187
-0.21193837
-0.08407807
0.025148824
-0.03111605
-0.014861283
-0.13955832
0.003028391
0.08378469
0.007076136
-0.05428057
-0.16205242
0.013207788
0.017570563
-0.036775157
-0.1200197
-0.13610153
0.016758211
0.041301806
-0.04560178
-0.06283082
-0.19375496
0.08244599
0.07300272
-0.045133583
-0.1594888
0.025808223
0.018143192
0.018138027
0.029244764
0.0073875887
-0.047695514
0.023175878
-0.0280046
-0.0062273
-0.0012269135
0.05168455
0.05155313
-0.068250574
-0.070606664
-0.05013562
0.021793015
-0.106390804
-0.076162875
-0.046956293
0.055703573
-0.07204227
-0.11749169
-0.029401768
0.049177468
-0.03426817
-0.06432683
-0.054636713
-0.023176061
-0.08425205
-0.053643428
0.05273092
0.037773892
-0.09987669
-0.05799527
-0.02954498
0.10360573
0.07585302
-0.049440514
-0.009417844
-0.012251096
0.081454314
0.029034495
-0.09411209
0.03896813
-0.015610921
-0.034764674
0.036626793
-0.05554631
-0.07095835
0.0108057745
0.036000296
0.014110108
-0.0664024
-0.009842928
-0.009107863
0.0035072498
0.027643038
0.00030905727
-0.018978378
0.0031566173
-0.0230201
-0.017226942
0.03540628
-0.013555912
-0.062695935
-0.1887448
-0.0058245193
0.038400035
0.015751906
-0.028207423
-0.1555028
0.022688778
0.0737827
0.0027825017
-0.07966941
-0.058944665
0.026891205
0.07809323
-0.10938453
-0.10913642
-0.0051244902
-0.039584026
-0.11259307
-0.04054048
0.022483125
0.061110523
0.0689622
-0.04380424
0.10261811
0.06068806
0.032655984
0.0064779734
-0.021999098
0.063389905
-0.04322192
-0.023734322
0.03278275
-0.032053873
-0.026569808
-0.051817033
0.043405984
-0.0037526707
-0.008289392
-0.10213499
-0.13124257
-0.20128773
-0.26738864
-0.18141538
0.018030914
-0.039012156
-0.052462775
-0.03593194
-0.025561333
0.07706248
-0.046780754
-0.07199774
-0.08688413
0.0026182733
0.0415184
-0.18218322
-0.22926582
-0.03311988
-0.025261296
-0.085468195
-0.14627658
-0.02041703
0.08952643
0.03381421
-0.008487455
0.008830141
0.027315354
-0.06926065
-0.07278595
-0.07028519
-0.024449978
0.031386595
-0.17089668
-0.20998858
-0.032867867
0.11681788
0.090716176
-0.09477452
-0.060348745
0.14756384
0.039816365
-0.1236304
-0.095763035
-0.055560835
0.077924505
-0.10539743
-0.11320225
-0.021360146
-0.0077951094
0.00672079
-0.042514402
0.050524827
0.040336475
-0.04652777
-0.0148496935
0.00038715478
0.07296422
0.09203561
-0.10149178
-0.01133406
7.284799e-05
0.0478261
0.013960855
-0.06045282
-0.014040247
-0.009087571
-0.03053077
0.062075302
0.007903606
-0.010706478
-0.017300468
0.04930299
-0.017508801
-0.05861252
0.008436503
0.011068159
0.018026976
0.06124173
0.06425378
-6.257442e-06
-0.033698034
-0.0042082793
0.047704034
0.07520725
-0.028484814
-0.015486193
0.027701102
0.07659862
0.0335275
-0.065174416
0.019656377
0.06950959
0.07390437
-0.0445934
-0.041903906
-0.024331765
0.0551957
0.041913453
-0.05231962
-0.058353595
0.0515105
0.001466512
0.012156264
-0.013566813
0.061307482
0.07830606
0.059187885
-0.018314656
0.025499184
0.027690958
0.0025081702
-0.0150935
0.05037894
-0.041108403
-0.07524079
-0.022471357
0.007060853
0.026448859
-0.07862816
-0.00048671392
-0.005427356
0.048464853
-0.04508752
-0.015158878
0.033448286
-0.030877525
-0.049506247
0.03911417
0.12381905
0.051681962
-0.10258439
-0.00887792
0.12876776
0.13408928
-0.13697542
-0.2489017
0.040669624
0.07361556
0.08810634
-0.22499762
-0.1824287
0.022227485
0.055107947
0.06677723
-0.16004078
0.09150285
0.15041766
0.031422973
0.028365428
-0.037423197
-0.11950824
-0.11580035
-0.0218873
0.0382144
-0.0242561
-0.018460782
-0.100958
0.042229313
0.06394066
0.0048754145
-0.09345952
0.010701732
0.072584346
0.07144314
-0.07435915
-0.09536836
0.048845705
0.046677742
0.011366421
-0.054120544
0.048549112
0.056508254
0.031934448
0.051920705
0.009773836
-0.034590118
-0.0455026
0.06682346
0.045263
-0.02296144
-0.020355055
0.019278286
0.05469198
-0.030657742
-0.0038065864
0.0067290277
0.015008567
0.0077932267
-0.04158143
-0.07413449
-0.033287376
0.0735525
0.03739655
-0.07082326
-0.0095796455
0.070139326
0.054296043
-0.016229954
-0.030439574
-0.09825235
-0.10182382
-0.14206019
-0.21239875
-0.093877345
0.030925157
-0.008248848
-0.051199812
-0.06979968
0.059225306
0.1659291
-0.04576639
-0.14789546
-0.06000782
0.071857244
0.07001509
-0.1557482
-0.13961384
-0.010871239
-0.0065658065
-0.031026522
-0.06695168
0.045694932
0.07734574
0.017119028
-0.04497692
0.031044396
0.074519165
0.091201626
-0.09377251
-0.03816757
0.023282114
0.11584467
0.10079763
-0.08992459
-0.08979159
0.008543068
0.11308319
0.14369717
-0.08551245
-0.017586304
0.04823907
0.1280324
0.09053174
-0.0592603
-0.028541336
-0.03369963
0.06997936
0.0011729732
-0.022511855
0.039643902
0.046157144
0.052114513
0.06719488
-0.040973652
0.07074221
-0.026063764
-0.063296534
-0.018554302
-0.08919839
-0.03873934
-0.045764588
-0.03846757
-0.012507303
0.0012310522
0.05133021
0.039549697
0.001910249
-0.043375157
0.013350932
0.057115357
-0.0015035764
-0.043001495
-0.016829723
-0.034313913
0.025271108
-0.00600604
-0.07963107
-0.0964354
-0.064086296
0.04441167
0.0104399165
0.049498934
-0.04570999
-0.07271211
-0.013629663
0.036922507
0.046982735
0.045022063
0.022080868
-0.072410785
-0.10120164
-0.011579565
0.081039436
0.04743146
-0.03890135
-0.07373094
-0.07188388
0.055043098
0.062159713
0.04923012
0.03942292
-0.035145536
0.011600079
-0.0012219663
0.03276544
0.1283221
-0.017809194
0.013851705
-0.05462715
-0.037104808
0.09456583
0.044532157
0.04810954
0.01971914
-0.0054785907
0.02069305
0.050391782
0.07405329
-0.02386437
-0.03201731
-0.019313602
-0.040276196
0.10713175
0.062784515
-0.029704316
-0.07778157
-0.019556545
0.011962559
0.009293597
0.04674154
0.013323829
-0.03650023
-0.014730773
0.050798554
0.06900635
-0.031014673
-0.12952402
-0.080699325
-0.056978837
0.06392502
0.0007659756
0.013840711
-0.003095436
-0.06918838
-0.017159998
0.011705784
0.02305259
-0.04133272
0.018177979
-0.05660995
-0.009163503
-0.016481796
-0.041982196
-0.015902337
-0.04720554
-0.077448286
0.02228171
0.048281655
-0.08269652
-0.07871427
-0.12167061
-0.011803562
0.023200545
-0.073979065
-0.00042148374
-0.20220153
-0.18950017
-0.03164017
-0.031235937
0.06553769
-0.06665951
-0.15337428
-0.19831562
0.0110907005
0.012722245
0.093937
0.020013751
0.0057467297
0.013634425
-0.06818296
0.073338166
0.11832517
0.00496931
-0.028253976
-0.04208379
-0.014379507
0.11252188
0.1067429
-0.011592132
0.079408005
-0.008757295
0.04031019
0.08273625
0.1104216
0.070234925
-0.08245061
-0.06808414
-0.04517979
0.028983472
-0.047577355
0.04430015
-0.0054603876
-0.02528361
0.0063463
0.010294815
0.07988762
0.12269557
0.01706375
-0.024675172
-0.0050154724
0.0526038
0.1335527
0.10389446
-0.02934705
-0.049173683
-0.08050502
0.01591225
0.057850484
0.050900884
0.02889886
-0.029893238
-0.041477006
0.045770187
0.14769399
0.03526932
0.013783222
-0.06301142
0.021559346
0.013569721
0.04789975
0.020667406
-0.010492046
-0.07466233
-0.02022287
0.018442253
0.06939506
0.040998954
0.038250305
0.0085532665
-0.0077999085
-0.0018326968
0.035786327
0.030975712
-0.006659513
-0.050492555
-0.0062419088
0.032880604
0.008256519
0.046300698
-0.0037977975
-0.026129112
0.026457278
-0.063963346
-0.07992572
-0.018532977
0.079546414
0.048116397
0.0038938532
-0.011079057
-0.0312718
0.040253088
0.120908886
0.009516674
-0.027948022
-0.04604207
-0.1236956
0.10917855
0.0720054
0.064970054
-0.042646926
-0.07237658
-0.011683729
0.08283494
0.05982079
0.031893853
0.024891354
-0.027577508
-0.0041651335
-0.021550423
-0.006038102
0.08832001
-0.056119815
0.0034685596
-0.04318997
0.038685136
0.021694757
0.009509587
-0.016538488
-0.032710385
-0.02711537
-0.032111842
0.024197444
-0.009489092
-0.059987865
-0.046994045
-0.01337236
-0.0048264586
0.04635525
0.04372469
0.0038460703
-0.006307311
0.029525874
0.080125004
-0.034707762
0.07545732
-0.048767023
-0.1529697
0.007986722
0.015699122
0.03156989
0.07001176
-0.06558579
-0.13261244
-0.034560192
-0.065319166
0.024349596
0.08534151
-0.04424292
-0.043375384
-0.028902637
-0.06475606
0.11706902
0.064897984
0.03878557
-0.031439014
-0.028186006
-0.006397641
0.049766254
0.018919395
-0.03871165
-0.00014484492
-0.008008662
0.005084041
-0.0011574528
0.08208619
-0.036301434
-0.05509539
0.007332877
0.0015309264
-0.0109700095
0.027562927
-0.04055697
-0.048158824
0.034907375
0.020032724
0.011150747
0.0051270947
-0.001178955
0.03797586
0.024968607
0.004943309
-0.024304735
-0.031528275
0.018010443
0.05271233
0.03399494
0.011598237
0.005426546
-0.036134403
-0.01858351
-0.008429955
0.03300154
0.002881069
-0.018260295
-0.055070434
-0.009942551
0.08547376
0.02404991
0.011931351
-0.035713103
-0.06616975
-0.019069184
0.0651392
0.029388718
0.03294912
-0.025237424
0.010606684
-0.036112864
-0.051624186
-0.029771617
-0.03273446
0.012758067
-0.049407125
-0.06461708
0.017451935
-0.036599938
0.037551127
0.03185034
-0.049681194
-0.041345872
0.025454976
-0.01219138
-0.016251996
-0.0020465946
-0.07528757
-0.05914009
0.0084195025
-0.029392939
0.039046176
0.018398289
-0.0144472765
-0.06421885
-0.01235093
-0.015937533
0.042833365
0.012256572
-0.06513838
-0.05881831
0.00017122844
-0.010009977
0.0134708965
-0.015598462
-0.04656523
-0.0020549847
-0.01722103
-0.004116024
0.045402545
0.0074937246
-0.02560593
-0.0140549345
-0.05820835
-0.002042576
0.038573615
0.067239136
-0.011967862
0.091351755
0.08251587
-0.059918974
-0.039019506
-0.10325037
0.037746873
0.09213714
-0.0026580058
0.01068186
-0.04868173
-0.10804072
-0.012108046
0.10943848
0.0054107364
-0.011860227
-0.08670003
-0.0042321887
0.0106342845
0.032083288
-0.01948805
-0.010200154
-0.05539273
-0.056877457
-0.057970587
-0.045672033
0.026723024
0.041553468
-0.02692798
-0.042469867
-0.031039486
-0.07176309
0.0031859505
0.0078647025
0.014345343
-0.0052841776
-0.1026055
-0.014043119
0.034959987
0.012110736
-0.03569013
-0.05898396
0.013885164
-0.04168814
0.04171864
0.058758903
-0.014505541
0.033076193
-0.017527943
-0.030665874
0.005117915
0.045810707
-0.013716694
0.0030572165
0.023870904
0.0062808273
0.006626754
0.0020934022
0.0123928245
0.01773398
0.0028459914
-0.034899503
-0.020362416
-0.00179113
-0.0139844315
-0.018154338
0.012941171
0.00039590482
0.007537133
-0.014988771
-0.035484403
0.002627601
-0.048657127
-0.01671632
0.008083509
-0.023261422
-0.11135325
-0.0073763416
0.00793786
-0.06839449
0.12010422
-0.09548466
-0.18597226
-0.0656444
-0.059681136
0.048717484
0.014139532
-0.11220608
-0.14653535
-0.08432083
-0.023670487
-0.046200603
-0.0014831196
-0.014967905
-0.047774196
-0.024225907
-0.009575541
0.029375918
0.07622819
0.031855
-0.0707943
-0.09131599
-0.061835423
-0.03902642
-0.009860277
-0.017486444
-0.032061733
-0.078093976
-0.015335026
-0.012095933
-0.044011135
0.032211423
-0.008016619
-0.11181536
-0.043841578
-0.056879677
-0.018298049
0.046605237
-0.06630234
-0.08144465
-0.027198186
-0.04040441
0.013508849
0.0017331197
-0.071633935
0.0130777
0.026923506
-0.0069109
-0.04033788
-0.009194801
-0.076220684
0.05343448
-0.007110779
-0.03839631
-0.04382273
-0.03204234
0.02238661
0.06643816
-0.021550125
-0.035077646
0.016597934
-0.069602765
-0.037999094
0.004525809
0.06148547
0.001987439
-0.02047628
-0.0692647
-0.04616635
-0.0038120358
0.03904399
-0.025214309
0.022937559
0.0012098484
0.031433832
0.02965732
-0.04158242
-0.019771138
-0.0148233175
0.028635861
0.02562704
-0.013163254
-0.0429061
0.012064936
-0.030360665
-0.044508748
0.03267979
0.038972437
0.044479985
0.038853824
-0.028109943
-0.035911124
0.00034289082
-0.013088037
-0.03697125
0.0026431575
0.029559147
-0.03199072
-0.01343104
0.032492895
-0.039768938
0.017366162
-0.04630592
-0.023409266
-0.0405527
-0.039337162
-0.030474555
0.027769906
0.03547407
-0.017940596
-0.018287044
-0.008022235
-0.032391906
-0.0053430996
1.218641e-05
-0.019498203
-0.028652202
0.017115835
-0.044261076
-0.0014757138
-0.04426082
0.03397957
-0.0012791276
0.030077087
0.007738043
0.0037789252
-0.042180527
-0.043027773
-0.016926933
0.00789546
0.00017667144
0.00033416948
-0.034258325
-0.0009046166
0.012547385
-0.0006217644
-0.04349289
0.018320307
0.0035991669
0.034798224
0.023140062
0.0056792614
0.01760958
0.014043375
-0.012335527
0.033157654
-0.041615944
0.039510164
-0.003725744
0.028251749
0.007396625
-0.022327473
-0.044598322
-0.023212291
-0.01371972
0.008440065
-0.028615568
-0.045759924
-0.024063755
-0.029355511
-0.01892042
0.0035798312
-0.017045094
0.035943937
-0.026640384
-0.046527047
-0.012804039
-0.012983486
-0.03350409
0.026444685
-0.001255717
0.0052374345
-0.013670698
-0.023213848
0.00035747007
-0.008543763
-0.028668229
-0.017850854
0.035703454
-0.025070118
-0.0041789706
-0.038147867
0.018956725
-0.008051803
-0.026452838
0.00043108774
-0.007676389
-0.030677225
0.004688003
-0.03828343
0.034174033
-0.024729937
-0.0015141369
-0.016283454
-0.02904705
-0.0049535367
-0.019374836
-0.026842032
0.03652293
-0.043869816
-0.031781383
-0.047826838
-0.004504966
0.007597937
-0.03811366
0.021756355
0.0030408285
0.028940437
-0.04726117
0.008646177
0.02548778
-0.011830675
0.0100986995
-0.01741984
0.01703531
-0.0110478215
-0.012773659
-0.046629842
0.030354885
-0.0019515657
0.026347172
-0.010866687
-0.0008842451
0.016746724
-0.004011444
-0.025507456
-0.045629267
0.002792173
0.027809707
0.038000826
-0.047075126
-0.048140436
-0.010621678
0.00762451
-0.048660938
-0.03590582
-0.021991696
-0.036666043
-0.046570096
-0.022177067
-0.04543959
-0.031798042
-0.044655498
-0.016349025
-0.007470896
0.033449043
0.023898626
-0.0041765943
-0.029296195
-0.011084974
0.033187937
0.011237578
0.019102624
0.03643695
-0.017174166
-0.034434907
0.0070415246
0.008339531
0.016822042
0.013965509
-0.029493652
-0.030715628
-0.04000403
-0.010202577
0.018085212
-0.021445148
-0.037832577
-0.0076297624
-0.04915542
-0.030457022
-0.038125165
-0.032640673
0.0062723053
0.0072468524
0.03452095
-0.0183731
-0.04057938
0.02450955
-0.013499004
-0.041390654
-0.036296796
-0.0016381138
-0.01844708
-0.043811224
-0.020380447
-0.024414241
0.013853882
-0.00032917672
-0.03634437
-0.034128703
-0.002948652
-0.006734537
0.016236918
0.021160943
0.014383111
-0.015308403
-0.009704104
-0.025128283
0.030862477
0.009141318
0.022431906
0.039824028
-0.042854838
0.0005006235
-0.0021863393
-0.0031193893
-0.02110829
0.014188589
-0.023571594
0.043880872
-0.001328029
0.01024834
0.035516083
0.008236637
0.026061883
-0.0126854135
0.026823977
0.0026504067
0.036974892
-0.03794308
-0.005363096
0.022885872
0.013641638
0.021074528
0.0031767853
0.029941585
0.029892217
-0.040124148
0.004158737
-0.025775218
0.016797923
-0.032159995
-0.043374564
-0.0107658105
-0.013734556
-0.031067306
0.005269896
-0.0013609908
0.028504143
-0.033752866
-0.01915011
0.0041494416
-0.004569338
0.027911058
0.01090263
-0.005040977
-0.040013645
-0.03019802
0.02165802
-0.039467108
-0.035843764
-0.032980293
0.022524059
-0.025754638
0.008319659
-0.014625745
0.0019488666
-0.041719943
-0.01775365
-0.04730315
-0.035149563
0.030047294
-0.026870465
0.02552039
0.030792292
-0.010248777
-0.04040545
-0.010485102
-0.029131595
-0.035974592
0.019701786
-0.038208894
-0.022972863
0.00089756475
-0.011544148
0.032054015
-0.016626712
0.022261942
0.031808335
-0.046276074
-0.02539485
-0.04066635
0.0361961
-0.024351208
-0.016655255
0.018256268
0.021837583
-0.034056436
-0.010201583
-0.018572934
-0.012468336
-0.047285378
0.012290248
-0.035203245
-0.0019537802
-0.03905554
-0.042921983
0.02079959
0.029764146
-0.031489458
-0.035675187
-0.040648274
0.035365354
0.015916742
-0.040622097
0.009247919
-0.043211974
0.023410637
-0.017723324
0.008089166
-0.033183023
-6.790977e-05
0.038057875
-0.03196441
-0.029936422
-0.020288417
-0.027296944
-0.0109098395
-0.0009041562
-0.045929037
-0.016885756
0.032072846
-0.02645281
0.009788263
0.018758474
0.010320594
0.038158268
0.035822377
0.0014021537
-0.040308733
-0.008251604
-0.03835641
-0.03306375
-0.0047978736
0.010805958
-0.041150652
-0.00887933
0.013584878
0.00037148385
0.012515533
-0.026669757
-0.037822615
-0.033016328
0.030636406
-0.015346075
-0.018012464
-0.0029322219
0.013733951
-0.037525274
0.031678986
-0.0124946525
-0.03333644
-0.019765062
0.023941329
-0.013894082
-0.017640254
-0.042981874
-0.0397827
0.0021928723
0.007803488
-0.019703118
0.026859209
-0.0018884834
-0.038240574
0.021440094
-0.029306179
-0.044485256
-0.022100218
-0.017193228
-0.046977174
0.027388448
0.014951804
0.017670661
-0.030806249
-0.019765766
-0.022214917
-0.022601312
-0.039705217
-0.0060390625
-0.008118766
0.033716243
-0.04806838
0.03090213
-0.008267481
0.037076022
0.022498205
0.019392293
-0.031450827
0.031448506
0.011636123
-0.0048883273
0.028638916
-0.04885023
0.008773748
0.020961398
-0.04740512
-0.025216242
-0.009815815
0.013099814
-0.00013194128
-0.039683755
0.038463227
0.012537002
-0.017459717
-0.016838923
0.020651253
-0.03106379
-0.04059198
0.021669537
-0.0130993845
0.011790639
-0.024726782
-0.0025829484
0.023860326
0.03413259
0.029776443
-0.019744711
-0.011913079
-0.0076381527
-0.033933755
-0.034734342
0.007890574
0.010358813
0.023818703
-0.027416049
-0.028809471
-0.020913096
-0.03335117
-0.0028258532
0.011267885
-0.025686217
-0.010124104
-0.0031788675
-0.0021953816
0.022505764
0.02153462
0.044282608
-0.01772305
0.043615136
-0.03712073
0.001442712
-0.04106578
-0.021660859
-0.030809402
0.026720336
0.010079868
-0.034189366
0.038346834
0.02438867
0.0026516283
0.03585571
-0.039111514
-0.031440858
-0.043572832
0.036718853
-0.026963182
-0.02252019
-0.045365904
0.003533901
0.028252628
0.014748819
-0.033018146
-0.01945548
0.033625886
0.032344412
-0.0119005535
-0.005727855
0.033379387
0.0037700417
-0.044794064
-0.004842971
-0.029833749
0.015834209
0.027546635
0.07912801
-0.010849983
-0.021913756
0.012197034
0.04549816
0.07873799
0.07507845
0.0011591954
0.026320554
-0.0027302124
-0.03540867
0.13437779
0.049486224
0.05568228
0.027089069
-0.013985002
0.09999855
0.0676101
0.061812542
0.047904134
-0.007680777
-0.026430467
-0.011368044
0.02877905
-0.043178763
0.062327433
-0.06832964
-0.023694305
0.023636999
-0.03844279
0.017606275
-0.02808235
-0.01560843
-0.05132122
0.003380376
-0.00016697492
0.0073999926
0.036718868
-0.028717177
-0.05925291
-0.037205882
0.009240175
0.0848882
0.006223858
-0.00023657059
-0.0347181
0.071579434
0.052550703
0.030306779
0.0036557266
0.06126696
-0.05737239
-0.017481234
-0.0052497517
0.080822654
0.04972757
-0.031666383
0.022363456
0.14659919
0.15434185
0.11166921
-0.045356996
-0.025873795
-0.048576374
-0.09076478
-0.089470156
0.007078558
-0.01698574
-0.008334432
0.04868531
0.0059073004
0.06080903
-0.041992698
-0.028015198
0.009724679
0.008318191
0.009465685
-0.030721795
-0.023889055
-0.08119139
-0.1192026
0.06493277
-0.017483141
0.004595663
-0.08549393
-0.04951312
0.10068243
0.071654834
0.11354212
0.09483742
0.10939292
0.08393128
-0.02190715
-0.0008892951
-0.035921585
-0.0019353721
-0.06339203
0.01967687
0.11242279
0.0765016
-0.08264023
-0.03434086
0.009691139
0.006165907
-0.030914769
-0.029628688
-0.091271326
-0.11176342
-0.056373306
-0.022412661
-0.060274873
0.031308074
-0.013982759
-0.0064723077
-0.09898513
-0.07621996
-0.002457246
-0.03582712
0.025905104
0.018782908
-0.021764643
-0.024497803
-0.01589924
0.040632144
0.075763576
0.047181834
-0.016187612
-0.049215898
-0.018007696
-0.01682589
0.013351548
-0.0017163343
-0.03505738
-0.010130628
-0.042730976
-0.053105745
0.074775726
0.09215872
0.08422068
0.026251284
0.00083641236
0.088998444
0.06274541
0.0737946
0.055082843
-0.05922952
-0.017466046
-0.017764224
-1.698491e-05
-0.015379293
0.04574316
-0.08361027
-0.03262949
-0.046828024
0.023160301
0.038065497
-0.079561375
-0.03626558
0.03739852
-0.014379965
-0.007134447
0.03727195
0.008166791
-0.06530393
-0.030602556
-0.073367305
-0.050487075
0.009740368
0.051055387
0.035775524
0.031875864
-0.027364893
-0.010854727
-0.013508702
0.04195473
0.043067694
0.0032626737
-0.05287375
-0.01760502
-0.10767643
-0.016363334
0.064046174
0.025432443
-0.036510535
-0.042344604
-0.045563743
0.04343979
0.020466
0.031792514
-0.0093186
-0.008508806
0.03554462
0.081132874
-0.00360035
0.014861294
-0.07846235
-0.026427718
0.028824845
0.0006979848
0.0475111
0.009040161
-0.026440833
-0.004186789
0.04929478
0.084279194
0.10429316
-0.03729664
0.032988388
0.019085119
0.09876926
-0.008633629
-0.065441065
-0.0657972
-0.09044599
-0.053624537
-0.109906055
-0.07535836
-0.020470297
-0.0040647676
0.061535724
0.055404425
-0.0146117825
0.03544425
-0.015724199
0.03618146
0.05688022
0.043629784
0.09864056
0.13148572
0.0988182
0.08066697
0.017308382
0.11130052
0.18083216
0.1274378
0.06944362
0.039407205
0.0023627807
-0.06531494
-0.030025007
-0.11094162
0.044699848
-0.003917608
-0.048867054
-0.009315825
0.01740856
0.061144106
0.09471812
0.0873442
0.08143131
0.07796143
0.025496392
-0.016370077
-0.049330965
-0.04393344
0.090659685
-0.00967379
0.030611947
0.07947802
0.12415616
0.12123024
0.022480318
0.005050006
-0.022249173
-0.019980758
-0.06707082
0.032038134
-0.06254308
-0.07821757
-0.04650071
-0.035552286
-0.036114693
-0.020074613
0.032712895
0.02417757
-0.019065673
-0.070443384
-0.052091774
-0.0381219
0.0046711937
-0.010915218
-0.010015361
-0.07528161
-0.02202101
0.029545102
-0.02166773
0.05429079
0.03307092
-0.0436052
-0.029480929
-0.034832973
0.0050345687
0.0575381
0.060205337
0.022691907
0.015735205
-0.033805706
-0.015610596
0.045669824
0.035054356
0.03674498
0.00089545513
-0.044770375
-0.01711566
-0.050311793
-0.045679636
-0.009495712
0.003164249
-0.062353082
-0.05757003
0.004281591
-0.012181498
0.022094937
-0.024473669
-0.021060672
0.011295934
0.06563463
0.00853084
0.027347231
-0.034029573
0.025684033
0.036800303
-0.027263006
0.043994155
0.029526414
0.051741477
-0.051864576
-0.011395504
0.018733006
0.04434213
0.060387865
-0.03523964
-0.07669043
3.8688877e-06
-0.033700958
-0.08065257
-0.039770324
-0.035333827
-0.06903809
-0.037843853
0.019369815
0.03671815
0.01742979
0.04928175
-0.03550461
0.0008122367
-0.07580548
0.010739957
0.047182173
-0.09931428
-0.0050724316
0.023753975
-0.07008961
-0.104408816
-0.18275766
-0.06140489
-0.0070297047
0.028461967
0.018419594
-0.0870938
-0.062193844
-0.0420088
0.06408857
0.057960138
0.0014147233
-0.058879204
-0.015709938
0.046435732
0.067766555
0.074072905
-0.04525574
0.0057090577
-0.04723415
-0.014937174
-0.040749613
0.040350918
-0.039030362
-0.02329735
0.010692173
0.011936022
-0.017482145
-0.08987922
-0.078742445
-0.016564121
-0.04009348
-0.10716767
-0.0684468
-0.039851718
-0.052298497
-0.048708607
-0.01013287
0.037588533
0.022607232
-0.0068594376
0.050616123
-0.00908096
-0.010689384
0.0011855331
-0.011232456
-0.02235304
2.0422702e-05
0.011147816
0.029609717
0.005022389
-0.0032999942
0.024387527
-0.021002656
0.0005427033
-0.047300152
0.016137213
-0.011135337
0.0049413703
-0.023239736
-0.061683916
-0.06694945
-0.020696778
-0.009765919
0.010746831
0.046369918
-0.005530536
0.0032947757
-0.0059644957
0.011074435
-0.06548618
-0.013368702
0.08593713
0.040811867
0.024970636
0.06959964
0.071316116
0.073571496
-0.009217075
0.057375576
0.0698898
0.097242296
-0.05956157
-0.019386984
-0.104559764
-0.08152462
-0.05654999
-0.098888494
0.0069759986
-0.039051402
-0.0016458173
0.020450145
-0.009025883
-0.038209338
0.03788939
0.011978916
0.040889338
-0.0078188935
-0.08021428
-0.024926502
-0.080298066
-0.096920244
-0.082553014
-0.119061686
-0.045583967
-0.10591977
0.006033458
-0.03390382
-0.00893144
-0.017245881
0.011561254
-0.035781533
-0.021254506
0.007581439
0.025149366
0.018581344
-0.056442387
-0.11131394
-0.054675717
-0.0050902576
0.0067984266
0.050775405
0.07903217
-0.0248509
-0.017594062
-0.028184667
-0.040122982
-0.014260706
-0.013089229
-0.014091358
0.0073132073
0.017192893
0.03313398
-0.00588318
0.019778533
-0.00045090323
0.025738472
-0.023973918
0.03857641
0.003955591
0.035080187
-0.06375999
-0.03823708
-0.07989482
-0.0939346
-0.15702061
-0.115781754
-0.04005577
0.008251229
0.07266902
-0.05302524
-0.06862208
-0.16618764
0.0060147033
0.055685796
0.07629291
0.11486654
0.09992147
0.041417047
0.06759792
0.058104172
0.09857467
0.051000834
-0.08524984
-0.055447236
0.009243308
-0.008716706
-0.01607158
-0.053210065
-0.083479114
-0.05133588
-0.04804013
0.0120751215
-0.069992356
0.017677173
-0.004534394
-0.064141266
-0.04943237
-0.005889933
0.012931857
0.029235452
0.014848276
-0.021716261
0.009532561
0.0099989455
0.03346474
0.030864364
0.008724454
0.02536642
-0.052309513
-0.011599737
-0.005089315
0.03721024
-0.003587697
-0.114834994
-0.042572953
-0.07881766
-0.056625277
-0.02175345
-0.006199593
0.007570991
0.012533177
-0.04494872
0.06851421
-0.022665527
-0.12398991
-0.14883482
-0.08077545
0.11757587
0.08536114
0.098096184
0.1056559
-0.004319909
-0.013479741
0.07777909
0.033831116
0.051557705
0.04092709
0.078641035
0.026592672
-0.14236403
-0.19935834
-0.20311984
-0.0015755923
0.062320165
-0.059750795
-0.10588009
-0.05803532
0.026346182
0.0066889673
0.037930015
0.07066099
0.054498736
-0.032237288
0.04160382
-0.047880124
0.009750727
0.05235716
-0.16216457
-0.03799258
-0.040426888
0.0076085334
-0.08222618
0.03756666
0.006905552
-0.058316052
0.023934111
0.0033342775
-0.07210774
-0.0342119
0.016319409
-0.0054213614
-0.03806303
0.028481027
0.0005524327
-0.027320597
-0.041994307
-0.05800465
0.06616289
-0.033462223
-0.022098126
0.025049731
-0.0008522557
-0.050444774
-0.029733693
-0.022820031
-0.07441621
-0.06794659
0.055087924
-0.02348907
-0.05587326
-0.07485609
0.0074766837
0.015368569
-0.03252029
-0.06536649
-0.17043923
-0.13660538
-0.008091349
0.07688721
0.08351375
0.07140233
0.092199266
0.05138806
0.049280424
0.07657508
0.055995148
0.09953719
-0.0978273
-0.007651483
0.041238993
-0.019807143
-0.028794145
-0.032311168
-0.040845193
-0.04877917
-0.017121833
-0.0067122364
-0.0015314491
0.017350463
0.0054924865
-0.07602806
-0.033439383
-0.0030724723
-0.007871601
-0.014398546
0.0014465376
-0.09022596
0.0038478405
0.03195154
0.06826482
0.030468298
0.019387342
-0.040547766
0.04575054
0.02393012
0.034863453
0.06398952
