-0.050676204
0.046399
-0.033270508
-0.066112936
-0.042995833
-0.07811272
-0.071513295
0.075720906
-0.07055173
-0.02477359
-0.040719654
-0.009040283
0.041215345
0.030270785
-0.026162293
-0.015546129
-0.024803316
-0.09941045
0.006614245
0.039241504
-0.12176427
-0.07842489
0.02272814
-0.084200546
-0.015095826
0.047251828
-0.075103
0.0070850695
-0.014952073
0.05116583
-0.08549078
-0.12008615
0.062633604
-0.01677728
-0.0045919726
0.06047862
-0.082629755
-0.08550002
-0.0022538432
0.060565457
0.0474164
0.013271329
-0.008458121
-0.018279288
-0.072318554
-0.038002558
-0.04604028
0.08161138
0.0987553
-0.041858204
-0.044621225
-0.04877059
0.041102458
0.05256345
0.03742317
-0.14550085
0.05835991
0.013535713
-0.021246217
0.021251936
0.0068476833
0.0030263702
-0.0018039191
0.05095963
-0.00951263
-0.029632108
0.002590975
-0.05439765
-0.008131612
0.22109744
-0.081536554
0.043282397
-0.024653902
0.01109965
-0.083416685
-0.01576546
-0.013388891
-0.017790308
-0.029117705
-0.09165881
-0.015894985
0.0062310155
0.011319554
0.02473747
-0.06286396
-0.061644625
-0.031779297
-0.052600067
0.030374318
0.04837899
-0.010247114
0.03475468
0.05242662
-0.03077341
-0.009070383
-0.059619684
0.036101867
-0.06348087
-0.022880359
-0.082735464
-0.010252731
-0.07841914
0.04962865
0.030957168
-0.03859247
-0.063222915
-0.05996542
-0.017608501
-0.009484754
-0.045548555
-0.032125715
0.025046526
0.01793133
0.06970621
0.002016684
-0.05728183
0.016583163
0.023289572
0.060857695
0.017581234
-0.058492713
0.04817803
-0.062055167
0.026887774
-0.06877652
-0.07468344
-0.03212075
0.03804473
0.023731653
0.04137499
0.019174773
0.023918714
-0.067671776
-0.029848564
0.041474693
-0.009797643
-0.0034047575
-0.05698496
-0.07072434
0.013601413
0.010863615
-0.014031103
-0.023145838
0.036649644
0.060387425
-0.0017080581
0.007499442
-0.010440787
-0.058757752
0.0067822505
0.005595344
-0.0006732365
0.08000361
0.02470354
-0.08527416
0.015509235
0.029101599
0.020349883
-0.020003559
-0.04775169
-0.0015079891
-0.045821898
-0.03426064
-0.029362546
-0.10988614
-0.0033443545
-0.09062115
0.035104632
-0.05194199
0.028723363
0.03885112
0.0027435038
-0.020182056
-0.104895145
-0.0037257022
-0.07391414
0.026674302
-0.015218849
0.07307536
-0.03337252
0.013099589
-0.06952241
0.005611656
0.040056597
-0.02313191
-0.06923232
-0.009385846
-0.026664007
0.030067133
0.03370622
0.03604642
0.04962501
-0.08018319
0.011430369
0.010850611
0.040655836
-0.0489498
0.041245885
-0.004635498
-0.017520119
0.06024518
-0.0011280895
-0.035212796
0.04950398
0.09256354
0.014861261
0.047149003
-0.02758066
0.019667735
0.0048103924
0.019555049
-0.011418947
-0.032301757
0.059900135
-0.0035972153
0.050150357
-0.023363668
0.025989579
-0.02322946
-0.04135269
-0.022620294
-0.038295906
-0.058999714
-0.03643901
0.04865284
-0.03795325
0.009359881
-0.0019503237
0.022237174
0.042737886
0.06190338
0.046860944
0.0109916525
-0.011458714
-0.018398743
-0.15386102
0.009580757
0.026612343
-0.048382755
0.012853941
0.05209338
-0.095798485
-0.07059235
-0.047520768
-0.09567469
0.018594416
0.04648601
-0.01533033
0.077728055
0.056638606
-0.03508255
-0.030587137
-0.07146718
-0.092770495
-0.02416645
0.008569683
-0.026854962
-0.13700493
-0.042243842
-0.0064627887
-0.041656923
-0.027884932
-0.008622392
-0.01708083
-0.018871449
0.07211392
0.057092458
0.02416221
0.066385485
0.030888962
-0.007805345
0.010225122
0.09980762
-0.12943152
-2.7126875e-05
0.05944632
0.07246066
0.046185657
-0.04927162
0.06525015
-0.060606282
0.030471895
0.040924188
0.017552173
0.044407584
-0.060526937
0.048449963
-0.0729009
0.043594327
-0.03789996
-0.0090419175
0.016728722
0.011120769
-0.09553576
-0.091525495
0.040236138
0.018308593
-0.084895715
-0.054738317
-0.015731847
-0.062044665
-0.028772576
-0.0019503048
-0.036212817
0.008991196
0.0030669235
0.031231413
0.027729226
-0.024428334
0.007964595
0.0046827905
-0.052039593
-0.07211045
-0.064069316
-0.024721133
-0.028352529
-0.02817392
-0.077006936
-0.007900538
0.013318216
-0.033106584
-0.011133636
-0.013089089
0.04410614
0.05454327
0.0033172648
-0.022459757
-0.0374108
0.024580032
0.055102933
-0.026159579
0.02418406
-0.042738385
-0.052512918
-0.029677253
0.08308998
0.058196194
-0.027807541
-0.008473874
-0.0219792
-0.06123269
0.0516233
-0.045216314
-0.08369336
-0.08845896
0.017433982
0.017765641
0.030725922
0.028668046
-0.07377903
-0.06859409
0.05835726
-0.013165661
0.030472327
-0.03018205
-0.00819783
0.058492962
-0.018322382
0.040724248
-0.030732589
0.029276831
-0.0783319
0.026703568
-0.018203048
0.17973137
0.029360235
0.0188089
-0.051480237
-0.036647025
0.025368657
0.044052426
-0.0112167625
0.00824596
-0.094264455
0.023770317
0.02961943
-0.032088876
-0.13022181
-0.005887903
0.016646978
-0.0046989527
0.0009047685
-0.005095449
-0.06817991
0.07722998
-0.059291236
0.0131372865
0.015801625
-0.01758897
0.023022082
0.05865167
-0.046893783
-0.00054981036
0.044653136
-0.005342648
-0.024937686
-0.033766553
0.026020551
0.020658774
0.03389994
-0.032389965
0.010377756
0.022981629
0.05391342
0.044649567
0.024010548
0.054225907
0.027498232
-0.044745374
-0.077764764
0.03275178
0.00948507
-0.00656759
0.01586348
0.020036163
0.0028592316
0.042638484
-0.03982314
-0.007873266
0.017990792
-0.0589055
-0.029385231
0.034371495
0.000133513
0.029101163
0.034698106
-0.015763987
0.012326478
-0.09528357
0.057600223
-0.046566576
-0.044691168
0.07051705
-0.08909121
-0.011380508
0.04503138
0.0017120269
-0.06754797
0.0133022815
-0.0025265182
0.023573093
-0.018183583
0.005922432
-0.0821642
0.037780423
-0.031603202
-0.06538155
-0.04937373
-0.02491775
-0.06710822
0.023154832
-0.040039625
-0.0072377077
-0.013728763
0.019040104
0.008007825
0.004733276
0.019350452
0.024200821
0.029863143
-0.0075241295
-0.0045062085
-0.017654162
-0.12368028
-0.028244067
0.009492723
0.026708174
-0.086906455
0.00901479
0.009524437
0.026694946
-0.028075803
-0.0014498276
0.0120626595
-0.10164382
0.0038828065
-0.015795073
0.025441535
-0.039970048
0.04239706
0.020985069
0.03734621
0.038800843
0.10326544
0.052916694
-0.026809536
-0.021653729
-0.04360143
-0.021935191
-0.050355393
-0.08099747
0.057740103
0.0010407658
0.046995096
-0.045384757
-0.016525485
0.014549252
0.050055858
-0.0067828526
-0.03795363
-0.06043045
-0.07425108
0.044182397
-0.004102703
0.08236041
0.03524115
0.008855332
-0.06359051
-0.0025132385
-0.00879436
-0.030044092
-0.026715616
-0.031730566
-0.07809414
0.031050824
-0.060038988
0.027346907
0.07569335
0.020182217
-0.091968894
0.033769477
0.03156929
-0.04482852
-0.07015264
-0.078960896
0.056258447
0.031961836
0.040154237
0.07068055
-0.05427962
-0.044053078
0.10330765
-0.0041776113
0.011947943
0.053563934
0.013832219
-0.021592366
0.040363442
-0.0030126052
-0.03169376
-0.050599545
-0.09418844
0.03952962
-0.038062014
0.044310946
-0.0061724503
-0.0063432558
0.008956109
0.09751556
-0.006996178
0.04316744
-0.059660003
-0.026915902
-0.10755661
-0.0041053137
0.050987087
-0.03166599
-0.047437783
0.18619867
-0.08988079
-0.050396953
-0.010883033
0.0109364595
-0.04845303
-0.0044929385
-0.11608365
0.031052329
-0.060710132
-0.07583706
0.1319267
0.08075391
-0.05817698
-0.0682824
0.031058453
-0.008499902
-0.053323615
-0.061182808
-0.040842034
-0.041962154
0.02327893
0.020899776
-0.00044922892
-0.01176884
-0.0289688
-0.011516297
0.040263783
0.010345167
-0.0003196747
0.002930039
-0.011138876
-0.026057322
0.07307825
0.084280424
-0.09291773
-0.019947963
0.019299706
0.060114287
0.0027036516
0.009694887
0.037962414
-0.050477862
-0.020421643
-0.07773382
-0.06041609
-0.0016036266
-0.057908658
0.038020786
0.033528022
0.02779379
-0.023653952
0.027512496
-0.0068102777
-0.014714264
0.007437731
0.02066586
0.047363896
-0.0110463435
-0.0005441195
-0.041842952
0.0026898682
-0.0039304714
-0.011718856
0.06345886
0.011493574
-0.0322246
0.060470715
-0.02029796
-0.084939994
-0.049133647
-0.033389285
-0.05323011
0.021929143
-0.034514435
0.028017625
0.019091455
-0.012832567
0.010319473
0.02037099
0.029453298
-0.04337128
-0.0010440092
0.0052060825
0.041606102
0.008239033
-0.043951016
0.024986692
0.031250395
0.011888836
-0.013661865
-0.04021347
0.007889529
-0.020934977
-0.07009085
-0.029001728
0.03525275
0.0071274186
-0.041152157
-0.032833647
0.0023445953
0.011251843
0.009017394
-0.075328015
0.019086896
-0.024389202
0.004239551
-0.010289933
0.04408918
-0.090231754
0.0361656
0.02710563
0.030056186
0.024066713
-0.011935016
3.8044286e-06
-0.029532168
-0.030066514
-0.054967817
-0.028034136
0.074950546
0.045265716
-0.008703175
-0.005615738
-0.012578029
-0.08701542
-0.02569356
-0.06605881
-0.036062535
0.018752215
-0.03613338
-0.049867615
0.025115421
-0.061997052
-0.04742249
-0.049215745
-0.012675695
-0.05412739
0.008432208
0.04736706
-0.047471453
-0.036973983
-0.054753754
0.03847752
0.025845991
-0.07221257
0.06482329
0.07549922
0.06814165
0.019090649
-0.06251114
-0.035357635
0.020373397
0.022067843
-0.0021456622
0.011397614
0.014824041
0.009088932
-0.057282582
0.02445795
0.034928486
-0.0031086192
-0.02195139
0.007038036
-0.04682865
0.0027216978
0.047907043
0.08343014
-0.050584354
0.004077103
0.040084638
0.052988727
0.033583283
0.10240366
-0.042735375
0.06823004
0.052140728
0.10126543
-0.077429585
0.03874138
-0.028832747
0.025574166
0.035155974
0.005397634
-0.018211134
0.17334005
0.04855124
0.024067879
-0.06928331
0.049050555
-0.014150005
0.07847016
0.014497453
-0.046025135
-0.12896785
0.031148707
0.00075920747
0.018589566
0.0020028763
0.12560111
-0.031795852
0.010748678
-0.047577824
-0.0325762
0.029308548
-0.013614275
-0.008340844
-0.03105649
-0.033403125
0.038470995
0.024174405
0.026763901
0.0030501501
-0.011918447
0.08172612
0.05961866
0.014060427
0.036452603
0.053678498
0.059586853
-0.010834277
-0.0895515
-0.06342012
-0.041791946
0.0009660527
0.02434761
-0.036013976
0.044708483
0.06159497
-0.07368712
-0.0037690394
0.04015971
0.0453994
0.009832021
-0.07135943
-0.020789728
0.009222802
-0.05273069
-0.026475659
-0.08240578
-0.05095514
0.009450306
-0.058783628
0.044904806
0.011577809
0.0048237843
0.061035916
0.010045783
0.0970867
0.021910764
0.05861122
0.059313264
-0.004271711
-0.008387888
0.00219002
-0.060058895
-0.06422858
0.025719093
-0.039622746
0.05344122
0.010770073
0.019194493
-0.0154301
-0.01368093
0.032825045
0.055823028
-0.10492536
0.07553414
-0.067701675
0.04377297
0.031226426
-0.028174467
-0.057593253
-0.086509265
0.0057241935
-0.08143008
-0.017224748
-0.041030183
-0.012665681
-0.0023126234
0.0027243907
-0.036004186
0.041398022
-0.09624488
0.014156405
-0.020724379
0.014710203
-0.04152392
-0.086652085
-0.014453318
0.010204192
0.0016623462
-0.039706603
-0.08010624
-0.009391025
0.03652471
-0.04154852
0.05158424
0.03525334
-0.03427926
0.019675972
0.059073497
-0.030074932
-0.00466038
0.005250497
-0.022428121
0.18757784
-0.029639324
-0.04655516
0.0299693
0.034958187
-0.07159173
0.006883445
0.051916137
0.017407753
-0.024988849
-0.019133734
0.006680696
-0.041897293
0.036789507
0.0008915401
0.04744226
-0.06838297
-0.123891905
-0.055221166
0.01739303
0.04281169
-0.023615878
-0.07649913
-0.07180779
-0.09657272
-0.026742699
-0.062297013
0.017074058
0.01646736
-0.117973804
-0.026605846
-0.1014553
0.0024016192
0.007367728
0.0002194212
0.0048310095
-0.015041059
0.031378675
-0.029826635
0.04488091
0.039221697
0.025714213
0.059392326
-0.071948506
0.033486217
0.019069081
-0.08459901
-0.04615699
-0.11534321
-0.009042318
-0.069237776
0.0057918597
-0.0026382322
-0.051376976
0.0022804574
0.027237257
0.038718008
0.054677214
-0.049523458
0.04310829
0.011294547
-0.030225161
0.03366994
-0.026437398
0.044683177
0.097504124
0.061162114
-0.044798084
0.03840173
0.029744484
0.012575408
0.031483244
-0.008621174
0.042812996
-0.0758887
-0.007972672
-0.08294638
0.0045148656
0.007213082
0.052420657
0.01941024
0.027254472
0.02149883
0.018033132
0.038368434
-0.0052105743
0.028178435
0.032530677
-0.07890448
0.031162223
0.038249794
0.013935003
0.03688347
0.04910813
-0.041552726
-0.036163326
0.0068795807
-0.0051042647
0.012900435
0.038243257
0.0043755574
0.08926671
-0.04553093
-0.025262458
-0.082604796
0.0858021
0.007902539
0.05049947
-0.06799306
0.061361015
0.08050985
-0.04933423
-0.075170666
0.009271834
0.034462433
-0.045535594
0.016451612
-0.09451674
-0.07354757
0.11416608
0.071765624
0.05582033
-0.044927012
-0.06884578
-0.037997242
-0.06457944
-0.059406426
0.039009657
-0.01949539
0.013523361
0.0041059772
-0.048651878
-0.0900667
-0.07991403
0.069594
0.024578176
-0.07431111
0.063211136
-0.0033208965
0.061947823
0.06786117
-0.0013668521
0.014073972
-0.065597884
0.0143516455
0.012854318
-0.04091153
0.124365084
0.072437175
0.017052092
0.018592509
0.04770179
0.052865647
0.043604337
0.0059248004
0.049283314
0.022296304
-0.080205336
-0.0020628292
-0.0020639612
-0.00012597312
0.05037566
0.061214942
0.07361232
-0.04568383
0.05297849
0.072497696
0.07663689
-0.0942418
0.027585771
-0.1745168
0.01110283
0.027851183
-0.041942816
0.014517513
0.032493237
-0.023763062
-0.08196697
-0.072767906
-0.015438102
-0.06783878
-0.07885126
-0.07081543
0.099757396
0.12137342
0.07060715
-0.0762979
0.028300703
0.049925596
-0.022069018
-0.0063044513
-0.0017688747
-0.04464143
0.028858973
-0.12003479
-0.014345547
0.01770915
-0.0008602438
0.044598427
0.051622514
0.027331514
-0.069142684
0.08188356
0.010083375
0.067236066
-0.113454774
0.044439964
0.04869863
0.00066757895
-0.11208494
-0.10437548
-0.036687955
-0.00058536837
-0.013213263
-0.027502574
-0.0054729753
-0.104442865
-0.006397647
0.017798534
-0.08066372
-0.08885068
-0.007522819
0.00835252
-0.1452546
0.05267508
-0.11278567
-0.013482889
-0.09561388
-0.05586717
-0.030038994
0.02205761
0.012652446
-0.1088102
0.054218136
-0.0034367347
0.034260307
-0.04846684
-0.007144555
0.049141683
-0.060073495
0.00081574626
-0.0698048
-0.062220078
-0.041963827
-0.044845957
-0.10177541
0.026511572
0.017166331
-0.04291089
-0.05059679
0.016859509
0.019766346
0.028603967
-0.0053915605
0.07080866
0.055317786
0.008791167
-0.012786161
-0.01158755
0.044467486
0.038120903
0.039389476
-0.013112856
0.024778385
-0.02694286
0.04061142
0.040637106
-0.0045536757
-0.052847106
0.04367709
-0.07116524
-0.016847184
0.04838893
-0.019102182
0.014688909
-0.13626683
-0.013481995
-0.0116714835
0.13908523
0.101213515
-0.025096864
-0.024040768
-0.0483623
-0.073557325
-0.012778439
0.017922767
0.04159866
-0.13415718
-0.002366556
-0.091313444
0.030702403
0.021696914
-0.0040719924
0.009017682
-0.0022727996
0.0031115534
-0.029084755
-0.03227678
-0.0026225483
0.103205055
0.059064504
-0.032161556
-0.009483974
0.057730358
-0.04460334
0.025787113
-0.0061630215
-0.006697242
-0.052730795
0.05409628
0.0043015783
-0.006467484
0.07814972
0.015586662
-0.034076698
-0.0056865383
0.024876684
-0.06038176
-0.049513295
-0.049362045
0.10531905
-0.026199177
0.010241923
0.0066306894
0.017653512
-0.007844671
-0.037681926
0.03713082
-0.07228055
-0.045637567
-0.04195482
-0.029548123
0.038366467
0.1283765
0.022417946
0.028519658
0.01797827
0.04371403
0.001679534
-0.113831386
-0.019380307
0.058464196
0.05302387
-0.00867177
0.019721568
-0.112669826
0.055647533
-0.048461474
-0.020517118
0.047056068
0.010495435
0.03638849
0.016855143
0.05020929
-0.041927252
0.03363664
0.0017860802
-0.022961784
0.028558975
0.038639925
-0.012491547
-0.060934093
-0.09072943
-0.14042455
-0.03254134
0.06402296
-0.1003915
-0.14602296
-0.08614656
-0.119147
0.015050547
-0.13051777
0.0054453276
-0.15553218
-0.0047465498
0.009160797
0.004272109
-0.017803824
-0.00040270723
-0.15583771
-0.010047422
-0.045540884
0.05885674
0.10019939
-0.0091354605
0.012055564
0.02707588
-0.024686629
0.08706679
-0.0013749879
0.04736327
-0.023334848
0.021818927
-0.09651959
0.024576264
0.004026155
-0.049177006
0.0010755737
0.10411239
-0.03700683
0.02576452
0.016296688
0.0013533954
0.0002630369
-0.06367284
-0.016685931
0.0049345256
0.00414537
0.14404508
0.073948234
-0.011967985
-0.04087968
-0.01861449
0.04076182
0.02596474
-0.06579291
-0.07754479
0.00473251
0.02976751
0.014762825
0.045650832
-0.010711081
-0.04570734
0.025542147
0.051537514
0.0031713312
0.029329102
-0.021746902
0.025340447
-0.0074718893
-0.074899554
0.021297889
-0.043719266
-0.21340714
0.059889786
0.0007159768
-0.033292912
0.01652953
0.022632228
0.018890578
0.04439964
-0.038768478
-0.25776637
-0.023371784
-0.0178699
0.029600749
-0.016303176
0.046760898
0.0068677966
0.08516321
-0.0366698
-0.027269721
0.0016254929
-0.017373268
-0.022777079
0.044293612
0.012265754
-0.0034612494
0.036140367
-0.06494434
-0.015906543
-0.095317364
-0.0030382331
0.037852217
0.0075615947
-0.07932142
-0.019560408
-0.0010004733
-0.06642961
-0.03714474
-0.048474763
0.08801167
-0.14762358
0.005036567
-0.022778768
0.01605413
0.042000342
-0.08108567
0.043904096
0.09783344
-0.098137945
0.023854714
0.03772197
-0.045440488
0.034984034
0.04078483
-0.042747486
0.04093768
-0.027731804
-0.00790003
-0.042609047
-0.039283384
0.07213434
-0.021931658
-0.030931378
-0.12951498
0.07005883
0.007874377
-0.033302262
0.007845369
-0.04133666
0.12582915
-0.026664574
-0.10752421
0.026879322
0.008584152
0.018059414
0.051092364
0.058318038
-0.08959705
0.030331697
-0.02689074
0.0800719
0.055102624
0.059394605
-0.13409902
0.007621953
-0.06509603
0.060270377
0.01803393
-0.0633733
0.038818397
0.046140697
-0.026014518
-0.005952213
0.018588938
-0.029587325
0.049452312
0.054531086
-0.07765724
0.027914796
0.024202235
-0.03597066
0.019717112
0.048649233
0.015796853
-0.014243093
0.0362956
0.012633993
-0.06046496
0.093469605
0.061168946
0.08667613
-0.02064202
0.059525643
-0.039343618
0.024487227
-0.07580747
-0.02218083
0.0019932552
-0.034373607
-0.02425882
-0.04723826
0.0041931146
-0.022342766
0.07661263
-0.054408465
0.032293383
0.045416713
0.033400595
-0.03659641
-0.006256562
-0.029855628
0.019054726
0.031151172
0.067387514
0.06367945
-0.024317006
-0.041918285
-0.016493961
0.012502877
-0.036136918
-0.0275262
-0.014930871
0.01219679
-0.031497028
0.07208677
0.013976367
-0.015972702
-0.04407504
-0.03357598
0.037917413
0.0663797
-0.0318601
0.008982244
0.0015332752
-0.028519277
-0.014303086
-0.06751911
-0.031327847
-0.030069035
-0.08031925
-0.018191906
-0.10220998
-0.0026452395
0.009899594
-0.0063343635
-0.05757615
0.0018072159
0.004556803
-0.029673532
-0.05291603
-0.022922723
-0.044162825
0.058295395
-0.026196582
0.065760635
-0.09335023
0.0044534677
0.03933471
0.02788306
0.03627009
-0.09164079
0.0010295404
0.020309705
0.060040407
0.014795905
-0.06104675
-0.06253141
0.121661335
-0.09693551
-0.051376387
-0.033407476
-0.01067099
-0.019493293
0.10939433
0.006689496
0.0063244994
0.035476934
0.037411068
0.02542543
0.018552763
0.02611547
0.000888734
-0.06864492
0.020597883
0.0014872078
-0.010759446
0.055278845
-0.034709048
-0.13082048
-0.020026015
0.06344325
0.05891466
-0.015034411
0.037681486
0.0020980535
-0.04621342
-0.053468164
-0.024537291
0.0320379
-0.016335014
-0.054293435
0.07550515
-0.007261611
0.024178911
0.07347293
0.034877755
0.022710962
0.063128896
0.009462443
-0.06201205
0.05111206
-0.06556524
-0.059190173
0.05709388
-0.06814283
-0.064656526
-0.047266304
0.006621494
-0.12010227
-0.05383783
0.03685284
-0.03382933
0.05769997
-0.06524896
0.04922904
0.05840723
0.0043308483
0.027361274
-0.060698643
-0.0065922737
0.08371563
-0.03643151
-0.13180374
0.019818721
-0.074930616
0.04544256
-0.019453809
0.02480646
0.059445787
0.050121553
0.062461525
0.019352648
-0.092110775
-0.024085583
0.039960463
-0.010946983
0.0036186397
-0.070305474
-0.006722773
-0.021030147
-0.099826835
0.035750095
-0.07042905
0.088646695
-0.019853791
0.045294806
0.061553054
0.0034414984
0.038452517
0.01146463
0.039664797
-0.014505359
0.013840106
-0.020619176
-0.06023236
0.006547814
-0.00769747
-0.02043633
0.0066114054
-0.04777665
0.009833492
0.045803033
0.008444953
-0.045381635
-0.1076627
-0.10870495
0.043269552
-0.053206503
0.025092984
0.031202137
-0.03181339
0.011781854
-0.01947597
0.0037404578
0.036028065
-0.03318672
-0.021989316
0.027697407
-0.0064557344
-0.06332329
0.05500331
0.011433791
-0.048562564
-0.027913965
0.05298742
-0.045279585
0.008105622
0.07522019
-0.0020148365
-0.047594026
0.023326276
-0.0072809015
-0.0033742704
-0.09173765
0.002687923
0.012066167
0.007587296
0.058601137
0.02823385
0.059554093
-0.03762985
0.04091258
0.016454749
-0.030204574
0.02991123
0.021164358
0.04241289
-0.044194024
0.054073706
-0.04347848
-0.008692649
0.016606407
0.050387453
0.016644854
-0.030118948
-0.03992213
-0.07538384
0.08228998
-0.053405665
-0.03730434
-0.0009938177
-0.031230457
-0.027354203
-0.005941605
0.019091396
-0.098763414
-0.07307938
0.018391727
-0.030220723
0.013599615
0.04224873
0.008473654
0.04551589
0.03688964
-0.015950676
-0.020368401
0.037800413
-0.03957054
-0.078899845
-0.021634689
-0.0066855927
0.023678081
-0.0063536516
-0.0375231
0.021055048
-0.0038454419
0.039332535
0.014094556
0.003961873
-0.046909615
-0.06715716
-0.009993566
0.015984843
-0.0014401033
-0.012726196
-0.072262995
0.01062607
0.028339457
0.0028886762
-0.015237994
0.035431627
0.025098758
-0.0036666533
0.041901127
-0.111117505
-0.074836716
0.009854576
0.022069726
0.00215458
0.04182803
0.008310534
-0.11682935
0.037851173
-0.12813708
0.048891135
0.01683541
-0.008464788
0.03169143
-0.042478506
0.057463348
-0.024081055
0.012239615
0.032967027
-0.0038557807
-0.09117799
0.032764696
0.027722113
-0.045774896
0.029545253
0.06266976
0.046738416
0.04924465
-0.0015914576
-0.029216297
0.009954128
0.03750066
-0.08260806
-0.06434883
-0.03650638
-0.044431783
-0.07440394
0.049437936
0.055783182
0.0013739528
0.06094919
-0.081982225
-0.058143534
0.050754596
-0.036475956
0.038113426
0.06538937
0.053801596
0.0060819583
0.0059172893
-0.0047587445
0.06569212
0.07070208
0.09465407
0.074327275
-0.006600639
-0.012035257
-0.095782645
-0.16026615
0.016599875
-0.004075799
-0.04966432
-0.06640488
0.023612484
0.0017057572
-0.030838778
-0.005045702
-0.08112258
0.0037777463
-0.0010375131
0.020113837
0.006598442
-0.14518788
-0.024523167
-0.045895647
-0.04801983
-0.08457925
0.005121091
-0.082440086
-0.014814225
0.07527654
0.06499021
-0.016434161
0.06557819
-0.030169107
0.018903159
-0.04901126
-0.10063882
-0.007391988
0.02053267
0.044486314
-0.0015792043
-0.022549815
-0.017180832
0.042880323
-0.007883451
-0.088311605
0.028421743
-0.120515086
0.01747209
-0.010400482
-0.036289554
0.06761605
0.06914021
-0.16146058
-0.01259272
0.013114999
0.09452022
0.02192828
0.01744003
-0.01676382
0.057202578
0.0100951055
-0.0022567299
-0.013294854
0.013936688
-0.17608142
0.0021069583
0.025229767
0.051814184
0.043222558
0.058482464
-0.054628648
0.06806857
-0.06358828
-0.0353147
0.028173992
-0.030109266
-0.027363451
-0.0121863345
-0.067323335
0.01763479
-0.00344295
0.03155914
0.047674835
0.050633155
0.050147567
0.02482363
0.00075506576
-0.02516397
-0.055636592
0.047329493
-0.066436484
-0.04924984
-0.0006138895
-0.07129781
0.040074028
0.047220264
0.036403116
0.020928925
-0.03298451
-0.06079704
0.01313358
-0.07044089
0.018342271
0.03059807
-0.05670631
-0.0020931952
-0.032367833
0.06123272
0.0715537
0.03940817
0.022088878
0.04204352
-0.014498989
-0.08390714
-0.10314419
-0.008389829
0.012640332
-0.049738497
-0.044958938
-0.049287032
-0.017460672
-0.021988157
-0.11030021
-0.08918329
-0.06903635
-0.01561335
-0.04845762
0.020009339
0.03368835
0.05717866
-0.12588659
-0.05297396
0.053789686
-0.005305998
-0.07874563
0.053981505
0.08607985
0.03957289
0.078204125
0.073915794
0.03528382
0.030477569
-0.017648453
0.07568732
-0.014453538
0.0104824165
0.004576348
0.038208973
0.014083046
0.01636083
-0.13091128
0.040372252
-0.011336119
-0.061251234
-0.0076026823
0.008512656
-0.07239484
0.037097782
0.017707149
-0.013716837
-0.028059093
-0.08804798
-0.075057924
-0.021465454
-0.14038925
0.049971856
-0.04669865
-0.055215955
-0.036315177
-0.09605255
0.0053731683
0.0030207962
0.013513418
-0.017542232
0.006688694
-0.050892547
0.03540713
-0.08602765
0.026800878
0.012815501
0.05368603
-0.011380476
-0.064351656
-0.043169346
0.03221707
0.004362034
0.062362716
0.006482742
-0.0062049115
0.01201456
-0.01378486
-0.0020501807
0.02504691
0.062110983
-0.0044825277
-0.04247523
0.030879991
-0.008661386
-0.043233927
0.024580939
0.0015027373
0.02622469
0.022717575
-0.011358088
-0.015907522
0.036165863
0.024974637
0.06167276
-0.0117221875
-0.03344
-0.082832694
0.02811753
-0.007942556
0.021259898
0.0076557
-0.057159144
0.016016537
0.056561682
0.028920904
-0.00085939316
0.016228262
-0.027695335
-0.039981473
-0.064276606
-0.009801615
0.00527381
0.046923816
0.07347958
0.015333346
-0.0024069017
0.0457459
-0.09952628
0.12085039
-0.013148174
-0.02251509
-0.03829072
0.038132682
-0.038325213
0.025586486
0.007489792
-0.03130516
-0.11537283
-0.0031762712
-0.040196314
0.023451857
-0.12556413
-0.0045670304
0.029534617
0.050237894
-0.06387493
-0.07882189
0.012060696
0.010216163
-0.02951905
-0.036413908
0.018352674
0.006774021
0.0074574538
-0.008807697
0.046941906
-0.0053990977
0.049263604
0.051172435
0.0506262
-0.039465412
0.0055166115
-0.08719864
-0.00537578
0.0105739795
0.06519922
0.035077836
0.04152192
0.010331462
0.033059184
-0.020325283
-0.019138925
0.015177443
-0.09706901
-0.0076112724
0.038314197
0.03396635
0.044207085
0.013962889
0.0024686772
-0.0115022
0.0596151
0.06429976
-0.024353702
-0.088809706
-0.08055256
-0.025700282
0.032534897
0.040476706
0.074335374
-0.019012187
0.06289486
-0.049636014
-0.08804861
-0.010566281
0.016921133
-0.09770666
-0.08485685
-0.012549251
-0.044685047
0.046451233
-0.0128952665
-0.2070363
-0.08442667
0.060296446
-0.058460686
-0.045528404
-0.031878646
-0.0878332
0.013433481
0.060847636
-0.06948368
8.658515e-05
-0.039661784
0.022332963
0.01743186
0.052893132
0.0069835545
-0.02630377
-0.031349134
0.08801566
-0.045418166
-0.0018869935
-0.24596877
0.02394633
0.010031824
-0.09184607
0.023319358
-0.03186069
0.049990736
0.042319816
0.037678495
0.03892359
0.006355178
0.051785976
0.010502885
-0.030443355
0.06372554
-0.006578137
0.046246413
0.03636002
0.034847323
0.017478425
0.019876141
0.0633491
0.10277422
-0.055008087
0.041435797
-0.004057068
0.026114417
-0.14520335
-0.0031927414
-0.0057136607
0.048803605
0.034439053
0.055685475
-0.06645777
0.045944504
-0.042825684
0.06875106
-0.07263204
0.035552073
-0.039069682
0.061712928
-0.06412472
-0.016342744
0.036474187
0.018693531
0.029807864
-0.046100847
0.017677488
-0.04201427
-0.036303826
-0.011871384
0.039692067
-0.0031180135
-0.10671878
-0.10233476
0.035445128
0.010331215
-0.0067283977
-0.053254385
-0.02334105
0.026836267
0.004823137
0.012406161
0.044405688
-0.04962318
-0.11884711
-0.026853058
-0.011477169
-0.025641501
0.04627813
-0.034161333
-0.038650364
-0.0015259043
0.15505557
-0.03093066
-0.06479876
-0.047533154
-0.009036247
0.012898976
-0.022962743
0.030470986
0.03801294
0.033201747
0.033137012
0.061943203
0.0099695865
0.00092400395
0.01372753
-0.08085964
0.015098414
0.027668605
-0.01625608
0.011124669
0.02035376
-0.03968159
-0.052163497
0.008847232
-0.026959851
-0.0025584858
0.06040633
-0.07922485
0.016482474
0.008165524
0.029540624
0.06857772
-0.0012274424
0.04857131
-0.045619346
-0.022291463
0.00532983
-0.026775109
-0.052217282
0.033512764
0.0025545917
0.030263852
0.08011345
0.038275164
0.013781385
-0.039309204
0.02133502
0.01757339
0.023963774
0.047429595
0.05305888
0.026473315
-0.010791946
-0.06329604
-0.10694269
-0.0430745
0.019853415
0.04707874
-0.03482617
-0.016271794
-0.008988459
0.02809593
0.04932551
-0.024513042
0.023450369
0.032155406
0.01737758
0.040499102
0.0037221315
-0.032941222
-0.0057260026
0.04833621
0.011336905
-0.092589125
0.04996214
-0.12259867
-0.04104257
-0.042274486
0.027601847
0.028213982
0.008891144
0.04126406
0.03888534
0.0166029
0.049365703
0.057311293
0.0038373393
-0.024785295
-0.09983149
0.05127573
0.0462517
0.010976895
-0.016802683
0.027745
0.062839046
-0.017012054
0.028404184
-0.08073474
-0.11652664
0.018782604
0.032141425
-0.1203574
-0.0861567
-0.026386293
-0.07055972
0.058686703
0.050980076
-0.08544725
-0.019368207
0.02342765
0.03344651
-0.028271897
0.005255812
0.045092806
0.029179106
0.07462159
0.0347586
0.011529075
-0.046317734
-0.02582123
0.04004457
-0.004657635
-0.037498727
-0.09210857
-0.01561982
-0.024506368
0.011733544
-0.0385253
-0.04192255
-0.07715941
-0.12533233
-0.1437646
0.036917407
-0.11924722
-0.051742673
0.07543113
0.031179348
-0.05916092
-0.003915913
-0.02388816
0.021487312
-0.05055839
-0.0653986
-0.008681718
0.107945696
0.030923929
0.019875264
-0.018642753
0.022263033
-0.02827425
-0.032487676
-0.040062137
-0.016833514
-0.06546261
0.013817412
0.007885947
-0.094974406
0.0055776173
-0.052579775
-0.06613195
0.023599403
-0.015042262
-0.00093912147
0.024622297
-0.11964261
0.008282417
-0.09570721
-0.008512752
-0.0055415914
0.013101586
-0.033596903
0.006695348
-0.008918909
-0.029289046
-0.042376105
0.003830717
-0.011080513
0.015168822
0.05778071
-0.004749584
0.03698848
-0.05130966
-0.0608086
-0.09902754
-0.050302967
-0.03968412
-0.01547406
-0.05170418
0.040499482
-0.085055746
-0.032346983
0.06991606
-0.037943035
0.08207019
-0.07391332
-0.0074973456
0.044035725
0.024783505
-0.021675961
-0.047040656
0.028547974
-0.054352295
0.05561416
-0.039443854
-0.034225743
-0.032791197
-0.014748045
0.018825592
-0.06908205
-0.009364059
0.008747526
0.046642695
0.020176258
0.06370867
-0.0023005304
0.023929313
-0.032919582
-0.005988691
0.042378522
0.059289698
0.03710268
-0.0095970845
-0.025839692
0.0077750995
-0.05981989
-0.023082314
0.029785696
-0.070983455
0.01831279
-0.011926522
0.030451758
0.036003295
-0.12231554
0.027018016
0.031769477
-0.060893968
-0.11919492
-0.041221116
-0.10400669
-0.009241949
0.05467347
0.02399982
-0.16822499
-0.0008712512
0.03301942
-0.050447058
0.05720954
0.0013798833
-0.104884125
0.041718
0.026769068
-0.048167184
-0.027035281
0.14651246
-0.040381096
0.007790941
-0.037809003
0.0052229017
-0.036701225
-0.05611875
0.012772347
-0.04433986
0.025843645
-0.09225244
-0.02391675
-0.06623098
0.0708059
0.07108495
-0.05224346
-0.012134151
0.013752281
-0.018033415
0.008182637
0.00084131735
-0.072877936
0.059886366
0.011753847
0.059535213
-0.020730127
-0.06247289
-0.09320362
0.01848038
0.048514064
0.027276754
-0.028675854
0.0057733823
0.0055089314
-0.124682724
0.063558
-0.046787873
-0.14385962
0.04000045
0.028304752
-0.030459363
-0.040759835
-0.04521112
-0.07559407
0.03746828
-0.021602616
-0.04341953
-0.002392221
-5.798467e-05
0.001594987
-0.011639874
-0.049804594
-0.0035789933
-0.03333452
-0.023282887
-0.01963129
-0.0043949126
0.034230184
0.0047077565
-0.022573981
0.0736617
0.012876124
0.05208179
-0.12617329
-0.0027619647
-0.0027334567
0.02904683
-0.04196927
0.03570308
0.005610994
-0.050394047
0.003541504
0.01681531
0.080599874
-0.04580826
0.068366215
-0.00058574235
-0.018559085
0.02394042
-0.16327392
-0.019615162
-0.0071745366
-0.04698192
-0.08968189
-0.03143025
-0.07984753
-0.07589101
0.05219974
-0.04095616
0.063813515
0.032012638
-0.0066017583
-0.024436425
-0.021859651
0.07321356
0.042791612
0.032734543
0.07337217
-0.0006840356
-0.024250954
-0.012146679
-0.03427782
-0.06696059
0.046787802
-0.043813903
-0.06646135
-0.07041987
0.031169634
0.0368207
-0.112403736
-0.021591889
0.012357597
-0.0023999147
-0.11052691
0.008744901
0.02859899
0.021923738
-0.06604039
0.038368173
-0.025020612
0.055894185
-0.05673239
0.022208462
0.034734283
0.008380348
-0.13718423
0.02955373
-0.010160955
-0.10617861
0.04791605
-0.018784352
-0.0027106705
-0.050855022
-0.088461675
8.875448e-05
0.050974827
-0.04461616
-0.034438267
0.029974094
0.011740429
-0.04037154
-0.04715674
0.02363567
-0.049878664
0.046516906
-0.019356433
0.049122546
0.057916444
0.03428956
0.045855857
0.043895792
-0.036804654
-0.02771955
-0.011192478
-0.058253847
-0.07856244
0.06226649
-0.009318375
-0.034273777
0.051359262
-0.014962485
0.014306729
-0.09614034
0.0070310323
-0.03747709
0.0046150344
0.012590349
-0.14148292
-0.015218918
0.0071789143
0.017913658
0.06774905
0.060418006
0.032179154
-0.027522704
0.04378275
0.031651236
0.0004433071
0.056505926
0.019620292
-0.06721988
-0.00074928807
-0.024105284
0.010280519
-0.00027649067
-0.010294248
0.003470355
0.039553385
0.038744405
0.014399442
0.08637442
0.0059283674
0.05603187
0.021116612
0.030858163
0.041704413
0.114262156
0.056016017
-0.005470055
-0.034232795
0.025210865
0.08757057
-0.043724608
0.00026663707
-0.00062372815
-0.007372454
-0.032320265
0.017941047
-0.012391337
-0.037132107
-0.05647043
-0.05117423
-0.03984076
-0.038668554
-0.01251561
0.0033959532
0.022396168
0.035167355
-0.053494595
0.0026570607
-0.012676155
-0.084907666
-0.024320025
-0.03233738
-0.07888878
0.0036804136
-0.024470467
0.0023892692
-0.1392729
-0.03466515
-0.09529995
-0.029168762
-0.0330017
-0.006942828
0.043892343
0.013486645
-0.037284553
0.008379697
-0.08492388
0.060540613
0.027673524
-0.07577109
-0.011240236
-0.07140521
-0.012090068
-0.042753946
-0.010155593
-0.038723204
0.0029565203
0.009219755
0.007840903
-0.030656537
0.05114894
-0.0052465377
0.017964039
0.021277154
0.046610944
0.032336004
-0.01866828
-0.006877799
0.018628823
-0.011429328
-0.03059444
-0.016345896
-0.0011438526
0.0025552656
0.05391478
-0.04698216
-0.071499296
-0.05094217
0.04070657
0.061355565
0.0042761783
0.07378025
-0.041212365
0.024270998
-0.034141198
-0.023580626
-0.025041675
-0.019503955
0.04028495
0.022360783
0.05071713
-0.039622854
0.026453374
0.049566194
0.012485749
-0.046217453
-0.022416389
-0.025900766
0.039971452
-0.03161373
-0.00078773027
0.015619736
0.021018863
0.016236234
0.04187252
-0.0071027605
0.014676438
-0.009897091
0.040869918
-0.023468198
0.03995505
-0.040730506
-0.04075417
0.06078352
0.03647125
-0.01852772
-0.041996095
-0.14929363
-0.062196057
0.04875879
-0.007758617
-0.05295908
0.08028782
-0.09120653
-0.02626102
-0.028576069
-0.06401011
-0.017710526
-0.047674123
-0.0591499
-0.1120109
0.00491163
-0.004149784
-0.00670206
0.022937492
0.03428943
-0.03144434
-0.029881094
-0.055715576
-0.047789484
-0.09445892
-0.025291206
0.026474405
-0.025372256
-0.030634511
-0.011688721
0.02288515
-0.042659823
0.031255282
-0.034078225
0.083457045
0.036302358
0.03581799
0.022659877
0.0032253864
0.007797046
0.0891539
0.029857531
-0.05211214
-0.024686038
-0.03372591
0.1022145
0.038526267
-0.023018366
0.031370215
-0.014108503
-0.029746437
0.0011821637
-0.0010642994
0.006968227
-0.04003408
-0.024962718
0.032172132
-0.021936776
0.0074593346
0.02089053
-0.02799962
0.010217543
0.039749324
0.018320812
0.057717253
0.0827185
-0.021668945
-0.07790865
0.04800287
0.0042569702
0.015498515
-0.019839287
-0.12455127
-0.053246103
-0.07251035
-0.013934822
0.016291823
0.039315954
-0.009532165
0.029909793
-0.011291398
0.025163
-0.06456153
-0.008498537
0.03715
0.028371364
-0.027738309
0.026406407
0.0137453275
0.010605343
0.025402248
0.039691914
0.048537675
0.03797181
0.048010517
-0.12116229
-0.030311402
0.009784617
0.053820476
0.02021732
-0.031547606
-0.05550456
0.028421514
0.044786707
-0.03313778
0.06648511
0.01432971
-0.060648765
0.015672278
0.042948578
0.017330913
0.052489046
0.030142957
-0.061704017
0.009748161
0.037990358
0.029367492
-0.027957736
0.033154532
0.01660126
0.013825858
0.057909984
-0.044352278
-0.013245844
0.027809147
0.05502231
0.032342017
-0.125085
0.017124888
0.0657374
0.06888744
0.019641599
-0.1492804
0.050750274
0.017556548
-0.027527185
-0.0043184794
0.06296394
0.0054466976
0.053836294
0.07874237
-0.029977255
0.014381258
-0.058079846
0.01019282
-0.008646474
-0.049826067
0.041045923
-0.055753395
-0.032908645
-0.025771491
-0.017714849
-0.11271911
-0.067845516
-0.03660676
-0.027755465
0.07163161
0.011206275
-0.102351405
0.00025602523
-0.043555
-0.22223021
-0.019120105
0.032455776
0.045384705
-0.0032664489
0.072574936
-0.01467881
-0.02002308
-0.060429752
0.031973466
0.09785648
-0.0022159114
-0.07112765
-0.062589794
-0.05706962
-0.042636264
0.008710761
0.08442005
-0.0839173
0.04357009
0.0021550548
-0.062113672
0.039632495
-0.04155
-0.023357533
-0.0012450793
0.02356045
-0.087002106
-0.06462851
0.057821445
-0.03323465
-0.1163048
-0.042691257
-0.033553705
-0.026370918
0.03147089
0.02823386
0.071022294
0.007086143
0.010558945
-0.06763265
0.021426465
0.05559424
-0.022217346
0.0075703133
0.047956
0.023008535
0.07712081
0.016951056
-0.0027162742
-0.018997448
-0.012116662
-0.05046923
-0.07759559
0.016357493
-0.024642183
-0.045196768
-0.04740693
0.03482767
0.013258464
0.024329806
-0.03250935
0.011868204
0.017424537
0.03531634
0.058803473
-0.08292824
0.039033227
0.03565387
0.027332883
-0.02321625
0.054068662
-0.024248216
-0.051223695
0.0092752585
-0.022179194
-0.023413382
-0.026625508
-0.02050174
0.021158047
0.009570127
0.03899598
-0.0008954445
0.057724502
0.012549386
0.006741297
0.015164439
0.012827713
0.049967095
0.03821516
-0.02867281
-0.011363203
-0.03510238
-0.061244387
0.07267504
-0.018913038
-0.0081958
0.016784824
-0.0636101
-0.011927828
-0.026368536
0.011442141
-0.044003922
0.04824374
-0.023779184
0.06501243
-0.03701233
-0.08471015
-0.05848421
-0.05584225
0.09050381
0.009338492
0.054515745
0.0151548125
-0.051455304
0.023721473
-0.0628652
0.045032654
0.022727506
0.017892133
-0.05392059
0.03662955
-0.028465055
0.0049182978
-0.022008838
0.077862315
0.014397764
0.06547927
0.047206715
0.0048283804
-0.032771513
-0.009907959
0.034786105
0.0066061593
-0.103934444
0.007945496
-0.05808467
0.04729015
-0.10299878
0.007750914
-0.080169395
0.081031226
-0.15667823
-0.08014707
-0.020314667
-0.02111369
-0.02109084
-0.01438583
-0.009324061
0.004212821
-0.014697785
0.037840236
-0.11997672
-0.05853127
0.004401659
0.037203778
-0.040728584
-0.03696841
-0.017101377
-0.0085744355
-0.0730092
0.06510984
0.056279648
0.07324761
-0.023118079
0.0251271
-0.0069004046
0.013832805
0.059242256
-0.014633878
0.017835584
0.027784476
-0.009647787
0.04133293
0.039214954
-0.016770728
-0.089339554
0.022663983
-0.008220728
-0.14549927
0.035958346
0.054060377
0.077868305
-0.123892315
-0.14297782
-0.0834497
0.06719104
0.03913459
0.06692676
0.0022669393
0.00992156
-0.054621685
-0.044253267
0.021760482
0.067786515
0.022297408
-0.07746384
0.027249942
-0.053535536
0.04436999
0.015901517
0.018060034
0.04020592
0.026310096
-0.05671617
-0.015538636
-0.10424653
-0.0019650848
0.059450544
0.026041068
0.028508985
-0.0693229
-0.033059802
-0.028235972
-0.008537143
0.027535923
-0.037573818
-0.020947004
-0.0020858622
0.016341776
0.023032604
0.029568218
-0.0011233401
0.0076174987
0.061584953
-0.04037806
0.008858226
-0.049164593
-0.09426614
-0.089161575
0.030541457
-0.06417369
-0.04900447
0.021820761
-0.025941994
-0.055430014
-0.09036862
0.0061877496
0.050615758
0.0046232003
0.016171863
0.003674471
-0.037720192
0.028870909
0.004450642
0.038081236
0.04604402
0.009312174
-0.10749221
0.05803617
-0.026368637
0.04760891
0.021598762
0.02963971
0.021762993
-0.021186989
-0.057755146
-0.0048633385
0.022640528
0.001051216
-0.13009387
0.028644787
0.023129556
-0.043734085
0.022223162
-0.050712623
-0.037258793
0.031668898
-0.059998013
0.014463875
0.036102932
0.047628634
-0.038740154
-0.14085826
0.039643418
-0.057249714
0.018746618
-0.022986514
-0.033542637
-0.04075306
-0.019684978
0.050269067
-0.031924807
-0.02426684
0.0023249465
-0.025755947
0.029450035
0.062525935
-0.047649693
0.0008741797
-0.022529965
-0.018953694
-0.022084001
0.031267416
-0.0100844875
-0.01591026
-0.040569417
-0.074746765
0.008987755
0.061834343
-0.012067494
-0.01328597
-0.09388902
-0.012260361
0.054637548
0.058218397
-0.047120586
-0.017150464
-0.12907727
-0.06306403
-0.03928454
0.032252867
0.0584049
-0.036740255
0.08178996
-0.048898384
0.020777505
0.007430644
-0.032137852
-0.07048235
0.011435171
0.06078234
-0.024395686
0.0055047376
-0.027234958
0.021771831
0.082400955
-0.049345814
0.01667733
-0.0143087795
-0.019432401
0.03961768
0.07044399
-0.09978481
0.021114761
0.012674419
-0.05134008
0.034474928
-0.042498022
0.049284372
-0.0004272191
-0.04906242
-0.0233092
0.033511262
-0.015471517
0.0594755
-0.016945248
-0.04467147
-0.020759847
-0.06992894
-0.024714326
-0.05958213
-0.04258043
-0.023058124
0.018538583
-0.015174369
0.028172133
0.0024352127
-0.019427264
0.074699424
-0.026594363
-0.046487957
0.06649106
-0.06362749
-0.025420839
0.024191393
-0.025005354
-0.039782047
0.054321732
-0.07651261
0.030753633
0.06720589
-0.008155713
0.07174464
-0.017156228
0.069659464
0.04076363
-0.09547327
0.016350081
-0.10088362
-0.010105629
0.0045160013
-0.014210453
0.02620764
-0.03393977
0.04318057
-0.024538357
-0.009989188
0.06091363
-0.112934284
-0.00612288
0.012138241
0.0011469835
-0.083198905
-0.019744262
0.008176439
-0.044657696
0.009471587
0.017421424
0.01559678
0.00018584255
0.024978943
0.048703544
0.046119053
-0.042388633
0.024247421
-0.032123424
0.03657061
-0.14360262
0.04211363
0.01944952
-0.004854108
0.031028442
-0.024218379
-0.046150617
0.03969745
0.046471275
0.014099169
0.022374108
-0.024047717
-0.09290946
0.008367464
-0.008145332
-0.10342463
0.02460296
-0.12130407
0.013255129
0.0057244077
0.04502077
-0.030513873
0.051817123
0.027809966
-0.020697324
-0.06749283
-0.09498295
0.02224031
0.063848734
0.05216279
0.032461885
-2.6725786e-07
-0.031156281
0.005740606
0.023351572
-0.097418316
-0.058709327
-0.03063504
0.0344035
-0.01663364
-0.113064036
0.0209922
-0.002689013
0.012800259
-0.10688307
-0.06934471
-0.038380202
-0.0071275504
0.012467425
0.004425593
0.016193276
-0.047465187
0.024829624
0.018125372
0.05908732
0.06444031
-0.022873238
0.078517064
-0.028813204
-0.035982758
-0.01138196
-0.14049804
-0.03431846
-0.0057867076
-0.0011373872
-0.104156144
-0.0033988254
-0.02076843
0.0067555597
0.07129361
-0.03799544
0.0067682345
-0.058819976
0.03593643
-0.025829284
-0.0111312745
0.013331688
-0.117403574
0.0032324472
0.04084508
0.027444549
-0.041709773
-0.0059014685
-0.09913995
-0.0145280985
-0.012746196
-0.018850777
-0.019477924
0.009503851
-0.09045269
0.00054903165
-0.038928498
0.01829885
-0.028678618
0.0433603
0.0029819605
0.0005263791
-0.14158252
-0.0089937495
0.02797089
-0.12131027
-0.019686209
0.071134925
0.014716488
-0.033348154
0.07978549
-0.08696234
0.093363814
0.04379707
0.044232037
-0.11060657
-0.034233384
0.059971653
0.06683359
0.06173833
-0.0012528857
0.0418505
0.0315009
-0.03992831
-0.02913804
-0.033040192
-0.013991954
-0.044260297
0.0035512666
0.038449477
-0.034371134
-0.032228604
0.035554316
-0.0050380137
0.06450014
0.029478211
-0.052643456
0.06221227
0.06539457
-0.017735142
0.034571357
0.030297093
-0.08045655
0.04944099
-0.053585928
0.050062843
-0.018565277
-0.08232103
-0.049866185
0.017204663
0.0014107544
-0.04175148
-0.050065756
0.015199438
-0.0918598
-0.046870105
-0.041466694
0.057959486
0.0027907607
-0.0006837423
-0.015299597
-0.011275183
-0.090118654
-0.035892714
0.025480373
0.07634845
-0.0629954
0.012744262
0.08793634
0.010737391
-0.051316325
-0.046418216
0.015247816
-0.063662015
0.025156159
0.015003088
0.036718063
-0.00849964
-0.046322122
0.056253206
-0.054489803
-0.0048918566
0.00898942
0.02454074
0.027214877
0.023701757
0.00903612
0.015654234
-0.07240614
-0.011768592
0.019687776
0.0046288287
-0.106720105
-0.033004254
-0.019899812
0.0002764555
-0.09522226
-0.10252234
-0.042558447
-0.029158238
-0.119344324
-0.028400317
-0.113811895
-0.030814126
-0.08552732
-0.09805001
0.018335698
-0.09628618
-0.10483382
0.04860903
-0.0059294165
0.008002429
-0.085055925
-0.010856714
-0.028739478
0.026885593
-0.02594177
-0.009399591
0.069076486
-0.0069989655
0.016150601
-0.00032144354
0.023819208
-0.062043846
-0.084536545
0.066492125
-0.012122124
-0.0017686117
-0.0006697625
-0.055500522
0.051451534
-0.124668784
0.009542747
-0.016776823
-0.12840353
-0.0646462
0.042834688
-0.1262869
0.051007323
0.013241532
-0.08664955
0.015625289
0.024231516
-0.024893893
-0.12478502
0.0061660237
0.03394759
-0.054157563
-0.09865756
0.05800383
-0.020851789
-0.008224152
-0.041901506
0.04091541
-0.0026623963
0.0023787033
0.03341218
-0.01157931
0.015276027
0.02049754
0.024598124
0.048435617
-0.06242007
-0.055907853
0.095351644
-0.1048654
-0.013249127
-0.0970372
-0.15101731
0.012615225
-0.032656685
-0.07034378
-0.039803147
-0.056593735
0.029072408
0.053292528
0.026114726
-0.10322216
-0.089118004
0.029900309
-0.025019797
-0.010658282
-0.0408665
0.0082669975
-0.061415225
-0.046763465
-0.12478568
0.052621216
0.028815145
-0.07634033
0.017492563
0.10158302
0.00989276
0.054262955
0.038594592
0.018370487
-0.16457097
0.009097524
0.016050326
-0.12774183
0.00892073
0.02712143
-0.06353652
0.07588224
0.032256585
-0.014998331
0.05869325
0.051941756
0.011212151
-0.004752887
0.0057435217
0.004734991
0.05223369
0.067165285
0.008462088
-0.031291902
0.015918188
-0.028027551
-0.09873604
0.0058511887
0.08200314
0.0706666
0.03561648
-0.10495635
-0.12251587
0.02630101
0.032504845
0.0206534
0.053352974
-0.024846949
0.004882491
-0.018251343
0.021216508
-0.012444814
0.037063178
-0.011837029
-0.02918417
0.0026286258
0.08046177
0.035014614
-0.015501171
0.005696775
0.039187055
-0.05490496
0.04259487
0.017764898
0.11009153
-0.0115167545
0.022166286
-0.029517936
-0.00857021
0.031105436
0.059367225
-0.08654557
-0.0104460325
0.050037663
-0.022999043
0.06421029
0.03925086
0.02209956
0.022585005
-0.02190824
-0.019466236
-0.019178474
-0.03159135
0.052427534
0.0667853
0.02946251
0.0014585512
-0.044493698
0.014686622
-0.004351395
0.04082222
-0.010999994
-0.027622342
-0.051555216
0.05201375
0.055095308
0.0013661546
-0.02757771
0.05438052
0.029954536
0.022535214
0.06348958
0.03325283
-0.020085065
0.023136405
0.043773342
0.035738558
-0.0130767105
0.034865525
-0.017826382
0.008702977
-0.0118084345
-0.079780355
-0.0483881
0.058804914
0.07941172
-0.024761396
-0.058188625
-0.045015827
0.008802136
-0.06992537
-0.040801145
-0.041500278
0.05052933
0.056256834
-0.022302361
-0.022500692
0.043717455
0.06969503
-0.034623425
-0.029357502
-0.08208234
-0.014687681
0.0032898474
-0.028785512
-0.07788464
-0.08631696
0.0022443188
-0.03278538
-0.02852381
0.055717792
0.031084951
-0.02007174
5.9705846e-05
0.019213025
0.037925646
-0.06009429
-0.04190504
0.049199626
-0.038385343
0.013099179
-0.029172465
-0.031843394
0.027718471
-0.05470136
-0.072341956
0.07675031
-0.042837854
0.011439435
0.008774408
-0.07496194
-0.00065632316
0.019235244
0.005776192
0.054339275
-0.00032991447
0.01812695
-0.097461894
0.022665286
0.014135505
-0.027046073
-0.035618864
0.03142123
0.03190494
-0.09825314
0.054654203
0.065415554
-0.012880662
0.024510462
0.017324772
-0.10711691
-0.06566746
0.05610357
-0.069483556
0.05425044
0.013223721
0.039452575
-0.015084433
-0.012367928
0.028279185
-0.033659097
0.05568577
-0.021782631
-0.04128182
-0.09170908
0.01108181
-0.008628746
0.039189808
0.058257177
0.050129987
-0.09599483
-0.038051445
0.028973337
-0.05369627
0.035970807
-0.045252588
-0.014482631
0.0004935175
0.10814642
-0.010374457
0.01702077
0.022037558
-7.803659e-05
-0.0694227
0.025393693
0.012372846
-0.07200706
0.065743074
-0.013427101
0.0487987
-0.013510627
0.046774264
-0.0015238723
0.034397982
0.04798155
-0.04523503
-0.009567385
0.021821586
0.011745929
-0.01640547
0.026834503
-0.045134887
0.013320569
0.030401021
-0.019336889
-0.033465438
0.017199107
-0.022882748
0.021646135
-0.0042863865
0.025698252
-0.040035877
0.0019107643
-0.12012387
0.046674456
-0.08739098
-0.013791091
-0.029835997
-0.07678126
-0.011489622
-0.0016855733
-0.009697578
-0.0014210603
-0.015643355
-0.03949203
0.055851333
-0.009919772
0.018947171
0.006525489
-0.047793284
-0.050975043
0.09078404
0.011340273
0.057017226
-0.09752921
0.0146792205
-0.045600004
0.060314503
0.006209805
-0.026025085
0.023762526
-0.1538851
0.025794832
-0.024780063
0.058923982
-0.03473204
0.053608675
0.03079651
-0.046905145
5.5164324e-05
-0.06256471
-0.025187695
-0.069781534
0.01474325
0.061998058
0.0033374408
-0.01584291
-0.0558389
0.0014127553
-0.03700873
-0.020772696
-0.05266791
-0.038025495
-0.09010314
0.12901035
0.040837046
0.008077774
-0.07656299
0.015247603
0.009827755
0.03856592
-0.088079795
-0.105482385
-0.026325315
-0.032408778
0.04772129
-0.010865329
0.047231738
0.0040440345
-0.013288869
-0.05419633
-0.104748994
0.039746426
-0.043818202
0.00072337344
-0.0733344
0.0059298463
0.042078953
-0.0245449
-0.03438168
0.056591295
0.014819769
-0.050151527
-0.058274064
0.042283293
0.07017705
-0.018527966
0.0058581545
0.062190715
0.015937474
0.012161177
-0.037406232
-0.09699745
-0.031430326
-0.00059801544
0.15107507
0.010277632
-0.105726756
0.0071682655
0.02450919
-0.01400439
-0.03558101
-0.022603586
0.0030053915
-0.048117217
-0.042239387
-0.02543229
-0.026108358
0.04138098
-0.03756301
-0.008034066
-0.012027759
-0.041641805
0.012112981
0.032067914
-0.090463
-0.11234668
0.053966336
-0.06957244
0.03771891
0.03613462
-0.028384414
0.098310225
-0.03190751
0.009990918
0.04348849
-0.00071670103
-0.039719842
0.058795597
-0.031822305
0.054090645
0.06113512
0.04220949
0.0102364905
-0.036078677
0.032575857
-0.020666702
-0.027491348
-0.02903998
-0.02742457
0.07908577
-0.023568269
-0.098436125
-0.020963483
-0.05955794
0.037539653
-0.1376752
-0.035227887
-0.028900014
0.0062976778
0.010836623
-0.067588106
-0.024243087
0.003637388
-0.036691196
-0.024240205
-0.03897782
-0.02986371
-0.051953636
0.022094272
-0.051442076
-0.050209757
0.027331652
0.04158455
0.025859088
-0.021749271
0.041835394
0.024906654
0.07301823
-0.13810535
-0.01732169
0.022550954
-0.011479837
-0.037287656
-0.0062206453
0.049501464
0.05049864
0.031433385
0.033352006
-0.018902343
0.03903679
0.06370253
0.016088028
0.034652676
0.06844253
0.088277444
-0.03827519
-0.017209403
0.027600419
0.008034079
0.04633761
-0.015167615
-0.042827923
0.08682616
-0.02763514
-0.03438113
-0.056222014
-0.03494495
-0.071575165
0.027691923
-0.031100124
-0.03129158
-0.001109488
-0.15810508
-0.015542242
0.0117495945
-0.020743137
0.019800989
0.030754132
-0.04176236
-0.037930325
0.057590745
-0.062525995
0.04207195
0.04381944
-0.057185363
-0.10254087
-0.04529732
0.028209163
0.074821025
0.02441339
-0.04409585
0.024250064
0.037477624
-0.03312757
-0.04216418
0.077872604
0.0025985842
-0.12038681
-0.032633886
0.02115818
0.06320568
-0.023100635
-0.025909586
0.036029793
-0.027442627
-0.02401197
-0.029104125
-0.09829888
-0.035148744
0.042877313
0.03230056
-0.17557211
0.08259571
0.036065876
0.08495861
-0.006534307
0.045795597
0.043586347
0.019037167
0.07426225
0.008448893
-0.049155705
-0.046437513
-0.04195272
0.048303984
0.017514253
-0.086292855
0.037709687
-0.14606714
0.053871278
0.037509937
0.0016747547
0.056924418
-0.015828397
0.026501788
-0.010523024
-0.015345136
-0.024727033
-0.14165495
0.023206135
-0.063996375
-0.0102520855
0.06781991
-0.04440663
-0.03259392
-0.011703867
-0.12005167
0.022142887
-0.01713596
-0.09792315
-0.026550613
0.0142403655
0.06905569
-0.043070186
0.04341615
0.0065399245
0.018867709
-0.0035991974
-0.050244108
-0.043139596
0.05091722
0.025760042
0.018034572
0.0033963537
0.009044128
-0.00062334706
0.007928261
0.031942245
-0.07706906
-0.024534632
-0.063250475
-0.032784484
-0.08848249
0.02235985
-0.030747766
-0.109659486
0.013086517
-0.06506656
-0.008917329
-0.009626075
0.021651518
0.057688028
0.003956353
0.061240718
0.012645183
-0.010315506
0.0031872953
0.016566655
-0.028262708
0.01562729
0.04568091
0.020707998
-0.029164959
-0.12380968
-0.009304107
0.06486281
0.08285926
-0.01826208
0.020303255
-0.039955102
0.058052465
0.00827439
0.028661296
-0.015525479
0.001560487
-0.058217492
0.035524126
0.052209005
-0.012831601
0.037405837
-0.007075942
0.019742027
-0.061094522
0.03830335
0.011131321
0.013023702
-0.0242686
0.046210792
0.05096722
-0.029833244
0.019981472
0.0031565104
-0.049785133
0.06284083
0.019896176
-0.0053826794
-0.013720288
0.018497601
0.046718866
0.026044862
-0.04123664
0.058736052
0.012228075
-0.014919036
0.01719106
0.028618721
-0.015034718
0.04079541
0.021095341
-0.030595453
0.009994303
0.064397335
0.015582622
0.025564155
-0.01112744
0.024108626
0.040548127
0.055184904
-0.07742158
0.02835737
0.028890528
0.016477862
0.0076222625
0.05744182
0.0057453094
-0.00863691
0.05674103
-0.04403481
-0.09645921
-0.033826478
0.0029954978
0.043413363
-0.009542879
0.032008078
-0.103162594
-0.06274966
-0.029783001
0.011529411
-0.03307464
-0.041191608
0.0461953
-0.022560516
0.008656096
0.004015165
0.0022483796
0.057361726
0.016233072
-0.062474553
0.021112679
0.060728054
0.033196308
0.035093497
-0.03655628
-0.010533038
0.016658343
-0.10117591
-0.11384918
-0.018991988
-0.076947
-0.048342608
0.03786861
-0.0063304165
0.004033719
-0.112921335
0.003238023
0.048660614
0.0740622
0.06520842
-0.04885207
-0.045859583
-0.0068637575
-0.011488648
0.0017044939
0.025253376
-0.07186
0.053630177
0.07035015
0.032892894
-6.5512513e-06
0.029863423
0.078581356
-0.11583684
-0.07199859
-0.05270326
-0.02498528
-0.11728835
0.010204894
-0.050566614
-0.0032302216
0.03226743
-0.085713
0.014736491
-0.058085434
-0.14508355
0.03749805
-0.00059914595
-0.031152874
-0.07364019
-0.05984755
-0.04001026
-0.007387602
-0.011691403
-0.099478595
0.0366283
-0.0044085854
-0.009164936
-0.004092941
-0.16584347
0.02326784
0.010984642
-0.014902944
0.009707058
0.035694703
0.037514444
-0.002737812
0.02311354
-0.068180405
0.04152252
-0.0895207
-0.03047949
0.001928549
0.02447752
0.0045165685
-0.050494317
0.02260848
0.064358346
0.04415992
-0.06560982
-0.0015460688
0.024333293
0.01726683
-0.017320408
-0.004898438
-0.010559193
-0.0050566117
0.051261365
-0.11042072
0.030212779
0.04384681
-0.017165732
-0.0016229921
0.0081679
0.027457563
-0.036185
0.01260292
0.028310759
-0.024813518
-0.14601614
0.023020545
-0.0054258294
0.05290556
-0.025814908
0.04047574
-0.03648631
-0.010644511
-0.009582018
-0.024843922
-0.019142767
-0.039634682
0.064161606
0.03881908
0.0038311477
-0.042820174
-0.0060687517
0.038053837
0.0007985848
0.040216986
-0.05877683
-0.032511473
0.03810015
0.069888555
-0.0016525
0.038333777
-0.027372975
-0.007962334
-0.07298044
-0.008648869
0.027813517
0.0067583052
-0.06282742
0.038351208
0.037995342
0.043474887
-0.064939335
0.0027416896
-0.10884556
0.04552553
-0.058526535
-0.02917611
-0.03177103
-0.027555259
0.0026154635
0.050505072
-0.039642677
0.055169236
-0.033982817
0.03508347
-0.023280833
-0.026160624
-0.0345512
0.025534894
0.022522561
-0.046073943
-0.03737018
-0.041566726
0.022778805
0.06089909
-0.0002461714
0.02353397
-0.000920946
0.03007949
0.05888268
-0.013953049
-0.003493679
-0.012099334
-0.061528582
0.018734787
0.009098836
0.03548213
-0.0360873
0.042876452
0.027329678
-0.025981832
0.07090273
-0.08780553
-0.013495635
0.0672376
0.015564297
0.052598685
-0.1279432
0.047339503
-0.07763233
0.0015996458
0.028358545
-0.13980128
0.004874703
-0.013042453
0.04864557
0.027587602
-0.036018685
0.024549924
-0.0077923364
-0.0104682185
0.043888308
0.028619174
-0.11089634
-0.04091748
0.022435168
-0.029787607
0.026904881
-0.033200216
-0.068711236
0.014784968
0.049947664
-0.1279857
-0.012333993
0.059676636
0.035882644
0.04670649
0.05921137
0.040484745
-0.07924693
-0.004098032
-0.024037605
-0.015243255
-0.03327091
-0.00022493326
-0.092290126
0.043082245
-0.055333775
-0.003954016
0.00017249928
0.04359143
0.013099439
-0.15919945
0.019102376
-0.010725261
0.02877775
-0.024128357
-0.018869905
0.016919881
0.073550865
0.046086352
0.036495585
0.037476
0.027037276
-0.046976842
0.03169289
-0.012077587
0.0010279677
0.03171632
-0.0047364617
0.049373712
0.071564116
0.021020655
0.01673001
0.057960358
0.04811497
0.03359889
0.0052601695
-0.010374337
-0.019799305
0.0012499364
0.01802758
0.024332032
0.027339386
-0.020101245
0.05270106
0.05478671
-0.008386187
-0.00841408
0.0007716073
-0.0062697483
0.05526413
0.007402592
0.0613677
-0.018969452
-0.0830709
0.023971705
-0.03987786
-0.07195768
0.057602435
-0.037198763
-0.047581002
-0.14542249
0.0014259501
0.04740913
0.029222582
-0.012009922
0.01029139
-0.027891837
0.051549267
0.00034838062
-0.13129677
-0.11263906
0.074399486
0.036612142
0.05332874
-0.008446616
-0.073417865
0.045594323
-0.07871633
-0.060379606
-0.040821757
0.049548972
0.016950324
0.062273547
0.034963917
0.006022051
-0.03759907
0.058461618
0.0520256
0.05749683
-0.0333389
0.043261327
0.0047155977
0.028836392
0.029630238
0.017350525
0.004686582
-0.036776952
0.04450991
-0.0279362
0.0022990026
0.0039027005
0.033618946
0.049447447
-0.047524408
-0.043082
-0.061698377
0.05355162
0.04768038
0.025100622
0.028580155
-0.0028078419
-0.095906645
0.00689678
-0.17595075
0.03305906
-0.08414619
-0.024692528
-0.14158265
-0.030241191
-0.023062875
0.011376233
0.02476694
-0.07873217
0.0053815707
0.026447022
-0.08291035
0.011525184
0.015349032
0.0034600291
0.04347186
-0.037902586
0.059566732
-0.0063537555
0.08902931
-0.03018935
0.04315701
0.005051376
-0.006693232
0.019360367
0.069836356
-0.07051516
-0.08993598
0.007852119
0.0019639847
0.10406528
-0.046872422
0.044937275
0.0021482743
-0.03564949
-0.026123604
0.0022146648
0.010242206
-0.10370899
-0.059998818
0.012182298
-0.03183441
-0.058385912
-0.029853715
-0.010188915
0.05963547
-0.04747086
0.06927548
-0.05963292
0.012145114
-0.034737475
0.0217832
0.010324174
-0.05123895
0.031847533
-0.0018372745
0.03738222
-0.055613678
-0.029445017
-0.0351128
-0.05894214
0.034506973
0.006446593
-0.01866758
-0.09191366
0.06473703
0.022839108
0.025102895
0.018722681
-0.0061427383
0.016829915
-0.038711384
0.02062964
0.03129979
-0.033905018
0.0008040164
-0.0445245
0.013251967
-0.009648179
-0.04179094
-0.013476889
0.01873941
0.025994172
-0.017597334
-0.01943494
-0.039020587
-0.029779743
0.007882127
-0.09610744
-0.005713857
-0.095794246
0.00017711005
-0.0343939
0.02759978
-0.09679044
0.076811895
0.059980843
0.01052811
-0.009801918
0.01860662
-0.032011166
0.055061486
0.020919219
-0.011846535
0.041796435
-0.09535512
-0.016480358
0.014479478
-0.01911137
0.027404753
-0.076278746
0.069446355
0.008260948
0.03336182
0.05257883
-0.20522761
-0.014939878
0.011266682
-0.012094278
0.052763112
-0.0068597393
0.01181195
-0.09706023
-0.080823705
0.06898769
0.05610909
0.05294107
0.028580444
-0.044014297
-0.104606524
-0.036717262
-0.039527852
0.026193608
0.02610966
-0.016587842
0.019387139
0.035245713
-0.023045413
0.054623645
-0.07953006
-0.035524394
-0.02065721
-0.03289932
-0.006262481
-0.038388222
-0.045858573
0.023760011
0.05183746
-0.052058905
-0.062533945
-0.06368214
0.005687081
0.0026948838
0.0199287
-0.023550404
-0.019172372
-0.048353747
-0.058397062
-0.036690395
-0.024683857
-0.02245146
-0.0033504893
-0.085015684
0.008955578
0.019939087
0.02029817
-0.00858965
-0.055456903
-0.07131745
-0.011083812
-0.027721468
-0.06367199
0.008529347
0.018089581
-0.022208638
0.03169453
0.060821764
-0.097902514
-0.0086947465
-0.00173679
0.043207638
-0.02090205
0.008716536
-0.025715569
0.028090201
-0.065081134
0.028124027
-0.1009235
0.019180248
0.040526148
0.035335816
0.034883752
0.025212983
0.033951372
0.058715988
-0.06178296
0.023724742
-0.0034541423
-0.0055627525
0.04488051
-0.02259533
0.014980138
-0.051000144
-0.03758501
0.062046055
-0.013227311
-0.033779126
0.030523598
-0.05666433
-0.013517195
-0.03965601
-0.06551015
-0.011163889
0.014646489
0.032048028
-0.0028513612
-0.08323528
-0.0062753884
-0.004612526
0.0137306815
0.03593309
-0.0103686815
0.020132517
-0.03737945
-0.032346353
0.050840806
0.016580729
-0.017166516
-0.019028286
0.013366968
0.018137865
-0.024845196
-0.012949135
-0.016993375
-0.003380208
-0.028236406
0.016045103
-0.062148046
0.06575412
-0.08966997
-0.033031493
0.009662394
-0.0005844618
0.014623144
-0.26526034
-0.123538524
-0.015064131
0.05453515
-0.03372548
-0.05472948
0.009744077
0.03829596
-0.014486903
-0.04039918
-0.014597088
-0.047696542
-0.046266057
0.025136381
0.07538514
0.0582863
-0.07358185
0.077757604
-0.03392598
-0.014221366
0.038193613
-0.01728896
0.13468906
0.04920603
0.02578791
0.11996678
0.00088071835
0.022857092
-0.018192789
0.036173433
0.025923265
-0.001258858
-0.1243416
-0.043988578
0.0035479076
0.06818416
-0.030045018
0.0062698093
-0.06004568
-0.03162357
-0.009996298
0.05803525
0.06244853
0.011959675
0.027459286
0.057583965
0.037407387
-0.034061577
-0.005518039
-0.035156276
-0.04707445
-0.075958945
0.022060124
-0.0040162588
-0.07683198
-0.060200825
-0.030851848
-0.05236889
0.07274813
-0.048669092
0.02213942
0.06518331
0.0021574488
0.04060996
0.03234138
0.01781982
-0.018078487
0.005781268
0.020207517
0.010468533
-0.07603402
-0.11749558
0.052076813
0.03230512
-0.032816365
0.017156893
0.012775171
0.036799
0.01873301
0.014491557
-0.045227274
0.031848226
-0.0043520764
0.046101432
-0.045910362
0.01896779
0.025076415
0.013934815
-0.07947216
0.031822395
0.008850488
0.013472475
0.01785238
-0.0066745346
0.038685188
0.04606102
-0.041618466
0.0072652516
0.04948126
0.023488082
0.10511014
0.016441366
-0.15365143
-0.05218794
-0.025643455
-0.15371604
0.011453484
0.03420802
-0.07159583
0.0043208837
0.07329096
0.019623587
-0.13948289
-0.19445215
0.016743666
0.07664862
0.04658745
0.032577895
0.06050541
-0.03910143
-0.0025442692
0.03741386
-0.016954657
0.14042686
0.022647642
0.01436443
0.07968964
-0.03514932
-0.0041587334
0.032596588
-0.019387143
0.069834426
0.056669332
-0.040277682
-0.031825263
-0.093301296
-0.11404377
-0.007411967
0.018658997
-0.00630046
0.003831725
-0.039197084
0.030576061
0.012676648
-0.03126187
0.07484715
-0.05313942
-0.054094575
0.040746838
-0.039288517
0.0009124168
-0.022275161
0.07050656
0.03009055
-0.035726212
-0.025406666
0.026942337
-0.14180814
-0.0810497
0.04089976
-0.048892785
-0.049770918
-0.027157893
-0.17031144
0.008535988
-0.004490272
0.0708667
0.016351933
0.042349372
0.036649257
0.021764051
-0.059194967
0.031462815
0.032322824
-0.11843113
0.018915229
0.01892322
0.047013573
-0.044661645
-0.010082031
0.012126685
0.02521084
-0.040113267
-0.009406771
-0.030517774
-0.010686381
-0.053670168
-0.0030696199
0.028590426
-0.023643723
0.02967925
-0.03279169
0.063541315
0.034895163
-0.024263589
0.041910972
-0.09669199
-0.02635431
-0.15790197
0.068567075
0.0691576
-0.051472016
-0.11978937
0.04803859
0.05797045
0.038069185
-0.093655795
0.068862185
-0.0937811
-0.039005842
-0.06766996
-0.16038452
0.078936815
-0.10243556
-0.04967169
-0.08779791
0.003400799
-0.09788309
0.041046724
0.07760066
0.025737545
0.014190761
-0.00895051
0.03982984
0.016992996
0.04220324
0.0072828126
0.013704158
